{
    "NInput": 784,
    "NHidden": 15,
    "NOutput": 10,
    "NHiddenLayers": 1,
    "Weights": [
        -0.805557,
        0.53336,
        -0.438108,
        -0.164815,
        0.981718,
        -0.580254,
        -0.120315,
        -0.429025,
        -0.519455,
        -0.536323,
        -0.738872,
        0.345049,
        0.436246,
        -0.668033,
        0.788135,
        -0.532053,
        0.499499,
        0.178301,
        0.49395,
        -0.0479105,
        -0.908867,
        -0.437991,
        -0.644386,
        -0.775967,
        0.925447,
        -0.622346,
        -0.891217,
        0.21336,
        -0.773572,
        0.697666,
        -0.526831,
        -0.579129,
        0.231025,
        0.0350605,
        0.256056,
        0.212743,
        0.454806,
        -0.864259,
        0.783719,
        0.935352,
        -0.400582,
        -0.955153,
        0.280401,
        -0.964336,
        -0.623186,
        0.0685352,
        -0.496388,
        0.876312,
        -0.753164,
        0.997562,
        -0.171598,
        -0.662031,
        -0.440429,
        0.184016,
        -0.437997,
        -0.514982,
        0.561669,
        -0.329215,
        0.698378,
        0.788097,
        -0.631549,
        -0.828453,
        -0.791032,
        0.599476,
        0.206608,
        0.465024,
        -0.187787,
        -0.337382,
        0.62179,
        -0.387236,
        -0.399648,
        -0.799817,
        -0.359215,
        0.877166,
        -0.764169,
        0.0174708,
        -0.0543453,
        -0.260542,
        -0.106089,
        0.192488,
        -0.263002,
        0.722313,
        0.530507,
        0.296591,
        -0.0936714,
        -0.90749,
        0.781609,
        -0.532002,
        -0.236705,
        0.479988,
        -0.781337,
        -0.0120426,
        0.537828,
        -0.661335,
        -0.489056,
        -0.443547,
        0.467161,
        0.0206484,
        -0.150971,
        -0.0302927,
        -1.26722,
        -1.46811,
        0.195092,
        -0.401205,
        0.907696,
        0.945262,
        0.794342,
        -0.0608646,
        -0.293667,
        -0.308326,
        -0.868271,
        0.443361,
        -0.586012,
        0.662236,
        -0.260048,
        0.320316,
        0.754823,
        -0.478439,
        0.72225,
        -0.552302,
        -0.974227,
        -1.01191,
        0.806646,
        0.839635,
        -0.379864,
        -0.391227,
        -0.389073,
        -0.804788,
        0.582114,
        -0.836289,
        1.51286,
        -0.341216,
        -0.45926,
        1.0463,
        0.104877,
        -0.736347,
        0.699944,
        -0.3431,
        0.0797856,
        -0.625328,
        0.333432,
        0.211515,
        0.818033,
        0.752208,
        -0.121201,
        -0.36889,
        0.120981,
        -0.222147,
        0.172882,
        0.0364515,
        0.0725156,
        0.0338982,
        0.254031,
        0.97604,
        0.596974,
        1.20245,
        0.53686,
        0.700217,
        1.76985,
        1.68143,
        1.79278,
        1.47429,
        0.573485,
        0.626482,
        0.568532,
        -0.947452,
        0.563884,
        0.189686,
        -0.348636,
        -0.356331,
        0.564358,
        0.986486,
        0.855253,
        0.543996,
        1.02189,
        0.191937,
        1.30905,
        0.218064,
        0.732488,
        0.301573,
        1.526,
        0.238299,
        -0.315811,
        0.53344,
        1.00313,
        0.429862,
        2.29396,
        1.52266,
        0.841338,
        1.62376,
        0.956532,
        0.442757,
        0.635229,
        -0.238715,
        -0.219934,
        0.157145,
        -0.245371,
        -0.656051,
        -0.653169,
        0.406235,
        0.0831299,
        1.16948,
        0.718189,
        0.219935,
        0.581838,
        0.351336,
        0.901755,
        0.529079,
        1.45151,
        0.754701,
        -0.182468,
        1.42719,
        0.835769,
        -0.267357,
        -0.218219,
        1.4078,
        1.66459,
        -0.120419,
        0.695642,
        0.596837,
        1.15797,
        -0.149428,
        -0.371017,
        0.553488,
        0.535493,
        0.40751,
        -0.289367,
        -0.708729,
        1.05237,
        0.261375,
        0.789869,
        -0.346367,
        -0.134751,
        -0.200341,
        0.700555,
        -0.431615,
        -0.317307,
        0.348018,
        0.818802,
        -0.494133,
        -0.884068,
        0.889116,
        1.24765,
        1.09327,
        -0.143746,
        1.21747,
        -0.0999013,
        0.678784,
        1.36753,
        0.656242,
        -0.34687,
        0.866757,
        -0.749109,
        0.193132,
        0.420112,
        0.784119,
        -0.0496544,
        -0.576699,
        -0.711618,
        -0.709937,
        -0.0646032,
        0.421631,
        -0.211029,
        -0.923746,
        -0.324416,
        -0.531388,
        -0.278672,
        0.381883,
        1.06212,
        1.18532,
        0.339411,
        0.769673,
        0.56463,
        -0.248299,
        0.846738,
        0.935708,
        -0.0833087,
        0.713007,
        0.0693337,
        -0.289559,
        0.135166,
        0.631113,
        -0.425183,
        0.352069,
        0.063519,
        1.18716,
        0.37282,
        0.49478,
        -1.19176,
        -0.777517,
        -0.14297,
        -0.0106162,
        -0.184636,
        -0.107205,
        0.770894,
        1.81108,
        1.10735,
        1.17258,
        -0.420669,
        -0.155529,
        0.0717869,
        -1.24947,
        0.495677,
        0.54474,
        0.0752225,
        -0.297353,
        0.244151,
        0.82835,
        -0.622506,
        -0.690423,
        -0.464606,
        0.318202,
        1.04982,
        0.0857576,
        -0.083138,
        -0.488757,
        -0.296571,
        -1.71143,
        -1.10897,
        0.232194,
        0.288096,
        1.23438,
        0.8395,
        0.698814,
        0.386106,
        -0.730137,
        -1.19414,
        -1.72379,
        0.0632497,
        -0.210975,
        0.924356,
        0.731443,
        0.298362,
        0.0214604,
        0.206962,
        -0.606896,
        0.724208,
        -0.54889,
        -0.781,
        -1.059,
        -0.309654,
        -0.424075,
        0.466336,
        -0.421842,
        1.21303,
        -0.784325,
        0.554059,
        0.648217,
        0.486424,
        1.78893,
        0.562973,
        1.83963,
        1.06165,
        -0.400759,
        -1.6812,
        -1.64624,
        -0.808446,
        -0.626629,
        -0.0870063,
        -0.20684,
        0.623748,
        -0.421776,
        -0.519958,
        -0.0317829,
        0.599684,
        0.686997,
        0.361314,
        0.301412,
        -1.00298,
        0.0959722,
        0.30431,
        -0.0188298,
        0.153737,
        0.0961557,
        0.668667,
        -0.550229,
        1.09425,
        0.856939,
        1.09682,
        -0.160785,
        -0.376868,
        0.128283,
        -1.80736,
        -1.32441,
        -1.29861,
        -0.739707,
        -0.179992,
        0.067245,
        -0.244318,
        0.637638,
        0.79888,
        -0.601504,
        -0.784138,
        -0.721081,
        0.366705,
        0.81553,
        0.93647,
        -0.29767,
        0.290299,
        -0.444903,
        -0.270874,
        0.0104822,
        0.0517131,
        -0.684419,
        0.493748,
        -0.201485,
        0.420007,
        0.531976,
        0.164231,
        -1.87912,
        -0.0455807,
        -1.02889,
        0.33165,
        0.480683,
        -0.235653,
        0.729837,
        0.60687,
        0.541294,
        -0.195426,
        -0.61905,
        0.178933,
        -0.396546,
        -0.22056,
        0.394784,
        -0.125443,
        -0.780055,
        0.329935,
        -0.0408166,
        -0.48371,
        -1.08006,
        -0.792089,
        -0.489847,
        -0.517125,
        1.12281,
        1.11619,
        -0.481345,
        -1.21982,
        -1.58161,
        -0.0548114,
        -0.669905,
        0.0393342,
        0.26352,
        -0.193334,
        -0.722938,
        -0.730075,
        0.357758,
        -0.931188,
        0.934559,
        -0.100948,
        -0.126614,
        -0.684492,
        -0.92202,
        0.427049,
        0.235269,
        0.563849,
        -0.585115,
        -0.435678,
        -1.13689,
        -0.763799,
        -1.84597,
        -0.358945,
        -0.783392,
        0.107758,
        0.463694,
        -1.54649,
        -0.630569,
        -0.810813,
        0.444609,
        1.58177,
        -0.423643,
        0.257763,
        -0.268852,
        0.0971208,
        0.521077,
        -0.0386966,
        0.428481,
        -0.121166,
        0.030115,
        0.363039,
        0.758268,
        0.909015,
        0.845114,
        0.981908,
        0.558636,
        -0.371766,
        -0.359104,
        0.0513216,
        -1.82804,
        -1.82325,
        -0.547868,
        -1.70764,
        -1.13431,
        -0.871259,
        -0.280507,
        -0.0695485,
        0.786592,
        0.128831,
        0.897457,
        1.39622,
        -0.34612,
        0.609357,
        -0.203577,
        0.0654538,
        -0.276288,
        -0.682501,
        -0.973243,
        -0.847808,
        0.168043,
        -0.026318,
        0.600434,
        0.095913,
        0.525245,
        0.376928,
        -0.652023,
        -1.22834,
        0.0801755,
        -1.75378,
        -1.75064,
        -0.372625,
        -2.06417,
        -0.669902,
        -1.22739,
        0.360835,
        -0.490598,
        0.85927,
        -0.465465,
        0.840987,
        -0.537815,
        0.674235,
        0.251499,
        -0.468143,
        0.27275,
        -0.951937,
        0.597311,
        0.996461,
        -0.745152,
        0.436523,
        -0.900639,
        0.713351,
        0.340787,
        1.16608,
        -0.392036,
        0.334527,
        -0.796334,
        -0.447708,
        0.0795338,
        -1.36701,
        -0.184628,
        -0.798905,
        0.064739,
        1.02864,
        0.154834,
        0.039901,
        0.221307,
        0.654035,
        -0.181328,
        0.0657009,
        -0.464699,
        -0.426713,
        -0.214267,
        0.831914,
        0.103972,
        -0.941517,
        0.86485,
        -0.393149,
        -1.03315,
        -0.522295,
        0.111957,
        0.308338,
        2.11641,
        1.15405,
        1.51871,
        -0.744356,
        -1.0066,
        -0.86103,
        0.720008,
        0.36816,
        1.41245,
        0.854269,
        -0.102992,
        -0.582528,
        0.307754,
        1.18901,
        0.420595,
        0.730691,
        -0.0616835,
        0.740984,
        -0.0409555,
        0.585817,
        -0.691573,
        0.744777,
        0.517041,
        0.352451,
        0.688737,
        0.505616,
        0.214209,
        2.44866,
        2.45954,
        1.45262,
        0.379752,
        0.734026,
        0.439163,
        1.57452,
        1.72435,
        0.262523,
        0.463424,
        0.989363,
        -0.242066,
        -0.694357,
        0.02066,
        0.86197,
        -0.206996,
        0.571148,
        0.198413,
        0.838296,
        0.409637,
        -0.798388,
        0.573437,
        -0.631319,
        0.920661,
        1.05685,
        -0.770392,
        0.517763,
        1.38141,
        2.42631,
        1.50503,
        2.43327,
        2.39484,
        0.551066,
        1.9475,
        1.93056,
        1.73335,
        1.51155,
        1.25715,
        0.321434,
        0.417262,
        -0.365894,
        -0.264978,
        -0.69208,
        -0.282101,
        0.133698,
        0.52225,
        0.18656,
        -0.297501,
        -0.281682,
        0.0236845,
        -0.887864,
        -0.0800692,
        -0.401973,
        -0.465803,
        0.0850383,
        0.327793,
        0.452009,
        1.6862,
        1.5975,
        0.60777,
        0.792781,
        1.77284,
        0.766487,
        0.507666,
        0.667263,
        -0.664927,
        1.60361,
        0.109916,
        1.27514,
        -0.113878,
        0.705964,
        -0.690789,
        0.44432,
        0.813455,
        -0.0657775,
        -0.42201,
        0.335705,
        -0.879217,
        0.280489,
        -0.945976,
        0.144521,
        0.389348,
        -0.029548,
        0.774178,
        0.609332,
        0.212253,
        -1.26829,
        -1.1087,
        0.502316,
        1.26697,
        0.0971971,
        -0.972724,
        -0.192496,
        -0.396981,
        -0.598579,
        -0.807495,
        0.302709,
        -0.744548,
        -0.476328,
        0.275978,
        0.278359,
        -0.77066,
        0.585153,
        -0.277321,
        -0.957205,
        -0.480624,
        0.300669,
        0.378501,
        -0.359842,
        -0.421894,
        0.346477,
        0.443757,
        0.661654,
        -1.02192,
        0.315009,
        0.77394,
        -0.880796,
        0.603902,
        -0.974385,
        0.226509,
        0.541318,
        0.269112,
        0.690559,
        -0.0848401,
        -0.442153,
        -0.838472,
        0.118814,
        0.945575,
        -0.509369,
        0.642468,
        0.221552,
        0.76899,
        0.871808,
        -0.193294,
        -0.508331,
        0.914603,
        0.326081,
        0.740114,
        -0.0617792,
        0.589198,
        -0.825867,
        -0.355071,
        0.724936,
        -0.673964,
        0.0868227,
        0.153128,
        -0.951124,
        0.131392,
        0.0225203,
        -0.490576,
        -0.0984653,
        -0.235521,
        0.803094,
        -0.407605,
        0.680106,
        -0.638621,
        -0.24601,
        -0.20108,
        -0.693046,
        0.244622,
        -0.558612,
        0.528506,
        0.0136122,
        -0.686804,
        -0.664788,
        0.238466,
        -1.07672,
        0.63262,
        0.297614,
        0.520903,
        0.620927,
        0.669167,
        -0.755803,
        0.375325,
        -0.985145,
        0.377749,
        -0.344521,
        -0.787104,
        -0.401458,
        0.679344,
        -0.277662,
        0.500077,
        -0.556177,
        -0.474567,
        -0.907528,
        -0.876071,
        -0.113188,
        -0.153538,
        -0.0774158,
        0.193765,
        -0.908916,
        0.364236,
        -0.277729,
        0.104696,
        0.677432,
        0.0574828,
        -0.390022,
        0.905231,
        -0.281224,
        0.907597,
        0.426134,
        -0.653692,
        0.578713,
        0.672666,
        0.724705,
        0.597107,
        0.0513049,
        -0.619818,
        0.810003,
        0.649847,
        -0.940474,
        -0.467658,
        0.149924,
        -0.496651,
        0.0577742,
        0.242395,
        -0.372722,
        0.944586,
        -0.911142,
        0.550126,
        0.138351,
        -0.820058,
        -0.0856375,
        0.860622,
        0.284638,
        -0.408205,
        -0.0818948,
        0.894615,
        -0.502974,
        0.636881,
        0.800889,
        0.9199,
        0.982651,
        0.380925,
        0.595825,
        0.707894,
        -0.0219679,
        -0.35287,
        -0.911925,
        -0.211965,
        -0.703023,
        -0.852398,
        0.320377,
        0.446901,
        -0.349049,
        -0.621849,
        -0.310704,
        0.278229,
        -0.677263,
        -0.221846,
        -0.171645,
        0.461088,
        -0.0419049,
        0.742717,
        0.32171,
        -0.757267,
        -0.667167,
        -0.770037,
        -0.866195,
        -0.171426,
        0.876207,
        0.90826,
        -0.307565,
        0.797886,
        0.314574,
        -0.708448,
        0.531814,
        -0.708972,
        -0.00234675,
        0.655854,
        0.0865535,
        0.29463,
        0.803455,
        -0.59307,
        -0.258469,
        -0.545594,
        -0.214919,
        0.430827,
        0.783693,
        0.309365,
        -0.564158,
        -0.314561,
        -0.253733,
        0.343199,
        -0.527472,
        0.910871,
        0.409315,
        -0.35165,
        -0.889033,
        0.503372,
        0.410732,
        -1.07055,
        0.42333,
        -0.842037,
        0.843503,
        -0.195456,
        -0.425023,
        0.43479,
        0.105722,
        0.57263,
        0.0906432,
        -0.807724,
        -0.132739,
        -0.105902,
        -0.400794,
        0.610927,
        0.339554,
        0.483981,
        0.229927,
        0.287113,
        -0.293153,
        0.46057,
        0.861939,
        0.24266,
        -0.48046,
        0.794711,
        -0.129912,
        0.771114,
        -0.238198,
        0.267285,
        0.391094,
        -0.984992,
        0.086954,
        -0.140642,
        -0.721736,
        -0.0438032,
        0.666563,
        -0.146759,
        -0.609014,
        -0.227714,
        -0.574129,
        0.48163,
        -0.0352463,
        0.293528,
        -0.700213,
        0.622031,
        0.0605469,
        0.903271,
        0.113531,
        1.10152,
        -0.0191902,
        0.661076,
        0.317794,
        -0.659574,
        -0.655299,
        0.305041,
        -0.767229,
        0.388572,
        0.233672,
        -0.291437,
        -0.638899,
        -0.307733,
        0.0388312,
        0.632516,
        0.665886,
        0.30946,
        -0.41976,
        0.329864,
        -0.8373,
        -0.0287736,
        -0.895889,
        -0.407679,
        -0.67247,
        0.0407061,
        1.0223,
        -0.0227438,
        -0.225763,
        -0.0509217,
        -0.226238,
        0.7566,
        -0.418222,
        -0.0299293,
        -0.344025,
        0.584259,
        0.633571,
        0.370754,
        0.36643,
        -1.12695,
        -0.355731,
        -0.376379,
        -0.0266739,
        0.464521,
        0.773446,
        -0.7924,
        0.13157,
        0.419667,
        0.51706,
        0.71181,
        -0.248511,
        0.68352,
        -0.44346,
        -0.319312,
        -0.677226,
        0.19693,
        0.975019,
        -0.771584,
        1.00532,
        -0.653071,
        -0.517384,
        -0.83106,
        -1.0831,
        0.714317,
        0.791605,
        0.146016,
        0.458614,
        0.366615,
        -0.545254,
        -0.100598,
        0.713607,
        0.611995,
        -0.939392,
        0.0565859,
        0.146172,
        0.804046,
        0.264186,
        -0.722258,
        0.225547,
        -0.217614,
        0.854248,
        0.802916,
        -0.645234,
        -0.444101,
        -0.318829,
        -0.398466,
        0.573211,
        -0.614443,
        -0.441017,
        0.564148,
        0.28979,
        1.10938,
        -0.52826,
        0.513649,
        0.350467,
        -1.11628,
        -0.625899,
        -0.22824,
        0.677814,
        0.245644,
        -0.858759,
        0.727074,
        -0.129676,
        -0.811078,
        -0.21634,
        -0.983504,
        0.993038,
        -0.953939,
        -0.844194,
        0.0649751,
        -0.313136,
        -0.867047,
        -0.0274533,
        -0.0032264,
        -0.436013,
        -1.40784,
        -1.30305,
        -0.230071,
        -0.0287491,
        0.185849,
        -0.330634,
        -0.9954,
        -0.604134,
        -0.319777,
        0.327322,
        -1.08539,
        -0.136669,
        -0.961129,
        0.229672,
        -0.159309,
        0.267336,
        0.370922,
        -0.432235,
        -0.863324,
        0.548697,
        0.341585,
        -0.985412,
        0.409598,
        0.225941,
        -0.73955,
        -0.48512,
        -1.02802,
        -0.593588,
        0.54913,
        0.0709056,
        0.579313,
        1.29865,
        0.703757,
        -0.524805,
        -0.591428,
        -0.909979,
        -0.292372,
        -0.469745,
        -0.0370165,
        0.735654,
        -0.748568,
        0.332242,
        -0.186894,
        -0.711613,
        -0.438078,
        0.653044,
        0.544602,
        0.918685,
        -0.783701,
        0.571726,
        0.36975,
        0.368853,
        0.621219,
        -0.207198,
        -0.284244,
        -1.03435,
        0.236506,
        -0.480387,
        -0.13122,
        0.963944,
        -0.25993,
        -0.209149,
        0.509929,
        -1.18739,
        -0.262142,
        -0.898851,
        -0.629908,
        -0.934039,
        0.26269,
        0.842243,
        0.980647,
        0.5166,
        0.174485,
        -0.213661,
        0.790389,
        0.72987,
        -0.534895,
        0.24112,
        0.536931,
        -0.514498,
        -0.0966566,
        -0.0578612,
        -0.955759,
        -0.460792,
        -1.46353,
        -0.500184,
        -0.0769607,
        -0.983725,
        -0.52374,
        -0.828624,
        0.443679,
        -0.251939,
        -0.429882,
        0.148501,
        0.0907456,
        -1.02463,
        -0.982497,
        -0.915262,
        -0.726211,
        0.290467,
        0.926981,
        -0.760219,
        -0.207531,
        0.102606,
        0.0778899,
        -0.498053,
        -0.293925,
        0.320677,
        0.831919,
        -0.674866,
        -1.01482,
        -0.326858,
        0.0899196,
        -1.04611,
        0.790573,
        0.754093,
        0.506967,
        -0.097596,
        0.582131,
        -1.26502,
        0.158781,
        0.497284,
        -0.0591615,
        -0.918039,
        0.177004,
        -0.438617,
        -0.593474,
        0.267876,
        -0.353879,
        -0.326694,
        -0.456312,
        -0.428336,
        -0.0492769,
        0.31068,
        0.529567,
        0.775308,
        0.785527,
        -0.729944,
        0.144474,
        0.588873,
        -0.291166,
        0.445274,
        -0.144321,
        -0.572088,
        -1.18292,
        -0.388714,
        -0.702688,
        0.525356,
        -0.990076,
        -0.613502,
        0.507828,
        0.173953,
        -0.960491,
        -0.121597,
        0.677407,
        0.401119,
        0.439786,
        -0.916415,
        -0.341663,
        -0.929547,
        -0.22108,
        0.224502,
        -0.49623,
        0.468989,
        -0.707454,
        -0.999685,
        0.299551,
        -0.701833,
        -0.133424,
        0.208575,
        -0.627774,
        0.648364,
        -0.459646,
        0.249561,
        -0.522678,
        -0.180108,
        -0.614308,
        0.213432,
        -0.467265,
        -0.573276,
        0.491789,
        -0.765525,
        0.818016,
        0.74325,
        0.112878,
        0.495422,
        0.143732,
        -0.448842,
        0.607063,
        0.845139,
        -0.403646,
        -0.877876,
        -0.253698,
        -0.0866017,
        -1.34839,
        0.629197,
        0.828592,
        0.767302,
        -0.903289,
        -0.752915,
        -0.257146,
        -0.433559,
        -0.875604,
        0.656379,
        -0.795561,
        -0.116225,
        -0.423584,
        -0.317674,
        -1.01755,
        0.0703439,
        0.0593678,
        0.599724,
        0.304819,
        -0.122616,
        0.342974,
        -0.582302,
        -0.626613,
        -0.4822,
        0.0168961,
        0.860145,
        -0.915708,
        0.308835,
        -0.809824,
        0.354257,
        0.0461473,
        -0.694274,
        -0.160109,
        -0.744956,
        -1.00057,
        -0.0221966,
        -0.262995,
        -0.176912,
        0.868731,
        0.361941,
        -0.277739,
        -0.857926,
        -0.839091,
        0.181294,
        -0.251092,
        -0.729096,
        -0.748362,
        0.808275,
        0.870628,
        0.556457,
        -0.326002,
        0.202655,
        1.011,
        0.0848773,
        0.427197,
        -0.249977,
        -0.0100188,
        -0.744105,
        -0.125372,
        0.218871,
        0.0642272,
        0.101833,
        0.492043,
        -0.878226,
        0.688953,
        0.555251,
        0.490524,
        0.0357509,
        -0.23012,
        0.455285,
        -0.68359,
        0.293075,
        0.523288,
        -0.375295,
        -0.525631,
        -0.727805,
        -0.104392,
        -0.273994,
        -0.932526,
        -0.324541,
        -0.814702,
        -0.404289,
        0.78462,
        -0.684138,
        1.01019,
        1.09972,
        0.382697,
        -0.421218,
        0.316569,
        0.455391,
        -1.02288,
        -0.108636,
        0.148353,
        0.788128,
        0.415652,
        0.338568,
        0.697847,
        -0.0758531,
        -0.781759,
        -0.850268,
        -0.761061,
        -0.405184,
        0.442807,
        0.762227,
        0.219521,
        0.917175,
        -0.976591,
        -0.984264,
        -0.605623,
        -1.17466,
        -0.273742,
        0.0957538,
        0.0433511,
        0.192088,
        0.23819,
        -0.546604,
        -0.700216,
        -0.739136,
        0.418315,
        -0.80534,
        -0.780878,
        0.757199,
        0.413227,
        0.387629,
        0.523087,
        -0.421602,
        -0.446494,
        -0.0366562,
        0.433231,
        -0.210558,
        0.112562,
        0.67217,
        0.384257,
        -0.444631,
        0.425875,
        -0.458296,
        -0.797116,
        0.180845,
        -0.363863,
        0.324392,
        0.776557,
        0.731175,
        -1.13635,
        -0.900372,
        -0.663873,
        0.0166395,
        0.00762532,
        -0.0948044,
        0.537388,
        -0.409179,
        0.188223,
        0.742254,
        -0.613152,
        -0.53681,
        0.0898281,
        0.863031,
        0.0711742,
        0.662303,
        -0.174717,
        -0.495595,
        -0.548256,
        0.936766,
        -0.829278,
        0.737866,
        -0.686057,
        0.484662,
        -0.349926,
        0.166357,
        0.351673,
        0.209568,
        -1.29467,
        -0.754855,
        -0.547527,
        -1.25416,
        -0.127868,
        0.142667,
        0.255918,
        -0.808157,
        -0.788668,
        -0.0330258,
        0.000775629,
        0.445978,
        -0.301605,
        0.403747,
        0.929607,
        0.796102,
        0.265878,
        0.000781417,
        0.458405,
        -0.909267,
        0.501661,
        0.903903,
        -1.13682,
        0.551773,
        0.774612,
        -0.45853,
        0.230289,
        -1.1213,
        0.0946866,
        -1.0487,
        -0.118017,
        0.247569,
        -0.141865,
        -1.01277,
        0.615826,
        -0.847172,
        0.317714,
        0.0354835,
        -0.554048,
        0.543197,
        0.992653,
        0.472651,
        -0.000299156,
        -0.309136,
        -0.123923,
        -0.0706919,
        -0.513034,
        -0.858044,
        0.929173,
        0.94165,
        -0.852806,
        0.256293,
        0.677111,
        -0.921709,
        -0.118268,
        0.351676,
        -0.43532,
        -0.771531,
        0.657131,
        -0.864863,
        -0.359197,
        0.0314275,
        0.820477,
        0.835051,
        0.243176,
        0.538164,
        0.98205,
        -0.439049,
        -0.426789,
        -0.554527,
        -0.892276,
        -0.434785,
        0.918124,
        0.107424,
        0.256079,
        -0.205799,
        -0.963267,
        0.743046,
        -0.063843,
        0.966215,
        0.685752,
        0.171033,
        0.396759,
        0.53278,
        0.399734,
        -0.511787,
        0.119704,
        -0.792931,
        -0.0744619,
        -0.0675772,
        -0.516506,
        0.708509,
        -0.936664,
        -0.671491,
        0.529807,
        0.301801,
        0.86405,
        0.512157,
        0.861053,
        -0.563182,
        0.95763,
        0.968776,
        0.00203335,
        0.875754,
        0.076201,
        -0.741887,
        -0.330045,
        0.112934,
        -0.998842,
        0.606112,
        0.0793915,
        0.687481,
        -0.226938,
        -0.519212,
        0.230789,
        -0.798503,
        -0.00238196,
        -0.621666,
        -0.582048,
        0.928347,
        0.31234,
        -0.089422,
        0.64112,
        0.377786,
        0.240414,
        0.17067,
        -0.320973,
        0.10434,
        -0.317173,
        -0.459921,
        0.541159,
        -0.359543,
        -0.491144,
        -0.456808,
        -0.483789,
        0.585057,
        -0.198695,
        0.186166,
        -0.302009,
        -0.197537,
        -0.207722,
        0.777747,
        -0.508982,
        0.56281,
        -0.743085,
        0.725302,
        0.770419,
        0.258605,
        -0.895319,
        -0.803032,
        0.190499,
        0.417027,
        0.107547,
        -0.16838,
        -0.205186,
        -0.652038,
        -0.9961,
        0.47384,
        0.452302,
        -0.314883,
        -0.98608,
        -0.00653958,
        0.325574,
        -0.477225,
        0.536652,
        0.841784,
        -0.892168,
        -0.662043,
        0.0279502,
        -0.194177,
        0.14042,
        0.820228,
        -0.416431,
        0.632458,
        0.387891,
        -0.156829,
        0.358013,
        0.162338,
        -0.896236,
        0.462695,
        0.359306,
        0.294264,
        -0.120278,
        -0.533147,
        -0.874117,
        0.674536,
        -0.185185,
        -0.871827,
        0.148376,
        -0.732883,
        -0.18671,
        0.162295,
        0.260577,
        -0.861136,
        0.685071,
        -0.20277,
        0.980649,
        0.79026,
        0.118714,
        0.00163774,
        -0.401429,
        -0.724841,
        -0.172515,
        0.181564,
        0.908065,
        -0.783282,
        -0.974536,
        0.266076,
        0.379056,
        -0.87077,
        -0.271228,
        -0.261638,
        0.423494,
        0.608494,
        0.205216,
        0.549377,
        0.283029,
        -0.979969,
        0.67755,
        -0.568595,
        -0.712852,
        -0.50916,
        0.5937,
        0.547725,
        -0.370302,
        0.27146,
        -0.674659,
        -0.426681,
        0.0460314,
        0.445765,
        0.555328,
        0.574131,
        0.689144,
        -0.59318,
        -0.187111,
        0.658552,
        -0.335503,
        -0.12184,
        -0.0701106,
        -0.956447,
        0.00739002,
        0.658661,
        -0.218085,
        -0.569116,
        0.267155,
        0.987131,
        0.98026,
        -0.449863,
        -0.993256,
        0.65766,
        -0.0185446,
        -0.744926,
        -0.951538,
        -0.563234,
        0.701105,
        -0.396892,
        0.42997,
        -1.27604,
        -0.0108259,
        -0.367624,
        0.503793,
        -0.0721388,
        -0.37108,
        0.439061,
        0.455439,
        0.448828,
        0.0866902,
        -0.880064,
        -0.673012,
        -0.98342,
        -0.836511,
        0.334378,
        0.675241,
        -0.0545962,
        0.77268,
        -0.0444161,
        -0.0592522,
        0.727592,
        0.447396,
        -0.23259,
        0.123342,
        -0.737899,
        -0.00519096,
        0.394154,
        0.038562,
        -0.0459017,
        -0.944508,
        -0.269769,
        0.131367,
        0.641171,
        0.820591,
        -0.107839,
        -0.29969,
        -0.590504,
        -0.646962,
        -0.817854,
        0.874212,
        0.439728,
        -0.697918,
        -0.798801,
        0.456307,
        -0.531715,
        0.558952,
        0.183872,
        0.408877,
        0.200567,
        -1.1895,
        -0.980981,
        -0.263041,
        -0.0983784,
        -0.448975,
        -0.992978,
        -1.45488,
        -0.978618,
        -1.29758,
        -0.437948,
        0.0813021,
        -1.06632,
        0.926704,
        -0.240031,
        -1.00515,
        0.801569,
        0.786549,
        -0.222233,
        -0.751698,
        -0.860523,
        -0.040087,
        -0.880929,
        0.579204,
        0.31494,
        -0.568463,
        0.16641,
        0.43769,
        0.267718,
        -1.43408,
        -0.521741,
        -0.690842,
        -1.41029,
        -0.30187,
        -2.09726,
        -0.650159,
        -1.01532,
        -0.826743,
        -0.0598911,
        -0.803437,
        -1.15181,
        -0.273844,
        -0.184989,
        -0.0717302,
        -0.103342,
        0.726303,
        0.0409278,
        -0.24505,
        0.518432,
        0.818696,
        0.00325203,
        0.657909,
        -0.183157,
        0.2483,
        -0.0581118,
        -1.27323,
        0.141226,
        -1.08861,
        0.490911,
        0.447141,
        -0.261747,
        -0.188391,
        -1.49793,
        -1.24109,
        -1.29242,
        -0.471359,
        0.10627,
        0.155852,
        0.104553,
        -1.06377,
        -1.17902,
        0.959009,
        0.259829,
        0.305477,
        -0.0236075,
        -0.793172,
        0.0441802,
        -0.979782,
        -0.038222,
        -0.437267,
        0.874948,
        1.07642,
        -0.696119,
        -0.124829,
        0.412781,
        0.945331,
        0.0520046,
        0.588511,
        1.49866,
        -0.62361,
        0.616241,
        -0.966057,
        -0.148667,
        -1.28348,
        0.780421,
        1.38825,
        0.205856,
        0.651101,
        -0.405335,
        -0.596983,
        0.619932,
        0.280634,
        -0.67435,
        -0.0499301,
        -0.375572,
        0.293601,
        0.156898,
        0.668677,
        0.329392,
        -0.82152,
        -0.486038,
        0.840899,
        -0.0858042,
        0.129748,
        1.58315,
        1.28648,
        1.55162,
        -0.57693,
        1.49195,
        0.647073,
        -0.127299,
        0.745171,
        1.24272,
        -0.149973,
        1.60124,
        0.237763,
        1.13457,
        -0.109359,
        0.975772,
        -0.271978,
        0.224675,
        0.674333,
        -0.902548,
        0.514289,
        -0.375597,
        -0.277689,
        -0.189577,
        0.817381,
        -0.515592,
        -0.293684,
        1.40973,
        0.351206,
        0.657154,
        1.04682,
        0.56968,
        0.583666,
        0.570141,
        0.0212754,
        -0.113976,
        -0.206854,
        -0.131198,
        -0.165884,
        0.0201708,
        -0.27667,
        0.179135,
        -0.281742,
        0.107822,
        -0.568758,
        0.196567,
        0.0913256,
        0.210097,
        -0.606394,
        -0.234341,
        0.307851,
        0.908585,
        0.644819,
        -0.337319,
        0.118035,
        0.316145,
        0.232567,
        -0.509361,
        -0.490473,
        0.282832,
        -0.983622,
        -0.564757,
        -1.92386,
        -1.04766,
        -1.14394,
        -0.197222,
        0.401612,
        0.747656,
        0.94579,
        0.524062,
        0.90543,
        -0.754817,
        0.472926,
        0.84149,
        0.244705,
        0.897812,
        0.0351186,
        -0.663969,
        0.108115,
        0.430353,
        0.519787,
        0.0152266,
        0.531608,
        -0.353783,
        -0.103479,
        -1.75399,
        -0.164972,
        -0.74999,
        -0.945999,
        -1.45676,
        -0.999298,
        -1.81627,
        -0.538035,
        -1.79463,
        -0.540995,
        -0.0148374,
        0.613895,
        0.197848,
        0.442124,
        0.147518,
        0.745672,
        -0.388204,
        -0.00773764,
        0.218601,
        -0.546714,
        -0.763031,
        0.116432,
        0.40047,
        0.110591,
        -0.175461,
        -0.053305,
        0.904696,
        -0.162529,
        -1.24854,
        -1.90097,
        -1.2473,
        -2.61722,
        -1.67526,
        -1.70725,
        -1.59007,
        -1.25012,
        0.0769808,
        -1.15579,
        0.300047,
        1.49382,
        -0.215909,
        -0.360422,
        0.300924,
        0.144531,
        0.445006,
        0.836703,
        -0.109773,
        -0.943198,
        -0.171035,
        -0.892141,
        -0.506058,
        0.572269,
        0.858061,
        1.08735,
        0.940777,
        0.302771,
        -0.677854,
        -1.01744,
        -3.29932,
        -2.68204,
        -2.52807,
        -1.78119,
        -0.476227,
        -0.106182,
        -0.585806,
        -1.0472,
        1.62633,
        0.769003,
        0.20546,
        -0.443822,
        0.123207,
        0.225806,
        -0.416744,
        0.853736,
        -0.629631,
        -0.971738,
        0.690439,
        0.258591,
        -0.906636,
        -0.00195917,
        1.24217,
        -0.279002,
        0.60739,
        -0.758633,
        -1.19618,
        -1.08516,
        -3.31012,
        -2.05829,
        -2.26418,
        -2.06096,
        -0.756404,
        -1.21295,
        -0.610026,
        -1.3679,
        0.820898,
        0.0912281,
        0.0666409,
        0.505636,
        0.766758,
        0.695189,
        0.42828,
        -0.73263,
        -0.0789936,
        -0.988464,
        -0.878895,
        0.285832,
        -0.924174,
        1.31091,
        0.441698,
        -0.40787,
        -0.430432,
        0.74452,
        -1.17038,
        -0.69855,
        -2.68769,
        -1.37795,
        -0.439447,
        -0.357158,
        -0.456359,
        -0.274043,
        -1.22818,
        -0.0521362,
        0.712052,
        -0.40374,
        0.780035,
        0.261959,
        -0.175515,
        -0.518552,
        -0.774859,
        0.843087,
        -0.823359,
        0.653421,
        -0.889543,
        0.086146,
        0.698526,
        -0.397184,
        0.0920873,
        1.34159,
        -0.739336,
        -0.444773,
        -0.478254,
        -2.2724,
        -1.72615,
        -1.63471,
        -0.798936,
        0.48068,
        0.390842,
        -0.947124,
        0.140859,
        -0.669231,
        0.253515,
        0.124773,
        -0.626374,
        0.122709,
        0.0476103,
        0.843256,
        0.829689,
        0.0666837,
        -0.675046,
        -0.94517,
        -0.0038482,
        -0.518798,
        0.72169,
        0.411974,
        1.03665,
        0.794272,
        0.645662,
        0.378901,
        -1.11913,
        -0.936802,
        -0.79226,
        -0.231113,
        1.06005,
        1.07846,
        -0.0593398,
        -0.0444609,
        -0.347114,
        0.258029,
        1.01034,
        0.276935,
        -0.847802,
        -0.11162,
        0.954518,
        -0.805264,
        0.305253,
        -0.624393,
        -0.961997,
        0.134942,
        0.545061,
        -0.664545,
        0.160439,
        -0.383173,
        0.237288,
        0.338781,
        0.554989,
        -0.795648,
        -1.75552,
        -0.787586,
        -0.291402,
        0.787942,
        1.28658,
        -0.214399,
        -2.14082,
        -0.631205,
        -0.251876,
        0.799311,
        0.742128,
        -0.732383,
        0.139559,
        0.108071,
        0.534831,
        0.0412054,
        0.43693,
        0.193457,
        0.235709,
        -0.257817,
        0.562949,
        0.258082,
        0.664655,
        -0.341423,
        0.454762,
        -0.234629,
        0.430814,
        -0.394379,
        0.542065,
        -0.137825,
        0.459138,
        -0.701255,
        -0.815822,
        -1.32554,
        -1.00209,
        -1.00694,
        -1.00309,
        0.471251,
        -0.666398,
        0.800399,
        0.726337,
        -0.405943,
        -0.675282,
        -0.409498,
        0.351329,
        0.766445,
        0.631799,
        -0.211741,
        -0.0464374,
        -0.142253,
        0.281957,
        -1.09572,
        -1.38026,
        -0.237666,
        -0.168855,
        1.11318,
        0.0997299,
        0.299497,
        -0.857488,
        -2.02224,
        -1.30889,
        -1.33996,
        -1.79652,
        -1.08989,
        -0.751368,
        -1.30488,
        -1.02491,
        0.738319,
        -0.674537,
        0.179199,
        0.430787,
        0.659104,
        0.558612,
        0.745498,
        -0.750304,
        -0.0900589,
        0.510487,
        0.875925,
        0.489386,
        -1.12881,
        -0.942869,
        -0.500362,
        -0.535242,
        0.327961,
        1.06318,
        0.675791,
        -0.852034,
        -1.38886,
        -1.08662,
        -1.12529,
        -0.392906,
        -0.158727,
        -1.28987,
        -0.923186,
        -0.820139,
        0.0788879,
        -0.472359,
        -0.634189,
        -0.686796,
        -0.410526,
        0.506224,
        0.743195,
        -0.751421,
        0.0648367,
        0.488693,
        -0.502208,
        0.856017,
        -0.35504,
        -1.27252,
        0.14836,
        0.17521,
        0.159416,
        0.495471,
        -0.243828,
        -1.24297,
        -0.335403,
        -0.226277,
        -0.393396,
        -0.63157,
        -0.656129,
        0.493064,
        -0.876124,
        0.510749,
        0.933292,
        -0.570202,
        0.632505,
        -0.31867,
        -0.0893804,
        0.988667,
        -0.0095771,
        0.500094,
        0.494891,
        -0.266382,
        0.752452,
        -0.431773,
        -0.771157,
        -1.10502,
        -0.501842,
        0.539721,
        0.202651,
        -0.805407,
        -0.90975,
        0.589712,
        0.526491,
        0.566903,
        0.961274,
        -0.559179,
        -1.05871,
        -0.624592,
        0.226328,
        -0.389693,
        -0.794206,
        0.49399,
        -0.813972,
        0.921598,
        0.918125,
        0.813161,
        -0.400161,
        -0.171255,
        0.801827,
        0.590261,
        -0.669913,
        0.302161,
        -0.771821,
        -0.986556,
        1.37773,
        0.69742,
        0.433905,
        -0.211334,
        0.78,
        -0.0929554,
        -0.232802,
        -0.293275,
        -0.040595,
        0.885548,
        0.346585,
        -0.589741,
        -0.660063,
        0.826053,
        0.0569438,
        0.649887,
        -0.541148,
        0.0386584,
        0.143871,
        -0.355118,
        -0.0397433,
        0.0619962,
        -0.541958,
        0.560095,
        0.890741,
        -0.811476,
        0.00867594,
        -0.766275,
        0.931848,
        1.04013,
        -0.292674,
        0.533706,
        -0.975419,
        -0.383724,
        0.930811,
        0.942541,
        0.726838,
        -0.561974,
        -0.742585,
        -0.720687,
        -0.89006,
        0.905587,
        -0.11515,
        -0.496164,
        0.703838,
        0.703271,
        -0.885684,
        -0.8373,
        -0.258071,
        0.258186,
        -0.192419,
        0.702186,
        -0.679817,
        0.265624,
        0.262284,
        -0.781012,
        0.83449,
        -0.415394,
        -0.569474,
        0.0821032,
        0.886877,
        -0.272406,
        -0.504883,
        0.907302,
        0.349149,
        -0.700885,
        0.69687,
        -0.0781339,
        -0.298475,
        0.95656,
        0.295764,
        -0.128372,
        0.838418,
        0.961782,
        0.275908,
        0.542262,
        0.665053,
        0.390158,
        0.704962,
        -0.593018,
        -0.35159,
        -0.487457,
        -0.890833,
        -0.0314072,
        0.778167,
        0.371449,
        0.179517,
        0.303661,
        0.784086,
        0.61002,
        -0.614257,
        0.670961,
        -0.662385,
        -0.119141,
        0.578263,
        0.686757,
        0.179962,
        0.27513,
        -0.391378,
        0.881487,
        0.22613,
        0.809872,
        -0.307029,
        0.0645478,
        0.771654,
        0.968879,
        -0.39319,
        0.436707,
        0.359102,
        -0.688229,
        0.843689,
        -0.992488,
        -0.175686,
        0.952856,
        -0.0238948,
        -0.397519,
        0.324304,
        -0.844378,
        0.906142,
        0.108391,
        0.765642,
        -0.708116,
        -0.220648,
        -0.896743,
        0.172743,
        -0.642386,
        0.790014,
        -0.647295,
        0.632744,
        -0.601364,
        -0.765808,
        -0.141125,
        -0.791491,
        -0.0728371,
        0.923422,
        0.980163,
        -0.103958,
        -0.469768,
        0.41687,
        -0.744856,
        -0.157997,
        0.260558,
        -0.737343,
        0.666317,
        0.213415,
        0.238762,
        -0.731202,
        -0.462281,
        0.394384,
        -0.82506,
        0.64611,
        0.160026,
        -0.533176,
        -0.574539,
        0.263282,
        0.639567,
        -0.216924,
        0.0532961,
        0.992272,
        -0.58418,
        0.451932,
        -0.773535,
        0.274695,
        0.660441,
        0.153628,
        0.198117,
        0.640604,
        -0.950331,
        0.728349,
        0.057474,
        -0.695187,
        -0.429648,
        -0.681967,
        -0.43253,
        -0.76333,
        0.531447,
        0.806232,
        -0.494532,
        -0.930834,
        0.200615,
        -0.319592,
        0.715276,
        -0.639359,
        0.147232,
        -0.859263,
        0.623923,
        -0.213201,
        -0.076187,
        -0.322781,
        -0.220929,
        0.339633,
        -0.870849,
        0.00553584,
        -0.385672,
        0.789593,
        -0.840837,
        0.812445,
        0.430197,
        -0.791167,
        0.540794,
        -0.512329,
        -0.486354,
        -0.888854,
        -0.194297,
        0.0811158,
        -0.652184,
        -0.66285,
        -0.112653,
        -0.146717,
        -0.593684,
        -0.912037,
        0.533691,
        -0.878408,
        -0.551397,
        -0.319077,
        -0.73767,
        -0.927474,
        0.467722,
        0.186143,
        -0.250255,
        -0.753207,
        -0.474224,
        -0.121103,
        0.252329,
        0.140103,
        -0.331511,
        0.411492,
        -0.047452,
        -0.901314,
        0.620325,
        -0.506658,
        -0.413643,
        -0.866029,
        -0.395512,
        0.39206,
        0.215087,
        -0.196174,
        0.654214,
        -0.897566,
        0.805587,
        -0.864474,
        -0.809603,
        0.339278,
        -0.742881,
        -0.361,
        -0.979799,
        -0.480552,
        -0.288474,
        0.487923,
        0.705591,
        0.461271,
        0.734716,
        -0.768634,
        -0.659832,
        -0.012955,
        0.367682,
        -0.0284625,
        -0.601463,
        -0.675982,
        0.107343,
        -0.981138,
        -0.182641,
        0.693699,
        -0.872922,
        0.237008,
        0.0115205,
        0.36792,
        -0.62585,
        -0.185031,
        0.470355,
        -0.820263,
        -0.0495042,
        0.660751,
        0.519015,
        0.207614,
        -0.700248,
        0.539216,
        0.727062,
        0.0112777,
        0.0271387,
        0.432653,
        -0.527451,
        -0.238145,
        0.596599,
        -0.289551,
        0.7489,
        0.0354888,
        0.821374,
        -0.852563,
        0.359527,
        -0.0712346,
        -0.863935,
        -1.01475,
        -0.45179,
        -0.680867,
        0.598712,
        0.708175,
        0.687101,
        0.972926,
        -0.476856,
        0.157408,
        -0.847401,
        0.47364,
        -0.18184,
        0.671614,
        -0.318745,
        0.117911,
        0.210829,
        -0.591683,
        -0.870811,
        -0.762032,
        0.711431,
        -0.511892,
        -0.000176966,
        0.504989,
        0.414462,
        -0.251203,
        -0.459427,
        0.235925,
        -0.134044,
        0.708419,
        -0.909602,
        0.0624751,
        -0.92315,
        -0.213033,
        0.381676,
        0.675651,
        -0.504865,
        0.0686468,
        0.648425,
        0.0182797,
        -0.773945,
        0.801024,
        -0.50808,
        0.0442147,
        0.472638,
        0.173174,
        -0.837874,
        -0.316533,
        0.389077,
        -0.885191,
        -0.0785644,
        0.422481,
        -0.106855,
        0.92135,
        -0.0724513,
        -0.692435,
        -0.38832,
        0.276299,
        0.469182,
        0.56617,
        0.367914,
        0.707934,
        -0.371303,
        0.444811,
        -0.505159,
        -0.989805,
        0.120327,
        -0.0100241,
        0.0788419,
        -0.231248,
        -0.991744,
        0.304897,
        -0.430224,
        -0.499825,
        -0.650888,
        -0.957587,
        0.480177,
        -0.591787,
        -0.274109,
        0.254931,
        -0.19735,
        0.647374,
        -0.322698,
        0.695605,
        0.510245,
        0.412339,
        -1.07188,
        -0.761423,
        0.0727769,
        0.54654,
        0.804759,
        -0.559405,
        0.254328,
        -0.5667,
        0.885359,
        0.749169,
        -0.556505,
        0.00568557,
        -0.260855,
        0.522337,
        0.774437,
        -0.2526,
        -0.172766,
        -0.655787,
        0.0551606,
        0.0740782,
        -0.613352,
        -0.0789774,
        0.687668,
        0.112508,
        -0.824234,
        -0.509864,
        -0.333354,
        -0.338589,
        -0.888458,
        -0.671512,
        -0.542089,
        -0.811093,
        -0.433037,
        0.530501,
        0.735301,
        -0.628346,
        0.971097,
        -0.010371,
        -0.195046,
        0.856455,
        -0.261202,
        0.24845,
        -0.137859,
        0.477942,
        -0.229213,
        -0.363422,
        -0.967071,
        0.495753,
        -0.0191226,
        0.473013,
        -0.225574,
        0.367417,
        -0.606155,
        -0.538023,
        -0.623054,
        -0.62197,
        -0.122055,
        0.23982,
        0.422701,
        0.137827,
        0.568146,
        0.880496,
        0.326679,
        -0.864898,
        0.410997,
        0.0619802,
        -0.493244,
        0.382094,
        -0.948391,
        0.31171,
        0.238549,
        -0.209593,
        -0.43984,
        -0.91143,
        -0.924065,
        0.228679,
        -0.262671,
        -0.506216,
        -0.0709583,
        0.718107,
        0.966686,
        0.703426,
        -0.0174518,
        -0.81903,
        -0.840761,
        0.5654,
        -0.0699378,
        0.117372,
        -0.194852,
        -0.647262,
        -0.744802,
        -0.626706,
        -0.766766,
        0.581877,
        -0.491604,
        0.644231,
        -0.356142,
        0.0151517,
        0.026325,
        -0.304533,
        -0.673138,
        -0.809364,
        0.29346,
        -0.215246,
        -0.634412,
        0.754315,
        -0.810727,
        0.0279348,
        -0.82623,
        0.0727552,
        -0.344988,
        -0.902891,
        -0.149728,
        0.906368,
        -0.42502,
        0.0155576,
        0.471768,
        0.505043,
        -0.867071,
        -0.723084,
        0.857781,
        -0.611873,
        -0.34979,
        -0.908985,
        0.970005,
        0.158606,
        0.735246,
        -0.386138,
        -0.826242,
        -0.386906,
        0.116157,
        -0.656928,
        -0.114376,
        -0.397116,
        0.195325,
        0.198935,
        -0.642895,
        0.4132,
        -0.697572,
        -0.395071,
        -0.247453,
        0.315735,
        0.0118704,
        0.602819,
        0.222103,
        0.586851,
        -0.381623,
        -0.306129,
        0.0918933,
        -0.248694,
        -0.0292128,
        -0.0503258,
        0.139433,
        0.620998,
        0.0406891,
        0.109438,
        -0.220396,
        -0.303585,
        0.530961,
        -0.238214,
        0.356493,
        -0.103704,
        0.351748,
        -0.465503,
        0.798381,
        -0.187874,
        0.776426,
        -0.751521,
        -0.552766,
        -0.549195,
        0.174604,
        0.199782,
        0.76654,
        -0.813525,
        -0.197399,
        -0.0113578,
        0.773326,
        0.420978,
        0.682513,
        -0.134781,
        -0.827716,
        -0.3467,
        0.814893,
        0.311717,
        -0.725699,
        -0.144356,
        -0.682547,
        -0.0157439,
        0.613337,
        -0.855542,
        -0.992712,
        0.169118,
        0.177182,
        0.46131,
        0.555713,
        -0.1125,
        -0.69713,
        0.688939,
        0.382179,
        -0.249895,
        -0.860256,
        -0.443217,
        0.949886,
        0.906283,
        -0.256742,
        -0.247513,
        -0.105074,
        -0.483416,
        -0.826535,
        -0.422561,
        0.381811,
        -0.654196,
        0.23082,
        0.196722,
        0.657468,
        0.505037,
        -0.947703,
        -0.921304,
        -0.440966,
        0.683887,
        -0.776898,
        -0.443644,
        -0.326716,
        0.282742,
        -0.972551,
        -0.414203,
        -0.594921,
        -0.66968,
        -0.725264,
        0.787258,
        0.0804241,
        -0.58552,
        -0.655959,
        0.0303103,
        -0.679236,
        0.0872988,
        0.782798,
        0.215689,
        0.60394,
        0.956354,
        0.793154,
        -0.0143152,
        -0.697982,
        0.0239133,
        -0.81753,
        0.959569,
        -0.471,
        -0.765289,
        -0.961901,
        0.0279984,
        0.726797,
        -0.856243,
        0.654047,
        -0.228725,
        0.661335,
        0.681497,
        0.357072,
        -0.933586,
        -0.988184,
        0.631808,
        0.853672,
        0.0922401,
        -0.953712,
        -0.802288,
        -0.87745,
        -0.632949,
        0.285107,
        0.90544,
        0.582801,
        -0.111029,
        0.861702,
        0.375964,
        0.87467,
        -0.836301,
        -0.600243,
        -0.943041,
        -0.8769,
        -0.0948426,
        -0.891707,
        -0.956219,
        -0.983515,
        -0.789928,
        -0.577626,
        0.670532,
        -0.0186539,
        -0.916291,
        0.352029,
        -0.661582,
        -0.849877,
        0.363845,
        0.970225,
        -0.996205,
        -0.543915,
        -0.983487,
        -0.79843,
        -0.42127,
        -0.616344,
        0.486613,
        -0.515925,
        0.966375,
        -0.624551,
        -0.654402,
        0.342174,
        -0.75001,
        -0.490784,
        0.695701,
        -0.880921,
        -0.485102,
        -0.329448,
        -0.401434,
        -0.206484,
        -0.312963,
        -0.191363,
        0.215889,
        -0.642431,
        0.789983,
        0.299598,
        0.709597,
        -0.871599,
        0.449721,
        0.0734422,
        -0.901373,
        0.453518,
        0.529546,
        -0.884823,
        0.655066,
        -0.891821,
        -0.501295,
        0.141541,
        -0.407854,
        -0.53499,
        0.516953,
        -0.0622599,
        0.807184,
        0.589679,
        0.329538,
        0.549095,
        -0.926108,
        -0.920727,
        -0.780354,
        -0.327543,
        -0.127211,
        -0.0933169,
        0.481095,
        -0.911322,
        0.264252,
        0.271078,
        0.388276,
        -0.0261505,
        0.399479,
        -0.162003,
        -0.952708,
        0.498106,
        -0.708487,
        0.576819,
        0.613246,
        0.946537,
        0.684981,
        -0.888049,
        0.088078,
        -0.722873,
        -0.423039,
        -0.572233,
        0.097449,
        -0.615855,
        -0.628026,
        -0.338176,
        0.93324,
        -0.554134,
        -0.258903,
        -0.847114,
        0.118323,
        0.613886,
        0.0595695,
        -0.400582,
        0.702564,
        -0.676179,
        0.870496,
        0.09084,
        0.297671,
        0.269975,
        0.928837,
        0.344963,
        -0.231919,
        -0.77965,
        -0.0782185,
        -0.618673,
        -0.833113,
        -0.393237,
        -0.506722,
        0.106487,
        -0.233528,
        0.0702386,
        0.859996,
        -0.901242,
        0.454384,
        -0.76803,
        -0.239418,
        0.387624,
        -0.322164,
        0.501679,
        0.54051,
        0.796159,
        0.115565,
        -0.399921,
        -0.604424,
        -0.181871,
        -0.0760994,
        -0.733928,
        0.90897,
        -0.778429,
        0.536047,
        0.837807,
        0.566534,
        -0.695872,
        -0.941843,
        -0.511684,
        -0.314545,
        -0.774956,
        0.0950785,
        0.178733,
        0.480009,
        0.978969,
        -0.751028,
        0.340005,
        -0.922273,
        0.703355,
        0.571975,
        -0.161691,
        0.090979,
        -0.750189,
        -0.660012,
        -0.368511,
        -0.95403,
        0.455553,
        0.231568,
        -0.558454,
        -0.726317,
        -0.844531,
        -0.292382,
        -0.817348,
        -0.62296,
        -0.756334,
        -0.979541,
        0.943574,
        -0.452206,
        -0.921384,
        -0.56811,
        0.233249,
        -0.69634,
        0.526968,
        -0.588018,
        0.783669,
        0.505937,
        -0.339046,
        0.123674,
        0.583664,
        -0.63569,
        -0.304351,
        -0.578028,
        0.455289,
        -0.0545397,
        -0.23804,
        -0.913223,
        -0.00856996,
        -0.782486,
        0.318346,
        0.432976,
        -0.508804,
        0.473814,
        -0.859406,
        -0.326151,
        0.850854,
        -0.61574,
        -0.305692,
        0.794428,
        -0.0679462,
        -0.227076,
        -0.773682,
        -0.834697,
        0.0765839,
        0.753286,
        -0.422715,
        -0.139747,
        0.259223,
        0.238997,
        0.983927,
        -0.157113,
        0.602549,
        -0.320424,
        0.264859,
        0.0578381,
        0.625037,
        -0.97318,
        0.144616,
        -0.383533,
        -0.755667,
        -0.537039,
        -0.950557,
        -0.26447,
        0.936775,
        -0.809963,
        0.409379,
        0.78763,
        -0.425703,
        -0.896314,
        0.582058,
        0.506351,
        -0.12339,
        0.808376,
        0.671654,
        0.953194,
        0.561663,
        -0.75106,
        -0.186553,
        -0.179114,
        0.487179,
        -0.202626,
        0.663773,
        0.0897287,
        0.47695,
        -0.0713677,
        -0.852433,
        0.101987,
        -0.044548,
        0.292182,
        0.718453,
        0.199785,
        0.755144,
        0.767896,
        0.935315,
        0.691919,
        0.957933,
        0.344694,
        0.479549,
        -0.46777,
        0.44838,
        0.0616066,
        -0.961419,
        -0.67501,
        -0.130017,
        0.710235,
        -0.721816,
        -0.568355,
        0.959175,
        0.0916303,
        0.252531,
        0.446354,
        0.889004,
        -0.0836958,
        -0.463917,
        0.365954,
        0.844937,
        -0.316367,
        -0.532171,
        -0.199633,
        0.975832,
        -0.813606,
        -0.999826,
        0.730976,
        0.954313,
        0.935561,
        0.422908,
        0.912223,
        0.280183,
        -0.0975564,
        -0.555547,
        -0.271437,
        0.96405,
        -0.516965,
        0.0535527,
        -0.165967,
        -0.80673,
        0.331736,
        0.265679,
        -0.847555,
        -0.576633,
        -0.48179,
        0.5988,
        -0.687628,
        0.434513,
        -0.864286,
        0.681934,
        0.28577,
        -0.176969,
        -0.851791,
        -0.918574,
        -0.206296,
        -0.667909,
        -0.91992,
        -0.474649,
        -0.713051,
        -0.984497,
        0.948236,
        -0.800828,
        0.295685,
        -0.14932,
        -0.356375,
        -0.975752,
        -0.18527,
        0.12666,
        0.0778011,
        0.648763,
        0.31993,
        -0.590462,
        -0.0855581,
        0.472376,
        -0.167094,
        0.432584,
        0.0792306,
        0.151628,
        -0.134168,
        0.189332,
        -0.204666,
        -0.867284,
        -0.997845,
        -0.0359215,
        -0.793909,
        -0.207936,
        0.295802,
        -0.691313,
        0.348078,
        0.591539,
        -0.678028,
        0.292532,
        0.788647,
        0.617657,
        -0.856788,
        -0.567728,
        0.641906,
        -0.0420582,
        0.558932,
        -0.280293,
        -0.393295,
        -0.121771,
        0.128118,
        0.520948,
        -0.65508,
        0.942118,
        -0.0700031,
        0.367388,
        0.0930964,
        0.836516,
        -0.379003,
        0.989388,
        0.983363,
        -0.400756,
        -0.149125,
        -0.813288,
        0.47362,
        -0.795693,
        -0.499493,
        -0.183691,
        0.792891,
        -0.177521,
        -0.891159,
        0.581537,
        -0.559904,
        -0.747987,
        -0.986635,
        -0.918833,
        0.207928,
        0.568281,
        -0.203662,
        0.805271,
        -0.539903,
        0.952823,
        0.348736,
        -0.198058,
        0.935539,
        -0.587095,
        -0.589171,
        0.255226,
        -0.720172,
        -0.132861,
        -0.105561,
        -0.934886,
        0.5161,
        0.832549,
        -0.725771,
        -0.0212058,
        -0.964102,
        -0.225264,
        0.795104,
        0.828789,
        0.595789,
        0.903374,
        0.410242,
        -0.963488,
        -0.845823,
        0.420702,
        -0.885369,
        0.386277,
        0.0271219,
        -0.075929,
        0.199101,
        0.537502,
        0.0792428,
        -0.222419,
        -0.460966,
        0.0469626,
        0.0365505,
        -0.391602,
        0.749824,
        -0.0880687,
        0.336584,
        -0.322431,
        0.00512493,
        -0.162923,
        -0.490084,
        0.279217,
        0.815871,
        -0.454186,
        -0.947347,
        0.610155,
        -0.625301,
        0.650971,
        0.514592,
        0.783299,
        0.696163,
        0.716974,
        0.281918,
        0.852395,
        0.10587,
        -0.600738,
        -0.0446016,
        -0.534819,
        0.874597,
        0.807194,
        -0.0600829,
        1.04819,
        -0.664206,
        0.536973,
        -0.611629,
        -0.926758,
        -0.521941,
        0.712614,
        -0.250258,
        0.482112,
        -0.450309,
        0.259658,
        -0.2383,
        -0.634008,
        0.805902,
        -0.185293,
        0.974882,
        -0.819273,
        -0.475057,
        0.570845,
        1.05723,
        -0.747835,
        0.252286,
        0.31121,
        1.11144,
        -0.655388,
        0.552068,
        -0.194152,
        -0.469075,
        0.0784598,
        -0.744649,
        0.160645,
        -0.0547383,
        -0.399479,
        -0.287943,
        0.322493,
        -0.32811,
        0.188486,
        0.0351069,
        0.421632,
        -0.328911,
        0.58539,
        -0.318272,
        0.430637,
        0.949491,
        -0.492483,
        -0.708395,
        0.991262,
        -0.216697,
        -0.177653,
        0.490251,
        -0.294486,
        -0.057875,
        -0.27155,
        0.965513,
        -0.129344,
        -0.185786,
        0.185144,
        0.528385,
        0.212183,
        -0.779221,
        0.796738,
        -0.642071,
        0.160525,
        -0.603867,
        0.0692898,
        -0.516982,
        0.0680236,
        -0.741937,
        0.51848,
        -0.510391,
        -0.0727934,
        0.121341,
        0.204516,
        -0.606191,
        0.121138,
        0.7744,
        -0.280328,
        0.00223332,
        -0.64679,
        0.433183,
        -0.441142,
        0.0306874,
        -0.788424,
        0.0106214,
        -0.220369,
        0.0516614,
        0.765481,
        0.948147,
        -0.455282,
        -0.0418413,
        -0.831436,
        -0.658731,
        0.316088,
        0.329089,
        -0.262598,
        -0.614623,
        0.81213,
        0.804357,
        -0.34239,
        0.362381,
        -0.681112,
        0.642462,
        -0.456511,
        0.576152,
        0.984935,
        0.493333,
        0.156035,
        -0.338508,
        -0.382513,
        0.578263,
        0.975217,
        -0.0620694,
        -0.560813,
        -0.921409,
        0.844355,
        0.166908,
        0.071566,
        0.603656,
        0.115176,
        0.616284,
        -0.438186,
        0.28374,
        0.957553,
        0.877902,
        -0.387171,
        -0.306114,
        -0.711439,
        -0.551251,
        -0.451448,
        0.0155232,
        0.861549,
        -0.142719,
        -0.51722,
        -0.79062,
        -0.660339,
        -0.387887,
        0.828627,
        0.524486,
        0.125644,
        -0.79487,
        -0.132434,
        -0.180922,
        0.00651241,
        0.238139,
        -0.140111,
        -0.14909,
        -0.594865,
        0.931455,
        -0.545435,
        0.520311,
        0.547739,
        0.0163798,
        -0.195949,
        0.525486,
        -0.0738807,
        0.427215,
        -0.715371,
        0.265497,
        0.91946,
        -0.303192,
        -0.944348,
        0.656543,
        0.699459,
        -0.184797,
        0.933132,
        0.922489,
        0.0929968,
        0.4972,
        0.16991,
        0.903185,
        0.601619,
        0.976303,
        -0.289541,
        -0.392043,
        0.214485,
        0.570348,
        0.458867,
        0.619621,
        0.501803,
        0.913432,
        0.139932,
        0.0816652,
        -0.0369112,
        0.948971,
        -0.386472,
        0.934417,
        0.458978,
        -0.191455,
        0.0661377,
        0.393557,
        0.739823,
        0.309362,
        -0.0508851,
        0.109734,
        0.628909,
        -0.37573,
        -0.2871,
        -0.460611,
        -0.954725,
        0.85219,
        -0.559813,
        0.646482,
        0.828502,
        0.150646,
        -0.745561,
        0.0429871,
        -0.279008,
        0.713302,
        -0.337397,
        -0.743807,
        0.66011,
        0.831295,
        0.330711,
        -0.331877,
        0.841019,
        0.925543,
        -0.446106,
        0.419511,
        -0.103749,
        0.580208,
        -0.538256,
        -0.901608,
        -0.568582,
        0.130711,
        -0.0127589,
        0.994759,
        0.694963,
        0.700333,
        -0.463338,
        0.73974,
        0.55134,
        -0.0249254,
        0.386221,
        0.379841,
        -0.874282,
        0.638866,
        -0.588217,
        -0.137322,
        0.385465,
        0.121545,
        0.0930059,
        -0.0203347,
        -0.112231,
        -0.616665,
        0.673685,
        -0.104297,
        -0.576003,
        1.11823,
        0.839574,
        -0.226898,
        0.306055,
        -0.948464,
        -0.214116,
        0.685297,
        0.161397,
        0.785515,
        0.693361,
        -0.14362,
        0.478161,
        -0.781408,
        -0.403881,
        0.0295008,
        0.193666,
        0.97049,
        -0.604791,
        0.305565,
        0.63697,
        -0.136279,
        -0.826956,
        -0.0340831,
        0.931139,
        0.336853,
        1.11821,
        0.080495,
        0.762298,
        0.637002,
        0.475882,
        0.768184,
        0.417103,
        0.179576,
        -0.504929,
        -0.310381,
        0.231874,
        0.286898,
        -0.618817,
        -0.604401,
        0.0660168,
        -0.935113,
        0.251979,
        -0.455822,
        -0.716522,
        0.83396,
        0.559524,
        0.46505,
        0.830194,
        0.959567,
        -0.230025,
        0.436046,
        -0.123155,
        0.115705,
        -0.404764,
        -0.0427756,
        -0.652145,
        -0.51634,
        0.556813,
        0.796443,
        0.876994,
        -0.0238616,
        0.520852,
        0.29232,
        -0.842417,
        -0.980505,
        0.98887,
        0.394354,
        0.306965,
        -0.629948,
        0.789953,
        -0.627019,
        -0.565061,
        0.0276828,
        -0.0970484,
        -0.294624,
        -0.118668,
        -0.549285,
        -0.847798,
        -0.286815,
        -0.39262,
        0.168422,
        -0.637163,
        0.422545,
        1.07914,
        -0.352393,
        -0.966865,
        -0.860765,
        -0.0100192,
        0.560143,
        0.926155,
        -0.128171,
        -0.46358,
        0.450831,
        -0.828753,
        -0.30087,
        0.470836,
        -0.839886,
        -0.906516,
        -0.222199,
        -0.469833,
        0.877961,
        0.137217,
        -0.0487905,
        -0.0891366,
        -0.981175,
        0.63676,
        0.838202,
        -0.287593,
        1.06052,
        -0.318614,
        0.150384,
        0.00568983,
        -0.251652,
        -0.687122,
        -0.196159,
        0.302354,
        -0.666259,
        -0.0370756,
        -0.710545,
        0.888731,
        -0.102968,
        0.181903,
        -0.557538,
        -0.641559,
        0.353149,
        0.141592,
        0.829277,
        0.513263,
        0.235076,
        -0.396415,
        -0.964912,
        0.107688,
        0.729535,
        0.00311504,
        -0.902598,
        0.941737,
        -0.146347,
        0.953097,
        -0.495856,
        -0.341112,
        -0.593641,
        0.39844,
        0.426285,
        0.0890441,
        0.722885,
        -0.748432,
        -0.595497,
        -0.926825,
        0.245336,
        -0.274474,
        0.986205,
        -0.845328,
        0.90743,
        -0.571333,
        -0.486886,
        0.260578,
        0.570258,
        -0.657609,
        -0.22654,
        -0.196929,
        -0.0298597,
        -0.158114,
        0.969715,
        -0.123064,
        0.986053,
        1.10231,
        -0.361838,
        -0.41391,
        0.826498,
        -0.0843339,
        0.0805192,
        -0.791332,
        -0.676253,
        -0.474116,
        0.324967,
        -0.926201,
        -0.200442,
        0.746125,
        -0.843734,
        -0.953333,
        -0.528349,
        -0.85753,
        -0.798661,
        -0.620919,
        -0.428863,
        -0.285547,
        0.639659,
        -0.858605,
        0.0916606,
        -0.537133,
        0.00390624,
        -0.76409,
        0.473741,
        0.0314433,
        -0.251813,
        0.0591644,
        -0.16496,
        0.245205,
        0.57206,
        -0.336678,
        -0.83702,
        -0.337703,
        -0.112968,
        -0.500602,
        0.194775,
        -0.785426,
        -0.426769,
        0.994333,
        0.960699,
        -0.270504,
        -0.959,
        -0.56765,
        -0.128033,
        -0.757661,
        -0.188569,
        0.443103,
        -0.0179775,
        -0.499041,
        0.632594,
        -0.871186,
        -0.00210866,
        -0.374966,
        -0.96684,
        -0.905082,
        0.401671,
        -0.26644,
        0.151642,
        -0.760636,
        0.980269,
        -0.273627,
        -0.0945663,
        -0.855162,
        0.389823,
        0.801332,
        -0.355759,
        -0.415401,
        -0.99252,
        0.217472,
        -0.421068,
        0.968179,
        0.946968,
        -0.380069,
        -0.599471,
        -0.181065,
        -0.13773,
        0.21196,
        -0.737962,
        0.819062,
        0.663845,
        0.847619,
        0.832971,
        -0.472213,
        -0.622236,
        0.852645,
        -0.377,
        0.779568,
        -0.413766,
        0.774936,
        -0.980322,
        -0.433407,
        -0.498687,
        -0.074896,
        -0.288569,
        0.891136,
        -0.28199,
        0.355672,
        -0.524265,
        -0.274511,
        -0.426857,
        0.0546665,
        -0.306332,
        -0.479889,
        0.674598,
        0.0941978,
        0.339046,
        -0.463132,
        -0.693842,
        0.601084,
        -0.643948,
        0.969375,
        0.447662,
        -0.811372,
        -0.503153,
        0.825384,
        -0.958727,
        0.119847,
        0.604952,
        -0.372494,
        -0.105217,
        0.62463,
        0.194099,
        0.396096,
        -0.450266,
        0.904312,
        0.287232,
        0.267743,
        0.261202,
        0.762967,
        0.993233,
        0.834345,
        -0.182366,
        -0.313099,
        -0.645544,
        -0.507768,
        0.781099,
        0.693502,
        0.0291001,
        -0.912743,
        0.294586,
        0.38503,
        -0.943536,
        -0.257795,
        0.573658,
        -0.446689,
        -0.432411,
        0.614931,
        0.673158,
        -0.827459,
        -0.757563,
        -0.432059,
        0.797171,
        0.436537,
        0.964037,
        -0.653095,
        0.342067,
        0.251269,
        0.614648,
        -0.396732,
        0.0142362,
        0.607881,
        -0.562387,
        0.83187,
        -0.705861,
        -0.211921,
        -0.675899,
        -0.924146,
        -0.573325,
        0.242741,
        -0.860202,
        0.710138,
        -0.299935,
        -0.780398,
        -0.477638,
        -0.68811,
        -0.227087,
        0.0899516,
        0.926821,
        -0.553929,
        0.262493,
        -0.830742,
        0.0140119,
        0.0596638,
        0.605795,
        -0.0219515,
        0.406569,
        -0.0521387,
        -0.770683,
        0.0177886,
        0.541045,
        0.233389,
        -0.365965,
        0.984489,
        0.0546413,
        -0.141501,
        -0.431144,
        0.0660556,
        -0.46581,
        0.00167195,
        -0.300022,
        0.148153,
        -0.0866066,
        0.409677,
        0.352469,
        0.568902,
        0.802849,
        -0.844586,
        -0.341146,
        0.72967,
        -0.398515,
        0.921346,
        0.898928,
        0.615497,
        -0.01899,
        0.498151,
        -0.432397,
        -0.647043,
        -0.614419,
        -0.300322,
        0.288191,
        -1.14516,
        -1.1319,
        -1.27439,
        0.559425,
        -0.426718,
        -0.642144,
        -0.66367,
        -0.512815,
        0.850972,
        -1.13466,
        0.21977,
        0.100129,
        0.0924317,
        -0.210788,
        -0.493069,
        -0.344909,
        -0.4121,
        -0.337655,
        0.313945,
        -0.68243,
        0.26383,
        0.235291,
        -0.790085,
        -0.146914,
        -0.816942,
        0.721496,
        0.436302,
        -0.521417,
        -1.11595,
        -1.02325,
        -1.54903,
        -1.57753,
        -1.47799,
        -1.45761,
        -0.652533,
        0.747428,
        0.0135918,
        -0.212073,
        -0.952641,
        -0.016598,
        -0.0242019,
        0.334812,
        -0.901698,
        -0.93092,
        -0.8755,
        -0.394767,
        -0.275828,
        -0.2876,
        0.2679,
        -0.958895,
        0.0277989,
        -0.491012,
        0.152941,
        0.0451682,
        0.197279,
        0.236972,
        -0.232699,
        -0.330828,
        -1.12701,
        -0.215028,
        -0.179906,
        -0.6178,
        0.803311,
        0.758155,
        -0.881233,
        0.381932,
        0.110134,
        0.23142,
        -0.558453,
        0.0835717,
        -0.856961,
        0.415119,
        -0.569707,
        -0.758657,
        0.4842,
        -0.445207,
        -0.153312,
        -0.786966,
        0.268573,
        -1.06661,
        -1.09119,
        -0.987746,
        -0.64629,
        0.358701,
        0.565106,
        -0.970924,
        -0.16702,
        -0.980557,
        -0.471933,
        0.229476,
        0.812449,
        -0.848667,
        0.0478038,
        -0.228517,
        0.814136,
        0.543869,
        -0.583585,
        -0.293852,
        -0.464572,
        -0.106961,
        0.797077,
        -0.321505,
        -0.691842,
        -0.77263,
        -0.0801646,
        0.794555,
        -0.194609,
        0.686501,
        -1.07291,
        -1.07495,
        0.769847,
        -0.704674,
        -0.263489,
        -0.500949,
        0.504209,
        0.571889,
        -0.506006,
        -0.0602971,
        -0.320994,
        0.939608,
        0.941075,
        -0.969922,
        0.904234,
        0.229099,
        0.0288327,
        0.30883,
        -0.544108,
        0.486898,
        -0.991433,
        -0.00889397,
        -0.620048,
        0.805644,
        0.669623,
        -0.312186,
        -0.903664,
        -0.251898,
        -0.221585,
        0.324975,
        -0.159822,
        0.0148548,
        0.585379,
        -0.26677,
        -0.0405584,
        0.380788,
        0.218521,
        0.00433744,
        0.76463,
        1.11851,
        0.493702,
        0.639399,
        0.142049,
        0.381813,
        0.604783,
        -0.459487,
        -0.758207,
        -0.417003,
        0.811242,
        -0.302829,
        -0.930038,
        0.819884,
        0.688196,
        -0.535441,
        0.757169,
        0.599515,
        0.430146,
        1.16858,
        1.53185,
        1.24767,
        0.275781,
        -0.145004,
        -0.613549,
        0.921628,
        0.031199,
        0.289809,
        0.153762,
        0.874342,
        0.462779,
        0.909543,
        0.0468472,
        -0.0801435,
        0.220395,
        0.541022,
        0.748151,
        -0.290015,
        -0.976644,
        0.989536,
        0.293082,
        0.834758,
        -0.313086,
        0.363603,
        0.746349,
        -0.402884,
        1.09792,
        0.637309,
        1.2018,
        0.676795,
        0.634553,
        0.757074,
        -0.354297,
        0.676067,
        1.15229,
        -0.20668,
        0.165559,
        -0.0231404,
        0.83782,
        0.822621,
        1.35978,
        0.129041,
        0.0801091,
        -0.529114,
        0.416671,
        -0.897143,
        0.986663,
        0.164655,
        -0.187122,
        -0.989912,
        0.154302,
        -0.893591,
        0.89664,
        1.07524,
        0.762882,
        0.929599,
        -0.189924,
        0.970606,
        0.276763,
        0.615032,
        -1.06836,
        0.574876,
        0.435813,
        -0.382425,
        0.530664,
        1.12828,
        0.922143,
        1.45648,
        -0.387679,
        0.278944,
        0.336593,
        0.958996,
        0.78911,
        -0.871519,
        -0.567487,
        0.205748,
        -0.768661,
        -0.580824,
        -0.629597,
        0.0446587,
        -0.540943,
        0.626263,
        0.444585,
        -0.222707,
        0.91239,
        -0.0320529,
        0.521106,
        -0.156113,
        0.329577,
        -0.560881,
        0.463723,
        -0.650835,
        -0.0349328,
        0.305804,
        0.162742,
        0.765518,
        0.20491,
        -0.299065,
        0.41734,
        -0.0948103,
        0.375179,
        -0.543844,
        -0.133192,
        0.164289,
        -0.415363,
        0.299321,
        -0.629963,
        -0.183826,
        0.714682,
        -0.253219,
        1.04319,
        -0.477581,
        -0.518895,
        -0.0513506,
        -1.32156,
        -0.459867,
        0.121041,
        -0.813971,
        0.295376,
        0.769164,
        -0.227464,
        -0.294889,
        0.676458,
        0.229332,
        1.22016,
        -0.0984183,
        -0.479456,
        -0.32838,
        0.0062449,
        0.690598,
        0.578848,
        -0.618577,
        -0.853246,
        -0.554344,
        0.545712,
        -0.263047,
        0.800017,
        0.866405,
        0.810285,
        1.01477,
        -0.185466,
        0.0979773,
        0.18532,
        -0.426433,
        -0.219653,
        -0.398654,
        -0.270871,
        -1.00888,
        -1.13671,
        0.377359,
        0.450302,
        0.263396,
        -0.175376,
        0.508418,
        1.01072,
        -0.603715,
        0.840482,
        -0.598753,
        0.0790223,
        -0.153266,
        -0.908155,
        -0.34213,
        0.228158,
        -0.753199,
        0.101076,
        -0.137725,
        0.272518,
        0.340184,
        -0.263465,
        -0.593172,
        -0.835133,
        0.437521,
        1.69891,
        1.6621,
        -0.365953,
        -0.917203,
        0.397167,
        -0.802897,
        -1.14348,
        -0.798084,
        -0.312225,
        1.04897,
        0.0796398,
        0.0344222,
        0.190446,
        0.144033,
        0.494751,
        0.0488812,
        0.54528,
        -0.426226,
        0.895582,
        0.644517,
        0.192757,
        0.288319,
        1.15261,
        -0.447833,
        0.836304,
        -0.109493,
        0.184576,
        -0.18516,
        0.941912,
        0.842214,
        1.20255,
        0.520804,
        0.0583308,
        -1.69444,
        -0.106711,
        0.098859,
        -0.190397,
        -1.03369,
        0.423254,
        0.549497,
        0.947736,
        -0.286627,
        -0.310639,
        0.196379,
        0.857406,
        -0.815887,
        -0.754893,
        0.412411,
        -0.290746,
        -0.684312,
        0.270661,
        1.12866,
        0.231632,
        0.125684,
        -0.402126,
        0.673555,
        1.44835,
        0.907146,
        1.47531,
        0.353982,
        -0.600673,
        0.0337273,
        -1.0783,
        -0.966824,
        0.545959,
        -1.1769,
        0.683935,
        -0.130015,
        -0.934626,
        0.354878,
        -0.497106,
        -0.948289,
        -0.931749,
        0.192255,
        0.247988,
        0.94517,
        0.311653,
        0.606867,
        0.465994,
        -0.715671,
        0.80648,
        -0.26804,
        -0.456707,
        0.409944,
        0.6861,
        -0.434325,
        -0.581662,
        0.032056,
        0.473044,
        0.23104,
        -1.26605,
        -0.320796,
        0.174873,
        -0.741902,
        0.232894,
        0.35151,
        -0.406023,
        0.175732,
        -0.722334,
        -0.311689,
        -0.463982,
        -0.219441,
        -0.259996,
        -0.374062,
        0.872711,
        0.89489,
        -0.581206,
        0.480687,
        0.665236,
        1.17276,
        0.646876,
        0.0153309,
        -1.07723,
        0.538738,
        -0.910516,
        0.330225,
        -1.41517,
        -1.52086,
        -0.737217,
        -1.17306,
        0.875462,
        -0.447161,
        -0.165978,
        0.339186,
        0.301568,
        -0.642842,
        -0.24413,
        0.930424,
        0.538298,
        0.0335346,
        -0.402446,
        -1.05765,
        0.616459,
        -0.119428,
        -0.765409,
        0.7069,
        0.214907,
        0.137342,
        0.0461636,
        -0.673209,
        -0.388956,
        -0.394887,
        0.723602,
        -0.0784386,
        -1.19937,
        0.65103,
        -0.330215,
        -0.615891,
        -0.803867,
        0.244677,
        -0.82426,
        0.841259,
        -0.917365,
        0.268476,
        0.300589,
        0.388473,
        0.625635,
        -0.943541,
        0.248884,
        0.0202641,
        -0.125355,
        0.58828,
        -0.129054,
        -0.339524,
        0.0291479,
        0.880374,
        -0.272245,
        -0.526229,
        -0.0217321,
        0.844359,
        0.408682,
        -0.755101,
        -0.327447,
        0.428515,
        0.740049,
        -0.051639,
        0.48255,
        -0.685467,
        -0.0562932,
        0.397863,
        0.646988,
        0.25087,
        0.329334,
        0.729624,
        -0.480653,
        -0.370077,
        0.093574,
        -1.02104,
        -0.628642,
        -0.806955,
        0.192326,
        0.66191,
        -0.61562,
        -0.340194,
        -0.111139,
        0.91433,
        -0.322043,
        0.416751,
        -0.497053,
        1.10512,
        0.582517,
        0.982357,
        1.16329,
        0.792867,
        0.246764,
        0.324797,
        -0.637404,
        -0.415699,
        0.555441,
        0.274433,
        0.984269,
        0.202428,
        -0.474697,
        0.313602,
        -0.0679484,
        -0.0868962,
        0.707442,
        -1.16526,
        0.213667,
        -0.154345,
        -0.144529,
        -0.34151,
        -0.413331,
        0.276974,
        0.595812,
        0.370828,
        -0.0279003,
        1.10789,
        -0.224221,
        -0.0302839,
        0.216706,
        0.69364,
        -0.357552,
        -0.0709871,
        0.360514,
        0.866044,
        -0.852682,
        0.620589,
        -0.589832,
        0.702759,
        -0.104978,
        -0.605563,
        -0.0948128,
        0.402473,
        0.653839,
        0.822238,
        -0.526509,
        0.69988,
        1.03766,
        0.73897,
        -0.652998,
        -0.256619,
        -0.474473,
        -0.0942787,
        0.388301,
        0.571189,
        0.881142,
        0.730876,
        -0.302176,
        -0.811266,
        -0.380549,
        0.808145,
        0.889531,
        0.249095,
        -0.311873,
        0.191531,
        0.0835418,
        -0.164555,
        -0.187881,
        0.49371,
        -0.461796,
        0.707141,
        0.888147,
        0.443409,
        0.154039,
        0.652632,
        0.328453,
        0.533499,
        0.257014,
        0.277902,
        0.418246,
        0.634229,
        0.556824,
        0.517618,
        -0.733508,
        -0.168182,
        -0.295303,
        1.03288,
        -0.448262,
        0.307618,
        -0.775784,
        0.164083,
        0.115226,
        -0.886254,
        -0.586823,
        0.803352,
        0.305277,
        0.496719,
        -0.361203,
        -0.882604,
        -0.00957054,
        0.177001,
        0.843931,
        -0.0699769,
        -0.323,
        0.00291417,
        -0.437675,
        0.999119,
        -0.401285,
        0.739358,
        0.0679585,
        0.884246,
        0.308998,
        -0.388252,
        0.197703,
        0.475507,
        0.392614,
        0.790742,
        0.460196,
        0.938371,
        0.0983584,
        0.684412,
        0.102453,
        -0.786416,
        0.798159,
        0.515631,
        -0.983064,
        0.103436,
        0.0123502,
        -0.344266,
        0.220832,
        -0.99722,
        0.832735,
        0.0453694,
        -0.118644,
        -0.543122,
        1.00603,
        0.360275,
        -0.645635,
        -0.458034,
        0.078643,
        0.423192,
        -0.666692,
        -0.66963,
        -0.965217,
        0.524996,
        0.799083,
        0.425222,
        0.315737,
        0.259279,
        0.363592,
        -0.58712,
        -0.0563083,
        -0.533954,
        -0.37232,
        -0.25815,
        0.981677,
        -0.355384,
        0.845286,
        -0.00597316,
        0.30035,
        0.0661175,
        -0.00319356,
        0.133085,
        -0.888513,
        0.878163,
        0.586212,
        -0.89114,
        0.234282,
        0.940362,
        -0.349322,
        -0.687084,
        0.363554,
        -0.0160134,
        -0.356713,
        0.398338,
        -0.491018,
        -0.55763,
        -0.176441,
        0.82472,
        0.701649,
        -0.812848,
        -0.761184,
        -0.354659,
        -0.346803,
        -0.133504,
        0.387191,
        -0.365126,
        0.511112,
        0.232477,
        0.628901,
        -0.188536,
        -0.701406,
        -0.374293,
        0.944547,
        -0.589916,
        -0.49613,
        0.530759,
        -0.481058,
        0.738152,
        0.471121,
        0.16962,
        -0.948931,
        -0.165325,
        -0.846394,
        -0.305644,
        -0.766987,
        -0.337412,
        0.136725,
        0.0565718,
        -0.512692,
        -0.161626,
        0.243724,
        -0.273876,
        0.483715,
        0.896921,
        0.59262,
        -0.129094,
        -0.468203,
        0.103748,
        -0.896564,
        -0.839221,
        0.915248,
        -0.586977,
        -0.162216,
        0.902054,
        -0.187941,
        0.290273,
        0.3905,
        0.331,
        0.0284252,
        -0.138379,
        -0.49938,
        0.0794939,
        0.696296,
        -0.345774,
        0.773849,
        0.929308,
        0.316815,
        -0.0894252,
        -0.0141198,
        0.804123,
        0.748949,
        -0.770396,
        -0.469753,
        0.232678,
        -0.871829,
        -0.873631,
        -0.893326,
        -0.340342,
        0.227236,
        -0.741608,
        -0.126578,
        0.183848,
        -0.39109,
        0.605413,
        0.00153482,
        0.42099,
        -0.10431,
        -0.607965,
        -0.24801,
        0.924116,
        0.253656,
        0.25261,
        0.00360954,
        -0.0500484,
        0.906837,
        -0.222541,
        -0.12074,
        0.223651,
        0.688034,
        0.857636,
        -0.00766401,
        0.419557,
        -0.900301,
        0.562577,
        -0.326588,
        -0.762648,
        0.75827,
        -0.070707,
        0.082748,
        0.0868766,
        0.128659,
        0.851227,
        -0.836371,
        0.594455,
        0.30402,
        0.0508152,
        0.0100937,
        -0.80029,
        0.44285,
        0.762084,
        -0.876174,
        -0.303494,
        0.0146943,
        0.127435,
        0.646458,
        -0.0786309,
        0.902115,
        -0.531878,
        -0.924516,
        0.566342,
        -0.607799,
        0.17312,
        0.0303424,
        -0.409907,
        -0.0431025,
        0.909873,
        -0.129505,
        -0.434686,
        -0.411284,
        0.714795,
        0.483808,
        0.508973,
        0.249618,
        0.36862,
        0.0419207,
        -0.410942,
        -0.580552,
        -0.947854,
        -0.211211,
        0.862298,
        0.814231,
        -0.0873847,
        -0.441196,
        -0.173016,
        -1.00266,
        -0.867272,
        0.677933,
        0.909455,
        -0.26229,
        0.910523,
        0.620814,
        0.354066,
        0.31909,
        -0.294379,
        0.748567,
        0.85704,
        -0.665798,
        -0.611796,
        -0.656823,
        -0.117147,
        0.944288,
        0.530367,
        -0.807705,
        0.185344,
        -0.10058,
        0.235123,
        0.774902,
        0.318868,
        0.287269,
        -0.436308,
        0.181166,
        0.101091,
        0.459634,
        0.669467,
        0.873191,
        0.511183,
        1.00993,
        0.856518,
        0.720102,
        -0.0442445,
        0.746622,
        0.132601,
        0.907029,
        -0.285473,
        0.614711,
        0.344793,
        -0.524332,
        0.999952,
        0.872334,
        -0.342327,
        -0.426242,
        0.619941,
        -0.813084,
        -0.232506,
        -0.193622,
        0.0863273,
        -0.997383,
        -0.418719,
        -0.594805,
        0.288382,
        0.139462,
        0.525169,
        -0.652332,
        -0.342111,
        0.492224,
        -0.480491,
        -0.569048,
        0.556827,
        -0.884619,
        0.662139,
        1.00578,
        0.629074,
        -0.353007,
        0.709851,
        -0.837735,
        -0.647666,
        0.303673,
        -0.329694,
        0.999485,
        -0.128349,
        0.32548,
        -0.426194,
        -0.508353,
        0.512029,
        0.346499,
        0.298026,
        -0.401644,
        0.343103,
        0.876477,
        -0.0446132,
        -0.351741,
        0.20776,
        -0.18642,
        0.29946,
        0.889678,
        1.17155,
        0.453346,
        0.914678,
        0.279283,
        0.412897,
        0.394068,
        0.153548,
        -0.0436922,
        1.14443,
        0.069443,
        0.179247,
        -0.854669,
        -0.967305,
        0.822398,
        -0.855289,
        -0.096213,
        0.14734,
        -0.248845,
        0.396707,
        -0.335447,
        -0.931829,
        -0.29432,
        0.241352,
        0.515707,
        -0.143478,
        -0.413425,
        -0.721977,
        0.705425,
        -0.00595587,
        0.196988,
        0.347307,
        -0.148798,
        -0.552462,
        0.058247,
        0.997869,
        1.00561,
        -0.376477,
        0.245065,
        -0.314691,
        -0.611794,
        0.972206,
        0.841517,
        -0.466484,
        -0.9951,
        0.663735,
        -0.274115,
        -0.0807295,
        -0.177768,
        0.432978,
        -0.668768,
        0.570085,
        0.671596,
        0.289252,
        -0.0598528,
        -0.015274,
        0.665547,
        0.0219596,
        -0.0713637,
        0.187826,
        0.849423,
        0.931566,
        -0.555136,
        -0.243969,
        -0.341999,
        0.672192,
        -0.42405,
        -0.876944,
        0.843754,
        0.654109,
        -0.182021,
        -0.768086,
        0.626315,
        -0.340504,
        -0.186045,
        0.639602,
        -0.665923,
        0.472054,
        -0.445476,
        0.182504,
        -0.0145396,
        0.0336693,
        -0.315251,
        -0.611475,
        0.917221,
        0.377268,
        0.303423,
        0.523627,
        -0.522335,
        -0.773386,
        -0.23793,
        -0.598549,
        -0.729784,
        0.0628912,
        -0.241865,
        -0.618241,
        -0.574845,
        0.334349,
        -0.484419,
        -0.731139,
        -0.0115417,
        0.33356,
        -0.497493,
        -0.383602,
        1.00076,
        0.297496,
        -0.745879,
        -0.678865,
        -0.195108,
        -0.0386957,
        0.656161,
        0.801195,
        0.866729,
        -0.716162,
        1.08415,
        0.725287,
        0.611394,
        0.228488,
        0.12498,
        0.960884,
        0.136045,
        0.475539,
        0.860207,
        0.0736328,
        -0.547829,
        -0.355339,
        0.461097,
        -0.122712,
        0.97901,
        0.976678,
        0.146148,
        -0.032531,
        0.310385,
        0.674315,
        0.59315,
        0.220305,
        0.0027776,
        0.971027,
        0.80871,
        0.781625,
        -0.222564,
        0.250686,
        0.365,
        -0.527921,
        0.374833,
        0.300413,
        0.972106,
        -0.253421,
        -0.92114,
        -0.382808,
        -0.775735,
        0.0842812,
        -0.938158,
        -0.901998,
        -0.840299,
        -0.486006,
        -0.257336,
        0.620798,
        0.391281,
        -0.278326,
        0.595647,
        -0.447002,
        0.6785,
        -0.168497,
        -0.853241,
        0.365469,
        -0.630076,
        0.224884,
        0.168785,
        0.918734,
        -0.243348,
        0.803543,
        0.0494207,
        1.01482,
        1.0105,
        -0.867127,
        -0.0193134,
        0.69353,
        -0.451275,
        -0.0607905,
        -0.727657,
        -0.235558,
        -0.976351,
        -0.665818,
        -0.137556,
        -0.81665,
        -0.151825,
        0.605108,
        0.801788,
        -0.774501,
        -0.704415,
        0.378178,
        -0.126838,
        -0.778558,
        -0.488856,
        0.0516152,
        0.249059,
        -0.516601,
        -0.911407,
        -0.485759,
        -0.501139,
        -0.172689,
        -0.821075,
        0.421148,
        -0.186152,
        -0.860206,
        0.286172,
        0.587112,
        0.731743,
        0.818015,
        -0.473764,
        -0.995914,
        -0.417543,
        -0.450115,
        -0.661733,
        0.444901,
        -0.268514,
        0.17296,
        0.0767458,
        -0.287248,
        0.632647,
        0.546764,
        1.06255,
        -0.796933,
        0.389292,
        -0.676755,
        0.360506,
        -0.13616,
        -0.12078,
        0.204931,
        0.101508,
        0.319556,
        -0.818004,
        0.263118,
        -0.626869,
        -0.325003,
        0.226193,
        0.649278,
        -0.738074,
        -0.0422296,
        0.467293,
        -0.211838,
        -0.0381439,
        -0.950251,
        0.333633,
        0.288566,
        0.555183,
        -0.706538,
        -0.311949,
        -0.413496,
        -0.33026,
        0.936476,
        1.01036,
        -0.289138,
        -0.664088,
        0.454729,
        -0.16895,
        0.275963,
        0.995288,
        0.737634,
        -0.334955,
        0.126896,
        -0.30914,
        -0.492403,
        -0.770507,
        0.0556461,
        0.178769,
        0.45477,
        -0.295076,
        0.440694,
        -0.58746,
        -0.827783,
        -0.777802,
        0.363116,
        -0.717459,
        0.79223,
        -0.176892,
        0.744206,
        0.691743,
        0.270557,
        -0.583624,
        -0.575904,
        0.20256,
        -0.74111,
        -0.183003,
        0.211993,
        0.599274,
        0.766747,
        -0.378807,
        0.564577,
        0.159793,
        -0.0289912,
        -0.447654,
        0.839599,
        0.474022,
        -0.219037,
        -0.104755,
        -0.347209,
        -0.764267,
        0.600165,
        -0.909086,
        -0.36358,
        0.832457,
        -0.48387,
        -0.811067,
        1.0436,
        0.987522,
        -0.154557,
        0.859668,
        0.675412,
        0.961552,
        1.0364,
        0.874906,
        0.0965752,
        -0.69136,
        -0.282957,
        -0.743716,
        0.677726,
        -0.836096,
        -0.411246,
        0.142943,
        0.314635,
        0.558777,
        0.695164,
        0.154234,
        0.0327994,
        -0.523873,
        -0.950527,
        0.684019,
        -0.299946,
        0.688429,
        0.949564,
        0.550604,
        0.688897,
        -0.637455,
        0.63772,
        0.625242,
        1.22317,
        -0.73808,
        0.31313,
        0.698073,
        1.1,
        0.22852,
        0.412584,
        -0.126585,
        0.244021,
        0.85238,
        -0.0122711,
        -0.0935775,
        -0.979429,
        0.579405,
        -0.950635,
        0.335206,
        0.138182,
        0.744529,
        -0.51056,
        -0.829021,
        -0.787667,
        -0.474111,
        0.876784,
        0.0828981,
        -0.550574,
        0.890361,
        -0.495614,
        0.853635,
        0.959209,
        0.815246,
        0.151531,
        0.892241,
        0.862355,
        -0.839737,
        0.209181,
        0.686248,
        0.243968,
        -0.474901,
        -0.447363,
        -0.495758,
        -0.600598,
        0.554504,
        0.414913,
        -0.580028,
        0.133909,
        0.464279,
        0.755178,
        -0.727909,
        0.205803,
        -0.768129,
        -0.570272,
        0.443567,
        -0.171312,
        -0.592017,
        -0.469863,
        0.201987,
        1.1534,
        -0.262243,
        -0.392295,
        0.668461,
        -0.672076,
        0.573837,
        0.349092,
        -0.9584,
        0.766006,
        -0.358481,
        0.767036,
        0.0080095,
        0.184101,
        -0.656985,
        0.52644,
        0.583503,
        0.897519,
        -0.058647,
        -0.996525,
        0.0314279,
        -0.594368,
        0.758653,
        0.303519,
        0.629183,
        -0.970005,
        0.773702,
        0.0980697,
        -0.137374,
        -0.929689,
        0.361504,
        0.758804,
        0.989718,
        -0.931975,
        -0.680107,
        0.607752,
        -0.648116,
        0.950001,
        0.0750601,
        -0.49811,
        0.727144,
        0.699861,
        -0.744675,
        -0.26673,
        -0.116038,
        -0.40166,
        -0.74029,
        -0.532536,
        -0.504141,
        0.201063,
        -0.529061,
        0.527287,
        0.61712,
        -0.743663,
        -0.14812,
        0.256958,
