{
    "NInput": 784,
    "NHidden": 100,
    "NOutput": 10,
    "NHiddenLayers": 1,
    "Weights": [
        0.0449686,
        -0.0257969,
        0.030079,
        -0.0721805,
        0.0803071,
        -0.0409529,
        -0.0100832,
        0.015542,
        0.00272441,
        -0.075901,
        -0.0833774,
        -0.00879589,
        -0.058329,
        0.0563512,
        0.0705357,
        0.0221123,
        0.0523829,
        0.0141465,
        0.023912,
        -0.0289777,
        -0.00816301,
        0.055916,
        -0.0932192,
        -0.0543506,
        0.0553419,
        0.0267894,
        0.00286026,
        -0.0864628,
        -0.0614915,
        -0.061731,
        -0.00326349,
        0.0834772,
        0.0124721,
        -0.0731845,
        -0.0887033,
        -0.0072208,
        -0.0141374,
        0.00121348,
        0.26246,
        2.28425,
        0.104415,
        0.0265455,
        -0.0708197,
        -0.67515,
        -3.51386,
        5.82379,
        3.16356,
        -0.0299555,
        0.621231,
        -0.199401,
        -0.322275,
        -0.0436897,
        0.0689238,
        -0.088519,
        0.00195967,
        0.0242657,
        0.0382703,
        -0.0951801,
        0.0378029,
        0.0767789,
        -0.056911,
        -0.0654606,
        0.0602561,
        0.128824,
        1.41616,
        2.76999,
        5.45564,
        7.24453,
        -3.28603,
        -9.19785,
        -11.123,
        -13.3352,
        -25.1288,
        -3.30857,
        0.631642,
        -2.05022,
        -7.63254,
        -15.0239,
        -9.12058,
        -0.590635,
        -0.25464,
        -0.0987216,
        -0.0132941,
        -0.0639105,
        -0.0872406,
        0.0886656,
        0.0603552,
        0.0510297,
        0.0934855,
        -0.00184192,
        -0.0561662,
        1.11116,
        2.23332,
        -2.57722,
        -11.3386,
        -53.1531,
        -140.259,
        -149.344,
        -81.2368,
        -59.3621,
        -56.5088,
        -69.419,
        -50.2971,
        -33.2528,
        -38.0819,
        -8.97377,
        -7.50737,
        0.0703504,
        0.572116,
        -0.061779,
        0.0889876,
        -0.0831521,
        -0.0605006,
        -0.0243065,
        -0.0470626,
        -0.0477412,
        1.72422,
        1.16322,
        -3.96097,
        -5.75572,
        3.89822,
        15.9047,
        9.60517,
        4.51661,
        -74.8192,
        6.17192,
        48.3389,
        40.2813,
        60.4484,
        -71.7038,
        -50.482,
        -65.8732,
        -38.456,
        22.8484,
        45.9116,
        8.03861,
        8.70805,
        8.98254,
        0.00780616,
        0.0868315,
        -0.017226,
        -0.00320629,
        -0.0963206,
        -0.0142953,
        21.0452,
        25.9252,
        -9.99509,
        -62.8824,
        -56.8539,
        -64.0796,
        -78.4781,
        -24.6482,
        24.2768,
        123.894,
        107.528,
        -4.42723,
        -81.5322,
        102.271,
        33.4383,
        -65.9048,
        103.314,
        70.5648,
        63.2435,
        3.37416,
        -8.33587,
        -0.414293,
        -0.280367,
        0.0967951,
        -0.0256746,
        0.0567441,
        0.0836265,
        -4.94369,
        -3.80929,
        -17.1594,
        -100.941,
        -100.06,
        -106.885,
        -91.36,
        -40.9336,
        -51.158,
        -6.74843,
        -36.9005,
        13.0484,
        6.73225,
        19.4063,
        50.5977,
        -0.0482043,
        -11.5547,
        -31.1866,
        31.4021,
        -29.5984,
        -29.9599,
        37.3616,
        5.90616,
        2.94252,
        -0.831362,
        0.0435538,
        -19.4701,
        0.0468168,
        -51.8947,
        -71.9453,
        -48.4361,
        -81.4824,
        -31.0614,
        -27.3411,
        14.0412,
        55.8219,
        -83.2859,
        -95.955,
        76.7855,
        53.5503,
        60.1052,
        68.9636,
        21.9141,
        -19.7563,
        -49.8136,
        -49.5047,
        48.2298,
        -12.6319,
        -15.0327,
        61.5572,
        10.9361,
        -1.34662,
        -0.667104,
        0.230427,
        0.365763,
        0.305144,
        -32.842,
        -67.5705,
        -22.148,
        -4.07817,
        -11.8705,
        14.2649,
        27.1439,
        -33.202,
        -4.787,
        10.8868,
        -35.8125,
        10.9016,
        82.7116,
        40.8733,
        79.3937,
        -5.39559,
        5.3143,
        28.6883,
        64.7806,
        44.7799,
        21.2252,
        53.0107,
        25.182,
        4.94859,
        -0.0841668,
        0.1002,
        -2.43534,
        0.102732,
        -23.4984,
        -107.711,
        -32.6696,
        -25.2184,
        -58.9413,
        -10.6915,
        -4.97069,
        -17.595,
        50.7546,
        -14.6239,
        34.4653,
        20.4864,
        -64.8953,
        -117.011,
        65.6332,
        74.1905,
        -30.9723,
        -51.8049,
        10.0125,
        1.45759,
        17.0803,
        45.9018,
        40.6848,
        14.2593,
        -0.0995188,
        -0.0972088,
        0.19419,
        4.18309,
        -31.368,
        -77.9489,
        -2.42448,
        -39.5487,
        -4.01672,
        64.8923,
        24.4956,
        79.7164,
        15.8969,
        14.6801,
        21.7521,
        -12.7323,
        -73.3775,
        -145.616,
        -101.697,
        -49.7669,
        56.5202,
        0.618069,
        16.0504,
        23.7185,
        -2.20681,
        29.2133,
        54.1568,
        1.27609,
        0.0930501,
        -0.0310443,
        4.88037,
        5.75161,
        -15.0744,
        -53.6195,
        62.9612,
        53.5841,
        83.4348,
        49.73,
        54.8355,
        74.9233,
        25.4422,
        55.975,
        11.0332,
        -136.42,
        -71.3438,
        15.4748,
        -77.5493,
        -130.859,
        -76.7081,
        -44.6152,
        52.3104,
        -10.8031,
        7.11909,
        16.0293,
        25.0691,
        2.61069,
        0.0441477,
        -0.025339,
        4.9602,
        4.64081,
        -4.25714,
        -11.2421,
        81.8305,
        177.765,
        88.6759,
        -17.5878,
        7.5299,
        7.84861,
        57.2833,
        -78.7804,
        -145.796,
        -140.511,
        -9.11884,
        38.166,
        -66.6402,
        -42.4111,
        20.259,
        25.5582,
        -12.8015,
        -19.9034,
        56.5753,
        21.3571,
        8.18848,
        2.03707,
        -0.0908589,
        -0.0610797,
        0.71732,
        4.29301,
        2.86866,
        -16.5728,
        49.698,
        69.7513,
        17.0108,
        35.1207,
        -18.1249,
        20.3692,
        79.3782,
        -7.53681,
        -43.4016,
        -25.45,
        -34.8855,
        -68.8726,
        -101.512,
        -8.85377,
        25.4981,
        -32.5816,
        23.161,
        -11.7438,
        34.8342,
        2.54572,
        -4.05474,
        0.217925,
        0.0738787,
        -0.0769479,
        -0.0953993,
        0.296931,
        6.29415,
        12.7339,
        0.0559907,
        -74.1973,
        -52.0693,
        -64.689,
        21.1771,
        89.4479,
        -41.7912,
        2.85657,
        -92.2241,
        -80.5425,
        48.6371,
        0.969805,
        1.43384,
        -155.543,
        56.8485,
        -45.2995,
        -67.4128,
        38.0346,
        16.7441,
        3.74271,
        -4.4448,
        -0.216238,
        -0.0918971,
        -0.00591873,
        -0.0649111,
        0.0819816,
        18.4869,
        37.0582,
        53.2988,
        61.3207,
        15.7987,
        103.84,
        63.3222,
        148.749,
        -31.3183,
        -36.891,
        -65.4112,
        -150.758,
        -146.795,
        -43.9341,
        0.285394,
        -46.7357,
        -65.7846,
        75.4742,
        -57.6696,
        13.81,
        28.9366,
        -15.0854,
        1.38949,
        -2.19966,
        -0.0472484,
        0.00772918,
        0.0910267,
        -13.2697,
        -8.16832,
        17.6108,
        27.4769,
        44.047,
        23.221,
        47.3366,
        45.403,
        49.2837,
        121.355,
        10.5807,
        -59.5644,
        -120.732,
        -72.8355,
        -41.1706,
        -30.2616,
        -82.646,
        -52.8651,
        32.0027,
        -51.5535,
        -9.27865,
        -5.5289,
        -9.2905,
        -4.89292,
        -1.21748,
        0.0134549,
        0.00992946,
        -0.0457958,
        -13.9186,
        -28.2888,
        -35.6056,
        -29.6824,
        -3.08258,
        -25.5605,
        14.9526,
        -87.066,
        23.5162,
        149.183,
        40.5532,
        3.65609,
        101.198,
        69.3976,
        99.5593,
        -38.0064,
        -71.9495,
        -17.6356,
        116.658,
        -61.1395,
        17.9104,
        3.0581,
        -2.20115,
        -7.54746,
        -0.410769,
        -0.185797,
        -0.03632,
        -0.0536693,
        0.0911623,
        -51.6768,
        -78.0398,
        0.64247,
        84.5444,
        83.0178,
        20.3549,
        -26.2608,
        -46.7327,
        -19.908,
        104.718,
        66.0173,
        106.998,
        63.0438,
        57.985,
        44.8196,
        3.38627,
        -110.042,
        110.959,
        -45.8896,
        32.0978,
        6.25686,
        -11.4332,
        -1.22454,
        -0.0968367,
        0.347906,
        -0.0748237,
        -0.00741632,
        48.534,
        -13.8728,
        -81.0603,
        -98.5187,
        -4.7175,
        24.5542,
        154.126,
        116.387,
        17.3753,
        86.6364,
        73.7968,
        -125.461,
        -61.7018,
        -78.2049,
        -139.76,
        31.749,
        -12.6455,
        -24.2052,
        -32.7589,
        -15.6866,
        53.5568,
        21.1569,
        -17.5041,
        1.59614,
        -0.0973669,
        0.194722,
        0.0349224,
        -0.037571,
        32.4881,
        9.47879,
        -14.0444,
        -112.812,
        -61.7959,
        -12.6442,
        35.7425,
        -13.0634,
        72.7823,
        114.039,
        47.9791,
        71.5356,
        -60.0156,
        -10.6451,
        -43.6061,
        -0.22065,
        53.604,
        -48.6712,
        -146.032,
        -76.2429,
        -12.587,
        5.15783,
        -0.485601,
        1.15088,
        1.70311,
        0.0945888,
        0.0602919,
        0.0248279,
        -9.569,
        -8.11662,
        16.7202,
        41.9368,
        -0.357804,
        24.8555,
        63.8726,
        9.61031,
        9.0494,
        7.94746,
        44.2555,
        77.7769,
        41.7445,
        87.6799,
        -120.478,
        -25.6591,
        -17.3418,
        36.6002,
        51.9418,
        -36.7983,
        -47.2638,
        -4.81559,
        25.8915,
        1.256,
        2.91109,
        -0.0873067,
        -0.0546076,
        0.0347018,
        -3.53915,
        -27.0383,
        -43.7381,
        23.3382,
        29.5374,
        95.0209,
        -60.7631,
        -72.0011,
        0.390679,
        -58.9304,
        4.83062,
        34.0282,
        35.569,
        -141.431,
        -18.8762,
        -64.1465,
        0.516959,
        89.6983,
        37.3837,
        -7.87637,
        31.7229,
        3.72408,
        -0.21986,
        0.878251,
        1.65691,
        -0.0826064,
        -0.0988172,
        0.0114487,
        -0.193292,
        -25.3035,
        -110.636,
        -35.325,
        -38.8572,
        -83.0432,
        -7.74439,
        23.2285,
        -44.7487,
        54.2359,
        122.51,
        -18.1304,
        49.3254,
        29.1187,
        -40.9123,
        27.4821,
        75.4955,
        18.458,
        21.9759,
        16.5344,
        19.7004,
        18.0572,
        3.78742,
        0.03666,
        -0.0128692,
        -0.00829065,
        0.0153202,
        0.0860725,
        0.00910294,
        -44.2019,
        -95.0565,
        -39.6137,
        -58.6092,
        -23.0064,
        -21.6839,
        24.0791,
        -9.64336,
        -46.0993,
        -18.1051,
        -54.828,
        42.709,
        52.4075,
        70.8529,
        39.1839,
        -12.7373,
        -60.6099,
        -10.71,
        9.14452,
        -5.57227,
        6.30832,
        3.95897,
        0.0163064,
        0.00685201,
        0.0672756,
        -0.0470336,
        0.0939828,
        -0.0410151,
        -0.0652217,
        -39.9289,
        -43.011,
        -42.7262,
        -23.99,
        -21.1413,
        -29.7476,
        -59.0595,
        -87.2643,
        -80.6977,
        17.0867,
        58.0422,
        107.22,
        67.7109,
        52.5262,
        -4.32926,
        -37.8509,
        -4.31791,
        -25.5054,
        -12.6001,
        8.36149,
        3.39799,
        0.0975929,
        0.0942288,
        -0.052221,
        0.0138993,
        0.0010808,
        -0.0849455,
        0.169043,
        1.30997,
        2.08704,
        20.3157,
        8.35384,
        12.5267,
        3.6221,
        -10.1951,
        12.6638,
        24.587,
        15.4473,
        8.04836,
        25.7298,
        43.3449,
        17.0254,
        10.0809,
        -18.7256,
        -27.5027,
        -26.0187,
        -6.22657,
        0.0225534,
        -0.0704347,
        -0.0414027,
        -0.0319466,
        -0.0194195,
        -0.0438098,
        -0.0377178,
        0.0283595,
        0.0700895,
        0.063363,
        -3.55796,
        -9.21226,
        -11.1064,
        -3.46437,
        -0.117855,
        -0.137716,
        -3.29109,
        -8.97304,
        -9.19491,
        -3.91166,
        11.4344,
        0.432064,
        0.904749,
        24.3389,
        14.9641,
        2.01117,
        -15.0124,
        -9.62774,
        0.0946005,
        0.0258734,
        0.0544108,
        0.0171539,
        0.0554387,
        -0.707355,
        0.0852073,
        -0.0639808,
        -0.0308017,
        -0.0525105,
        0.0643787,
        -0.0607122,
        -0.0891475,
        0.00779276,
        0.0762429,
        -0.0307209,
        0.0252462,
        -0.0516497,
        -0.0971754,
        0.0848271,
        0.0403995,
        -0.0109344,
        0.0938129,
        0.000258313,
        0.04925,
        -0.0639597,
        0.0911322,
        -0.0460222,
        0.0554463,
        -0.0552777,
        -0.0243327,
        0.0500468,
        0.0705957,
        -0.0699219,
        -0.0327992,
        0.0260344,
        -0.0569138,
        -0.0475919,
        0.0620536,
        0.0122845,
        -0.00010242,
        0.0264323,
        0.0515722,
        0.0107501,
        0.958892,
        6.38075,
        -2.8372,
        -7.06055,
        -4.48278,
        -12.6851,
        -11.8564,
        17.471,
        11.1204,
        -3.24851,
        -12.5769,
        -3.27256,
        0.00338949,
        -0.0920446,
        -0.024853,
        0.0295979,
        -0.0473223,
        0.0508143,
        -0.0203552,
        -0.0767266,
        0.0808924,
        0.0468455,
        0.0493078,
        -0.0760214,
        0.0992536,
        0.197887,
        3.74013,
        6.97194,
        18.5049,
        25.1923,
        17.5517,
        0.811742,
        13.1054,
        -21.1828,
        -70.4032,
        -7.94229,
        -30.3648,
        -45.9384,
        -11.9508,
        8.66293,
        3.69844,
        1.501,
        0.533781,
        -0.0119486,
        0.0331593,
        0.0410198,
        -0.0823506,
        0.085837,
        -0.00816586,
        -0.00270583,
        -0.0908896,
        -0.0272735,
        0.482588,
        -1.04766,
        9.74504,
        14.9665,
        16.2479,
        -3.14347,
        -65.721,
        17.8533,
        10.3882,
        19.0971,
        3.996,
        -29.8497,
        -44.5635,
        -38.6956,
        2.6782,
        -14.7708,
        11.1052,
        4.62632,
        1.83223,
        0.000770758,
        0.0618542,
        -0.0742634,
        0.0888222,
        -0.00498656,
        0.0667564,
        -0.0935284,
        -1.74933,
        -2.40378,
        0.483944,
        18.312,
        76.0223,
        -16.5818,
        -38.0162,
        -17.8376,
        22.0125,
        85.5214,
        65.6007,
        4.46983,
        29.2633,
        31.3919,
        43.5198,
        11.9169,
        -76.8172,
        -29.5228,
        -77.921,
        -20.4515,
        5.9945,
        1.256,
        -0.0168327,
        0.00368953,
        0.00404825,
        -0.0549786,
        0.0294261,
        -0.261585,
        -3.82271,
        17.2992,
        42.3586,
        94.2074,
        67.1149,
        80.4784,
        12.7287,
        -10.9469,
        -2.48927,
        23.5872,
        -38.0013,
        74.4995,
        168.107,
        16.0975,
        131.163,
        47.559,
        16.1141,
        -48.0569,
        -80.0602,
        -41.6324,
        -2.44363,
        10.8089,
        -0.113022,
        0.0349357,
        0.028124,
        -0.0951719,
        -0.0613747,
        -3.23965,
        16.8679,
        21.1534,
        19.3365,
        71.5414,
        11.4461,
        49.7917,
        93.3206,
        -28.008,
        -49.1511,
        -25.2286,
        -103.02,
        93.2371,
        62.0434,
        -90.2811,
        34.5895,
        -32.9996,
        8.52954,
        81.6832,
        -24.4964,
        -78.4343,
        -48.7354,
        18.2307,
        12.3198,
        0.0780341,
        -0.0500325,
        1.89799,
        -0.224026,
        2.1953,
        24.5925,
        38.3847,
        -20.7842,
        64.6953,
        71.3905,
        -12.8273,
        -16.8284,
        25.2123,
        -0.0719401,
        149.589,
        -41.9273,
        28.1237,
        88.7452,
        13.2761,
        96.4032,
        49.2109,
        15.8852,
        118.941,
        79.1788,
        -43.5296,
        -27.754,
        25.0947,
        14.2567,
        -0.653288,
        -0.0863406,
        -0.267888,
        -0.384224,
        -1.25352,
        26.0354,
        15.3416,
        -82.8967,
        -9.78306,
        19.4797,
        21.3793,
        -4.88454,
        27.029,
        -13.927,
        21.3894,
        63.624,
        25.9652,
        19.5995,
        95.8593,
        175.691,
        91.8583,
        60.5356,
        109.939,
        72.4942,
        3.37367,
        -44.2016,
        -21.6298,
        -4.89527,
        -0.0467342,
        -0.0382698,
        -7.39095,
        3.34708,
        -3.42647,
        -48.5611,
        -54.273,
        -57.8495,
        -70.0556,
        17.2193,
        -19.0538,
        26.5733,
        -33.8935,
        -46.4252,
        140.409,
        23.4737,
        -46.1628,
        14.5003,
        28.075,
        123.745,
        43.5112,
        -68.6686,
        -22.9537,
        -22.8745,
        27.2147,
        -31.15,
        -46.3475,
        3.53065,
        -0.0420486,
        -0.068103,
        -0.0664144,
        21.3474,
        15.912,
        2.08729,
        -44.078,
        -25.8501,
        -18.4516,
        -23.3966,
        22.6284,
        -90.4168,
        -89.8919,
        9.00996,
        -5.39487,
        -7.88926,
        111.32,
        39.4582,
        19.1141,
        38.5856,
        46.6066,
        -104.868,
        -17.0877,
        -5.21139,
        -40.0456,
        -2.99341,
        35.2066,
        -0.291754,
        0.0606922,
        -0.0775653,
        -0.168015,
        13.4236,
        4.42378,
        5.33536,
        -71.5691,
        -73.4408,
        -71.4962,
        -85.8718,
        -124.13,
        -30.418,
        -71.9305,
        -59.7874,
        -111.424,
        -39.8388,
        11.8088,
        79.3147,
        -7.45808,
        55.2272,
        -9.3854,
        -3.23194,
        -48.4743,
        -18.5313,
        -63.7911,
        -3.67648,
        55.8242,
        1.85856,
        -0.072646,
        0.0913877,
        -0.257637,
        1.3029,
        -12.9437,
        -46.5852,
        -94.6548,
        -42.3488,
        -75.1795,
        -142.842,
        -78.7604,
        -99.685,
        -200.683,
        -98.2664,
        -31.8129,
        41.0103,
        21.8554,
        -21.7217,
        -98.3962,
        -79.6214,
        -22.4375,
        -0.129498,
        -135.252,
        -108.584,
        -33.1004,
        7.58626,
        -2.64938,
        1.39143,
        0.0380105,
        -0.0790672,
        -0.0703603,
        11.1487,
        -3.20809,
        -79.6513,
        -48.3058,
        49.1841,
        -39.2381,
        -140.849,
        -163.985,
        -146.077,
        -194.624,
        -18.7438,
        38.6367,
        36.1235,
        86.7416,
        -50.494,
        -50.008,
        56.527,
        -27.6522,
        -43.0898,
        -146.055,
        -42.1147,
        38.7498,
        31.8904,
        -20.9292,
        0.10594,
        0.0948537,
        -0.0560998,
        0.0152521,
        1.60258,
        -8.2511,
        -43.8464,
        -73.6243,
        -28.0237,
        -19.4148,
        27.5964,
        -44.1848,
        -71.6011,
        -50.4695,
        -36.2908,
        49.6768,
        -54.796,
        5.01999,
        -135.247,
        -13.8719,
        64.8279,
        -136.114,
        -43.031,
        -102.237,
        6.9671,
        -16.5335,
        -18.954,
        -10.6026,
        6.33044,
        0.0713863,
        0.0731989,
        -0.0327028,
        0.06624,
        -12.0807,
        -36.0443,
        -33.0793,
        64.2425,
        129.705,
        77.0958,
        34.3615,
        2.65439,
        59.3719,
        59.0204,
        76.2851,
        21.1321,
        -32.2999,
        -17.5138,
        -103.966,
        -113.417,
        -87.5995,
        27.5694,
        42.9776,
        -26.1873,
        -52.9826,
        -38.9648,
        86.7482,
        87.8769,
        0.00897153,
        -0.0440195,
        -0.0182684,
        2.35777,
        15.0686,
        26.5958,
        60.6609,
        44.8873,
        -3.99657,
        -47.2191,
        -49.684,
        14.1136,
        12.7705,
        110.334,
        -18.5154,
        -4.69959,
        22.363,
        40.5922,
        -23.2614,
        -156.567,
        -14.4532,
        -8.34056,
        93.6141,
        -4.90443,
        28.0438,
        69.0446,
        97.9487,
        45.5432,
        0.00817025,
        -0.0837694,
        0.0333524,
        1.26498,
        24.1278,
        23.4856,
        11.0294,
        24.3,
        -85.6295,
        -91.2261,
        -36.3496,
        7.35488,
        -86.908,
        -77.1493,
        -51.3832,
        -81.2573,
        -6.68721,
        -79.2691,
        -17.6023,
        7.41475,
        15.7609,
        -3.16991,
        115.048,
        78.0598,
        57.1431,
        35.5258,
        25,
        6.0425,
        2.38386,
        -0.0281541,
        -0.00927447,
        5.50386,
        -1.72117,
        67.1771,
        0.078033,
        60.6317,
        91.5773,
        -34.8985,
        -42.896,
        -20.667,
        -26.3585,
        90.0473,
        -7.30438,
        -21.1952,
        21.6693,
        1.36522,
        55.59,
        118.341,
        -39.2676,
        21.1275,
        -7.74186,
        54.0688,
        61.9729,
        127.29,
        12.8436,
        1.55948,
        10.9261,
        -0.0678607,
        0.0489717,
        5.16128,
        -13.2686,
        119.768,
        120.899,
        117.041,
        62.3403,
        106.153,
        84.5801,
        71.4441,
        34.826,
        49.2546,
        40.3475,
        142.122,
        -21.6485,
        -6.19975,
        59.9366,
        44.8162,
        96.3756,
        100.822,
        -39.576,
        12.1289,
        25.5639,
        49.0293,
        1.82657,
        -0.0161734,
        4.1945,
        0.00770932,
        -0.0809994,
        15.2571,
        -7.33104,
        6.94634,
        11.0354,
        63.8541,
        41.9811,
        76.2214,
        7.62305,
        165.037,
        39.2304,
        83.0798,
        103.677,
        49.81,
        104.522,
        86.4974,
        34.7927,
        22.4467,
        66.8113,
        101.551,
        70.6267,
        38.0253,
        14.5457,
        25.2381,
        0.257248,
        1.13507,
        -0.0904884,
        0.0377085,
        0.0392409,
        16.7819,
        30.0567,
        16.8864,
        27.8478,
        95.832,
        123.567,
        31.7645,
        32.4532,
        48.29,
        61.7176,
        44.6444,
        -68.5557,
        -102.323,
        -57.2155,
        -28.5818,
        -56.0442,
        -67.2101,
        -53.6206,
        1.14159,
        32.3628,
        17.8865,
        46.3763,
        44.2682,
        1.41243,
        2.2651,
        0.00665734,
        -0.0202379,
        -0.0113972,
        -0.566341,
        4.89587,
        38.1782,
        25.5469,
        72.6953,
        120.823,
        79.9763,
        15.8716,
        28.08,
        41.4492,
        47.0142,
        -65.7066,
        -5.42727,
        2.22342,
        11.5972,
        34.6491,
        -15.2506,
        -1.10314,
        55.341,
        86.8544,
        18.2875,
        -2.97323,
        6.66724,
        0.411976,
        1.22146,
        0.0475722,
        0.0516153,
        0.0915447,
        -0.0396275,
        5.56973,
        28.4284,
        29.1898,
        37.9213,
        14.0618,
        -56.2628,
        -83.8822,
        -68.4086,
        -8.24048,
        -24.8095,
        -25.9985,
        29.5698,
        -56.593,
        30.0909,
        78.6602,
        67.3085,
        80.5126,
        57.028,
        78.4432,
        41.3815,
        13.6688,
        -4.72346,
        -0.0731906,
        0.0767339,
        0.0580624,
        -0.035594,
        0.0350899,
        0.00563458,
        -2.73293,
        4.25602,
        -3.7017,
        -24.4795,
        -46.191,
        91.6933,
        9.79921,
        -50.7821,
        -90.6807,
        -13.1312,
        1.43543,
        -30.0406,
        39.0989,
        -26.0831,
        44.7058,
        2.8564,
        89.0156,
        10.1825,
        21.2944,
        5.51187,
        1.28373,
        -4.90418,
        0.00713615,
        0.0946656,
        0.0852091,
        0.0339455,
        0.0713995,
        0.0432715,
        0.214716,
        -0.283012,
        -17.9441,
        -34.5224,
        -28.6748,
        -21.3413,
        -44.4193,
        -57.9193,
        -41.3253,
        -31.1537,
        -48.8283,
        -92.4369,
        -2.54139,
        34.8517,
        21.3052,
        87.3957,
        83.2263,
        48.4739,
        14.4556,
        -4.24115,
        -9.10437,
        -4.08198,
        -0.0816149,
        0.0177012,
        -0.0173677,
        0.0255212,
        0.0123668,
        -0.0321586,
        -0.14392,
        -1.18901,
        -3.13764,
        -7.52771,
        -17.0065,
        -33.4828,
        -24.4138,
        -16.1813,
        -6.93867,
        -12.4049,
        -17.6759,
        2.88118,
        25.1612,
        17.8614,
        19.2038,
        14.7577,
        8.65481,
        9.82524,
        15.0284,
        4.75945,
        -0.0396598,
        0.0307596,
        -0.0932163,
        -0.0724401,
        -0.0459202,
        -0.0748312,
        0.0452612,
        0.0367122,
        0.0506901,
        -0.042372,
        0.550566,
        0.481649,
        1.47803,
        1.11022,
        -0.232707,
        -0.00633725,
        0.15345,
        -2.52188,
        -4.99658,
        -2.0715,
        8.25774,
        3.26606,
        0.790557,
        -0.913806,
        4.56183,
        5.3735,
        11.2556,
        7.08707,
        0.0512681,
        -0.0840471,
        0.0780235,
        -0.0883917,
        0.0467125,
        0.0402433,
        -0.0608318,
        -0.0992077,
        -0.0900239,
        0.0844294,
        0.0375045,
        0.0606662,
        -0.0579426,
        0.0420581,
        0.070823,
        0.0834517,
        0.0577246,
        -0.061202,
        0.0151019,
        -0.06659,
        0.078964,
        -0.0298682,
        0.0778845,
        -0.0469074,
        -0.0115523,
        0.0301808,
        -0.0807977,
        0.024729,
        -0.0422987,
        -0.056705,
        0.0425045,
        -0.0910306,
        -0.0407521,
        0.020528,
        -0.0794223,
        -0.0940397,
        0.00533529,
        -0.0402541,
        -0.0932473,
        0.0153114,
        -0.0558247,
        0.0442572,
        -0.0240224,
        -0.0137673,
        -0.752641,
        -4.63473,
        -0.893046,
        -2.14888,
        -1.97982,
        -5.79497,
        -6.21969,
        -11.8671,
        -6.80933,
        -0.470031,
        -0.788419,
        -0.374647,
        -0.0777626,
        0.0368573,
        -0.0319052,
        -0.0567835,
        0.0801523,
        -0.0894006,
        -0.0478141,
        -0.0605998,
        0.0311274,
        -0.0272365,
        -0.0546395,
        -0.0635373,
        0.0325095,
        -0.220929,
        -3.38435,
        -6.33269,
        -13.1206,
        -16.5262,
        0.314654,
        2.92125,
        2.34436,
        -0.80887,
        11.929,
        -31.2674,
        -33.6962,
        -16.9205,
        3.75524,
        15.0147,
        9.79393,
        0.254675,
        0.0833378,
        -0.0549751,
        -0.0207745,
        0.0837671,
        -0.0117586,
        -0.0406222,
        0.0943664,
        0.0404272,
        -0.00122205,
        0.0254938,
        0.180927,
        -4.71711,
        -4.5746,
        -1.42042,
        1.36166,
        23.0538,
        2.38864,
        22.7581,
        -6.82798,
        3.11225,
        -24.0799,
        -31.2643,
        -33.4712,
        -54.8159,
        -2.71379,
        5.61125,
        19.9295,
        1.9535,
        1.02816,
        -0.034282,
        0.0432661,
        0.0232713,
        0.0107429,
        -0.0775084,
        0.00703839,
        0.0989843,
        -1.47797,
        0.0691445,
        -1.87312,
        -4.80191,
        10.8868,
        -21.2787,
        -62.7873,
        -21.6042,
        -22.465,
        -54.8497,
        36.9089,
        14.5851,
        -47.9829,
        9.4406,
        -13.2805,
        -20.213,
        -5.13618,
        -15.5574,
        -43.5735,
        15.3735,
        0.420945,
        -23.6861,
        -0.0628147,
        0.0667863,
        -0.0370734,
        0.0804514,
        -0.00994243,
        0.103683,
        -4.38206,
        2.67637,
        -8.74653,
        25.1014,
        84.4926,
        40.817,
        -13.5468,
        29.5443,
        11.8786,
        -31.4739,
        19.8652,
        82.3866,
        95.7189,
        14.5779,
        -59.7424,
        44.0792,
        -6.4834,
        -35.8071,
        -19.2277,
        20.8199,
        6.41151,
        -12.9398,
        1.17547,
        -0.0272705,
        -0.0978815,
        0.0944833,
        -0.0604843,
        3.10309,
        14.3265,
        23.3985,
        -1.07497,
        58.1193,
        95.0573,
        16.0266,
        43.8019,
        17.0535,
        -86.4624,
        47.6435,
        -58.065,
        -11.0519,
        4.28828,
        -1.24468,
        -18.7164,
        -26.8459,
        22.9553,
        31.8767,
        39.7679,
        5.64076,
        -72.6654,
        -40.1311,
        2.22317,
        6.59581,
        -0.0645987,
        8.67089,
        -0.0780999,
        27.8903,
        56.9466,
        58.3334,
        11.9835,
        21.8264,
        1.50376,
        -40.1986,
        -72.342,
        25.2333,
        15.8489,
        -51.7797,
        -23.1042,
        -10.0473,
        2.14922,
        0.192193,
        95.5984,
        53.5817,
        22.0378,
        53.2759,
        6.97673,
        -21.198,
        -33.7447,
        -40.6264,
        12.4852,
        2.65119,
        -0.224343,
        -0.169165,
        -0.154054,
        41.1162,
        71.5498,
        19.9737,
        -29.9445,
        20.9886,
        -52.1204,
        -37.1818,
        68.7562,
        -21.209,
        2.73226,
        5.35609,
        18.887,
        -33.6361,
        6.66467,
        3.61884,
        4.17955,
        46.5036,
        51.8397,
        10.1133,
        -38.4369,
        -57.6989,
        -32.9989,
        -70.7565,
        -15.8792,
        0.0475099,
        -0.0594736,
        -2.07496,
        -3.11612,
        16.4891,
        58.0681,
        -0.415312,
        -6.57974,
        48.7937,
        -79.3625,
        -31.1879,
        19.0092,
        -51.2504,
        0.748057,
        -16.2845,
        -23.3897,
        21.6191,
        118.752,
        -20.6317,
        7.53452,
        55.9962,
        -1.3193,
        0.452873,
        6.04424,
        20.0131,
        -63.3193,
        -91.0757,
        -31.17,
        0.0573134,
        -0.00933826,
        0.0214211,
        -18.8077,
        -6.97767,
        13.769,
        -25.9296,
        42.1775,
        1.98565,
        -74.0888,
        -7.98813,
        -71.2017,
        -51.9338,
        14.5231,
        -134.037,
        -74.5299,
        5.64399,
        93.0065,
        95.565,
        126.671,
        34.9246,
        -60.9447,
        6.94595,
        16.4131,
        13.3216,
        -58.0652,
        -128.311,
        -2.13956,
        0.00401162,
        -0.0890919,
        -1.52124,
        -14.0462,
        -19.5177,
        -11.8877,
        -37.9894,
        -24.3363,
        10.349,
        -102.739,
        -51.7627,
        -73.0667,
        -31.2593,
        -24.335,
        -59.5675,
        -17.6431,
        77.3651,
        16.3071,
        39.3161,
        28.6642,
        101.987,
        128.758,
        64.6774,
        87.2392,
        19.0178,
        -27.0696,
        -59.7815,
        -0.0656057,
        0.0688843,
        -0.0753394,
        -1.74468,
        -3.95279,
        -10.2756,
        -6.62108,
        -15.4592,
        -43.0248,
        -68.5007,
        20.3019,
        -5.75079,
        2.29287,
        -70.2017,
        45.748,
        63.4123,
        73.8931,
        24.6388,
        -30.443,
        23.0034,
        8.12342,
        34.129,
        -34.8357,
        58.7948,
        9.68903,
        -3.40868,
        -21.6524,
        -25.9777,
        -0.066934,
        -0.00915424,
        -0.00277859,
        -0.3036,
        -2.48408,
        -4.08662,
        10.4308,
        -7.82423,
        -16.4291,
        -54.3426,
        -38.1261,
        19.3474,
        -31.2846,
        -40.8301,
        44.792,
        -43.1369,
        -15.5114,
        -9.00369,
        96.4106,
        60.2848,
        -12.5612,
        45.7581,
        -47.4596,
        19.0456,
        52.3454,
        41.1843,
        28.3773,
        0.799307,
        0.037288,
        0.0281144,
        0.0732879,
        -0.048544,
        -0.99117,
        -1.76104,
        8.26282,
        45.3429,
        39.3772,
        68.8153,
        29.2899,
        -19.3602,
        -72.502,
        26.7965,
        -61.9385,
        47.4714,
        3.03132,
        -51.9431,
        -7.21305,
        -4.4054,
        40.1174,
        -43.065,
        -5.19598,
        24.4801,
        30.3012,
        19.4764,
        -4.84017,
        -6.56557,
        1.61066,
        -0.0903372,
        0.0936627,
        0.0438023,
        0.0377772,
        -2.54825,
        9.87569,
        31.8437,
        43.9486,
        57.2757,
        17.0416,
        -9.1761,
        -127.718,
        21.4984,
        18.7843,
        80.8532,
        82.1089,
        53.8193,
        -1.32278,
        -19.8601,
        -6.4222,
        24.9854,
        -22.2078,
        14.2153,
        -16.0213,
        -49.9201,
        -39.5277,
        13.315,
        19.3671,
        0.0861206,
        -0.0547859,
        0.0956324,
        3.67611,
        6.38243,
        -18.0151,
        42.5449,
        -2.18024,
        85.6664,
        -11.3279,
        -30.7253,
        5.9889,
        1.73083,
        41.1248,
        50.5327,
        52.5572,
        68.0736,
        61.8428,
        35.1671,
        18.5346,
        -1.66829,
        -5.988,
        9.17324,
        -36.2096,
        12.5948,
        -20.1154,
        31.5917,
        9.91391,
        0.098196,
        0.0110703,
        -0.0271627,
        4.65006,
        14.5586,
        4.12004,
        42.198,
        -12.9894,
        -5.44254,
        -34.0969,
        51.7977,
        93.0763,
        -89.0221,
        -12.2735,
        15.7589,
        29.5425,
        12.2353,
        -43.3107,
        37.3722,
        27.4028,
        18.4559,
        -76.0127,
        23.1524,
        -23.3205,
        6.21841,
        3.78761,
        22.6562,
        0.465101,
        0.56168,
        0.0262988,
        -0.0757007,
        -5.294,
        15.5984,
        24.5811,
        -90.6379,
        -42.7817,
        -73.3752,
        -22.8931,
        55.5805,
        79.6797,
        -3.57496,
        66.7889,
        55.6153,
        -21.1035,
        -9.26169,
        4.52768,
        -84.5779,
        -9.82151,
        61.4654,
        -59.5176,
        31.6074,
        7.85521,
        35.5542,
        52.6121,
        9.00077,
        0.0787936,
        -1.11628,
        0.0966393,
        0.0318359,
        -53.1562,
        -16.7612,
        33.6439,
        48.2572,
        1.22552,
        6.76769,
        -113.994,
        -70.5502,
        -1.38599,
        -69.3976,
        -80.4054,
        10.9228,
        32.151,
        44.9355,
        105.983,
        -22.1143,
        -6.99466,
        38.1061,
        2.83644,
        10.6144,
        -23.9401,
        -14.1837,
        26.5533,
        0.620251,
        -0.0788047,
        -0.663831,
        -0.0920592,
        -0.0959533,
        -18.9514,
        -29.831,
        -43.3139,
        24.9121,
        87.6913,
        92.2365,
        -88.6133,
        -39.1828,
        -53.8205,
        -36.813,
        -44.4843,
        -108.582,
        83.5589,
        23.6133,
        -2.72289,
        -28.2893,
        -8.6132,
        14.566,
        75.0068,
        83.1524,
        44.0885,
        -11.0669,
        -8.78482,
        0.640509,
        0.0281533,
        -0.0581609,
        -0.0813285,
        -0.0894677,
        13.5333,
        12.4091,
        -31.0865,
        -60.3051,
        -17.1052,
        53.8945,
        -41.8099,
        -73.8763,
        7.67211,
        -22.0377,
        57.3582,
        -45.679,
        9.2268,
        -63.5132,
        6.57793,
        32.2455,
        20.3522,
        -44.8956,
        -13.2131,
        77.1936,
        48.013,
        -3.92489,
        -10.9968,
        0.374243,
        0.275647,
        -0.0242297,
        -0.0174286,
        0.0303709,
        1.53972,
        16.3796,
        8.93852,
        5.01233,
        1.73589,
        -32.1147,
        68.9155,
        -12.1898,
        1.44328,
        8.39727,
        -55.6494,
        -17.7931,
        -56.9665,
        31.0456,
        38.9802,
        134.787,
        31.7864,
        -64.5183,
        -9.17782,
        43.8495,
        -4.56746,
        -3.14047,
        -0.335569,
        0.0184511,
        0.0236076,
        0.0893464,
        0.0887289,
        0.0251192,
        0.0581849,
        3.62436,
        16.3565,
        10.8311,
        -4.74741,
        33.2925,
        6.4376,
        -20.9763,
        12.7308,
        -1.354,
        -42.155,
        48.1795,
        19.7519,
        -16.18,
        -3.22439,
        10.5983,
        -21.7821,
        -23.9604,
        18.6353,
        44.2814,
        13.4967,
        12.0564,
        4.06635,
        -0.0728134,
        -0.049739,
        -0.0648588,
        0.0973575,
        -0.0656538,
        -0.0755124,
        7.34756,
        -3.11587,
        -17.1795,
        33.1211,
        -8.22009,
        -0.783392,
        -8.57755,
        -4.1611,
        -8.62166,
        7.51237,
        17.7594,
        -67.8383,
        -18.1477,
        66.4327,
        61.1113,
        9.37285,
        41.8153,
        33.0674,
        39.8467,
        22.7756,
        12.6662,
        3.55215,
        -0.0997149,
        0.0105417,
        -0.0777905,
        -0.0725283,
        0.0608026,
        -0.0426493,
        0.0382204,
        8.54173,
        2.92967,
        6.27439,
        -6.81281,
        -26.4206,
        -44.9308,
        -27.4847,
        -5.36707,
        -4.95442,
        -7.4932,
        -46.033,
        -14.8451,
        -53.6015,
        -73.6218,
        -32.3376,
        15.6376,
        25.9986,
        28.6649,
        13.7653,
        7.65898,
        4.61428,
        0.0621942,
        0.02384,
        0.0963831,
        0.0624793,
        -0.0656183,
        -0.0814073,
        0.0765815,
        -0.858924,
        -2.23752,
        6.16092,
        -17.256,
        -2.02609,
        -7.39185,
        -23.3344,
        -15.7894,
        -5.61516,
        -23.9796,
        -15.3028,
        -23.3856,
        -38.6224,
        -53.6398,
        -28.7256,
        -7.73111,
        3.97331,
        11.1861,
        3.17813,
        -0.0304553,
        -0.0755628,
        0.0972379,
        -0.0937485,
        0.0182273,
        0.0594321,
        0.0300915,
        0.0146104,
        0.0219113,
        0.0644732,
        -2.66983,
        -13.2998,
        -18.8222,
        -5.0177,
        -0.0459255,
        0.0210011,
        -0.994168,
        -9.39273,
        -12.8475,
        -11.4752,
        -0.597082,
        -2.51556,
        -2.35124,
        -6.70817,
        -4.29373,
        -0.732038,
        7.79022,
        5.03845,
        -0.0301648,
        -0.0015198,
        0.0492338,
        0.0393799,
        0.0229174,
        0.876883,
        0.0456314,
        -0.0588553,
        0.0059037,
        -0.0242771,
        0.0557551,
        -0.072185,
        -0.0598039,
        -0.0110418,
        0.0396773,
        0.0998536,
        -0.00189533,
        -0.0336803,
        0.0498443,
        -0.0349671,
        -0.0813423,
        -0.0552177,
        0.0611854,
        -0.0350065,
        -0.0457626,
        -0.0696651,
        0.00355922,
        0.059128,
        0.0395918,
        0.062915,
        0.00359689,
        -0.090573,
        -0.0386048,
        -0.0471693,
        0.0488069,
        0.0843126,
        0.0993023,
        -0.00556166,
        -0.0745427,
        0.00520599,
        0.0701613,
        0.0812124,
        0.033021,
        -0.0896426,
        -1.63037,
        -9.95064,
        0.560058,
        1.70223,
        0.0123487,
        -1.97843,
        -6.00594,
        -27.2882,
        -16.1954,
        -0.553896,
        -2.42587,
        -0.703761,
        -0.0639904,
        0.0262284,
        -0.0817971,
        0.0644202,
        -0.0108566,
        0.0217998,
        0.0738472,
        0.0505386,
        0.0746305,
        0.0226541,
        0.0348512,
        0.0739328,
        -0.0829076,
        -0.327276,
        -7.71719,
        -14.2877,
        -30.236,
        -38.3609,
        -18.9582,
        -12.9736,
        -25.9272,
        0.401991,
        54.2359,
        -42.9954,
        -18.2549,
        7.56375,
        -4.73317,
        -2.90097,
        2.32862,
        -0.962407,
        -0.440398,
        -0.0674032,
        0.0304493,
        -0.0500073,
        0.097017,
        -0.0804074,
        0.0717925,
        0.0708642,
        0.0701312,
        0.046423,
        0.350086,
        -6.8955,
        -11.4156,
        -16.3467,
        -43.14,
        -14.944,
        10.3794,
        -20.4818,
        -31.4733,
        -13.9124,
        -11.4405,
        -15.3286,
        -26.03,
        -69.4874,
        -39.9074,
        5.93506,
        10.5013,
        -0.646021,
        0.351843,
        -0.0804868,
        0.00616096,
        -0.0243207,
        -0.04789,
        -0.0633898,
        0.0256719,
        -0.050873,
        0.274948,
        2.28475,
        -4.91712,
        -21.8736,
        -16.6581,
        -2.83452,
        -75.1595,
        -22.8057,
        -30.3595,
        -97.1079,
        -5.12919,
        6.45462,
        -90.8105,
        -30.6841,
        -54.4563,
        -10.9457,
        39.3307,
        4.96877,
        5.42292,
        14.5199,
        -0.0221503,
        -20.2025,
        -0.00576735,
        -0.064178,
        -0.0483497,
        -0.0996064,
        0.0115013,
        0.397916,
        -6.32079,
        -14.7049,
        -53.6048,
        -40.3089,
        47.9049,
        0.249399,
        -51.1028,
        -15.3936,
        -36.3883,
        -57.3482,
        94.2931,
        79.6477,
        -0.128924,
        -3.15946,
        -104.248,
        40.956,
        26.1939,
        29.006,
        57.8975,
        50.2615,
        12.0226,
        -10.0063,
        1.30445,
        0.062643,
        0.0253357,
        -0.0596732,
        0.098465,
        6.6012,
        -5.72179,
        12.9474,
        -6.70567,
        25.1239,
        105.576,
        -14.5941,
        -67.3882,
        12.7097,
        -61.7762,
        40.0418,
        -8.84765,
        -56.9089,
        -27.0291,
        19.7555,
        -71.7745,
        38.1576,
        41.7967,
        45.5442,
        90.234,
        58.9807,
        -64.4518,
        -49.0802,
        -0.743492,
        9.60055,
        -0.147814,
        4.08843,
        -0.211123,
        31.3023,
        37.2427,
        37.5626,
        22.768,
        -1.7368,
        -12.1451,
        0.85673,
        -75.2508,
        3.07336,
        -13.7714,
        -139.305,
        -28.8929,
        -52.7591,
        -42.4651,
        -0.645459,
        58.5858,
        41.2043,
        50.5456,
        35.1227,
        -17.818,
        31.8568,
        -21.9958,
        -52.1314,
        10.1998,
        4.07432,
        -0.123573,
        -0.320582,
        -0.28821,
        42.0812,
        57.7539,
        13.3659,
        34.6184,
        15.2631,
        -83.947,
        -50.8433,
        42.1526,
        -60.2756,
        -6.55255,
        -2.23089,
        -27.8433,
        -68.5594,
        18.6566,
        -8.86051,
        -71.8917,
        -15.9397,
        31.6055,
        -37.7337,
        -44.2939,
        -37.7713,
        4.42971,
        -48.1268,
        -15.4467,
        -0.0133331,
        -0.114916,
        -0.120674,
        -5.49046,
        20.4183,
        89.3822,
        41.5291,
        24.4804,
        64.8623,
        -88.2581,
        -10.5521,
        -8.62281,
        -45.2477,
        -25.6885,
        -51.1895,
        -55.2496,
        30.3542,
        167.094,
        -1.81536,
        -52.4576,
        39.5308,
        36.7777,
        16.1846,
        52.4866,
        -5.58985,
        -27.6337,
        -42.8753,
        -35.563,
        -0.0358022,
        -0.0127595,
        -0.12805,
        -35.0784,
        -13.5377,
        19.3124,
        5.33452,
        20.0465,
        6.82925,
        -60.5522,
        -26.0207,
        -53.9879,
        -92.364,
        37.3693,
        -90.9052,
        -45.0737,
        -27.584,
        97.9322,
        102.748,
        77.6087,
        5.50106,
        -20.4712,
        -1.74372,
        66.3137,
        18.4318,
        -57.0114,
        -125.437,
        -1.56562,
        -0.0908115,
        0.0188412,
        -0.527524,
        -24.2989,
        -12.6891,
        7.14243,
        4.10458,
        11.1952,
        19.0051,
        -66.6318,
        9.6509,
        -77.7038,
        13.2491,
        11.7347,
        -5.68226,
        29.2184,
        72.4668,
        -13.1707,
        55.3247,
        13.6991,
        105.757,
        90.32,
        41.3454,
        110.837,
        28.0169,
        -28.7092,
        -73.3166,
        0.707029,
        0.0886549,
        0.0740622,
        -0.438723,
        -4.54878,
        7.04849,
        46.6417,
        45.5629,
        -27.2081,
        -34.4607,
        46.7766,
        61.7531,
        51.045,
        33.4695,
        69.6482,
        82.7771,
        35.6635,
        6.53377,
        -23.5186,
        27.1693,
        28.9201,
        23.2842,
        -20.168,
        94.0047,
        85.5115,
        0.956933,
        -17.2005,
        -21.199,
        0.591472,
        -0.0128707,
        -0.0552405,
        -0.00721419,
        -9.00496,
        -3.68323,
        93.0078,
        43.4447,
        -11.5112,
        -23.7771,
        39.2578,
        114.755,
        24.2014,
        60.474,
        36.8971,
        -66.7783,
        -58.1546,
        -77.3139,
        78.589,
        75.8343,
        -56.1085,
        9.08809,
        -29.0711,
        90.8308,
        80.4864,
        -3.34847,
        13.9788,
        2.17953,
        0.107921,
        0.0129019,
        0.0854195,
        0.0389002,
        -2.26745,
        1.09471,
        35.3531,
        123.278,
        112.481,
        74.5733,
        -7.8667,
        15.9761,
        -20.9858,
        19.1897,
        -20.968,
        -2.81007,
        -13.1674,
        -100.285,
        40.766,
        20.0115,
        -9.55637,
        16.9143,
        -15.3564,
        122.462,
        36.3449,
        2.3387,
        6.12584,
        -11.5821,
        -2.29177,
        -0.0383318,
        -0.0628609,
        -0.000303979,
        0.0745702,
        4.00751,
        26.9415,
        30.179,
        11.042,
        -6.13492,
        -20.0287,
        -25.0221,
        -112.409,
        -18.9411,
        38.3294,
        60.1321,
        53.1102,
        74.5336,
        -49.688,
        -11.8139,
        38.6395,
        31.042,
        -40.006,
        24.6546,
        14.7113,
        14.1163,
        0.2529,
        -47.1471,
        -38.5941,
        0.0700149,
        0.0151866,
        0.000227951,
        0.835749,
        -8.73057,
        -63.9952,
        6.70722,
        -43.7136,
        105.548,
        70.3986,
        -19.4079,
        -9.88418,
        -37.5179,
        -38.5348,
        -10.1814,
        3.23639,
        65.9587,
        15.4749,
        64.5863,
        111.352,
        5.92908,
        16.8507,
        -27.5931,
        -16.7148,
        65.3,
        -13.3383,
        -37.6737,
        -20.1587,
        -0.0982325,
        0.0729547,
        0.078816,
        2.76927,
        -12.9415,
        -28.1175,
        62.6747,
        -22.7601,
        73.3319,
        54.2083,
        24.0107,
        62.9879,
        -58.2855,
        -1.40973,
        -24.384,
        38.9707,
        22.6328,
        -13.2035,
        29.8088,
        31.7581,
        61.3883,
        -111.645,
        -28.5039,
        -35.6621,
        9.9666,
        11.4902,
        -0.960069,
        -3.40645,
        -0.678324,
        -0.0309824,
        0.0228961,
        -9.22143,
        2.76924,
        -32.9314,
        -39.5796,
        -54.5193,
        -108.627,
        46.0029,
        59.5567,
        63.4335,
        31.4743,
        10.0443,
        17.3881,
        12.3951,
        -2.90977,
        -19.5758,
        -160.946,
        -61.3782,
        85.309,
        -50.9412,
        40.8861,
        -40.5639,
        -11.2388,
        -28.4552,
        -0.838383,
        -0.878922,
        -2.32201,
        -0.0958191,
        -0.0489191,
        -50.9883,
        -14.3779,
        -22.3598,
        21.1308,
        -48.7598,
        -46.4746,
        -156.522,
        -119.089,
        -36.2349,
        -55.0646,
        -81.499,
        -16.3973,
        -52.4619,
        82.7831,
        79.2288,
        -35.276,
        -21.6524,
        2.92349,
        -53.6809,
        9.65877,
        -51.7361,
        -38.9192,
        -3.78278,
        0.300279,
        0.0424847,
        -0.850003,
        -0.0936096,
        -0.000885107,
        -22.8452,
        -28.9212,
        -41.5964,
        35.6561,
        56.1154,
        45.4935,
        -116.084,
        -41.8223,
        -127.687,
        -49.4755,
        -84.3105,
        -146.503,
        17.6235,
        -15.2623,
        -79.0394,
        -10.8735,
        -37.5112,
        -55.5248,
        9.42119,
        34.0944,
        5.72108,
        -16.1215,
        -29.5586,
        1.43989,
        0.512361,
        0.0218581,
        -0.0263525,
        0.0388353,
        2.00048,
        -8.93431,
        -36.7787,
        -59.0939,
        -29.5759,
        4.05723,
        -50.1742,
        -73.3664,
        0.165111,
        -10.6502,
        -10.2827,
        -33.9101,
        69.6086,
        -33.0244,
        7.18648,
        62.2133,
        55.8263,
        -38.4699,
        -9.50701,
        94.4703,
        22.5389,
        -37.8289,
        -40.0777,
        0.488824,
        0.336942,
        0.0566352,
        0.0959039,
        -0.0757497,
        1.39977,
        9.39236,
        -14.8863,
        8.62,
        -18.4854,
        -96.8843,
        -27.3753,
        -46.6599,
        -7.04945,
        -25.3951,
        -78.8662,
        6.13539,
        -83.6196,
        15.5657,
        12.8467,
        95.0303,
        87.7498,
        -29.3852,
        -8.02354,
        5.63078,
        -17.7797,
        -3.73538,
        -1.18573,
        0.121637,
        0.477971,
        -0.0452928,
        0.0726228,
        0.0961046,
        0.0997938,
        3.88972,
        5.07519,
        21.2307,
        27.5433,
        39.4103,
        30.9052,
        53.8615,
        87.7162,
        47.4939,
        63.1409,
        84.4002,
        31.2727,
        47.552,
        31.0751,
        18.636,
        -24.4946,
        -54.3672,
        -5.78723,
        -14.5545,
        -29.6874,
        -12.7581,
        -0.298314,
        0.0941381,
        0.083946,
        0.0414589,
        0.0240884,
        0.0521509,
        0.0961661,
        11.8297,
        11.2434,
        23.7558,
        82.4339,
        41.6479,
        -80.9158,
        -5.09299,
        -8.92845,
        29.4941,
        -20.7094,
        4.76978,
        -9.08921,
        -24.9996,
        34.9573,
        24.252,
        24.6497,
        -9.11957,
        33.0085,
        10.7496,
        5.19216,
        -3.3618,
        -1.02215,
        0.0451904,
        -0.0732256,
        0.0462797,
        0.0393286,
        -0.0892796,
        -0.0122614,
        0.0915097,
        10.9186,
        12.7788,
        16.564,
        -12.3187,
        -41.2393,
        -36.0913,
        -41.5749,
        -12.7807,
        -9.84395,
        -38.7628,
        -32.5605,
        -20.2546,
        -87.6356,
        -97.1592,
        -104.481,
        -29.7161,
        -12.6833,
        19.8732,
        7.21488,
        -2.69914,
        -3.04702,
        0.0380275,
        -0.0400079,
        0.0188633,
        -0.0167821,
        -0.0132335,
        -0.034857,
        -0.200471,
        -0.576382,
        1.38239,
        7.81527,
        -1.6431,
        13.2489,
        7.50362,
        4.91654,
        -1.64985,
        -1.51371,
        -16.6269,
        -27.9657,
        -43.4695,
        -57.6085,
        -83.2665,
        -46.6626,
        -14.2646,
        -2.93847,
        6.13694,
        1.41636,
        0.0656624,
        -0.0418706,
        0.0936702,
        0.0643858,
        0.0495737,
        0.0316976,
        -0.0756221,
        -0.031563,
        -0.0850845,
        0.0111444,
        -0.324865,
        -2.59929,
        -6.61198,
        -2.2125,
        0.196878,
        0.262818,
        0.820481,
        -1.03926,
        -1.29229,
        -2.58622,
        -9.47211,
        -2.4586,
        -0.740801,
        -16.2677,
        -16.5569,
        -7.85291,
        3.17368,
        2.04139,
        0.0515532,
        -0.0807605,
        0.0558581,
        0.0172155,
        -0.022631,
        0.489313,
        -0.0183987,
        -0.0730573,
        -0.0187741,
        0.00597925,
        -0.0046203,
        -0.00385862,
        -0.0828763,
        -0.0710403,
        0.0336033,
        -0.0742449,
        0.0154213,
        -0.0429713,
        -0.00525534,
        -0.0613307,
        -0.0734543,
        0.0352193,
        -0.00988292,
        -0.0324798,
        -0.073084,
        -0.0414778,
        0.00863423,
        -0.0983771,
        -0.027221,
        0.0695534,
        -0.0723448,
        -0.0756679,
        0.0887929,
        0.0835133,
        0.0415477,
        -0.0338381,
        0.0330415,
        -0.076851,
        -0.00689545,
        -0.0857326,
        0.0291283,
        0.0884842,
        0.0104088,
        0.046252,
        0.0183323,
        0.56952,
        0.408929,
        0.503257,
        0.508294,
        2.13148,
        -0.693269,
        2.37903,
        1.34096,
        1.28224,
        4.90744,
        1.17874,
        0.0393561,
        0.003741,
        -0.0694901,
        0.0929529,
        -0.0267056,
        -0.0418349,
        -0.082715,
        -0.0379127,
        -0.0583216,
        0.0588327,
        0.0282491,
        0.0747199,
        0.0819817,
        -0.0306053,
        1.04294,
        1.71971,
        1.58712,
        1.10474,
        -7.77478,
        -5.45278,
        0.303485,
        -2.13937,
        -6.4924,
        8.81434,
        2.40218,
        -0.538487,
        -1.92525,
        -5.02135,
        -1.42157,
        0.000219732,
        0.0344555,
        0.0135074,
        -0.0291164,
        0.0574884,
        0.00646024,
        0.0441779,
        -0.0843465,
        0.0237452,
        -0.0937348,
        -0.0426681,
        -0.46762,
        2.43351,
        -0.126141,
        -3.39803,
        0.377089,
        -8.2117,
        -16.2471,
        -18.2661,
        -21.9454,
        -28.7332,
        -26.4211,
        -15.2385,
        3.24812,
        15.387,
        2.99071,
        -0.560342,
        -5.90809,
        -2.05602,
        -1.53921,
        -0.0218498,
        -0.0525287,
        0.0835911,
        0.0916576,
        0.0183548,
        0.0410796,
        -0.0018822,
        -0.08314,
        -0.439992,
        1.36347,
        12.2394,
        8.16941,
        0.946776,
        13.4094,
        6.78578,
        5.21432,
        -1.96404,
        4.78022,
        10.1312,
        5.02677,
        -36.8251,
        -15.9618,
        -19.1626,
        -18.1421,
        3.98267,
        23.8664,
        10.6902,
        -0.575543,
        2.81913,
        -0.0599433,
        -0.044764,
        -0.0660238,
        -0.0124721,
        -0.0611729,
        -0.390464,
        -2.65701,
        -7.95499,
        2.1477,
        -0.623696,
        -33.4119,
        -27.0456,
        -27.9547,
        -2.53517,
        37.3962,
        34.0626,
        -17.9396,
        -15.0677,
        -23.2383,
        57.6138,
        -3.28671,
        -17.1079,
        -23.6769,
        -20.2867,
        -9.1135,
        -9.41517,
        -23.5488,
        -11.0162,
        -0.202215,
        0.0801539,
        0.0693021,
        0.00278888,
        -0.0646101,
        -1.09916,
        -10.0015,
        -15.6003,
        -8.67906,
        -33.6421,
        -75.7087,
        -16.4723,
        28.7034,
        0.844912,
        -15.9722,
        10.2236,
        -24.1857,
        7.13776,
        30.0948,
        59.7133,
        14.0375,
        -9.83634,
        -1.8741,
        -22.2366,
        -31.6484,
        -22.4906,
        -15.7311,
        -19.9598,
        -3.74842,
        -1.17601,
        -0.106598,
        -1.11751,
        -0.331233,
        -4.38904,
        -21.6991,
        -26.7733,
        -29.0426,
        -36.7087,
        -26.9515,
        -26.1716,
        32.2606,
        -43.8107,
        -17.2216,
        34.122,
        68.3524,
        59.1169,
        -3.18227,
        9.59388,
        -0.471999,
        -12.6715,
        -7.29649,
        -12.5631,
        -17.6396,
        -19.304,
        -14.9199,
        -14.9126,
        -6.82734,
        0.0975623,
        -0.183129,
        -0.175102,
        -0.362746,
        -7.87157,
        -25.9843,
        -29.8828,
        -10.0196,
        -35.685,
        5.91683,
        -23.4773,
        15.3578,
        -18.1366,
        -17.4502,
        -3.26159,
        3.08944,
        18.4498,
        -3.32171,
        15.4822,
        -30.4508,
        1.08926,
        -22.7139,
        -5.0927,
        -27.806,
        -45.5457,
        -31.0542,
        -15.8579,
        -1.62261,
        -0.0429523,
        -0.0217122,
        -2.95203,
        -0.994773,
        -3.82777,
        -17.5264,
        -18.6927,
        -2.17554,
        0.882017,
        -29.5103,
        2.11982,
        8.56135,
        -27.2786,
        3.80307,
        24.7901,
        31.8066,
        31.8111,
        -42.7235,
        -11.9015,
        -7.66762,
        -30.372,
        14.3854,
        7.84436,
        -21.8513,
        -40.0685,
        -23.1342,
        2.84756,
        1.06595,
        -0.097697,
        -0.0416461,
        -0.188978,
        -6.17089,
        -7.93911,
        -23.9682,
        -0.251469,
        18.2853,
        -15.5336,
        -8.86117,
        -7.48738,
        60.1766,
        12.7956,
        -12.2113,
        -13.3721,
        20.7861,
        -15.9291,
        -51.0397,
        -25.5721,
        -3.80919,
        22.9988,
        7.51782,
        10.4558,
        -28.7594,
        -4.14493,
        -12.5563,
        13.6704,
        0.157817,
        0.0547427,
        -0.0404107,
        -0.825762,
        -5.17667,
        -20.2408,
        -48.0454,
        28.2099,
        40.3477,
        41.6509,
        3.58149,
        39.199,
        18.966,
        -3.95189,
        44.1856,
        27.4007,
        -13.4427,
        0.97484,
        16.4073,
        -9.11248,
        -0.287582,
        -20.7968,
        3.86589,
        34.6355,
        -20.0088,
        32.0292,
        1.90208,
        10.2121,
        1.36006,
        0.0876119,
        0.0107037,
        -0.768969,
        -2.24292,
        -13.8884,
        -30.5086,
        48.876,
        80.7934,
        20.1755,
        53.0695,
        5.85556,
        -9.71654,
        32.1595,
        20.8002,
        -15.0877,
        13.4878,
        25.9008,
        13.9626,
        59.8376,
        -1.63153,
        3.69688,
        13.1836,
        21.0263,
        -12.664,
        45.1587,
        7.41303,
        4.37212,
        1.00281,
        0.0388756,
        -0.0720719,
        -0.116864,
        -1.58177,
        5.09315,
        -35.8579,
        1.53167,
        6.0357,
        -1.43484,
        53.804,
        12.29,
        10.2424,
        -10.137,
        -19.1764,
        -7.38615,
        -3.14117,
        20.1267,
        5.75862,
        -30.0522,
        -8.66979,
        -5.03381,
        35.9753,
        28.0408,
        -16.0897,
        29.2758,
        -6.72247,
        3.40413,
        0.201029,
        0.0265244,
        0.0468426,
        -0.0188416,
        -0.334774,
        8.51253,
        4.4685,
        -22.4429,
        -50.2493,
        0.349978,
        -20.0136,
        -1.96635,
        0.676304,
        30.5586,
        0.288871,
        25.2861,
        -42.3633,
        48.2134,
        17.6491,
        -19.8018,
        -32.5005,
        30.1871,
        31.6966,
        -8.27649,
        15.1217,
        37.1354,
        0.254486,
        2.94665,
        -0.538337,
        0.0862148,
        0.0982675,
        0.04604,
        0.0127392,
        6.58522,
        19.2874,
        26.7273,
        3.21394,
        -30.2993,
        -6.18021,
        -7.53334,
        18.5623,
        -4.9083,
        -25.2282,
        -26.4706,
        -37.9128,
        -36.9757,
        57.5156,
        12.3506,
        -36.6004,
        -11.1984,
        25.0903,
        -19.1493,
        1.23552,
        -0.126077,
        -6.75345,
        -9.20835,
        -10.2604,
        0.029948,
        -0.0275595,
        -0.00919532,
        -0.425507,
        0.735463,
        -4.58414,
        -31.5372,
        13.3887,
        0.916233,
        -7.45243,
        12.8745,
        -1.79324,
        42.7886,
        20.9434,
        2.85806,
        -60.8761,
        -47.1364,
        12.255,
        -37.5669,
        -16.9129,
        -24.4299,
        -16.6589,
        -11.5105,
        -31.4034,
        -26.7752,
        -19.5778,
        -12.2676,
        -5.5486,
        0.00155532,
        -0.00146924,
        0.0434383,
        -0.210942,
        4.27694,
        -8.77935,
        -28.5938,
        -20.472,
        -19.5902,
        16.7154,
        33.1547,
        23.2409,
        25.0507,
        -5.77309,
        25.43,
        48.6938,
        -2.11511,
        -7.69832,
        -15.6061,
        -5.55767,
        -9.79762,
        20.1072,
        -33.1607,
        -31.6549,
        -32.3852,
        -19.7244,
        -6.841,
        -1.36763,
        -0.813211,
        -0.0484856,
        0.0434218,
        -1.40973,
        7.89076,
        -7.17323,
        -38.896,
        -31.9438,
        -1.28001,
        -36.8161,
        -9.60274,
        22.9866,
        2.35337,
        6.37898,
        10.9237,
        -23.9942,
        -62.5236,
        10.0131,
        45.8863,
        -7.86556,
        19.0867,
        6.42839,
        -20.2808,
        -9.48467,
        -16.5459,
        -23.1644,
        -2.73309,
        -0.260655,
        2.3052,
        -0.0106024,
        0.0220784,
        0.594427,
        5.21463,
        -2.60262,
        -46.8091,
        -28.8258,
        10.2715,
        -10.607,
        23.5448,
        23.7738,
        15.2346,
        4.5882,
        -39.9325,
        -3.0942,
        -32.4642,
        -14.8978,
        -22.3694,
        -13.0162,
        15.8456,
        -9.24362,
        2.17856,
        20.3133,
        2.92448,
        -12.2937,
        -0.10033,
        -0.0284663,
        1.2319,
        0.0970662,
        -0.0358253,
        -1.87216,
        3.67582,
        -11.9759,
        -25.4183,
        2.02774,
        21.9077,
        -7.65167,
        -22.8129,
        -25.9992,
        2.93377,
        10.9626,
        17.6636,
        -26.1165,
        -38.394,
        -13.8212,
        -35.9644,
        15.0315,
        8.45905,
        -51.5275,
        -26.9403,
        -7.09886,
        -10.4954,
        -2.09484,
        1.08727,
        0.935824,
        -0.0619299,
        -0.0456707,
        -0.0307988,
        -5.12029,
        -6.30881,
        -5.12216,
        -12.0486,
        11.9166,
        39.9336,
        20.3763,
        -5.77352,
        -3.01771,
        -45.0265,
        23.1892,
        8.62709,
        -11.8981,
        11.0823,
        -37.9605,
        -20.8633,
        10.5399,
        20.4246,
        2.65847,
        -26.0309,
        -7.66559,
        -12.3025,
        -0.0067553,
        1.06202,
        0.927224,
        -0.0813099,
        0.0530568,
        -0.0563475,
        -0.385217,
        -4.76342,
        -14.3548,
        -11.8331,
        -3.84421,
        10.0885,
        -0.583185,
        -15.3869,
        -9.02029,
        -7.0465,
        12.5535,
        25.4962,
        30.8139,
        -11.7835,
        -20.244,
        3.9275,
        -37.3371,
        -9.88059,
        2.02251,
        3.2376,
        1.88471,
        -4.65872,
        -5.12649,
        0.378287,
        0.737114,
        0.0236381,
        -0.0145908,
        -0.0435246,
        0.163292,
        -2.11975,
        -12.1579,
        -10.1196,
        -15.6821,
        -19.6568,
        -0.570631,
        -52.862,
        -43.4224,
        -23.6032,
        -60.5626,
        -39.035,
        5.58688,
        -19.7482,
        -27.0272,
        -23.3473,
        5.58046,
        -8.1894,
        1.3355,
        16.5647,
        6.33547,
        8.62282,
        8.96821,
        -0.0970267,
        0.0168734,
        0.0429435,
        -0.00240035,
        0.0273636,
        -0.0334184,
        -3.50651,
        -6.20634,
        -4.44719,
        0.980846,
        -7.36537,
        0.551929,
        -13.1823,
        15.2386,
        -8.51501,
        -4.0242,
        -43.7902,
        -47.7791,
        -41.4656,
        12.8539,
        -6.84711,
        -23.8069,
        -38.6598,
        -9.48021,
        14.1629,
        17.4536,
        18.5217,
        9.33677,
        -0.0405533,
        0.0431864,
        0.0589825,
        -0.0375799,
        -0.0399403,
        0.00192602,
        0.0302035,
        -1.97849,
        1.95179,
        14.7441,
        17.7828,
        -10.2366,
        -20.2945,
        11.2659,
        -6.08851,
        -21.5258,
        33.5771,
        3.5354,
        25.889,
        -1.68275,
        -1.7908,
        8.37796,
        -21.3589,
        -3.35473,
        1.60467,
        14.399,
        19.8045,
        11.6592,
        -0.0483043,
        -0.00422447,
        -0.0287057,
        0.0111424,
        -0.0610381,
        -0.0697231,
        0.0218143,
        -0.475137,
        0.143577,
        25.4675,
        -2.24625,
        -2.42973,
        -7.06306,
        -40.5329,
        -26.4703,
        6.03808,
        -5.05037,
        -2.19387,
        -1.15481,
        5.23826,
        7.54825,
        -1.04164,
        -5.38982,
        -2.75893,
        -15.5706,
        -4.56287,
        0.08888,
        0.0671771,
        -0.00387373,
        -0.0485902,
        -0.0744263,
        0.0478219,
        0.0471853,
        -0.00313195,
        -0.0410356,
        0.0861472,
        -5.44788,
        -17.439,
        -21.1473,
        -6.09084,
        1.84427e-05,
        -0.0410243,
        -4.76183,
        -16.7192,
        -17.5689,
        -13.1289,
        9.48798,
        -1.16519,
        -1.83552,
        15.9442,
        12.5784,
        3.45438,
        -10.859,
        -6.82405,
        -0.0319759,
        0.0872784,
        -0.0561565,
        -0.0430959,
        0.0544555,
        0.617685,
        0.00831386,
        0.0800292,
        -0.0122083,
        -0.0445008,
        -0.0231027,
        0.0467561,
        -0.0583536,
        -0.0959578,
        0.0792829,
        0.0268152,
        -0.03661,
        0.045392,
        -0.00157087,
        -0.0765517,
        0.088112,
        0.0277504,
        -0.0383654,
        -0.0280537,
        -0.0299915,
        0.0633642,
        -0.0712745,
        -0.022619,
        -0.0890689,
        -0.0377592,
        -0.0417945,
        -0.0210448,
        -0.0504808,
        0.00204903,
        0.0358592,
        -0.0960253,
        -0.0579812,
        -0.0558269,
        0.0840039,
        0.0298105,
        -0.00032772,
        -0.0390988,
        -0.0234334,
        0.0413187,
        -0.264276,
        -1.46531,
        -0.895966,
        -2.16784,
        -1.93824,
        -5.8124,
        -7.60377,
        -3.62694,
        -1.83312,
        -1.98515,
        -5.54407,
        -1.28116,
        0.0179089,
        -0.00997467,
        -0.058297,
        0.0877116,
        0.0522661,
        -9.15065e-05,
        -0.0333332,
        -0.0982147,
        -0.0980425,
        -0.097474,
        -0.09424,
        -0.0560237,
        -0.0533008,
        0.0404511,
        -0.905426,
        -1.83339,
        -4.67136,
        -6.5577,
        0.71807,
        -3.4189,
        -10.95,
        -13.6913,
        -17.9529,
        -23.5176,
        -19.4039,
        -16.9464,
        -9.57768,
        -5.38602,
        -2.54867,
        0.541337,
        0.27417,
        0.0859202,
        -0.0518769,
        -0.0772745,
        0.0736319,
        -0.0996108,
        0.022634,
        -0.0597014,
        -0.0978254,
        0.0245915,
        0.216734,
        -1.95254,
        -0.17389,
        -0.810949,
        -13.4504,
        -9.76613,
        -6.50904,
        3.58456,
        1.83718,
        -4.12572,
        -15.04,
        -14.9882,
        -14.0602,
        -29.8077,
        -25.9813,
        -8.67224,
        3.70016,
        1.62056,
        0.64322,
        -0.0872227,
        -0.038749,
        0.0995197,
        0.0986976,
        0.00937412,
        -0.0777548,
        0.0723294,
        -0.673737,
        -0.644011,
        -0.845031,
        -7.79224,
        -7.19006,
        -20.3645,
        -32.4035,
        -6.3789,
        2.80495,
        12.7532,
        26.1166,
        -10.8824,
        -34.7199,
        -4.15973,
        -3.73869,
        4.61507,
        -23.2271,
        -23.6783,
        -24.6584,
        -8.53782,
        2.18677,
        0.278479,
        0.0815206,
        -0.0958395,
        0.0542359,
        -0.0572284,
        -0.0963198,
        0.193012,
        -5.18533,
        -0.76135,
        -6.08063,
        -8.24043,
        28.2221,
        18.8667,
        1.52166,
        11.6564,
        -14.4998,
        -16.3163,
        8.73324,
        31.4044,
        38.006,
        4.61322,
        -7.5044,
        10.2273,
        6.68391,
        -11.5442,
        -11.6772,
        -10.7149,
        8.50148,
        7.03271,
        0.0904577,
        0.0931797,
        0.0864118,
        0.0637083,
        0.0973402,
        0.209187,
        2.41186,
        5.83578,
        -20.691,
        -0.989638,
        32.1278,
        10.3923,
        3.93777,
        2.53655,
        -10.693,
        2.05704,
        -4.81083,
        11.3909,
        -9.34302,
        -30.1635,
        -8.58346,
        -4.83414,
        1.35259,
        22.5071,
        9.62788,
        -14.1191,
        -21.4722,
        0.219769,
        2.2977,
        1.42011,
        -0.092933,
        2.86964,
        -0.0780703,
        7.14826,
        13.3724,
        18.7503,
        -8.02505,
        -7.16864,
        12.6505,
        -9.80759,
        -26.4516,
        18.2541,
        15.0546,
        -5.3927,
        -33.3169,
        -16.4928,
        10.044,
        2.09837,
        8.74959,
        9.45895,
        11.8819,
        18.6073,
        10.1692,
        -7.58704,
        -11.0359,
        -2.51507,
        3.97177,
        0.517616,
        -0.103471,
        -0.114067,
        -0.0435891,
        3.19879,
        18.9755,
        9.5841,
        -14.4376,
        4.00505,
        -19.8476,
        -5.40941,
        2.71252,
        14.7618,
        -1.76262,
        0.579189,
        8.25245,
        3.45942,
        -14.5636,
        7.4948,
        8.06512,
        15.0655,
        24.4183,
        24.082,
        15.1459,
        0.701885,
        -17.8431,
        -10.6962,
        -1.49888,
        0.0358757,
        -0.0498855,
        -1.00298,
        -1.34519,
        -1.19259,
        10.2633,
        -2.93095,
        -0.612719,
        3.61911,
        -5.64928,
        5.33885,
        8.83239,
        -5.86342,
        -13.3476,
        26.1557,
        0.53355,
        -7.88206,
        17.5827,
        -8.28367,
        5.16109,
        9.84226,
        -15.0924,
        11.7409,
        4.44687,
        -0.550548,
        -3.13547,
        -2.02241,
        -2.2102,
        0.00207746,
        0.0178961,
        -0.293526,
        -7.63045,
        -4.8921,
        7.81241,
        -10.246,
        -6.8745,
        -0.525552,
        -4.39208,
        -0.474878,
        -18.5265,
        -26.2989,
        3.92698,
        -24.2023,
        -20.8409,
        13.9483,
        13.1428,
        10.2306,
        1.25618,
        -1.47507,
        -18.4054,
        10.1912,
        24.5392,
        -7.24397,
        8.85235,
        0.418391,
        0.0482993,
        0.0474501,
        -0.0492225,
        -0.872756,
        -6.25547,
        -8.34525,
        1.13161,
        -20.2522,
        -27.7535,
        -13.4298,
        -24.4257,
        -17.4503,
        -22.2391,
        9.17076,
        -9.58892,
        -30.0604,
        -12.6029,
        12.5228,
        8.00688,
        14.0395,
        4.25014,
        15.2095,
        13.7285,
        -16.5645,
        2.0074,
        -23.8845,
        0.686982,
        -0.343935,
        0.738721,
        0.0663343,
        -0.00429799,
        -0.813249,
        -2.70829,
        -5.81446,
        -1.6438,
        -17.7256,
        -28.6606,
        -22.5182,
        -34.1842,
        0.966902,
        9.63821,
        -22.7399,
        11.9093,
        11.2918,
        20.1054,
        -6.41566,
        -3.39282,
        -22.9414,
        -13.2586,
        5.70967,
        -4.02191,
        -30.1775,
        -31.998,
        -19.9941,
        3.48554,
        -1.4655,
        0.70567,
        -0.0642799,
        -0.00301669,
        -0.0696095,
        -1.70422,
        -2.61554,
        4.13108,
        -12.1944,
        2.24634,
        1.46398,
        -23.9554,
        3.85454,
        18.2694,
        -11.8834,
        7.94262,
        -14.3353,
        -27.0003,
        13.8145,
        -16.7101,
        34.2803,
        15.0533,
        -1.74528,
        -5.88404,
        -22.7141,
        -9.05545,
        -1.37617,
        14.601,
        -6.11324,
        0.040853,
        0.0516272,
        0.0974316,
        -0.0942112,
        -0.290197,
        -2.57534,
        0.179367,
        -2.83555,
        18.3003,
        8.71933,
        1.78501,
        3.5718,
        0.799778,
        -0.36733,
        -4.14774,
        -11.4682,
        -16.6247,
        -11.5455,
        -17.592,
        24.1638,
        26.4825,
        -1.68491,
        -9.98596,
        8.61649,
        4.14312,
        -18.8029,
        -10.707,
        -6.59529,
        1.06715,
        0.00743083,
        -0.0365298,
        -0.0813047,
        -0.040942,
        -2.13633,
        -0.997436,
        -7.88111,
        13.2332,
        14.2992,
        13.0176,
        0.195993,
        -12.8363,
        10.2105,
        20.7369,
        16.9179,
        -10.4342,
        13.4877,
        -0.505969,
        -37.3838,
        -15.2578,
        8.67891,
        13.7262,
        22.3807,
        -11.1598,
        -24.7026,
        -22.2951,
        12.6652,
        16.1842,
        0.016907,
        0.0726089,
        0.0610699,
        1.74792,
        3.76151,
        -9.04606,
        8.96762,
        -7.96678,
        -1.28581,
        -2.66601,
        -11.0785,
        3.55492,
        -29.4131,
        7.40941,
        -18.6505,
        -10.9468,
        40.8222,
        9.50497,
        2.47074,
        4.43562,
        9.27923,
        6.755,
        16.8609,
        -0.509712,
        26.56,
        10.4154,
        17.1819,
        8.25571,
        -0.0357212,
        -0.0609781,
        0.0110306,
        2.3499,
        3.5013,
        -8.20187,
        2.63654,
        0.897254,
        0.754207,
        -10.9583,
        8.9415,
        2.10459,
        -15.7711,
        -11.2322,
        -8.91211,
        -22.4002,
        -6.08289,
        -16.6913,
        17.3119,
        9.27881,
        8.22383,
        -28.0105,
        21.6214,
        28.8317,
        25.556,
        9.55701,
        5.67177,
        1.02818,
        0.638168,
        -0.0666262,
        -0.0302376,
        -1.93692,
        -3.98552,
        -4.17775,
        -14.3372,
        2.9034,
        3.49824,
        -6.87619,
        -14.8415,
        4.70806,
        -0.766007,
        33.8322,
        -14.622,
        -8.88948,
        16.346,
        0.410214,
        -6.4382,
        1.56849,
        5.02062,
        -5.97371,
        4.72939,
        6.02995,
        19.4468,
        26.4859,
        4.0829,
        0.15397,
        -1.35797,
        0.0105761,
        -0.06932,
        -10.5557,
        -10.5816,
        26.5313,
        35.3993,
        25.3945,
        9.27051,
        -1.29865,
        -19.3935,
        -9.24934,
        4.22959,
        -6.00554,
        4.18821,
        11.9426,
        16.2465,
        16.9155,
        4.50087,
        -3.84346,
        18.7413,
        4.88436,
        -9.23489,
        -12.9714,
        -6.5244,
        11.5971,
        0.813505,
        -0.0665266,
        -0.601248,
        -0.0138918,
        -0.00104591,
        -1.80218,
        -7.88779,
        -10.0664,
        -0.75059,
        22.5417,
        9.10209,
        1.54429,
        -3.42175,
        1.10618,
        -1.36002,
        -16.539,
        -0.9163,
        -1.69824,
        11.912,
        32.0594,
        7.53123,
        -20.498,
        9.09086,
        36.745,
        25.0101,
        10.114,
        0.756243,
        1.64782,
        0.242726,
        0.596291,
        -0.00568801,
        -0.0307862,
        0.0763015,
        5.70518,
        7.45096,
        -5.71699,
        -4.68007,
        4.42611,
        5.62979,
        -20.6341,
        -10.392,
        9.89367,
        16.9355,
        -0.285356,
        -9.19642,
        -5.60055,
        -32.8918,
        5.88754,
        2.83312,
        -9.10379,
        -14.2809,
        7.61615,
        24.3313,
        18.8986,
        9.78168,
        4.57126,
        0.568426,
        1.06928,
        0.00139909,
        0.0336781,
        -0.0581552,
        0.924639,
        5.40759,
        11.863,
        3.07374,
        -5.51799,
        6.1204,
        13.4804,
        -12.5154,
        8.67084,
        12.5327,
        6.84211,
        -13.8927,
        -15.2576,
        10.2121,
        0.68919,
        10.3227,
        10.5427,
        -14.5866,
        4.87393,
        22.0792,
        8.47191,
        -1.82231,
        2.28199,
        0.276384,
        0.644192,
        0.0246912,
        0.0505156,
        -0.00273654,
        -0.0246065,
        2.78642,
        14.4802,
        12.877,
        3.31964,
        9.60036,
        -4.43869,
        -17.0783,
        6.87897,
        -3.63545,
        2.91185,
        10.3088,
        26.5211,
        -8.60348,
        5.15347,
        20.2445,
        -5.47994,
        -0.167261,
        5.70402,
        9.67119,
        3.89277,
        -0.00314042,
        -1.33355,
        0.0803014,
        -0.0428026,
        -0.0234899,
        -0.0122568,
        -0.0445559,
        -0.0987987,
        2.95732,
        8.67721,
        1.68799,
        1.94342,
        2.72633,
        8.76828,
        -3.74751,
        -6.5964,
        -6.63401,
        -1.20957,
        9.12543,
        -4.60875,
        -3.40888,
        -3.0641,
        1.26217,
        4.10239,
        27.2886,
        15.9198,
        2.67134,
        1.68132,
        0.653016,
        -1.44203,
        0.0256232,
        -0.00311932,
        -0.0238934,
        0.00592458,
        0.054078,
        0.0526167,
        0.10435,
        3.46604,
        -0.986832,
        -9.7857,
        -16.4434,
        -20.9493,
        -21.1941,
        -28.9318,
        -17.9083,
        -3.73413,
        -26.2718,
        -37.1012,
        -13.0444,
        -17.8043,
        -20.1646,
        -4.00219,
        8.35746,
        2.73573,
        -2.86195,
        -0.303908,
        -2.88114,
        -1.43631,
        -0.0249744,
        0.0689032,
        0.0273548,
        -0.0993512,
        -0.0342162,
        -0.0965387,
        0.0181462,
        -0.201353,
        -1.84615,
        -7.949,
        -6.04316,
        0.195824,
        -6.37533,
        -9.10514,
        -3.21904,
        -9.35762,
        -8.92897,
        -8.92152,
        -9.02436,
        -10.8655,
        -15.474,
        -10.4209,
        -2.52743,
        -0.988836,
        -3.57541,
        -1.35248,
        -0.0489255,
        -0.00382351,
        0.0855381,
        0.00117572,
        -0.0263785,
        -0.0394363,
        -0.0299211,
        -0.0990237,
        -0.0387874,
        0.0358627,
        0.0104356,
        1.73688,
        1.37997,
        -0.168895,
        -0.0679539,
        0.0461897,
        -0.534487,
        -1.27842,
        -1.46853,
        -0.921795,
        -0.059134,
        0.385781,
        -0.212126,
        -3.32154,
        -3.2323,
        -1.65536,
        -3.12523,
        -1.89285,
        -0.0836851,
        0.00475058,
        0.0259131,
        -0.0326106,
        -0.0990729,
        0.0513974,
        0.0685651,
        -0.0254514,
        0.0720149,
        -0.061356,
        -0.0244751,
        -0.0667725,
        0.0745067,
        -0.0200374,
        -0.0989865,
        0.0302313,
        -0.0595218,
        -0.0309594,
        0.0153399,
        0.01089,
        -0.0307646,
        -0.0079377,
        -0.0276926,
        0.0559766,
        0.014444,
        0.0549329,
        -0.00681892,
        -0.0143989,
        0.00515698,
        -0.000396921,
        -0.0916231,
        0.0214718,
        -0.0956463,
        0.0342899,
        0.0888612,
        -0.0947193,
        -0.0542589,
        0.0574263,
        -0.0201706,
        -0.082244,
        0.0960703,
        0.0553543,
        -0.0490165,
        0.070577,
        -0.20105,
        -0.893478,
        -0.0440081,
        0.0677472,
        0.983922,
        0.823392,
        -0.315058,
        -1.01534,
        -0.783151,
        1.01043,
        4.34833,
        1.07753,
        -0.0468503,
        -0.0605693,
        0.00825573,
        0.0190823,
        0.0390337,
        0.0166326,
        -0.0594458,
        0.0433874,
        -0.0490775,
        -0.0705846,
        0.0486681,
        -0.00333635,
        0.0868418,
        -0.0826488,
        -0.206914,
        -0.344803,
        -1.66271,
        -2.56094,
        -1.86705,
        2.65286,
        8.5347,
        6.66005,
        9.22328,
        6.06928,
        -0.861508,
        2.02507,
        8.38892,
        7.01068,
        3.87946,
        0.0927044,
        -0.0586419,
        0.0545666,
        0.0143911,
        0.00956671,
        -0.026351,
        -0.0465752,
        -0.0738007,
        0.0142032,
        0.0968122,
        -0.0228782,
        -0.00800625,
        0.974311,
        -0.975714,
        -1.47084,
        3.17444,
        1.68448,
        -10.6572,
        -1.81305,
        -2.18612,
        -6.6735,
        -13.1086,
        -5.7634,
        4.35968,
        0.50271,
        9.07767,
        5.71859,
        2.28712,
        -0.0517119,
        -0.0853652,
        -0.00574782,
        -0.0868823,
        0.0715722,
        -0.0511812,
        0.0275088,
        -0.0188611,
        0.0224678,
        -0.0905925,
        -0.504821,
        0.666946,
        6.79842,
        4.2722,
        -6.91606,
        -15.06,
        -11.5784,
        -12.4312,
        -20.4711,
        16.7388,
        17.4436,
        -7.9632,
        -27.2804,
        -23.5015,
        -9.22026,
        -7.52888,
        -4.20742,
        -6.82864,
        10.3824,
        -1.1165,
        -6.17127,
        0.0186715,
        0.074009,
        0.0518572,
        0.0317891,
        0.0455811,
        -0.00372164,
        -2.02192,
        0.0401263,
        9.76209,
        19.2837,
        7.88778,
        1.87835,
        -5.06074,
        26.9298,
        42.5829,
        26.0891,
        -1.82687,
        7.85548,
        9.94658,
        43.4692,
        -8.92897,
        9.61606,
        -5.9966,
        -19.9926,
        -12.9579,
        -0.0788511,
        -11.5928,
        -11.0842,
        0.348074,
        0.0818509,
        -0.0129276,
        -0.00647299,
        0.0558598,
        0.409777,
        2.14474,
        7.68977,
        4.55798,
        -6.54534,
        -21.6933,
        0.399061,
        34.1337,
        -2.63549,
        -48.6401,
        -6.33462,
        -44.9338,
        -0.316656,
        20.5961,
        0.658902,
        1.83114,
        -1.8604,
        9.76258,
        -6.9447,
        -1.04158,
        3.28831,
        -21.8748,
        -18.5751,
        -1.46591,
        0.360143,
        0.0608153,
        1.16664,
        0.141845,
        4.82576,
        9.77842,
        16.7483,
        -4.73763,
        -15.4871,
        -8.45106,
        -21.6535,
        -2.34809,
        -9.86055,
        -3.10722,
        7.95766,
        26.1961,
        22.7311,
        5.8614,
        7.49585,
        28.0225,
        0.884093,
        -8.08176,
        3.86312,
        20.9463,
        13.8899,
        -5.00034,
        -14.9695,
        -0.699454,
        0.455657,
        -0.132644,
        0.0297516,
        0.037666,
        9.0016,
        11.619,
        -8.25929,
        -22.8625,
        -29.5874,
        -32.2059,
        -25.2522,
        21.6383,
        -20.395,
        -17.4479,
        -2.24129,
        11.888,
        -16.2815,
        0.424454,
        26.147,
        -46.3986,
        18.588,
        -18.3088,
        -15.4738,
        -17.201,
        -20.8178,
        -24.1677,
        -24.4205,
        -5.43444,
        -0.040387,
        -0.023093,
        -7.93551,
        -1.75363,
        -0.6469,
        -21.0065,
        -28.9419,
        -23.3927,
        -8.24588,
        -36.748,
        -10.849,
        10.2577,
        -39.0095,
        -23.0983,
        27.997,
        14.3044,
        4.21014,
        -11.9704,
        -7.1803,
        -8.8619,
        -9.81609,
        -4.89706,
        -0.0349242,
        -11.7161,
        -22.4778,
        -34.8698,
        -29.4439,
        -9.71736,
        -0.0811293,
        0.0856328,
        -0.543161,
        -12.1528,
        -13.0632,
        -33.4817,
        -31.0928,
        4.39259,
        -10.4336,
        -20.779,
        10.4448,
        22.2455,
        -19.2823,
        -4.98703,
        -52.783,
        -5.10634,
        -10.7361,
        -14.6086,
        -3.46288,
        20.3835,
        17.2244,
        -27.6188,
        0.00733245,
        -16.9085,
        -15.927,
        -32.0311,
        -28.2269,
        -0.441809,
        0.0846369,
        0.0353273,
        -0.457834,
        -10.4124,
        -26.7718,
        -39.3064,
        11.7304,
        33.4474,
        28.4192,
        -43.7107,
        18.5805,
        -6.79553,
        -6.31534,
        36.1556,
        -6.26333,
        -32.0848,
        -8.5905,
        6.64914,
        -31.068,
        -16.244,
        15.5187,
        30.6263,
        23.2215,
        20.6105,
        13.7493,
        -2.99034,
        -9.60943,
        0.516623,
        0.0945199,
        -0.0718858,
        -0.479328,
        -4.19678,
        -16.5611,
        -22.8551,
        49.1329,
        61.1335,
        -12.2412,
        25.3824,
        -7.57743,
        -0.31198,
        -8.95683,
        32.9128,
        7.93729,
        21.977,
        -2.47064,
        -5.63353,
        8.69375,
        -17.1643,
        -6.54658,
        -33.3303,
        24.8378,
        -3.38563,
        38.6528,
        6.82687,
        -6.23983,
        0.545212,
        0.0672453,
        0.000989281,
        -0.14222,
        -1.22569,
        0.905875,
        -19.9908,
        9.25878,
        9.71962,
        -13.3457,
        23.4981,
        4.70994,
        0.458763,
        8.2679,
        16.3953,
        -11.3016,
        13.8266,
        24.4483,
        16.2678,
        -17.1816,
        7.56142,
        14.5134,
        -4.45431,
        6.23626,
        4.54861,
        44.1943,
        6.79081,
        -1.17589,
        -0.0149441,
        -0.0535948,
        0.0599948,
        -0.0761231,
        -0.46398,
        1.7867,
        6.06862,
        8.31543,
        -16.4004,
        26.7449,
        -9.79815,
        -5.66437,
        -14.445,
        34.0748,
        -20.5051,
        27.4459,
        -38.1125,
        10.7626,
        0.903265,
        -18.0608,
        15.5387,
        3.82223,
        1.94742,
        -4.70156,
        26.381,
        29.5868,
        -12.7086,
        -14.4382,
        0.154305,
        0.0160937,
        -0.0873026,
        -0.0971862,
        0.0624989,
        5.26575,
        14.4676,
        11.232,
        17.1717,
        9.85312,
        27.6026,
        9.46173,
        -20.5942,
        13.3352,
        -5.20533,
        27.1144,
        -11.4985,
        5.629,
        67.8653,
        -23.2267,
        -23.738,
        -22.2217,
        4.96138,
        -7.88281,
        -5.42706,
        -22.81,
        -26.75,
        -5.76784,
        1.82972,
        -0.0826761,
        0.058708,
        0.0607847,
        0.362419,
        1.16795,
        -26.2715,
        -22.3732,
        4.81067,
        20.55,
        -11.8528,
        2.94378,
        -13.2825,
        24.3154,
        21.228,
        7.08824,
        -29.3612,
        -9.31795,
        25.8879,
        -22.3455,
        -7.26226,
        -22.0087,
        -10.7075,
        2.92417,
        -17.8177,
        -20.3543,
        -3.27779,
        1.9871,
        0.605186,
        0.0515584,
        -0.0163656,
        -0.0225771,
        1.05836,
        2.93932,
        -19.0741,
        -14.0671,
        -25.8937,
        -17.3441,
        -15.7258,
        9.60724,
        45.588,
        -23.641,
        -19.2102,
        19.8083,
        32.0344,
        0.915885,
        -16.221,
        -0.810839,
        4.52805,
        13.838,
        10.5706,
        -7.63607,
        -22.3818,
        -28.9353,
        2.6917,
        1.6091,
        -0.436981,
        -0.11504,
        -0.076952,
        0.0204206,
        -2.74079,
        5.23552,
        -14.3488,
        -45.9813,
        0.900676,
        -4.53057,
        -23.364,
        15.938,
        44.8821,
        -2.09335,
        24.1541,
        18.1066,
        -22.0083,
        -19.3741,
        19.9611,
        2.18584,
        -11.4934,
        16.6656,
        -8.30284,
        -18.3488,
        -3.88858,
        -6.00988,
        3.70567,
        1.31498,
        -0.0312445,
        1.80436,
        -0.0661742,
        0.0946258,
        -11.8632,
        3.29999,
        11.0717,
        6.77728,
        1.9075,
        24.1933,
        -10.3158,
        11.8369,
        29.7033,
        -14.1738,
        -9.28611,
        -13.0569,
        31.2578,
        -24.2689,
        22.5907,
        -6.79554,
        -7.82716,
        12.6113,
        7.44533,
        10.4282,
        10.2242,
        -3.95386,
        3.98594,
        0.0573658,
        0.0150416,
        0.76359,
        -0.0372206,
        -0.0238813,
        -1.13999,
        -1.53932,
        -10.9649,
        8.55602,
        37.0156,
        40.6484,
        -4.12642,
        -11.6017,
        -31.7048,
        -4.54037,
        10.2536,
        -11.6341,
        19.0529,
        -9.971,
        9.99748,
        -21.6453,
        8.51782,
        4.43307,
        -10.3672,
        10.1469,
        3.41498,
        -11.57,
        -1.80821,
        -0.185502,
        0.440015,
        -0.0171644,
        0.0536867,
        -0.0229633,
        3.05533,
        0.712481,
        -6.43364,
        -8.69025,
        0.575788,
        36.8868,
        11.3162,
        -24.3004,
        1.48719,
        -23.0629,
        49.6976,
        15.7771,
        17.1036,
        5.71164,
        -13.1601,
        2.49974,
        8.35304,
        -1.23494,
        3.79608,
        -6.51926,
        5.44567,
        -9.65122,
        -2.8327,
        -0.0329327,
        0.768374,
        0.0710122,
        0.0297078,
        0.0888115,
        -0.195931,
        2.6875,
        2.4456,
        -1.4689,
        -16.8889,
        -12.2961,
        16.1877,
        -20.2105,
        7.59796,
        -7.08124,
        -25.774,
        -4.64542,
        -11.3856,
        -7.49138,
        -8.12691,
        50.0692,
        -8.46735,
        1.03047,
        11.8119,
        14.4983,
        9.28273,
        -1.51833,
        -3.10534,
        0.215819,
        0.276067,
        0.0858164,
        0.0599259,
        -0.0699282,
        -0.0037724,
        -2.45068,
        -3.20036,
        -6.32705,
        -14.927,
        -9.80371,
        -3.34115,
        -14.399,
        -9.5293,
        -14.7597,
        -47.7231,
        -1.12365,
        2.61564,
        -0.0889721,
        -1.84866,
        -5.68593,
        8.78857,
        19.2734,
        27.4981,
        28.6889,
        22.021,
        16.7874,
        5.58528,
        0.0845304,
        -0.0306776,
        0.012638,
        0.0334883,
        -0.0274223,
        -0.00154566,
        -0.940353,
        -6.59891,
        -15.4856,
        -1.61431,
        -25.0536,
        -19.8803,
        -5.62404,
        16.8035,
        -10.8688,
        19.45,
        -4.20278,
        -56.2709,
        -18.9965,
        44.6949,
        -0.500426,
        -7.59425,
        8.49846,
        16.2898,
        23.9266,
        24.2307,
        17.3464,
        5.64741,
        -0.00677447,
        -0.0011696,
        0.012185,
        -0.0222441,
        0.0681527,
        -0.075177,
        -0.0490235,
        -0.815225,
        -6.42887,
        -2.67221,
        1.78123,
        -24.6678,
        -45.4379,
        -12.847,
        -23.5767,
        -20.5743,
        4.98142,
        -33.8822,
        26.7559,
        -14.9003,
        -36.3744,
        -1.58878,
        5.35288,
        16.3688,
        9.58645,
        14.5499,
        12.3106,
        7.10794,
        0.00975336,
        -0.0845529,
        0.089184,
        -0.0970211,
        0.0142775,
        0.00136906,
        0.102456,
        0.157755,
        -2.94553,
        26.1824,
        2.25975,
        -1.25489,
        -7.92486,
        -33.0826,
        -16.0697,
        7.43207,
        -3.93023,
        -3.46545,
        0.645884,
        0.988576,
        -19.3271,
        -15.8347,
        -7.55031,
        -1.70996,
        -13.942,
        -4.44902,
        0.0244139,
        -0.0439706,
        0.0153078,
        -0.0539542,
        -0.0678883,
        -0.0749388,
        -0.0385072,
        -0.0787043,
        -0.0719599,
        0.0757703,
        -5.43559,
        -14.6633,
        -21.016,
        -7.38877,
        -0.251259,
        -0.143802,
        -3.25669,
        -15.3667,
        -19.0665,
        -12.3173,
        12.9404,
        1.12794,
        -1.25368,
        6.33397,
        4.71336,
        0.659052,
        -10.5507,
        -6.60223,
        -0.0423504,
        0.0991434,
        0.0874172,
        0.0820635,
        -0.0448273,
        0.445899,
        -0.0718907,
        -0.0127156,
        0.0277862,
        -0.0103979,
        0.00858019,
        0.0558263,
        -0.0346276,
        -0.068755,
        -0.0353988,
        0.023573,
        -0.0198981,
        -0.0346448,
        0.00493418,
        0.0784281,
        -0.0372532,
        0.0528361,
        0.00478394,
        0.0444823,
        0.0321916,
        0.00368894,
        0.0543444,
        0.0141782,
        -0.0254504,
        0.0650805,
        -0.0200273,
        0.0321993,
        0.0642239,
        -0.0326101,
        0.0142628,
        -0.0806033,
        0.0701149,
        0.0423721,
        0.00668111,
        -0.00209887,
        -0.0680258,
        -0.0847387,
        -0.0462725,
        -0.00265336,
        -1.59953,
        -9.56709,
        -0.31734,
        -0.552014,
        -1.77688,
        -7.71881,
        -10.6831,
        -28.6882,
        -16.4232,
        0.772587,
        4.24254,
        0.533696,
        -0.269758,
        0.0452574,
        0.0250597,
        0.0880588,
        0.010338,
        -0.0949676,
        0.0202581,
        -0.0254381,
        -0.0275778,
        -0.0654791,
        -0.00604142,
        -0.0574629,
        0.076893,
        -0.443832,
        -6.79979,
        -12.9802,
        -29.7472,
        -38.3413,
        -1.66167,
        15.8496,
        1.60155,
        1.82552,
        42.6852,
        -49.0348,
        -41.1574,
        -2.34058,
        10.6269,
        20.6303,
