{
    "NInput": 784,
    "NHidden": 60,
    "NOutput": 10,
    "NHiddenLayers": 1,
    "Weights": [
        0.0957893,
        0.0563417,
        0.0910996,
        0.0821219,
        -0.0587827,
        -0.0846353,
        0.0467839,
        -0.0626441,
        0.0265494,
        0.000198005,
        -0.0659969,
        0.0771347,
        -0.024465,
        0.0353241,
        0.065563,
        0.0170881,
        -0.0515561,
        -0.01789,
        0.0997225,
        -0.0482099,
        0.0109996,
        0.0409868,
        -0.0400112,
        0.0214506,
        0.0140739,
        -0.099046,
        -0.0683865,
        -0.0202399,
        0.0378905,
        0.0613538,
        0.0454302,
        0.0336798,
        0.0176955,
        0.0365298,
        0.0158018,
        0.0589128,
        0.0518945,
        -0.0374143,
        0.0962687,
        -0.0215561,
        0.0627837,
        6.37633,
        15.7455,
        15.6226,
        25.0801,
        43.5293,
        22.2616,
        -2.16906,
        5.10784,
        2.44433,
        -0.0341701,
        -0.0857488,
        -0.00388395,
        0.0258187,
        0.0357018,
        -0.0898101,
        0.0267727,
        0.0673154,
        -0.01005,
        -0.0353368,
        0.0286692,
        -0.0646198,
        0.098343,
        -0.0536353,
        0.07191,
        0.0141448,
        5.86971,
        25.5236,
        6.70885,
        64.2758,
        165.821,
        84.0511,
        36.5042,
        107.059,
        123.147,
        78.9518,
        30.2965,
        23.7192,
        15.4858,
        -8.50745,
        -3.67999,
        -0.0227164,
        0.0964715,
        0.0844848,
        -0.0968978,
        0.0321733,
        0.0946747,
        0.0298749,
        -0.000511302,
        -0.0153753,
        -4.78986,
        13.7879,
        -9.8884,
        -6.75248,
        78.6131,
        159.618,
        227.831,
        197.683,
        247.251,
        128.742,
        -79.2582,
        78.0648,
        121.238,
        244.745,
        215.121,
        56.2504,
        2.08394,
        -15.3538,
        -5.95837,
        0.022032,
        0.0369841,
        -0.0772882,
        0.0993155,
        0.0334556,
        -0.0928034,
        -0.0975822,
        -8.04563,
        -9.56346,
        9.55247,
        76.2278,
        1.13836,
        -43.4848,
        66.729,
        92.7157,
        104.598,
        129.527,
        239.165,
        129.21,
        159.609,
        185.749,
        235.249,
        -43.405,
        22.8461,
        -54.5007,
        -149.472,
        -17.9681,
        18.9041,
        1.46258,
        0.0626625,
        -0.030788,
        0.0747195,
        -0.000353391,
        -0.00807623,
        -0.891006,
        23.5871,
        30.7396,
        66.7656,
        42.5347,
        41.4163,
        -79.5604,
        -31.1079,
        39.9327,
        -119.726,
        59.1346,
        141.259,
        86.1005,
        -92.4762,
        -158.263,
        58.2679,
        -2.97203,
        -37.917,
        -216.423,
        -203.143,
        -100.235,
        -67.942,
        -12.3488,
        -0.187136,
        0.0611555,
        -0.0037374,
        0.00920499,
        -0.0696326,
        -24.522,
        -0.24419,
        -46.8254,
        52.3801,
        71.2067,
        -79.4437,
        -173.369,
        -65.871,
        190.389,
        132.781,
        148.068,
        94.9144,
        -8.53901,
        -12.9054,
        104.717,
        141.708,
        -110.332,
        -67.1044,
        -112.756,
        -248.524,
        -157.629,
        -70.0657,
        -37.8169,
        22.7622,
        35.6891,
        -0.0958572,
        -0.0119889,
        0.0830698,
        -30.3609,
        -18.9944,
        30.9583,
        139.835,
        59.0434,
        -175.274,
        -89.7718,
        63.54,
        407.574,
        121.481,
        17.441,
        -121.375,
        -80.9645,
        -105.219,
        -206.364,
        -62.8226,
        -59.5712,
        -248.221,
        -130.466,
        -226.386,
        -217.003,
        -160.419,
        -89.1963,
        50.6694,
        24.4,
        -0.0388511,
        -0.0661075,
        0.0756099,
        -4.02769,
        9.83851,
        126.169,
        165.621,
        45.234,
        40.9697,
        107.875,
        153.374,
        76.4617,
        -80.8472,
        -119.237,
        151.182,
        207.613,
        -51.2932,
        -44.0969,
        -248.859,
        -304.183,
        -251.838,
        -244.02,
        -155.328,
        -182.22,
        -107.666,
        -163.747,
        19.5769,
        0.00636312,
        0.0521151,
        16.1429,
        6.37506,
        26.5978,
        48.5182,
        201.299,
        158.447,
        -61.9221,
        -1.35501,
        72.8244,
        68.0254,
        -44.7603,
        170.917,
        111.084,
        307.979,
        115.69,
        -106.486,
        62.561,
        -350.796,
        -65.3451,
        -61.7705,
        -77.3111,
        52.7757,
        111.925,
        23.4839,
        -48.162,
        1.06352,
        0.0272716,
        0.0612731,
        1.93504,
        47.919,
        94.1061,
        126.082,
        175.785,
        26.076,
        -40.8354,
        -83.9346,
        301.57,
        79.6528,
        65.4127,
        -30.6221,
        -67.3991,
        -280.034,
        -549.43,
        -130.276,
        -67.2532,
        -179.173,
        -45.9123,
        214.04,
        149.929,
        -6.16751,
        60.7609,
        147.642,
        -20.1563,
        0.242795,
        0.0564313,
        -0.0902823,
        -0.0495398,
        35.3216,
        56.4061,
        68.1187,
        82.3424,
        -43.472,
        -51.2242,
        90.7312,
        -71.3556,
        -93.9929,
        -289.749,
        -157.919,
        -297.986,
        -115.882,
        -405.555,
        -199.013,
        -137.314,
        110.115,
        222.075,
        242.995,
        333.551,
        174.718,
        145.675,
        245.211,
        13.8562,
        3.29309,
        0.0313879,
        -0.0294477,
        -0.0844531,
        7.52383,
        23.0104,
        -14.428,
        75.3832,
        -96.3798,
        -228.849,
        -27.7142,
        121.511,
        -132.121,
        -243.16,
        37.6608,
        62.1471,
        87.7788,
        -94.3273,
        -338.269,
        -102.137,
        125.237,
        31.4654,
        216.871,
        401.212,
        273.685,
        247.075,
        305.138,
        24.8148,
        2.79696,
        0.0411581,
        0.0344779,
        -0.0898729,
        11.3759,
        -4.16162,
        -110.581,
        41.609,
        -44.2302,
        -225.065,
        -215.696,
        -203.227,
        -141.11,
        -125.823,
        52.6418,
        18.5796,
        64.6571,
        79.5453,
        -283.553,
        -141.83,
        -156.901,
        -68.957,
        -124.283,
        182.461,
        289.334,
        354.489,
        226.835,
        51.6829,
        0.313189,
        0.0227209,
        0.0666681,
        0.00137653,
        1.19393,
        -2.68694,
        -125.7,
        -36.1405,
        -124.555,
        -133.815,
        -164.715,
        -172.828,
        -58.4725,
        38.7667,
        -70.4796,
        -317.82,
        -62.6571,
        87.8658,
        -445.109,
        -426.596,
        -98.9456,
        -98.2703,
        -155.955,
        -92.4124,
        119.196,
        270.432,
        120.133,
        37.0673,
        2.28023,
        0.0467782,
        -0.0346921,
        -0.0783329,
        -0.030501,
        -12.6702,
        -122.294,
        -35.6776,
        -30.8883,
        -25.3251,
        37.6238,
        121.093,
        15.8911,
        144.294,
        -167.25,
        -287.508,
        -140.602,
        -105.653,
        -155.143,
        -110.557,
        169.388,
        -148.535,
        -159.84,
        -132.349,
        124.944,
        167.359,
        -4.65909,
        60.2316,
        36.8559,
        0.0903365,
        -0.0300482,
        -0.0376986,
        2.32602,
        -11.4201,
        -136.034,
        -30.0579,
        53.9763,
        -155.716,
        -16.4138,
        93.1492,
        213.954,
        131.734,
        94.226,
        -126.279,
        -79.665,
        -63.8317,
        -57.7829,
        -131.473,
        115.335,
        100.494,
        18.0344,
        162.941,
        111.058,
        8.71166,
        -36.1663,
        37.3346,
        19.3735,
        -0.0544904,
        -0.0945598,
        0.018895,
        -2.23228,
        -20.6047,
        -72.5405,
        -166.568,
        -178.297,
        -208.967,
        37.8454,
        220.637,
        463.849,
        647.861,
        223.819,
        -155.795,
        -181.917,
        -182.387,
        11.9327,
        27.5758,
        -58.6211,
        64.113,
        263.506,
        171.317,
        101.11,
        -51.2713,
        -109.858,
        10.7456,
        0.0248802,
        -0.0276753,
        0.0963521,
        0.00173917,
        7.19697,
        -50.1753,
        46.9711,
        -83.429,
        -228.306,
        -70.0165,
        291.388,
        334.809,
        686.504,
        487.805,
        57.4023,
        -239.579,
        -171.055,
        161.572,
        -18.8942,
        4.83837,
        39.7327,
        -250.676,
        -107.236,
        -5.53201,
        162.721,
        144.444,
        49.3068,
        10.3666,
        -0.0679345,
        -0.0263547,
        -0.0265705,
        0.0569458,
        32.5701,
        -28.49,
        40.0823,
        -27.3786,
        -96.1088,
        -163.506,
        281.818,
        333.825,
        494.8,
        497.721,
        193.446,
        -61.8907,
        224.829,
        107.081,
        25.9091,
        -108.412,
        -136.676,
        -277.355,
        -89.8441,
        135.823,
        110.107,
        58.8827,
        -36.9986,
        12.3699,
        -0.0695424,
        -0.0738665,
        0.0160863,
        -0.0374768,
        33.2796,
        -16.2083,
        4.59356,
        -82.2395,
        -87.8369,
        13.3845,
        78.3378,
        119.883,
        322.169,
        138.029,
        344.328,
        308.894,
        173.212,
        282.588,
        202.216,
        -41.6036,
        22.6831,
        -155.353,
        -36.7669,
        97.7544,
        -25.591,
        -8.90016,
        -47.3409,
        20.4993,
        2.26594,
        -0.0686603,
        0.0754469,
        0.0515081,
        23.8201,
        19.5392,
        31.1961,
        -2.00812,
        -62.176,
        -31.022,
        138.561,
        103.651,
        -109.853,
        -133.084,
        366.568,
        431.449,
        18.5595,
        -14.5301,
        -64.4018,
        -11.5234,
        13.9516,
        87.2523,
        85.575,
        -180.505,
        -78.2494,
        -2.19525,
        0.763832,
        5.72922,
        3.87177,
        -0.0765782,
        0.0173872,
        0.0798329,
        0.0222925,
        -5.69803,
        38.4172,
        90.0589,
        0.966342,
        122.773,
        219.106,
        61.245,
        141.285,
        -70.5975,
        151.399,
        84.9693,
        -6.59981,
        209.366,
        85.233,
        -294.818,
        -244.551,
        -11.2094,
        -144.283,
        -174.114,
        -14.1201,
        3.43596,
        -8.84416,
        0.997079,
        2.31125,
        0.0309516,
        0.0134416,
        -0.0436785,
        0.0543734,
        -18.0022,
        -52.0162,
        -27.1103,
        -69.5671,
        -130.482,
        42.531,
        -125.42,
        -152.225,
        -49.9968,
        55.1855,
        13.5169,
        138.353,
        -10.5096,
        -240.52,
        -259.472,
        -44.2628,
        15.3746,
        -39.086,
        10.485,
        6.47918,
        26.3448,
        -10.4922,
        0.071244,
        0.0760582,
        0.059432,
        0.00176878,
        0.0735973,
        -0.00961645,
        -53.1449,
        -71.8488,
        -115.194,
        -263.612,
        -58.4237,
        184.492,
        45.2591,
        97.9126,
        165.722,
        -70.4446,
        -136.173,
        155.572,
        260.885,
        -6.87776,
        -86.5694,
        -18.5368,
        160.781,
        97.7602,
        33.0262,
        -20.5103,
        -22.4321,
        -10.9622,
        0.0716853,
        0.0592743,
        0.0495203,
        0.0429293,
        0.0353325,
        0.00895225,
        -1.24842,
        19.0653,
        35.7699,
        58.0076,
        14.6858,
        35.6682,
        41.251,
        74.9724,
        133.902,
        70.2778,
        -8.94055,
        72.0891,
        -2.48798,
        28.1531,
        -0.0929358,
        76.4922,
        80.7424,
        20.2667,
        0.33228,
        -16.6822,
        -22.7999,
        -9.14284,
        -0.0940933,
        -0.00246059,
        -0.00786636,
        0.077592,
        -0.0431863,
        -0.0583461,
        -2.61565,
        -12.1244,
        7.5795,
        -20.9729,
        -29.0482,
        -56.0893,
        -29.1979,
        22.3668,
        63.6461,
        22.9424,
        -20.8195,
        -32.8702,
        -10.1251,
        -0.433134,
        26.1493,
        -10.4627,
        12.9972,
        -0.832259,
        -0.128696,
        -0.00863554,
        -0.0265444,
        0.0996233,
        0.034909,
        -0.0798712,
        0.0211563,
        0.0408157,
        0.0176682,
        -0.08671,
        0.0184077,
        0.0744819,
        12.3876,
        19.6886,
        10.6193,
        1.93807,
        -0.0958516,
        0.505816,
        9.15855,
        8.35131,
        2.93524,
        -2.15873,
        6.16609,
        15.8483,
        8.52527,
        -44.4659,
        -23.2193,
        -0.0931883,
        0.0271858,
        0.00407331,
        -0.0885586,
        -0.00814321,
        0.0954378,
        -0.0151029,
        -0.00851994,
        2.42764,
        0.00502587,
        -0.0873636,
        -0.0288375,
        -0.0773059,
        -0.0740736,
        0.0895702,
        0.097176,
        -0.0191297,
        -0.0715007,
        0.0638042,
        -0.0135797,
        -0.0673523,
        -0.0684916,
        -0.0580876,
        -0.0380761,
        0.0391371,
        0.0914391,
        -0.0777243,
        -0.00838811,
        -0.0670147,
        0.089353,
        0.0274229,
        -0.060203,
        0.0165388,
        -0.0685038,
        -0.0487615,
        -0.0916044,
        -0.073066,
        0.0361355,
        -0.000124307,
        0.0572807,
        -0.0588386,
        0.0125121,
        -0.0715568,
        -0.0361445,
        0.0384385,
        -0.0819865,
        -0.0389685,
        -0.0806913,
        -0.0534872,
        -0.0751643,
        -3.36033,
        -11.261,
        -35.3102,
        -58.3682,
        -115.742,
        -60.0581,
        -27.1324,
        -46.9171,
        -7.15769,
        0.0720659,
        0.052713,
        -0.085484,
        -0.0881371,
        -0.0307481,
        -0.0539878,
        -0.0368986,
        -0.0223525,
        -0.0270538,
        0.0992369,
        0.0775232,
        -0.0697731,
        -0.0596017,
        -0.00996471,
        -0.0413298,
        0.00425382,
        -12.2831,
        -44.7078,
        -8.40764,
        20.9311,
        -40.8951,
        -189.539,
        -294.952,
        -346.473,
        -231.539,
        -206.379,
        -87.1631,
        -63.4822,
        -47.6551,
        -53.1638,
        -23.0019,
        -0.0877005,
        -0.0404858,
        0.0435556,
        -0.0758376,
        0.0287661,
        0.0895678,
        -0.0127362,
        -0.0935864,
        -0.037486,
        -5.15204,
        -11.3248,
        -47.2405,
        -61.2826,
        11.3327,
        96.7054,
        127.289,
        -65.6172,
        -153.462,
        -677.588,
        -712.128,
        -554.035,
        -341.75,
        -259.591,
        -221.319,
        -115.849,
        -25.9016,
        -64.099,
        -13.6004,
        -0.0548733,
        -0.0961096,
        -0.0959894,
        -0.0425738,
        -0.0365953,
        0.0475662,
        -0.0184113,
        -18.3672,
        -11.2117,
        -19.1541,
        -46.3239,
        -96.8584,
        5.02072,
        -68.3136,
        -216.528,
        -188.416,
        -29.4119,
        47.471,
        -215.876,
        -424.81,
        -542.409,
        -551.085,
        -432.289,
        -522.312,
        -176.798,
        -17.5066,
        -151.022,
        -4.29877,
        13.4702,
        -0.0260767,
        0.0043982,
        -0.0370726,
        -0.0221862,
        0.00840878,
        -3.99518,
        20.8374,
        40.5885,
        64.212,
        143.211,
        471.533,
        31.3173,
        -531.121,
        -430.194,
        -305.208,
        -30.0995,
        422.657,
        201.358,
        -2.07479,
        192.447,
        -201.287,
        -617.913,
        -691.948,
        -453.029,
        -151.536,
        -274.759,
        2.52222,
        71.6925,
        14.9144,
        -0.0425212,
        -0.0301965,
        -0.0252154,
        0.061877,
        -46.2824,
        45.0856,
        59.2083,
        76.3705,
        59.9862,
        252.381,
        -473.631,
        -249.137,
        -365.59,
        -237.4,
        -24.3625,
        -470.446,
        -302.073,
        85.4531,
        470.102,
        -236.534,
        36.6877,
        407.412,
        -35.9286,
        297.459,
        -28.7561,
        7.75658,
        56.5936,
        69.2754,
        -26.9901,
        -0.0343118,
        0.0519483,
        0.0993549,
        -32.0615,
        -89.0572,
        -186.876,
        -169.445,
        -314.446,
        -231.1,
        -490.79,
        -322.881,
        -241.684,
        293.184,
        -672.059,
        -639.419,
        -630.766,
        -642.954,
        -372.492,
        -500.864,
        -188.956,
        267.619,
        -53.4144,
        28.464,
        -19.0682,
        -286.099,
        -28.4903,
        -19.8896,
        -74.3112,
        0.0661469,
        0.0909136,
        -0.0476274,
        -131.429,
        -251.516,
        -215.556,
        -192.44,
        -350.334,
        -193.441,
        -297.048,
        -422.561,
        190.585,
        -72.0516,
        -405.366,
        -549.819,
        -505.642,
        -365.986,
        -510.869,
        -508.241,
        -383.206,
        -313.232,
        -151.94,
        -68.5268,
        -241.812,
        -381.09,
        -213.707,
        -87.048,
        0.000641774,
        -0.0544972,
        -0.4588,
        -2.88392,
        -27.7762,
        -47.9252,
        137.926,
        473.475,
        28.8308,
        -12.7764,
        78.6352,
        615.271,
        780.235,
        677.711,
        91.2111,
        -471.764,
        -400.155,
        -515.013,
        -384.179,
        -556.785,
        -92.3987,
        -539.194,
        63.2298,
        348.316,
        45.0439,
        -273.579,
        -86.7304,
        -10.3315,
        0.0652004,
        0.094791,
        0.00393059,
        -11.9526,
        1.17323,
        129.438,
        341.149,
        293.546,
        -446.965,
        -133.548,
        -78.3651,
        351.64,
        -388.584,
        280.239,
        94.9447,
        -355.651,
        -41.2885,
        -94.7319,
        -11.0625,
        -294.217,
        96.1418,
        -122.187,
        460.085,
        275.643,
        34.565,
        20.8628,
        30.7481,
        -0.781292,
        -0.0747832,
        -0.0591789,
        -0.0128791,
        0.886957,
        -74.6666,
        60.9063,
        347.727,
        -21.5698,
        -607.781,
        -194.052,
        86.5706,
        -54.564,
        -322.694,
        -62.6293,
        -192.034,
        -376.235,
        25.7919,
        -71.4083,
        51.8519,
        -498.33,
        -317.544,
        236.545,
        411.948,
        -97.2773,
        -37.4777,
        -50.8008,
        48.939,
        -1.57625,
        -0.00584609,
        0.045263,
        -0.00372431,
        6.77706,
        -111.832,
        38.0494,
        182.3,
        -116.534,
        -734.693,
        -356.548,
        -12.3893,
        -487.148,
        -651.85,
        -202.356,
        -475.198,
        -118.265,
        83.1983,
        353.49,
        226.973,
        -602.512,
        -116.731,
        -4.85853,
        171.284,
        -188.038,
        -106.874,
        44.1602,
        1.41632,
        -1.33893,
        -0.0715275,
        0.0847714,
        -0.0252178,
        -21.7148,
        -49.4127,
        -30.0738,
        -60.0778,
        -251.174,
        -383.806,
        -303.281,
        -1060.06,
        -1004.27,
        -696.835,
        -210.959,
        -368.173,
        -886.652,
        9.47649,
        -196.54,
        -402.453,
        -1404.41,
        -974.734,
        -97.3204,
        -211.364,
        -40.3841,
        211.16,
        65.6386,
        31.5905,
        -0.0589815,
        -0.0534844,
        -0.0788629,
        -0.0182624,
        -4.90955,
        -38.5705,
        -20.1913,
        -178.501,
        -315.919,
        -524.015,
        -967.33,
        -1113.96,
        -1156.93,
        -343.827,
        1198.03,
        756.197,
        263.549,
        173.516,
        195.759,
        -239.293,
        -919.082,
        -702.233,
        -829.193,
        -781.083,
        -428.088,
        20.0766,
        -91.7837,
        18.2151,
        5.01683,
        -0.0681855,
        -0.0928433,
        0.0119435,
        -0.02167,
        -52.9413,
        -23.4419,
        81.7997,
        -351.632,
        -641.128,
        -1262.48,
        -1166.59,
        -635.185,
        218.008,
        4.60371,
        -23.7019,
        208.167,
        -66.7499,
        -269.932,
        -765.842,
        -701.761,
        -686.537,
        -878.515,
        -1210.56,
        -607.861,
        -190.439,
        -42.0123,
        60.063,
        85.3786,
        -0.0971008,
        -0.0985325,
        -0.0392946,
        -1.2572,
        -20.8793,
        203.859,
        91.6645,
        30.3088,
        -595.369,
        -993.064,
        -424.369,
        74.4067,
        -280.714,
        34.1304,
        -14.587,
        55.6834,
        52.7259,
        279.654,
        -413.055,
        -122.843,
        -72.2635,
        -308.823,
        -770.018,
        -276.26,
        18.1238,
        56.0523,
        5.50937,
        42.6182,
        0.0557617,
        -0.064375,
        0.0755857,
        12.1842,
        20.5446,
        235.105,
        320.561,
        18.8445,
        -465.183,
        -566.819,
        -107.164,
        199.963,
        751.402,
        360.299,
        -115.397,
        81.7802,
        43.8757,
        188.998,
        0.169296,
        -357.75,
        -258.374,
        -136.361,
        -220.163,
        38.4795,
        143.257,
        168.535,
        -40.1607,
        0.0671108,
        -0.0165589,
        -0.0850321,
        0.0995849,
        21.3325,
        90.0247,
        294.327,
        122.138,
        -267.588,
        -16.2791,
        -627.424,
        -135.602,
        406.676,
        408.046,
        420.661,
        -8.54352,
        -372.19,
        -448.342,
        341.185,
        -292.658,
        -825.829,
        -651.61,
        -431.195,
        -226.683,
        -86.7637,
        289.321,
        279.074,
        -28.484,
        0.0147603,
        -0.0956763,
        -0.0625758,
        -0.0181288,
        8.76766,
        103.983,
        206.369,
        -61.0894,
        42.1931,
        -51.6556,
        -186.353,
        -351.633,
        -190.829,
        -211.996,
        210.628,
        -456.949,
        -838.851,
        -377.166,
        -84.8206,
        -1239.58,
        -1262.81,
        -906.954,
        -241.597,
        324.415,
        385.999,
        344.493,
        183.783,
        -47.8736,
        -0.0507832,
        -0.0446373,
        0.0802438,
        0.0639772,
        62.3212,
        155.112,
        69.6362,
        195.878,
        685.855,
        242.076,
        -190.191,
        206.701,
        -377.49,
        -498.604,
        -936.466,
        -706.814,
        -604.466,
        -496.771,
        -294.305,
        -1171.49,
        -898.335,
        -51.6069,
        248.711,
        608.733,
        426.628,
        154.158,
        -34.4989,
        -30.0455,
        -1.043,
        0.010521,
        0.000549756,
        -0.0898009,
        44.819,
        114.737,
        89.8072,
        9.1806,
        435.818,
        11.0822,
        -314.882,
        -608.352,
        -854.771,
        -1403.11,
        -808.553,
        -273.18,
        -458.392,
        -447.867,
        -329.595,
        -408.832,
        -45.4628,
        555.478,
        692.484,
        684.181,
        591.466,
        160.907,
        -153.769,
        -23.8027,
        -1.96217,
        0.0712668,
        -0.0137209,
        -0.0768693,
        0.474475,
        20.1859,
        -179.58,
        -229.373,
        -164.894,
        -14.4806,
        -34.5141,
        -404.766,
        -525.214,
        -678.463,
        -251.065,
        -197.151,
        -704.787,
        -352.262,
        -222.87,
        48.8743,
        221.789,
        196.438,
        458.845,
        307.761,
        245.409,
        140.144,
        -3.22772,
        -0.413684,
        -1.09092,
        0.0542456,
        0.00640193,
        0.0598742,
        0.0255123,
        5.81985,
        62.3624,
        -170.158,
        -544.034,
        -494.853,
        485.018,
        95.4362,
        -513.174,
        -1200.93,
        -688.176,
        -257.158,
        -302.013,
        61.8653,
        152.434,
        -5.14005,
        -168.247,
        -168.583,
        -32.5032,
        186.851,
        156.651,
        168.295,
        44.4308,
        -0.0650667,
        0.00443894,
        0.0754533,
        0.0965754,
        -0.0978353,
        0.0296989,
        11.7035,
        159.133,
        33.2144,
        -372.448,
        -118.949,
        222.153,
        -72.5307,
        -71.4059,
        -20.5765,
        -99.991,
        22.0965,
        -492.327,
        -626.326,
        -132.601,
        49.3977,
        -86.8224,
        -116.623,
        106.464,
        -5.3342,
        76.0434,
        85.595,
        44.6584,
        -0.0830803,
        -0.0920936,
        -0.00725541,
        -0.048147,
        0.0123453,
        -0.0318021,
        -0.316309,
        63.0949,
        65.9955,
        70.7372,
        -52.8429,
        -69.744,
        -455.179,
        -457.43,
        -177.064,
        -217.015,
        -506.799,
        -487.962,
        -330.809,
        -359.864,
        -157.805,
        1.27893,
        -93.6248,
        -28.4755,
        -3.05053,
        64.8415,
        92.8242,
        33.5098,
        -0.0372254,
        -0.0157455,
        -0.0165054,
        -0.0203057,
        -0.00783907,
        0.0762392,
        -3.11138,
        -28.1044,
        -35.3529,
        -79.5339,
        -173.015,
        -219.951,
        -245.754,
        -334.816,
        -288.189,
        -227.21,
        -225.842,
        -202.16,
        -208.269,
        -136.152,
        19.335,
        93.1016,
        37.0982,
        25.1467,
        6.618,
        0.0731011,
        -0.0780643,
        0.0886456,
        -0.059296,
        -0.0907377,
        0.0593632,
        0.00347866,
        -0.00648315,
        -0.0571422,
        0.0831729,
        0.0856778,
        -15.5276,
        -34.1002,
        -21.9431,
        -2.0869,
        -0.00530424,
        -1.86521,
        -31.7028,
        -47.9432,
        -54.0937,
        -29.4444,
        -45.6382,
        -60.4059,
        -26.6055,
        84.6601,
        44.3266,
        -0.0434652,
        -0.0495904,
        -0.00962773,
        0.0794977,
        0.0756684,
        -0.0365266,
        -0.0985665,
        0.064314,
        7.96337,
        -0.0893042,
        0.0236772,
        -0.0923439,
        0.00421264,
        0.066535,
        0.090829,
        -0.0101096,
        0.0856321,
        0.00554921,
        -0.0199255,
        -0.0508337,
        -0.099755,
        0.0892748,
        0.0550344,
        -0.073678,
        -0.00595969,
        0.0563443,
        -0.0691557,
        -0.0840363,
        0.0687154,
        0.036044,
        0.0380162,
        -0.0747499,
        0.0864535,
        -0.0716115,
        -0.0952522,
        0.062122,
        -0.00813813,
        -0.0938187,
        0.0264359,
        0.0960393,
        -0.0831229,
        -0.0498869,
        -0.0963046,
        0.0210897,
        -0.0833519,
        0.0945244,
        -0.0890198,
        -0.0977198,
        7.36699e-05,
        -0.00894535,
        -1.6014,
        -3.1462,
        21.4982,
        50.6024,
        127.339,
        68.2388,
        16.3557,
        31.9399,
        5.62656,
        0.0315406,
        -0.0064711,
        0.0283497,
        0.0567907,
        -0.0200176,
        0.0567381,
        0.0615386,
        -0.0578956,
        -0.0514,
        0.0677199,
        0.0685404,
        -0.0553607,
        0.084597,
        -0.0813465,
        -0.0516653,
        0.0056867,
        16.3002,
        72.4918,
        68.8658,
        63.4184,
        104.006,
        116.502,
        84.1618,
        161.023,
        92.8978,
        65.4519,
        43.1972,
        58.3507,
        41.5923,
        19.6526,
        8.50582,
        0.0898752,
        -0.079094,
        0.0811039,
        0.0466659,
        0.000888453,
        0.037842,
        0.00820445,
        0.0429929,
        0.0864421,
        1.42754,
        17.0918,
        43.4001,
        61.2812,
        75.2036,
        13.0618,
        -132.88,
        63.6351,
        143.909,
        238.677,
        21.7548,
        84.8987,
        28.122,
        -15.4911,
        -2.31849,
        48.0817,
        35.4023,
        21.5018,
        3.16326,
        -0.0540577,
        -0.094271,
        -0.00617775,
        -0.0641825,
        -0.073365,
        -0.0250739,
        0.0824834,
        -10.3938,
        -19.5639,
        26.9192,
        -9.79093,
        -201.424,
        -128.112,
        -88.0039,
        -70.0102,
        143.554,
        290.583,
        515.679,
        296.882,
        -38.3122,
        -13.9498,
        -44.7386,
        -228.052,
        -122.485,
        -169.872,
        -236.96,
        55.8899,
        18.553,
        -15.9755,
        -0.0159971,
        0.086528,
        -0.0935568,
        -0.0102681,
        -0.0196498,
        1.49906,
        -119.386,
        -172.276,
        -5.10757,
        -35.1042,
        -248.362,
        -123.381,
        3.70333,
        248.88,
        398.693,
        221.526,
        -47.9714,
        17.4213,
        98.1814,
        291.556,
        18.6063,
        -316.286,
        -294.867,
        -259.678,
        -601.075,
        -429.145,
        -222.971,
        -125.985,
        -15.5568,
        -0.00899228,
        0.000605665,
        0.0260824,
        -0.0224643,
        9.79172,
        -93.7887,
        -3.52153,
        162.091,
        139.491,
        83.6569,
        254.297,
        -89.573,
        -94.3793,
        180.993,
        18.4635,
        489.343,
        190.238,
        160.666,
        389.611,
        132.623,
        -203.953,
        283.68,
        -320.07,
        -557.248,
        -563.077,
        -347.002,
        -65.6732,
        -102.848,
        -141.755,
        0.0893608,
        0.0710069,
        0.0985167,
        129.601,
        -19.3287,
        -95.5916,
        180.061,
        -179.433,
        -64.8042,
        -27.8259,
        -225.274,
        80.7305,
        514.692,
        531.029,
        897.833,
        834.565,
        437.904,
        827.926,
        -137.552,
        67.4788,
        112.316,
        -168.67,
        -219.972,
        -450.403,
        -196.969,
        -244.898,
        -225.812,
        -83.6348,
        -0.0745029,
        -0.0025352,
        0.0147968,
        76.313,
        -116.25,
        -95.2714,
        -157.583,
        -286.73,
        -230.313,
        -270.774,
        580.557,
        85.3741,
        321.221,
        335.512,
        558.618,
        316.393,
        146.258,
        263.269,
        -47.0404,
        456.477,
        -52.1079,
        223.156,
        -71.6308,
        -230.132,
        -336.421,
        -271.021,
        -49.6715,
        -0.0327718,
        -0.074652,
        39.212,
        12.0593,
        75.6803,
        -49.2031,
        -218.489,
        -33.0338,
        38.3895,
        17.5904,
        -68.683,
        423.147,
        -265.086,
        -186.062,
        -443.967,
        496.771,
        816.529,
        348.051,
        262.362,
        326.566,
        386.319,
        387.489,
        231.17,
        -335.94,
        -291.526,
        -474.225,
        -241.887,
        -5.71929,
        -0.0508149,
        0.0814083,
        4.46351,
        70.489,
        93.0594,
        -128.1,
        -382.815,
        -9.13196,
        290.482,
        -33.6327,
        -460.701,
        76.158,
        -313.397,
        -817.28,
        -587.703,
        -14.2655,
        678.544,
        281.468,
        474.939,
        392.194,
        643.146,
        202.02,
        134.013,
        -313.879,
        251.929,
        -70.5922,
        -128.511,
        1.20282,
        -0.0294265,
        -0.0414389,
        0.0783177,
        55.5501,
        -7.67125,
        -244.991,
        -365.573,
        61.3828,
        -9.68112,
        -306.242,
        -84.9263,
        -132.198,
        -37.5571,
        188.476,
        -138.367,
        -245.719,
        547.983,
        213.739,
        207.321,
        608.213,
        510.945,
        656.651,
        338.369,
        129.701,
        659.386,
        137.818,
        -16.2202,
        -4.0679,
        0.0934931,
        -0.020931,
        -0.0884724,
        10.221,
        -29.3775,
        -312.819,
        -276.051,
        13.1323,
        -455.02,
        -19.5632,
        -269.682,
        -370.858,
        259.383,
        161.853,
        -691.383,
        -328.193,
        -92.3603,
        -199.637,
        357.936,
        365.322,
        153.371,
        -83.0251,
        256.198,
        385.355,
        584.76,
        141.335,
        3.0255,
        -3.31986,
        -0.00998804,
        0.0717719,
        -0.0125908,
        -5.15148,
        -16.774,
        -42.1171,
        98.7315,
        -292.525,
        -351.026,
        -48.8701,
        58.0338,
        163.556,
        -37.2977,
        -404.275,
        -816.19,
        -99.359,
        75.3301,
        -136.524,
        122.497,
        -12.5432,
        -58.7683,
        27.0193,
        162.779,
        493.174,
        477.882,
        47.8373,
        -0.944905,
        -0.311067,
        -0.0416963,
        0.05146,
        -0.0316766,
        -1.9374,
        -12.1581,
        37.3438,
        326.537,
        106.266,
        104.16,
        186.657,
        325.765,
        2.15153,
        182.919,
        -589.296,
        -207.987,
        -257.649,
        233.211,
        149.389,
        -469.588,
        341.665,
        68.7546,
        378.159,
        39.41,
        248.091,
        543.129,
        104.879,
        6.48622,
        1.67541,
        0.0849684,
        0.00176872,
        -0.00920769,
        -0.0567279,
        -11.6495,
        13.5631,
        444.723,
        612.249,
        212.927,
        -141.087,
        126.612,
        78.5025,
        -77.0169,
        -166.398,
        -564.907,
        -478.725,
        -6.32009,
        225.529,
        -16.4244,
        76.1302,
        148.204,
        206.665,
        62.5833,
        75.6185,
        330.982,
        298.205,
        48.7811,
        31.6515,
        0.0786258,
        0.0489922,
        0.0797746,
        3.17328,
        -2.54608,
        24.9116,
        -205.884,
        565.734,
        -49.5658,
        56.3876,
        144.055,
        25.0877,
        -493.821,
        -439.292,
        -551.666,
        -701.992,
        171.954,
        -55.1131,
        -8.72324,
        334.4,
        -179.757,
        143.005,
        -192.396,
        -294.102,
        24.2551,
        229.483,
        61.9737,
        14.1478,
        -0.0426322,
        -0.0648152,
        0.0617893,
        21.0936,
        62.4476,
        266.889,
        163.204,
        304.742,
        -68.4847,
        155.037,
        655.855,
        -179.7,
        -321.846,
        -68.3877,
        -197.066,
        -177.528,
        196.563,
        -637.747,
        -589.328,
        8.20171,
        282.19,
        -381.047,
        -511.934,
        -296.615,
        -191.861,
        120.878,
        30.5911,
        -0.0458155,
        -0.028154,
        -0.0167531,
        0.054716,
        65.1202,
        223.16,
        425.504,
        238.027,
        69.4099,
        -393.569,
        -564.934,
        -350.944,
        -498.506,
        -82.8843,
        -136.597,
        -600.281,
        -287.685,
        -162.73,
        -519.735,
        236.19,
        -190.125,
        208.605,
        -362.414,
        -544.147,
        -186.666,
        -32.2379,
        159.389,
        3.71775,
        0.0477586,
        -0.0525581,
        -0.0458101,
        -0.0980569,
        33.8149,
        282.527,
        466.933,
        540.404,
        223.513,
        127.931,
        -156.687,
        -290.614,
        -417.021,
        -77.5989,
        -265.879,
        -438.73,
        -218.116,
        14.9346,
        -139.652,
        -241.556,
        45.009,
        71.8234,
        10.9228,
        -292.24,
        -69.1388,
        -110.916,
        75.105,
        -31.7349,
        -0.0727524,
        -0.0239896,
        0.0631251,
        0.0750062,
        16.2797,
        111.619,
        255.526,
        423.038,
        318.626,
        70.2215,
        -512.378,
        -450.404,
        -343.904,
        -243.725,
        156.735,
        15.0607,
        83.6752,
        530.578,
        -477.67,
        -484.104,
        -43.2174,
        289.374,
        49.3783,
        -122.499,
        -36.9732,
        -0.891223,
        116.877,
        21.1722,
        -2.7889,
        -0.0242696,
        -0.0880344,
        -0.00159189,
        26.81,
        -31.0328,
        102.256,
        205.185,
        60.1594,
        103.087,
        -657.458,
        -127.072,
        403.732,
        -69.4495,
        461.402,
        234.426,
        228.817,
        -2.93119,
        -294.352,
        122.626,
        2.61348,
        -228.567,
        -224.211,
        -58.1011,
        41.2346,
        -33.7267,
        30.2955,
        19.6951,
        -4.83307,
        -0.0438845,
        -0.0389809,
        0.0490351,
        6.71382,
        46.5848,
        78.9919,
        26.003,
        -54.5011,
        -412.807,
        -84.7964,
        138.197,
        -450.75,
        -48.4191,
        70.3161,
        -84.7624,
        55.8771,
        -197.436,
        26.1593,
        198.044,
        -779.893,
        -499.203,
        67.4373,
        189.475,
        -53.8782,
        73.2963,
        26.5443,
        -1.2244,
        -2.80342,
        -0.0705126,
        -0.0502667,
        -0.00381881,
        -0.0143971,
        25.3743,
        233.688,
        234.82,
        173.305,
        301.189,
        16.0525,
        -123.092,
        -157.743,
        -100.563,
        -508.453,
        -228.997,
        -70.9202,
        -376.91,
        -116.74,
        -315.713,
        -120.163,
        -88.1193,
        101.05,
        287.13,
        80.1779,
        74.6027,
        108.902,
        0.00344221,
        -0.0515748,
        -0.0641678,
        0.067404,
        -0.0332682,
        -0.0346803,
        104.829,
        266.243,
        404.775,
        571.543,
        476.946,
        269.797,
        -214.572,
        288.045,
        335.806,
        342.84,
        39.8855,
        -32.9036,
        47.3409,
        279.713,
        -61.1523,
        20.427,
        53.2092,
        329.856,
        318.783,
        275.251,
        227.204,
        107.911,
        -0.0145942,
        0.0306355,
        0.000583623,
        0.0888481,
        0.0790607,
        0.0364158,
        0.248169,
        78.0029,
        263.375,
        425.049,
        675.776,
        284.772,
        69.1478,
        820.847,
        669.675,
        576.684,
        747.663,
        537.482,
        483.647,
        107.656,
        112.733,
        164.572,
        -279.733,
        -48.1764,
        102.531,
        197.847,
        228.4,
        62.5991,
        -0.00520381,
        0.0841809,
        -0.012587,
        0.080202,
        0.0148164,
        0.0879967,
        9.56745,
        82.0702,
        98.6453,
        97.8454,
        21.9925,
        -29.7534,
        -86.5419,
        -93.7128,
        -80.0895,
        -65.5408,
        34.8518,
        121.838,
        -15.5447,
        14.7671,
        100.181,
        289.438,
        104.606,
        44.8638,
        11.8114,
        -0.0542617,
        -0.00465994,
        0.0890436,
        -0.0843114,
        0.0689184,
        0.0178017,
        0.0104848,
        0.0530993,
        -0.0947853,
        -0.00931316,
        -0.0320843,
        -38.2091,
        -83.7233,
        -57.1895,
        -7.09214,
        0.0850391,
        -2.06685,
        -35.0452,
        -41.7802,
        -32.5697,
        9.58996,
        -20.0075,
        -64.3186,
        -36.39,
        134.867,
        70.1381,
        0.0126855,
        -0.0342011,
        -0.0873542,
        -0.0773841,
        -0.0929013,
        -0.041616,
        0.017956,
        0.0961423,
        -1.01052,
        -0.0131256,
        0.013944,
        0.0845575,
        -0.0600263,
        0.0191587,
        -0.0247557,
        0.00788946,
        0.0123701,
        0.0349812,
        -0.0303177,
        -0.0700059,
        0.0200203,
        0.0711448,
        -0.026234,
        -0.0962492,
        -0.0790175,
        0.0963441,
        -0.0125482,
        -0.0639697,
        0.0187577,
        0.0840292,
        0.0339121,
        -0.0685568,
        -0.050172,
        0.0465579,
        -0.0459409,
        -0.0430733,
        -0.0950581,
        0.0720152,
        -0.046931,
        -0.0209854,
        -0.0411104,
        0.067013,
        -0.0364279,
        -0.00113666,
        -0.0138283,
        0.0388164,
        -0.0932472,
        0.0985419,
        -0.0262024,
        -0.0235649,
        -7.28546,
        -20.217,
        -22.4397,
        -7.11198,
        63.5479,
        38.775,
        -31.1319,
        -57.2686,
        -9.33756,
        -0.0825962,
        -0.0309502,
        -0.0614952,
        -0.051153,
        0.0188778,
        0.0850627,
        0.00290612,
        0.0758045,
        0.0900046,
        -0.0250787,
        -0.0711264,
        -0.0309808,
        0.0338109,
        0.0958866,
        0.0325913,
        -0.0673258,
        9.2097,
        46.8058,
        99.5482,
        39.797,
        -86.0709,
        -73.4228,
        -170.491,
        -92.2177,
        -100.41,
        -169.074,
        -74.6778,
        -54.5542,
        -38.2165,
        22.4056,
        10.8583,
        0.027488,
        -0.00933779,
        0.0751017,
        0.0763349,
        -0.09046,
        0.0601644,
        -0.0207589,
        0.0853445,
        0.050169,
        5.03033,
        2.61974,
        45.2083,
        50.7617,
        -14.0753,
        -79.3089,
        -111.602,
        59.2031,
        -23.8003,
        -130.374,
        -51.7232,
        -26.9846,
        -173.698,
        -269.807,
        -193.632,
        -88.957,
        -7.97419,
        30.9849,
        7.46742,
        -0.0965784,
        -0.0343801,
        -0.0920203,
        0.0309096,
        0.0562821,
        0.0830814,
        0.00724453,
        -12.1738,
        8.34339,
        23.2902,
        -35.0068,
        -51.7084,
        -80.9246,
        -60.151,
        -71.7337,
        192.003,
        315.773,
        -124.302,
        -26.4646,
        -123.19,
        -220.666,
        -41.1464,
        143.47,
        -276.638,
        -166.911,
        76.9663,
        -102.171,
        -55.9453,
        39.2867,
        -0.092615,
        -0.00395939,
        -0.0809262,
        -0.0269951,
        0.00402028,
        -2.76355,
        14.9739,
        123.516,
        254.845,
        283.367,
        229.485,
        229.072,
        380.629,
        255.288,
        258.673,
        183.486,
        -21.9175,
        282.336,
        50.6063,
        -29.7203,
        543.473,
        71.9499,
        137.203,
        197.333,
        244.831,
        -91.4898,
        43.4294,
        25.6538,
        -19.5632,
        -0.0184687,
        0.0331846,
        -0.0849574,
        0.0775719,
        -40.224,
        38.9254,
        112.605,
        190.184,
        231.304,
        241.845,
        562.896,
        120.693,
        96.4937,
        267.987,
        -507.176,
        -80.079,
        597.152,
        432.025,
        -279.187,
        135.006,
        258.937,
        332.174,
        115.889,
        -110.719,
        -75.7651,
        125.743,
        -7.85511,
        -60.9957,
        -65.7445,
        0.0250814,
        0.000172733,
        0.0727771,
        -83.0722,
        -83.5027,
        -41.7113,
        47.5967,
        242.722,
        413.73,
        251.063,
        -297.781,
        -7.84844,
        318.619,
        469.743,
        563.218,
        437.257,
        417.088,
        356.266,
        419.503,
        50.083,
        215.625,
        74.9138,
        96.8272,
        179.992,
        268.908,
        167.735,
        -110.512,
        -50.5634,
        0.0395491,
        -0.0176828,
        0.0518879,
        -121.429,
        -57.5486,
        54.5966,
        -101.019,
        189.119,
        296.2,
        67.7116,
        -150.784,
        263.738,
        71.1924,
        56.1746,
        -45.1744,
        87.2258,
        96.8541,
        293.205,
        726.419,
        8.19607,
        443.311,
        598.219,
        262.126,
        443.196,
        247.365,
        365.254,
        -58.0644,
        0.0465682,
        -0.0398257,
        -7.97007,
        -1.05145,
        -39.3463,
        -9.54174,
        -133.083,
        -22.7802,
        30.8514,
        235.25,
        -202.7,
        181.843,
        159.643,
        -354.457,
        332.723,
        -255.496,
        -453.398,
        -332.407,
        322.283,
        379.52,
        -243.009,
        -25.7875,
        382.341,
        -332.19,
        -385.436,
        -18.8357,
        60.522,
        -4.89537,
        -0.0437694,
        -0.0345368,
        -0.938328,
        5.05971,
        8.53617,
        -170.539,
        -237.98,
        -254.505,
        -185.918,
        -235.698,
        -494.817,
        -201.562,
        -302.501,
        -229.012,
        132.54,
        113.33,
        446.046,
        -56.7713,
        180.492,
        -115.761,
        -165.416,
        -468.506,
        -311.404,
        -579.351,
        -384.27,
        -62.3624,
        186.379,
        0.374401,
        0.0648359,
        -0.0620594,
        -0.0366411,
        -11.9112,
        -37.775,
        -274.653,
        -299.053,
        -251.703,
        -155.081,
        -408.934,
        -478.864,
        -549.921,
        -478.699,
        -723.802,
        -592.379,
        -265.184,
        491.404,
        77.3429,
        -112.75,
        -152.902,
        -155.943,
        -874.826,
        -925.457,
        -901.929,
        -472.541,
        -148.208,
        45.0125,
        31.4642,
        -0.0381019,
        0.0271784,
        0.0684972,
        -31.5219,
        -52.6292,
        -322.966,
        -240.058,
        -100.848,
        -222.536,
        -641.671,
        -643.13,
        -550.954,
        -462.996,
        -996.421,
        -716.351,
        -349.34,
        -98.7285,
        127.783,
        -60.1621,
        -19.6436,
        42.4852,
        -188.319,
        -698.326,
        -732.296,
        -364.024,
        -204.427,
        14.0149,
        25.1353,
        -0.0479032,
        0.0216222,
        -0.000798233,
        1.50243,
        -21.823,
        -172.21,
        -124.936,
        -14.6297,
        -141.149,
        -344.121,
        -360.01,
        -217.133,
        0.329823,
        -46.6998,
        -242.02,
        -661.581,
        -591.321,
        -438.529,
        -326.182,
        217.221,
        130.981,
        188.269,
        -511.939,
        -800.078,
        -453.14,
        -171.498,
        -9.67719,
        2.84469,
        0.000211428,
        0.000797902,
        -0.0804145,
        -0.923027,
        -15.6267,
        -100.996,
        -238.759,
        -511.052,
        -370.207,
        17.1943,
        344.556,
        449.159,
        177.376,
        133.599,
        23.5857,
        -333.383,
        -304.968,
        -519.669,
        0.844525,
        123.928,
        36.1539,
        11.4467,
        -404.975,
        -786.956,
        -571.245,
        -175.404,
        24.2767,
        12.5439,
        -0.0660506,
        -0.0702189,
        -0.0478627,
        0.0341608,
        -20.4918,
        -117.635,
        -165.177,
        -284.437,
        -164.381,
        364.779,
        4.1117,
        106.896,
        -69.7884,
        218.238,
        -27.7258,
        -361.941,
        -354.208,
        -591.755,
        -319.025,
        -412.496,
        64.9103,
        164.421,
        -95.5747,
        -260.01,
        -98.2422,
        157.57,
        261.166,
        210.794,
        0.0645511,
        -0.0793897,
        -0.032374,
        1.38,
        -5.09178,
        -3.14803,
        -40.7335,
        -13.7642,
        -290.21,
        -329.324,
        -194.905,
        -208.591,
        -36.1137,
        1.97445,
        -171.456,
        -345.22,
        -55.7005,
        -62.7926,
        126.099,
        -240.449,
        61.1849,
        321.979,
        224.772,
        219.606,
        322.593,
        403.739,
        186.721,
        107.877,
        0.0848276,
        -0.0562313,
        0.0219169,
        2.51135,
        5.84832,
        76.0975,
        168.333,
        360.403,
        -254.049,
        -400.065,
        -355.878,
        -759.962,
        -599.809,
        -697.896,
        -881.983,
        -986.367,
        265.317,
        234.374,
        432.103,
        39.847,
        -47.097,
        150.591,
        249.847,
        302.026,
        265.963,
        263.337,
        8.39317,
        0.01936,
        0.0420819,
        -0.0388589,
        0.0785338,
        12.4028,
        26.8356,
        119.856,
        524.483,
        711.704,
        382.697,
        -215.772,
        -372.162,
        -680.306,
        -438.739,
        271.702,
        -127.976,
        -24.7978,
        360.137,
        339.952,
        359.082,
        30.1614,
        183.373,
        195.8,
        138.377,
        324.602,
        418.234,
        453.049,
        1.68584,
        0.0581367,
        -0.0782341,
        -0.0932371,
        -0.0225033,
        40.2958,
        100.605,
        300.451,
        621.474,
        788.611,
        642.831,
        547.611,
        325.111,
        -60.6602,
        534.828,
        555.897,
        391.312,
        142.551,
        111.03,
        -510.241,
        371.56,
        267.028,
        419.166,
        160.546,
        204.277,
        462.268,
        201.261,
        211.359,
        -10.7197,
        -0.0749283,
        0.0185432,
        -0.0652606,
        0.0832085,
        85.8838,
        203.615,
        274.96,
        445.588,
        429.854,
        110.701,
        607.078,
        349.505,
        188.4,
        515.609,
        158.845,
        522.543,
        -93.625,
        -101.625,
        168.256,
        656.287,
        121.365,
        241.25,
        95.336,
        -66.5189,
        240.575,
        238.161,
        216.838,
        33.6833,
        20.9428,
        0.0505453,
        -0.0646327,
        -0.0938,
        61.6934,
        189.72,
        310.883,
        382.692,
        213.069,
        299.752,
        64.7405,
        214.999,
        -82.1565,
        293.411,
        -234.636,
        -189.697,
        -224.855,
        137.168,
        36.6234,
        145.193,
        178.965,
        -19.5526,
        -130.83,
        6.35941,
        120.271,
        120.515,
        169.602,
        34.5848,
        36.4106,
        0.0912134,
        -0.0298787,
        0.0288565,
        0.323495,
        18.2143,
        30.4815,
        14.7869,
        -135.778,
        -145.03,
        -428.002,
        94.7425,
        -186.469,
        -21.1457,
        301.734,
        -32.4937,
        -31.3477,
        56.0587,
        -45.7601,
        216.524,
        247.227,
        62.1075,
        57.2262,
        131.634,
        74.5648,
        110.851,
        28.485,
        8.98511,
        20.5029,
        -0.0420418,
        0.0796661,
        0.0788012,
        -0.0508284,
        17.1634,
        75.7595,
        95.7481,
        87.3843,
        -21.987,
        -118.183,
        -281.715,
        -259.371,
        -265.051,
        -236.251,
        -365.528,
        -148.374,
        -84.3853,
        265.564,
        371.592,
        141.672,
        99.6651,
        113.157,
        161.021,
        163.891,
        146.342,
        1.13971,
        -0.0275933,
        -0.0439314,
        0.0453689,
        0.0754382,
        -0.0128585,
        -0.0966729,
        36.6891,
        149.589,
        158.854,
        192.129,
        95.6868,
        264.554,
        -21.6616,
        -39.1624,
        -266.35,
        6.48463,
        -223.199,
        -362.063,
        -55.188,
        -492.187,
        32.9496,
        283.338,
        236.312,
        131.769,
        108.8,
        39.433,
        34.3452,
        -0.790177,
        -0.0209529,
        0.0790042,
        -0.0562551,
        0.0514538,
        -0.0649272,
        0.0891138,
        4.57146,
        62.2752,
        84.1609,
        37.3195,
        94.3408,
        -28.04,
        53.0516,
        98.0286,
        -191.184,
        -340.981,
        -394.371,
        -344.133,
        -81.593,
        -87.8418,
        291.306,
        290.744,
        107.288,
        49.2134,
        18.5463,
        6.40093,
        -0.382987,
        8.01699,
        0.0683687,
        0.0769169,
        0.00570204,
        -0.0525842,
        0.0559211,
        0.0494469,
        -0.542756,
        1.20171,
        -1.45469,
        10.8886,
        72.2157,
        -6.19197,
        -134.731,
        -48.1307,
        -6.18979,
        -37.6994,
        -146.07,
        -81.8913,
        68.8527,
        138.651,
        196.275,
        24.7923,
        -0.764127,
        0.462471,
        0.122466,
        -0.010424,
        -0.0774579,
        -0.0903756,
        0.0848288,
        -0.0324649,
        -0.0345972,
        0.0531975,
        -0.055548,
        0.0711048,
        -0.0993866,
        -0.0996269,
        6.88406,
        9.95185,
        3.79777,
        0.481181,
        0.0252447,
        0.314675,
        5.33598,
        1.12735,
        -7.70976,
        -17.9567,
        -10.1939,
        -2.61653,
        -4.95056,
        -48.3062,
        -22.4698,
        -0.0717503,
        -0.0508524,
        0.0130166,
        -0.0730619,
        0.0761534,
        -0.0974074,
        -0.0505198,
        0.0857779,
        -0.939663,
        0.0170153,
        -0.0488194,
        0.0406189,
        0.0614673,
        -0.0777145,
        0.0412323,
        0.0618404,
        0.0428372,
        0.0407153,
        0.0532073,
        -0.0980504,
        -0.03404,
        -0.0422176,
        0.0920636,
        0.0989627,
        -0.0362774,
        0.0581188,
        -0.0733884,
        0.0327853,
        0.0884837,
        0.0959625,
        -0.0569577,
        -0.0832665,
        -0.0548899,
        0.0560589,
        -0.0563284,
        -0.0787365,
        0.0586514,
        -0.00684816,
        -0.0929586,
        0.0460728,
        -0.0898328,
        -0.041778,
        -0.0133082,
        0.0716345,
        -0.0194925,
        -0.0720759,
        0.0334748,
        -0.0766553,
        0.0686394,
        -0.0133179,
        -1.47432,
        -1.93654,
        -6.10395,
        -24.7897,
        -74.9198,
        -40.9307,
        -8.6451,
        -8.68494,
        -0.0820044,
        0.0639605,
        -0.0438638,
        0.0840147,
        0.080694,
        0.00124633,
        0.0400735,
        -0.0756345,
        0.0225098,
        -0.00127502,
        0.0175174,
        0.0295512,
        -0.0552022,
        0.0276846,
        0.0877733,
        0.0314896,
        -0.000680949,
        -9.15849,
        -42.3231,
        -46.6254,
        -59.259,
        -82.9348,
        -42.1512,
        34.0037,
        -57.6268,
        -80.9772,
        -38.7927,
        -14.5507,
        11.7743,
        7.33249,
        23.5078,
        10.6724,
        -0.026285,
        0.0125247,
        0.0971146,
        -0.0455911,
        -0.086229,
        0.0371882,
        -0.0212255,
        0.0362808,
        -0.0640869,
        2.71625,
        -10.4683,
        10.8001,
        24.4449,
        -61.0126,
        -165.911,
        -145.399,
        -175.247,
        -177.086,
        -82.019,
        43.8231,
        -60.2263,
        -45.2194,
        -159.792,
        -148.422,
        5.68524,
        19.5272,
        29.7416,
        6.54377,
        0.0744637,
        0.014923,
        0.0247335,
        -0.0518214,
        -0.0725524,
        0.0218481,
        0.00258754,
        1.47981,
        -1.89495,
        -13.7382,
        -73.8447,
        -130.796,
        -64.7018,
        -77.3554,
        -79.1728,
        -2.67449,
        -112.31,
        -205.433,
        -102.55,
        -165.473,
        27.2465,
        -8.9793,
        84.6388,
        -60.1873,
        -174.305,
        -95.5632,
        1.53109,
        -22.2535,
        -3.06896,
        0.0799971,
        0.00771991,
        -0.0980609,
        -0.00507991,
        -0.0675466,
        1.45099,
        -42.3974,
        -79.9593,
        16.0385,
        158.497,
        73.5947,
        184.963,
        196.622,
        188.634,
        247.079,
        89.9889,
        -252.401,
        -375.078,
        -85.8769,
        71.205,
        -6.62464,
        -51.6372,
        -51.5624,
        -104.511,
        -85.4731,
        -66.9296,
        5.26486,
        -8.52898,
        -10.6612,
        -0.0280408,
        0.0227538,
        0.0918858,
        0.0796791,
        29.2635,
        -20.87,
        140.189,
        373.931,
        205.24,
        413.879,
        419.678,
        29.7348,
        -18.3552,
        -25.1787,
        -48.8295,
        -22.872,
        76.8325,
        -150.675,
        -124.384,
        -115.08,
        -197.284,
        67.6866,
        175.226,
        130.037,
        -11.8839,
        -95.1656,
        4.17311,
        -61.471,
        -68.4574,
        0.00758552,
        0.0774129,
        0.0920574,
        111.622,
        20.8855,
        -20.5187,
        136.137,
        -70.5024,
        118.505,
        23.1371,
        -38.5442,
        -102.682,
        150.664,
        196.136,
        301.869,
        -13.7461,
        -57.244,
        255.303,
        24.6847,
        -151,
        98.3302,
        231.729,
        417.704,
        264.64,
        80.6202,
        -30.9667,
        -103.088,
        -38.7125,
        0.0218667,
        -0.0254236,
        0.0681591,
        85.1808,
        -57.1662,
        -136.919,
        -151.197,
        -200.435,
        -356.272,
        -312.637,
        170.596,
        -165.179,
        -32.3974,
        145.281,
        -19.14,
        -248.655,
        42.7978,
        -281.631,
        -142.039,
        270.321,
        90.7081,
        327.682,
        269.45,
        206.319,
        -164.162,
        -36.1009,
        -18.7408,
        -0.00404707,
        0.0220638,
        -16.9592,
        -11.0053,
        128.381,
        123.996,
        -114.78,
        -132.625,
        -16.3092,
        -115.156,
        -97.1935,
        -27.3868,
        -338.69,
        -409.668,
        -192.025,
        -172.294,
        94.4574,
        539.698,
        -362.749,
        195.729,
        146.13,
        194.696,
        70.7534,
        -27.548,
        -260.829,
        -308.25,
        -63.0352,
        -1.53252,
        0.0209911,
        -0.0760595,
        -2.02259,
        -57.6891,
        138.01,
        -13.3823,
        -200.415,
        -40.7997,
        -240.543,
        -82.0996,
        -484.709,
        -336.855,
        -293.822,
        -517.765,
        -180.623,
        398.396,
        995.449,
        445.086,
        86.0891,
        418.309,
        -9.43328,
        -186.419,
        -37.0649,
        -34.2435,
        -54.8198,
        -135.433,
        -3.34539,
        0.171345,
        0.0763789,
        -0.0970077,
        -0.0630774,
        -37.594,
        9.72589,
        -121.526,
        -292.872,
        -334.537,
        -415.371,
        -377.954,
        -19.6986,
        -206.985,
        -301.822,
        -229.282,
        -5.20161,
        393.607,
        708.849,
        179.536,
        200.255,
        249.642,
        -42.6518,
        -108.883,
        -102.344,
        -107.763,
        -9.23609,
        -108.397,
        -3.20347,
        -7.6757,
        -0.0163223,
        0.0075673,
        -0.0554372,
        -4.46778,
        -54.7288,
        -111.391,
        -184.143,
        -257.92,
        -310.218,
        -180.469,
        -172.031,
        103.829,
        219.679,
        100.221,
        77.4896,
        -148.256,
        -72.3372,
        88.1935,
        155.342,
        -94.2283,
        -127.985,
        -305.502,
        22.5542,
        -101.031,
        -195.046,
        -142.01,
        -22.6538,
        -6.02967,
        -0.0701587,
        0.0420785,
        0.0260017,
        -25.3814,
        -19.8355,
        52.3377,
        21.4426,
        -24.3944,
        -74.417,
        -171.712,
        14.6006,
        389.843,
        526.983,
        224.788,
        -170.621,
        -33.1702,
        -76.501,
        -1.29753,
        459.356,
        364.984,
        110.509,
        355.021,
        186.564,
        217.371,
        -90.6719,
        -132.041,
        -51.8107,
        -0.784475,
        -0.0138991,
        -0.0357861,
        0.0316361,
        -3.55768,
        -15.4878,
        95.9174,
        174.147,
        228.479,
        128.781,
        87.3033,
        78.923,
        -9.30618,
        327.574,
        -53.869,
        220.491,
        -33.9565,
        -262.051,
        97.6158,
        500.541,
        466.317,
        381.46,
        527.476,
        479.429,
        332.85,
        80.7661,
        -85.7816,
        -38.7996,
        -5.13842,
        -0.020163,
        -0.068089,
        -0.0515831,
        0.0659379,
        -13.0293,
        83.2561,
        -41.5054,
        -35.111,
        106.092,
        132.34,
        106,
        -131.977,
        -281.846,
        240.901,
        357.014,
        54.8319,
        300.508,
        425.481,
        162.045,
        -95.9184,
        529.488,
        253.833,
        316.726,
        264.485,
        154.309,
        117.37,
        -120.826,
        -84.2849,
        -0.0145742,
        -0.0687185,
        -0.0964966,
        -2.98366,
        -4.84351,
        19.8585,
        -58.3606,
        -73.9346,
        179.466,
        231.988,
        -130.967,
        -416.115,
        -338.28,
        -325.598,
        -86.7201,
        8.43162,
        -56.1213,
        50.8119,
        52.0782,
        -33.2544,
        29.7257,
        -9.67082,
        -156.074,
        91.8562,
        171.979,
        110.631,
        -85.8012,
        -43.2618,
        0.00496578,
        0.023946,
        0.0172474,
        -4.57085,
        -5.47868,
        59.3774,
        299.362,
        222.514,
        415.129,
        25.5441,
        -177.449,
        -605.619,
        -829.541,
        -270.216,
        32.5694,
        -56.2226,
        41.8722,
        -190.057,
        -129.247,
        45.4427,
        50.2165,
        -530.274,
        -302.206,
        -35.1995,
        305.863,
        294.906,
        -7.41115,
        0.0669417,
        0.0372656,
        0.0737209,
        0.0145331,
        -27.0292,
        52.5956,
        86.2315,
        243.108,
        101.842,
        -157.553,
        -502.366,
        -713.052,
        -778.748,
        -473.173,
        -223.162,
        -113.984,
        -128.787,
        -268.437,
        146.72,
        -33.9913,
        -249.435,
        41.5987,
        -279.821,
        -282.556,
        1.44226,
        79.2926,
        198.271,
        -6.85412,
        -0.0642473,
        0.0696399,
        -0.0972715,
        -0.0973056,
        -42.1314,
        54.6384,
        234.039,
        358.293,
        107.845,
        23.1219,
        -416.545,
        -644.637,
        -532.96,
        -604.165,
        -392.778,
        -69.3897,
        -483.654,
        48.7921,
        214.522,
        57.1255,
        -22.8097,
        74.3251,
        46.9059,
        -243.203,
        137.29,
        -20.1157,
        205.505,
        -13.3689,
        -0.00478885,
        -0.0744576,
        0.0957902,
        0.0309639,
        -39.7267,
        -46.1214,
        58.9836,
        265.844,
        140.825,
        -8.77145,
        -226.38,
        -506.032,
        -561.005,
        -348.081,
        -284.691,
        -223.263,
        126.165,
        205.704,
        90.5084,
        108.085,
        45.1668,
        307.364,
        211.942,
        13.5481,
        13.571,
        -10.1309,
        120.597,
        -25.2839,
        -4.96278,
        0.0279051,
        0.000627659,
        -0.0344454,
        -12.9086,
        -88.6199,
        -48.1869,
        -110.331,
        -163.179,
        -150.784,
        -511.643,
        -386.338,
        41.6159,
        283.48,
        -7.01019,
        78.1772,
        259.99,
        -68.3542,
        334.448,
        264.049,
        87.9848,
        -154.691,
        -243.184,
        12.6643,
        -41.0498,
        -67.8265,
        -74.8864,
        -9.27933,
        -8.73036,
        -0.00932176,
        0.0611119,
        0.0130052,
        6.56874,
        47.4015,
        135.869,
        -79.8761,
        -215.709,
        -334.486,
        -439.583,
        -140.869,
        -140.267,
        105.339,
        -180.363,
        -51.5334,
        -91.0856,
        162.685,
        306.998,
        300.422,
        -19.0227,
        -302.926,
        -74.3302,
        14.5757,
        -175.794,
        -71.2678,
        -1.94525,
        -2.21147,
        -4.87631,
        0.0468723,
        0.0963965,
        0.0295648,
        -0.0624494,
        52.5767,
        347.272,
        372.866,
        278.405,
        418.817,
        47.3831,
        213.989,
        289.678,
        -266.301,
        -524.37,
        -153.111,
        -208.958,
        -82.6784,
        91.8593,
        117.571,
        -32.5685,
        72.6903,
        -24.1714,
        -139.734,
        -110.306,
        -98.3184,
        6.77456,
        0.0649476,
        -0.0196989,
        -0.0629908,
        -0.079494,
        -0.0327959,
        0.0838815,
        112.585,
        402.453,
        507.879,
        738.08,
        496.695,
        210.27,
        262.683,
        116.679,
        29.1214,
        271.943,
        280.309,
        -242.433,
        -484.864,
        -260.765,
        -78.2077,
        78.0171,
        66.4829,
        -9.9018,
        -135.948,
        -14.8986,
        -9.15908,
        6.10483,
        -0.0943065,
        0.0180203,
        -0.0777618,
        0.070641,
        0.0983213,
        -0.0407526,
        3.39078,
        127.104,
        205.814,
        235.587,
        221.779,
        109.419,
        128.977,
        180.948,
        176.37,
        232.289,
        57.8418,
        -178.169,
        -168.466,
        -180.065,
        -130.421,
        -55.0166,
        20.2934,
        -56.2219,
        -22.1286,
        2.51362,
        12.0212,
        1.19318,
        0.0238129,
        -0.0844907,
        0.0374618,
        0.0295064,
        0.0335296,
        0.0597,
        3.13549,
        22.6876,
        17.7902,
        43.2682,
        27.7102,
        74.2648,
        1.64446,
        -40.8148,
        -46.435,
        -14.8564,
        -12.0682,
        -41.6474,
        -83.9275,
        -103.034,
        -85.4508,
        -67.307,
        -25.6734,
        -1.76889,
        -0.389076,
        0.0191012,
        -0.00379282,
        -0.0423354,
        -0.0580608,
        0.0416626,
        0.0120214,
        0.0657521,
        0.0571719,
        -0.0505168,
        -0.00474152,
        -0.00929845,
        -7.8274,
        -17.9925,
        -16.4169,
        -3.54818,
        -0.0132997,
        -0.0166689,
        1.06276,
        6.58169,
        14.0044,
        22.8854,
        19.2186,
        3.89182,
        -5.79547,
        -19.2338,
        -8.94514,
        -0.0977701,
        0.0308809,
        0.00649178,
        -0.0787353,
        -0.0152637,
        -0.074407,
        0.0174719,
        0.0424009,
        -2.29845,
        -0.0408655,
        -0.0455777,
        -0.0667157,
        -0.0836936,
        0.00390555,
        0.0285428,
        0.00700798,
        0.0130888,
        0.0239487,
        0.0295605,
        0.0412195,
        -0.089351,
        0.0494894,
        -0.0685735,
        0.0966934,
        -0.0709111,
        -0.0517292,
        -0.0354576,
        -0.030008,
        0.0338792,
        0.0903154,
        -0.0656997,
        0.0361091,
        0.0211963,
        0.0407921,
        0.0573738,
        -0.0940674,
        0.0663851,
        -0.0251543,
        0.0483335,
        -0.0660827,
        0.0339802,
        -0.0972442,
        -0.0327984,
        0.0502866,
        0.00666138,
        0.0957443,
        -0.0427054,
        -0.0802498,
        0.019693,
        0.0868551,
        -0.135271,
        -2.03617,
        4.44781,
        30.4174,
        111.877,
        62.0737,
        5.44531,
        3.77965,
        -0.583668,
        0.0745461,
        0.0818932,
        -0.0302743,
        0.0106552,
        0.00308951,
        -0.0894822,
        -0.0319709,
        0.00902209,
        0.0769029,
        0.0428748,
        -0.0426444,
        -0.0891798,
        -0.0231451,
        -0.0398886,
        -0.0219782,
        -0.0728585,
        13.6174,
        64.209,
        108.76,
        95.0991,
        78.0073,
        74.3649,
        -8.90762,
        62.4673,
        10.7481,
        -43.2009,
        -5.13711,
        16.0698,
        8.93403,
        -5.7883,
        -2.0784,
        0.0551018,
        -0.0756926,
        -0.02178,
        -0.0342429,
        0.027397,
        -0.0112622,
        0.0337861,
        -0.063581,
        -0.0343593,
        3.58258,
        10.3061,
        29.2788,
        30.5622,
        23.6152,
        35.2899,
        -112.724,
        145.637,
        143.854,
        59.3926,
        -145.571,
        -45.3373,
        -148.573,
        -263.153,
        -166.135,
        12.3155,
        50.1311,
        -2.76171,
        0.966923,
        0.0751188,
        -0.0612403,
        0.0255834,
        0.0302206,
        -0.0369329,
        -0.0961966,
        0.0959777,
        -18.4522,
        -9.21405,
        30.1739,
        59.0115,
        123.4,
        -70.6998,
        -117.067,
        -14.164,
        221.023,
        386.728,
        302.144,
        175.389,
        170.564,
        114.844,
        -110.213,
        -320.541,
        -352.851,
        -12.6642,
        2.72572,
        54.2427,
        54.5184,
        8.08037,
        0.0809365,
        -0.0968148,
        0.0267408,
        -0.0803038,
        0.0287687,
        -0.503139,
        36.0191,
        135.959,
        146.31,
        170.346,
        143.035,
        -41.4556,
        -140.24,
        125.183,
        202.173,
        176.049,
        75.1969,
        281.011,
        265.362,
        255.21,
        9.89601,
        -116.224,
        -174.403,
        -181.328,
        -183.161,
        -151.765,
        -128.014,
        -74.9611,
        -5.39116,
        0.0235292,
        0.00158,
        -0.0709524,
        0.0267145,
        -26.6468,
        103.459,
        52.476,
        -64.3115,
        104.396,
        -30.7645,
        -61.2158,
        114.742,
        23.8673,
        70.1347,
        -160.378,
        84.4602,
        262.206,
        322.318,
        294.619,
        221.204,
        48.5499,
        107.377,
        -442.591,
        -576.844,
        -391.989,
        -203.236,
        -40.6666,
        -47.3632,
        -96.8379,
        -0.0457023,
        0.0575341,
        -0.0948943,
        -6.37475,
        13.5541,
        -34.4241,
        -136.26,
        -140.313,
        -5.36095,
        -148.917,
        -176.652,
        108.35,
        283.02,
        537.473,
        857.38,
        997.876,
        858.211,
        417.328,
        21.1906,
        155.032,
        -106.376,
        -283.199,
        -386.732,
        -436.216,
        -52.0885,
        -68.118,
        -138.825,
        -77.5335,
        -0.0612684,
        0.0761839,
        0.0723037,
        -31.4238,
        -54.3161,
        -7.8663,
        -173.077,
        -117.943,
        32.7619,
        19.8959,
        159.931,
        57.7887,
        232.138,
        162.293,
        394.597,
        337.186,
        153.705,
        424.021,
        538.111,
        451.207,
        178.381,
        142.627,
        -198.14,
        -332.496,
        -234.826,
        -147.597,
        -52.989,
        -0.0780258,
        0.0298069,
        -10.718,
        3.95442,
        -68.3728,
        -132.603,
        -114.477,
        6.08798,
        -216.918,
        -18.906,
        -215.68,
        332.198,
        33.3721,
        332.998,
        63.0644,
        337.39,
        192.874,
        -323.207,
        364.281,
        489.142,
        196.177,
        156.297,
        220.068,
        -295.5,
        -164.988,
        -200.894,
        -135.493,
        -6.37418,
        -0.0516493,
        -0.0269545,
        -1.18407,
        21.6563,
        -92.3237,
        -137.939,
        -238.442,
        1.55681,
        120.263,
        -248.571,
        -323.012,
        148.11,
        -121.815,
        -147.268,
        -449.311,
        -303.473,
        -116.614,
        -230.211,
        252.785,
        83.5925,
        405.115,
        68.0144,
        104.043,
        -341.987,
        62.5981,
        27.3423,
        -35.4139,
        -0.0553336,
        0.0579623,
        -0.0211977,
        -0.0525885,
        -2.52809,
        -91.5228,
        -192.827,
        -149.643,
        273.155,
        268.582,
        -201.606,
        -203.94,
        -274.331,
        -144.776,
        -65.2319,
        -340.451,
        -334.116,
        307.319,
        114.008,
        -93.275,
        -78.6257,
        232.704,
        452.761,
        138.51,
        -124.359,
        273.068,
        136.636,
        36.9241,
        20.1434,
        -0.00268929,
        0.0109668,
        0.00836757,
        -32.2459,
        -40.2651,
        -264.267,
        -92.5188,
        420.059,
        26.9249,
        -4.00545,
        -439.425,
        -777.345,
        -409.815,
        -293.234,
        -409.207,
        248.33,
        306.841,
        -239.435,
        -5.96195,
        252.277,
        176.889,
        184.886,
        -40.9923,
        -93.6791,
        383.7,
        172.093,
        15.8233,
        16.0331,
        -0.0915798,
        0.0796823,
        -0.0330598,
        3.63416,
        -13.0506,
        -48.9101,
        176.7,
        83.1726,
        -71.007,
        -119.27,
        -393.477,
        -456.79,
        -708.378,
        -373.143,
        -162.56,
        16.0822,
        206.845,
        -242.028,
        -438.681,
        -89.0549,
        119.162,
        -79.2849,
        -255.331,
        -157.042,
        360.924,
        123.992,
        16.0796,
        1.8382,
        -0.0242958,
        -0.0140699,
        -0.0982863,
        0.279139,
        -10.4913,
        10.1224,
        156.362,
        -281.795,
        -80.18,
        58.2461,
        236.117,
        -148.427,
        85.7577,
        -212.85,
        149.165,
        -207.692,
        306.495,
        -143.465,
        -542.624,
        -14.5117,
        -239.987,
        -107.166,
        -617.585,
        -372.559,
        46.6396,
        16.414,
        30.9425,
        13.4659,
        0.0257925,
        -0.074509,
        0.0436617,
        -0.0985033,
        -16.1493,
        -73.0523,
        64.3092,
        234.096,
        71.8597,
        -23.0235,
        116.98,
        305.219,
        358.951,
        40.9221,
        -280.515,
        -126.475,
        -267.824,
        -109.03,
        -182.461,
        -138.823,
        -466.7,
        -6.63213,
        -507.933,
        -327.619,
        1.01482,
        30.5971,
        253.926,
        229.318,
        -0.0901768,
        -0.0407911,
        0.00676882,
        2.27469,
        5.91516,
        -109.656,
        -216.919,
        320.126,
        -321.866,
        -597.244,
        20.2273,
        373.462,
        -148.774,
        -146.421,
        -193.479,
        -263.598,
        90.7486,
        13.8764,
        11.2401,
        166.402,
        -374.477,
        98.031,
        -119.238,
        -248.617,
        53.5202,
        147.567,
        211.57,
        115.333,
        0.0980722,
        0.0567302,
        0.0391958,
        26.9494,
        75.3435,
        28.4482,
        -116.333,
        -111.389,
        -633.867,
        -276.169,
        466.488,
        465.332,
        117.936,
        198.809,
        153.691,
        45.1454,
        252.435,
        -303.552,
        76.0847,
        64.5119,
        103.319,
        224.488,
        45.0167,
        31.931,
        -64.2515,
        -12.0838,
        13.9853,
        0.0942209,
        0.00321696,
        -0.0160056,
        -0.0161163,
        74.0401,
        100.001,
        190.414,
        -124.475,
        80.5497,
        -103.096,
        -243.588,
        155.018,
        305.963,
        100.504,
        460.028,
        145.485,
        -44.5113,
        77.6995,
        -340.177,
        405.793,
        -175.034,
        173.901,
        138.387,
        -113.341,
        79.1603,
        165.498,
        229.275,
        -6.26101,
        0.0236286,
        0.0797976,
        -0.0523921,
        0.0178495,
        45.345,
        138.912,
        242.106,
        310.663,
        372.657,
        208.431,
        242.642,
        273.647,
        30.9512,
        286.533,
        23.7412,
        -103.999,
        326.506,
        -136.55,
        -245.88,
        -96.1394,
        13.8365,
        282.545,
        182.666,
        40.7417,
        88.6953,
        2.01481,
        41.6845,
        3.83511,
        0.0335844,
        0.0288317,
        -0.022996,
        -0.042787,
        74.5093,
        127.05,
        170.554,
        178.05,
        358.712,
        183.394,
        52.0283,
        40.8699,
        221.43,
        253.802,
        296.102,
        230.592,
        181.658,
        334.802,
        -91.2928,
        -159.414,
        -5.91017,
        169.175,
        12.6183,
        30.5657,
        34.0499,
        51.3992,
        14.7225,
        27.2523,
        13.3173,
        0.0309895,
        0.0608844,
        -0.0819078,
        50.6095,
        66.7347,
        244.01,
        376.792,
        296.26,
        415.614,
        -73.9838,
        51.0789,
        128.499,
        -148.937,
        285.856,
        14.4965,
        -163.601,
        15.8267,
        -382.525,
        223.452,
        -145.065,
        -87.234,
        85.1465,
        35.3406,
        68.9401,
        21.8988,
        59.456,
        19.3396,
        23.233,
        0.0944929,
        -0.046532,
        0.0777578,
        -1.03274,
        -7.15621,
        54.8687,
        156.508,
        132.293,
        114.819,
        368.536,
        176.764,
        -173.052,
        154.29,
        132.318,
        -179.588,
        -193.714,
        -388.347,
        82.4665,
        490.042,
        -515.656,
        -184.583,
        184.508,
        207.071,
        149.219,
        192.666,
        16.8225,
        5.77187,
        13.1678,
        -0.0517904,
        -0.069609,
        -0.0865386,
        -0.0572975,
        -35.5468,
        -92.9509,
        -87.3316,
        -175.026,
        -177.691,
        33.9454,
        -143.515,
        -238.493,
        -177.187,
        -277.521,
        -136.731,
        46.5886,
        -146.641,
        251.592,
        4.12186,
        -70.5404,
        -18.7954,
        252.65,
        561.972,
        295.055,
        318.291,
        88.4621,
        0.0882786,
        0.0955065,
        0.0658747,
        0.019665,
        0.015718,
        -0.0859157,
        -61.8018,
        -134.341,
        -159.522,
        -170.091,
        -221.212,
        11.9244,
        -313.668,
        154.126,
        -109.117,
        -124.794,
        -266.243,
        -197.307,
        156.924,
        292.232,
        98.8905,
        18.0937,
        117.86,
        317.704,
        340.512,
        276.906,
        226.55,
        86.7726,
        0.0873523,
        0.00694795,
        0.0896143,
        0.075631,
        0.00245451,
        0.055489,
        0.109315,
        -1.48757,
        27.7712,
        68.2502,
        236.055,
        -2.99561,
        -205.927,
        378.273,
        154.626,
        107.852,
        334.759,
        253.74,
        449.977,
        60.5216,
        126.503,
        287.372,
        -53.1108,
        117.339,
        121.514,
        169.85,
        184.849,
        63.4509,
        0.0399897,
        0.00419781,
        0.00459285,
        0.027342,
        -0.0888542,
        -0.00579289,
        5.77787,
        33.3482,
        -0.273464,
        52.1503,
        52.541,
        -48.3712,
        -156.088,
        -146.054,
        -119.826,
        -73.281,
        -13.368,
        129.061,
        24.1937,
        92.5323,
        142.606,
        277.782,
        97.9542,
        54.2987,
        14.3338,
        0.049355,
        -0.035459,
        0.0581645,
        0.009579,
        -0.0353905,
        -0.0278859,
        -0.0504313,
        0.0688073,
        0.076707,
        0.0769106,
        0.0799531,
        -39.2104,
        -76.3651,
        -57.009,
        -11.7492,
        -0.0218475,
        -2.09113,
        -34.0719,
        -47.5828,
        -48.431,
        -14.2375,
        -30.4297,
        -58.2642,
        -30.2253,
        125.998,
        65.9917,
        -0.0907748,
        -0.0928044,
        -0.0635752,
        -0.0485247,
        0.0771935,
        0.0857798,
        0.0160163,
        0.035358,
        0.850124,
        0.0806258,
        -0.0925278,
        0.0449274,
        0.0494332,
        0.0841791,
        0.0218381,
        0.0293863,
        -0.0449068,
        -0.0982783,
        -0.0770604,
        0.0757035,
        -0.0201258,
        -0.0517342,
        0.0155831,
        -0.0983524,
        0.0527167,
        0.00109242,
        -0.0536913,
        -0.0959569,
        0.0835634,
        -0.074749,
        0.0774633,
        0.0927886,
        -0.0675533,
        -0.0861119,
        -0.055736,
        -0.0903598,
        0.0996679,
        0.0602803,
        0.0449983,
        -0.00497336,
        0.0409061,
        0.0524704,
        -0.0600459,
        -0.0096607,
        0.0366496,
        0.0617922,
        -0.0802744,
        0.0917428,
        0.0635139,
        -0.0573348,
        13.1897,
        33.3209,
        24.3441,
        25.2259,
        18.1751,
        7.01927,
        37.538,
        74.4104,
        13.0549,
        0.0676852,
        0.0165954,
        -0.0748459,
        0.0604739,
        0.0490421,
        -0.0609578,
        -0.0952622,
        0.0586824,
        -0.0612899,
        0.0650181,
        0.00368062,
        0.0337368,
        0.00592425,
        -0.043849,
        0.0736908,
        0.0962636,
        0.94291,
        -1.85375,
        -37.6054,
        12.1816,
        111.837,
        103.076,
        133.183,
        116.743,
        93.5387,
        135.08,
        86.0627,
        70.2327,
        45.2118,
        6.31615,
        2.66902,
        0.0868261,
        0.0953604,
        -0.033922,
        0.0472999,
        0.0444026,
        0.0051202,
        0.0520378,
        0.00308494,
        0.0438303,
        -1.67975,
        5.61557,
        -24.6543,
        -32.8204,
        -13.9119,
        8.62924,
        -78.3473,
        20.2485,
        140.082,
        266.664,
        95.6363,
        68.837,
        131.063,
        125.553,
        49.9009,
        56.3763,
        46.4447,
        5.5983,
        -0.0329328,
        -0.0535897,
        -0.00569161,
        -0.0223707,
        -0.0667637,
        -0.0103312,
        0.0437072,
        0.0805363,
        0.423446,
        -8.27421,
        0.34802,
        106.188,
        228.24,
        -13.444,
        -66.7578,
        48.8236,
        10.4267,
        -57.2999,
        249.763,
        198.07,
        148.28,
        61.2257,
        -44.6438,
        -44.5125,
        99.4678,
        130.514,
        -11.5388,
        104.408,
        43.6378,
        -31.9838,
        -0.0623724,
        0.00115158,
        0.0687464,
        0.031936,
        0.0787808,
        1.30202,
        30.5729,
        5.53226,
        -111.922,
        -190.383,
        -222.672,
        -252.139,
        -309.126,
        -145.57,
        -23.5984,
        -148.149,
        -211.937,
        -90.4358,
        73.7621,
        90.4532,
        -507.155,
        -151.2,
        -119.826,
        -195.952,
        -160.122,
        58.8233,
        -87.067,
        -76.7079,
        -0.919402,
        0.0416934,
        0.0263682,
        0.0175778,
        -0.057155,
        2.09245,
        -9.57106,
        -231.735,
        -436.321,
        -367.686,
        -413.9,
        -531.446,
        -154.121,
        -288.197,
        -213.354,
        147.64,
        257.577,
        -125.102,
        -198.273,
        322.072,
        -146.651,
        -290.369,
        -335.915,
        -546.835,
        -528.563,
        -276.12,
        -229.754,
        -61.7141,
        -34.1033,
        -61.9731,
        0.0191216,
        -0.0289982,
        -0.0988334,
        -43.114,
        7.65117,
        -84.1152,
        -362.379,
        -310.212,
        -239.964,
        -229.754,
        1.82948,
        -180.348,
        -205.606,
        20.883,
        -57.0367,
        258.904,
        288.184,
        20.7379,
        -333.955,
        -64.7165,
        -441.093,
        -421.211,
        -580.635,
        -650.626,
        -206.874,
        -225.4,
        -94.0448,
        -35.9654,
        0.033206,
        0.0117027,
        -0.0641232,
        23.2512,
        -45.9498,
        -52.3378,
        -167.583,
        -143.311,
        83.6521,
        154.839,
        86.0021,
        -392.613,
        97.6462,
        56.9045,
        305.167,
        222.268,
        -20.1713,
        78.8257,
        129.629,
        393.055,
        -394.526,
        -353.45,
        -370.613,
        -504.169,
        -242.94,
        -258.736,
        -7.89029,
        -0.0606681,
        0.0523563,
        31.1146,
        13.905,
        -59.9505,
        -206.329,
        -154.707,
        -198.482,
        -177.596,
        -189.256,
        -57.7648,
        -55.1749,
        -246.956,
        449.805,
        -67.1815,
        394.618,
        487.041,
        -4.26352,
        38.2099,
        263.2,
        69.702,
        12.5527,
        -194.851,
        -53.6544,
        150.133,
        -138.274,
        -70.9252,
        -1.94387,
        -0.0287533,
        -0.0725191,
        3.52562,
        66.0941,
        -81.2916,
        -73.0871,
        -165.566,
        -14.7812,
        310.146,
        222.632,
        221.133,
        360.679,
        389.838,
        73.9819,
        -295.71,
        -157.835,
        -209.741,
        -333.335,
        159.662,
        79.9652,
        322.088,
        378.92,
        267.436,
        132.623,
        236.548,
        18.6698,
        -146.387,
        -0.654278,
        -0.0176704,
        0.0774963,
        -0.0342381,
        56.785,
        56.6519,
        90.1088,
        -34.6616,
        247.566,
        582.549,
        589.881,
        392.236,
        480.807,
        387.676,
        275.25,
        154.464,
        93.9713,
        -57.2216,
        -25.4712,
        23.5022,
        -176.269,
        35.5026,
        823.819,
        721.801,
        477.481,
        498.474,
        147.675,
        -30.2961,
        -44.1106,
        0.032316,
        0.0614337,
        -0.0497843,
        28.6875,
        89.9297,
        54.5663,
        -58.3886,
        247.805,
        571.582,
        657.728,
        175.699,
        -319.226,
        53.221,
        148.838,
        -99.3621,
        223.266,
        192.504,
        -222.245,
        25.9829,
        99.5339,
        -34.3835,
        268.064,
        241.015,
        352.857,
        534.439,
        209.245,
        -4.1158,
        -35.0394,
        -0.0243512,
        -0.0795285,
        -0.0995092,
        17.4385,
        29.8936,
        107.473,
        208.387,
        15.3799,
        140.924,
        221.17,
        128.419,
        -388.446,
        -827.467,
        -631.458,
        -189.68,
        363.188,
        156.59,
        278.749,
        -9.3789,
        -166.86,
        59.656,
        -243.333,
        124.337,
        298.21,
        473.962,
        133.528,
        30.1365,
        -4.07653,
        -0.0400889,
        -0.0537995,
        -0.0465685,
        3.00069,
        24.3736,
        96.0849,
        347.012,
        215.924,
        124.928,
        83.8033,
        -171.689,
        -572.093,
        -375.721,
        -811.2,
        -142.824,
        -222.307,
        60.2021,
        347.621,
        -307.41,
        -285.974,
        -129.33,
        -1.53361,
        -127.188,
        206.991,
        266.131,
        100.624,
        11.7596,
        -1.85879,
        0.0949728,
        0.0474994,
        0.0705154,
        -0.0451161,
        24.6791,
        72.5565,
        166.959,
        390.718,
        186.285,
        -157.78,
        88.8876,
        -64.0486,
        -16.6655,
        -284.057,
        -416.472,
        -0.488546,
        -179.397,
        280.103,
        415.941,
        106.138,
        -276.922,
        87.3022,
        -111.591,
        -75.3223,
        -30.153,
        -185.306,
        -57.0466,
        -27.3158,
        -0.0203614,
        -0.0455792,
        0.0421028,
        2.57127,
        21.2724,
        105.838,
        -63.1601,
        299.724,
        38.6444,
        -30.4261,
        329.617,
        199.597,
        54.1958,
        -9.88614,
        223.993,
        199.157,
        100.549,
        -152.475,
        -2.18361,
        406.262,
        -177.577,
        -146.87,
        -319.471,
        -506.193,
        -434.836,
        -356.082,
        -11.35,
        -15.8303,
        0.0811106,
        -0.0169112,
        -0.00713226,
        18.0631,
        53.703,
        33.6303,
        -194.51,
        -123.805,
        -141.127,
        115.164,
        623.363,
        487.379,
        330.617,
        720.28,
        897.34,
        827.067,
        160.598,
        -325.898,
        -328.788,
        75.6116,
        176.065,
        6.11774,
        -374.173,
        -507.822,
        -396.853,
        -372.975,
        10.7459,
        0.0639354,
        -0.0128413,
        0.0652359,
        -0.0972485,
        55.4274,
        2.13237,
        -12.2489,
        -425.12,
        -305.901,
        -417.756,
        -148.364,
        195.069,
        299.109,
        186.913,
        343.003,
        419.766,
        65.7766,
        24.4852,
        -356.558,
        152.536,
        -29.9055,
        112.365,
        -40.9993,
        -250.983,
        -418.065,
        -331.76,
        -292.213,
        -8.4617,
        -0.0986294,
        -0.0872178,
        0.00216402,
        0.065306,
        13.616,
        -71.7948,
        -330.439,
        -474.433,
        -362.379,
        -438.59,
        -441.451,
        -146.621,
        52.904,
        -85.7722,
        -256.896,
        -209.862,
        24.9163,
        -64.0002,
        210.699,
        -110.956,
        70.7522,
        -102.829,
        -27.6718,
        -422.92,
        -607.519,
        -320.262,
        -234.651,
        21.8826,
        -0.0477021,
        0.0141828,
        0.0650326,
        -0.0463315,
        -33.1423,
        -157.651,
        -269.48,
        -588.754,
        -492.996,
        -274.119,
        -443.513,
        -303.325,
        155.712,
        15.8904,
        182.193,
        -262.321,
        -14.0198,
        315.849,
        -411.987,
        -535.915,
        -9.51707,
        -219.524,
        -308.559,
        -287.597,
        -382.257,
        -290.043,
        -194.915,
        -18.2726,
        -29.3144,
        0.00261975,
        -0.0451212,
        -0.037372,
        -33.173,
        -151.795,
        -189.723,
        -214.874,
        -348.502,
        -111.428,
        -222.64,
        -7.41993,
        245.815,
        8.06593,
        315.729,
        14.6445,
        99.7942,
        -39.9591,
        -473.722,
        -32.9608,
        -312.738,
        -220.189,
        -88.8675,
        -334.477,
        -293.382,
        -221.769,
        -71.4347,
        -32.9171,
        -50.9266,
        -0.0770558,
        -0.0644637,
        0.0241596,
        -4.2407,
        -55.7225,
        -21.5076,
        33.5788,
        208.169,
        53.3267,
        346.619,
        -44.4598,
        -363.464,
        18.4755,
        23.8396,
        1.58039,
        130.825,
        -447.964,
        20.714,
        185.089,
        -537.52,
        -229.06,
        -88.902,
        -128.704,
        -43.7869,
        40.8323,
        -6.31247,
        -12.5082,
        -28.8626,
        -0.0410935,
        0.010175,
        0.0700861,
        -0.0181493,
        -76.6293,
        -264.468,
        -149.857,
        -79.7906,
        -38.6168,
        -120.133,
        -198.148,
        -118.018,
        291.544,
        -29.6211,
        -16.1163,
        -51.8585,
        -268.259,
        68.2287,
        -294.576,
        -179.7,
        -205.574,
        62.0146,
        244.889,
        73.8724,
        92.8601,
        65.2076,
        0.0555273,
        -0.0614255,
        -0.0269332,
        0.0302004,
        -0.00516891,
        0.0319733,
        -128.789,
        -375.317,
        -236.711,
        -123.4,
        -12.2894,
        -124.708,
        -435.364,
        112.873,
        287.02,
        33.267,
        -140.667,
        89.3283,
        108.186,
        572.157,
        94.2496,
        -324.134,
        -310.882,
        7.78293,
        125.17,
        150.623,
        121.117,
        65.4725,
        -0.0848196,
        0.0999018,
        0.0859741,
        0.0707077,
        -0.0615236,
        -0.0409591,
        -7.52286,
        -108.011,
        -56.2917,
        56.8403,
        194.034,
        36.298,
        -264.802,
        261.82,
        385.133,
        382.308,
        700.209,
        699.096,
        613.264,
        396.449,
        36.5025,
        -10.3706,
        -115.976,
        44.4522,
        56.8428,
        113.897,
        137.631,
        38.7621,
        -0.0546784,
        0.0296993,
        0.0351896,
        -0.0394981,
        0.0296011,
        0.0211637,
        6.88554,
        42.3904,
        36.5731,
        39.0283,
        -28.5658,
        -72.1011,
        80.6398,
        33.4974,
        4.13633,
        -1.49773,
        205.077,
        272.305,
        115.74,
        50.9775,
        -29.2983,
        243.176,
        126.118,
        32.4704,
        8.54538,
        0.0451622,
        0.00695371,
        -0.0942073,
        -0.0562362,
        -0.0743774,
        -0.0580514,
        -0.0109146,
        0.0553219,
        0.0771381,
        0.0495874,
        -0.015077,
        -15.1568,
        -29.4534,
        -14.8467,
        -0.427329,
        0.0129148,
        -1.05875,
        -18.8809,
        -19.7413,
        -11.176,
        14.3178,
        -12.613,
        -42.3579,
        -16.9818,
        147.509,
        73.6875,
        -0.0728524,
        -0.0939516,
        -0.0579485,
        -0.0695891,
        0.0054572,
        0.0872136,
        0.0373646,
        0.0112499,
        -1.93502,
        0.0629872,
        0.0531985,
        0.0200629,
        0.0183091,
        0.0303366,
        -0.0303498,
        -0.0967679,
        -0.0713615,
        -0.0495528,
        -0.0437673,
        0.00714494,
        0.063362,
        -0.0893818,
        0.0568703,
        0.0496782,
        -0.0353866,
        0.0826527,
        0.036766,
        0.0756058,
        -0.0894307,
        -0.0257907,
        0.041179,
        -0.0622831,
        -0.0197423,
        0.0832305,
        -0.0318723,
        0.0857149,
        0.0704441,
        -0.0945077,
        -0.00303518,
        -0.0985784,
        0.0684795,
        -0.0498367,
        0.0214845,
        -0.0132114,
        0.0804999,
        0.0911347,
        -0.00997928,
        -0.0908616,
        -0.058418,
        0.0462534,
        2.49252,
        6.97366,
        23.9044,
        45.2725,
        97.5978,
        51.1834,
        9.06272,
        17.5193,
        3.09278,
        -0.0336244,
        0.0655975,
        0.0382699,
        0.00409244,
        -0.0541448,
        0.0215003,
        0.0722202,
        -0.0684299,
        -0.00805556,
        0.0777125,
        0.0285349,
        -0.00663397,
        0.046192,
        0.0786982,
        -0.0851495,
        -0.0670194,
        11.6214,
        42.7415,
        -22.1247,
        -15.6157,
        46.1654,
        99.4707,
        106.478,
        170.585,
        147.322,
        104.575,
        40.4941,
        35.8106,
        25.2093,
        11.9184,
        5.26389,
        -0.0200446,
        -0.035881,
        0.0829722,
        0.0840478,
        0.00997417,
        0.00447258,
        0.056268,
