{
    "NInput": 784,
    "NHidden": 60,
    "NOutput": 10,
    "NHiddenLayers": 1,
    "Weights": [
        0.0957893,
        0.0563417,
        0.0910996,
        0.0821219,
        -0.0587827,
        -0.0846353,
        0.0467839,
        -0.0626441,
        0.0265494,
        0.000198005,
        -0.0659969,
        0.0771347,
        -0.024465,
        0.0353241,
        0.065563,
        0.0170881,
        -0.0515561,
        -0.01789,
        0.0997225,
        -0.0482099,
        0.0109996,
        0.0409868,
        -0.0400112,
        0.0214506,
        0.0140739,
        -0.099046,
        -0.0683865,
        -0.0202399,
        0.0378905,
        0.0613538,
        0.0454302,
        0.0336798,
        0.0176955,
        0.0365298,
        0.0158018,
        0.0589128,
        0.0518945,
        -0.0374143,
        0.0962687,
        -0.0215561,
        0.0627837,
        642.45,
        1639.15,
        221.138,
        -179.958,
        -7.93118,
        22.2616,
        -2.16906,
        5.10784,
        2.44433,
        -0.0341701,
        -0.0857488,
        -0.00388395,
        0.0258187,
        0.0357018,
        -0.0898101,
        0.0267727,
        0.0673154,
        -0.01005,
        -0.0353368,
        0.0286692,
        -0.0646198,
        0.098343,
        -0.0536353,
        0.07191,
        0.0141448,
        5.86971,
        -86.7184,
        268.464,
        1614,
        2306.83,
        -371.851,
        -1345.04,
        -1059.39,
        -95.9883,
        -576.662,
        6.59705,
        23.7192,
        15.4858,
        -8.50745,
        -3.67999,
        -0.0227164,
        0.0964715,
        0.0844848,
        -0.0968978,
        0.0321733,
        0.0946747,
        0.0298749,
        -0.000511302,
        -0.0153753,
        -30.2342,
        -78.9009,
        -678.973,
        -1454.56,
        40.6145,
        -736.631,
        379.108,
        3080.84,
        5445.9,
        3533.53,
        123.051,
        770.233,
        3257.59,
        6039.95,
        5190.87,
        1481.89,
        2.08394,
        -15.3538,
        -5.95837,
        0.022032,
        0.0369841,
        -0.0772882,
        0.0993155,
        0.0334556,
        -0.0928034,
        -0.0975822,
        -9.73981,
        -119.15,
        -208.862,
        -948.966,
        -2163.85,
        -2286.36,
        312.709,
        1548.63,
        -1124.51,
        45.4851,
        3965.98,
        4905.64,
        2570.61,
        -5396.12,
        1215.44,
        6789.7,
        4477.46,
        73.8006,
        -3143.24,
        -2509.56,
        -584.721,
        1.46258,
        0.0626625,
        -0.030788,
        0.0747195,
        -0.000353391,
        -0.00807623,
        -85.4768,
        -276.052,
        593.415,
        1006.51,
        -2581.36,
        -1906.36,
        -744.082,
        4994.52,
        8180.33,
        -570.491,
        1826.23,
        8268.04,
        3219.77,
        1065.93,
        -5349.62,
        5180.13,
        5292.45,
        5720.77,
        5912.95,
        681.532,
        -182.012,
        460.135,
        -168,
        94.1776,
        0.0611555,
        -0.0037374,
        0.00920499,
        -0.0696326,
        -925.986,
        -214.11,
        1315.4,
        -2617.54,
        -1281.98,
        -5836.7,
        -5052.39,
        3219.3,
        -1333.39,
        -1424.21,
        -231.564,
        6994.85,
        1361.18,
        2043.21,
        -1037.75,
        3134.45,
        5418.66,
        5406.61,
        25.6595,
        -2098.02,
        -2455.74,
        -618.467,
        816.403,
        209.19,
        35.6891,
        -0.0958572,
        -0.0119889,
        0.0830698,
        -1990.18,
        -649.327,
        1304.18,
        1970.32,
        4867.68,
        -4693.89,
        -3987.01,
        -4841.26,
        -6031.86,
        728.077,
        918.923,
        -5328.38,
        -4056.27,
        -2030.56,
        -5517.93,
        -5879.61,
        279.664,
        9128.64,
        -472.053,
        -7895.3,
        -5512.59,
        133.395,
        1131.89,
        337.05,
        24.4,
        -0.0388511,
        -0.0661075,
        0.0756099,
        -2975.21,
        1811.68,
        4179.68,
        -1050.12,
        467.542,
        -575.613,
        4825.43,
        1583.27,
        1467.61,
        8225.07,
        7494.74,
        2432.54,
        5153.61,
        -4224.15,
        -4007.02,
        -2151.9,
        -5879.97,
        3777.31,
        443.186,
        -3091.94,
        -1490.25,
        1858.44,
        2657.18,
        50.5203,
        0.00636312,
        0.0521151,
        -214.696,
        94.9044,
        -3840.12,
        -3096.34,
        -275.553,
        -973.896,
        -3088.61,
        6236.5,
        9402.9,
        2643.7,
        4405.56,
        1907.65,
        2192.68,
        -7477.66,
        -7374.32,
        -12626.1,
        606.897,
        587.76,
        -1849.95,
        -2524.93,
        1635.11,
        -2179.82,
        1281.73,
        2440.95,
        2695.53,
        1.06352,
        0.0272716,
        0.0612731,
        -24.7002,
        52.4205,
        -4496.81,
        -4042.95,
        -1255.01,
        -3149.9,
        -1782.82,
        4837.29,
        14255.7,
        3258.38,
        -5011.8,
        2697.86,
        8207.44,
        -3762.88,
        -4976.58,
        -4630.62,
        3296.24,
        -4308.21,
        -6808.82,
        -4825.04,
        -4197.39,
        -4890.44,
        -6229.18,
        -1805.57,
        43.9001,
        0.242795,
        0.0564313,
        -0.0902823,
        -0.0495398,
        35.3216,
        -1489.33,
        -2099.68,
        -1323.58,
        -1806.54,
        900.176,
        359.164,
        3577.67,
        -2816.03,
        -3926.91,
        -677.13,
        -7340.48,
        -15971.3,
        -9045.87,
        -11178.3,
        -10721.2,
        -14125,
        -9103.17,
        -8893.07,
        -7305.7,
        -3918.89,
        -6888.16,
        -2791.42,
        96.5024,
        194.083,
        0.0313879,
        -0.0294477,
        -0.0844531,
        7.52383,
        430.448,
        -1806.42,
        -4199.36,
        -6071.49,
        -7817.91,
        -12804.8,
        -2254.24,
        -4207.71,
        -5871.01,
        -5610.24,
        -13080.7,
        -5331.61,
        -2115.29,
        -8573.74,
        -12643.5,
        -5964.48,
        -4935.12,
        494.553,
        -2557.52,
        -3004.33,
        -4429.3,
        -1201.34,
        977.463,
        154.901,
        0.0411581,
        0.0344779,
        -0.0898729,
        -40.4846,
        543.337,
        -403.996,
        -4261.27,
        -5348.99,
        -7130.74,
        -5288.49,
        -5113.45,
        -8789.76,
        1011.39,
        -4185.69,
        1120.62,
        2569.42,
        -5172.33,
        -3300.95,
        -6733.66,
        -1607.81,
        -3016.92,
        -2575.99,
        608.011,
        -4638.67,
        -2946.38,
        -1286.6,
        1824.1,
        17.8975,
        0.0227209,
        0.0666681,
        0.00137653,
        1.19393,
        590.128,
        294.837,
        -6314.67,
        -7113.76,
        -6721.9,
        -2729.52,
        -5793.12,
        -4287.54,
        -4467.12,
        1254.41,
        -6861.69,
        -1095.85,
        22.3227,
        -7962.17,
        -8865.97,
        -2133.33,
        -1672.33,
        -417.466,
        1181.87,
        -2733.2,
        -3567.76,
        -692.237,
        1649.92,
        44.1798,
        0.0467782,
        -0.0346921,
        -0.0783329,
        -0.030501,
        616.733,
        290.607,
        -4525.62,
        -4232.28,
        -97.8183,
        690.088,
        -4163.34,
        6047.03,
        9578.02,
        -3701.68,
        -3699.47,
        -5251.5,
        1568.54,
        -12489.7,
        -12844.5,
        -1497.5,
        876.097,
        2118.57,
        2553.5,
        1780.24,
        -318.568,
        822.509,
        2872.51,
        647.101,
        0.0903365,
        -0.0300482,
        -0.0376986,
        2.32602,
        71.8863,
        3810.17,
        -785.691,
        -7556.81,
        -7191.47,
        -2710.97,
        6116.66,
        8089.76,
        5057.27,
        1086.83,
        -3416.24,
        -2782.04,
        8266.97,
        -8746.04,
        -6208.09,
        -3402.03,
        4983.38,
        833.899,
        6799.9,
        8409.82,
        3489.1,
        2759.62,
        786.542,
        377.131,
        -0.0544904,
        -0.0945598,
        0.018895,
        -2.23228,
        85.8073,
        1888.99,
        230.378,
        -871.099,
        -5295.34,
        53.8681,
        4499.35,
        4951.98,
        9001.17,
        1812.49,
        -4606.95,
        -679.703,
        10824.2,
        -3531.86,
        -5902.93,
        -3540.33,
        -455.826,
        1435.37,
        10649.3,
        8502.8,
        1442.58,
        2608.9,
        1504.12,
        0.0248802,
        -0.0276753,
        0.0963521,
        0.00173917,
        7.19697,
        -189.012,
        -1240.84,
        2289.9,
        9048.75,
        9324.56,
        5817.19,
        10277.3,
        8558.61,
        8676.63,
        16677.7,
        8413.18,
        6830.42,
        12020.9,
        3712.68,
        4424.89,
        9548.9,
        2826.61,
        852.488,
        10228,
        2600.4,
        4251.75,
        3917.92,
        687.675,
        -0.0679345,
        -0.0263547,
        -0.0265705,
        0.0569458,
        199.179,
        -736.502,
        -3427.06,
        -576.966,
        10047.7,
        8744.37,
        9614.02,
        9029.04,
        4154.85,
        15500,
        20989.7,
        8487.29,
        7303.89,
        942.346,
        -1361.69,
        6628.61,
        3616.68,
        -184.296,
        658.724,
        9966.87,
        404.994,
        2210.7,
        1381.12,
        23.6252,
        -0.0695424,
        -0.0738665,
        0.0160863,
        -0.0374768,
        524.872,
        -849.251,
        -699.356,
        -2097.98,
        4408.13,
        5611.28,
        5751.2,
        7033.86,
        11404.1,
        13059.1,
        9367.99,
        14253.2,
        2511.67,
        -4042.35,
        511.337,
        2517.64,
        3652.14,
        136.597,
        4522.61,
        1068.05,
        2161.86,
        1246.14,
        1426.57,
        187.395,
        128.873,
        -0.0686603,
        0.0754469,
        0.0515081,
        -722.162,
        -1068.81,
        -678.279,
        -768.692,
        -2656.75,
        -3479.35,
        5060.92,
        4104.58,
        3056.08,
        -1.43012,
        -1820.88,
        3823.21,
        5114.74,
        3806.83,
        -3769.35,
        -596.001,
        5883.86,
        4700.1,
        1889.9,
        -2717.43,
        2103.11,
        2007.27,
        2133.68,
        186.05,
        633.962,
        -0.0765782,
        0.0173872,
        0.0798329,
        -451.277,
        -2171.13,
        -4506.9,
        -1191.58,
        -3652.03,
        -368.102,
        -1063.92,
        1720.65,
        3241.31,
        -1222.32,
        2245.09,
        2220.15,
        3833.03,
        -251.878,
        -3540.92,
        -2530.74,
        7253.88,
        4499.91,
        -1338.1,
        -2528.94,
        1625.01,
        652.907,
        -151.916,
        55.5084,
        127.16,
        0.0309516,
        0.0134416,
        -0.0436785,
        0.0543734,
        46.8729,
        -3399.99,
        -2299.05,
        -2400.48,
        -6472.53,
        -4702.72,
        -5374.85,
        -1268.32,
        8085.6,
        8785.42,
        -506.561,
        -3733.26,
        -2752.38,
        -5941.74,
        -4137.87,
        228.288,
        -2226.05,
        -1694.48,
        1612.44,
        2283.15,
        3348.66,
        -34.566,
        0.071244,
        0.0760582,
        0.059432,
        0.00176878,
        0.0735973,
        -0.00961645,
        -48.8674,
        -4262.17,
        -4998.37,
        -6162.43,
        -4078.08,
        -8.85332,
        -3655.51,
        -2064.7,
        1384.57,
        1959.53,
        1445.31,
        983.092,
        3914.95,
        -2136.92,
        -113.512,
        -3211.4,
        -3621.31,
        -1385.71,
        2828.63,
        -263.095,
        1374.89,
        -10.9622,
        0.0716853,
        0.0592743,
        0.0495203,
        0.0429293,
        0.0353325,
        0.00895225,
        -1.24842,
        -3527.41,
        -5212.81,
        -5217.06,
        -4109.47,
        -626.253,
        -2125.02,
        -5024.35,
        -3306.95,
        -4800.77,
        -10157.2,
        -5598.46,
        -1685.34,
        -680.493,
        1782.29,
        -4402.07,
        -3756.36,
        -1934.66,
        -279.898,
        -141.754,
        -22.7999,
        -9.14284,
        -0.0940933,
        -0.00246059,
        -0.00786636,
        0.077592,
        -0.0431863,
        -0.0583461,
        -222.49,
        -1521.03,
        -1234.42,
        -1099.29,
        -11.2608,
        -2558.01,
        -3590.14,
        -1271.57,
        -61.6677,
        323.092,
        -503.531,
        -2295.87,
        858.568,
        1611.06,
        774.696,
        -747.594,
        299.955,
        -0.832259,
        -0.128696,
        -0.00863554,
        -0.0265444,
        0.0996233,
        0.034909,
        -0.0798712,
        0.0211563,
        0.0408157,
        0.0176682,
        -0.08671,
        0.0184077,
        0.0744819,
        282.89,
        971.088,
        1039.77,
        223.055,
        -0.0958516,
        0.505816,
        9.15855,
        8.35131,
        2.93524,
        -2.51325,
        780.938,
        1378.87,
        553.06,
        -1883.51,
        -930.371,
        -0.0931883,
        0.0271858,
        0.00407331,
        -0.0885586,
        -0.00814321,
        0.0954378,
        -0.0151029,
        -0.00851994,
        31.1819,
        0.00502587,
        -0.0873636,
        -0.0288375,
        -0.0773059,
        -0.0740736,
        0.0895702,
        0.097176,
        -0.0191297,
        -0.0715007,
        0.0638042,
        -0.0135797,
        -0.0673523,
        -0.0684916,
        -0.0580876,
        -0.0380761,
        0.0391371,
        0.0914391,
        -0.0777243,
        -0.00838811,
        -0.0670147,
        0.089353,
        0.0274229,
        -0.060203,
        0.0165388,
        -0.0685038,
        -0.0487615,
        -0.0916044,
        -0.073066,
        0.0361355,
        -0.000124307,
        0.0572807,
        -0.0588386,
        0.0125121,
        -0.0715568,
        -0.0361445,
        0.0384385,
        -0.0819865,
        -0.0389685,
        -0.0806913,
        -0.0534872,
        -0.0751643,
        -224.093,
        -372.463,
        -160.461,
        -529.157,
        -233.901,
        -60.0581,
        -27.1324,
        -46.9171,
        -7.15769,
        0.0720659,
        0.052713,
        -0.085484,
        -0.0881371,
        -0.0307481,
        -0.0539878,
        -0.0368986,
        -0.0223525,
        -0.0270538,
        0.0992369,
        0.0775232,
        -0.0697731,
        -0.0596017,
        -0.00996471,
        -0.0413298,
        0.00425382,
        -12.2831,
        -351.74,
        -646.988,
        -624.121,
        -955.412,
        -4029.14,
        -10356.6,
        -7839.26,
        -2811.83,
        -2125.5,
        -197.534,
        -63.4822,
        -47.6551,
        -53.1638,
        -23.0019,
        -0.0877005,
        -0.0404858,
        0.0435556,
        -0.0758376,
        0.0287661,
        0.0895678,
        -0.0127362,
        -0.0935864,
        -0.037486,
        -234.438,
        -792.249,
        -1875.62,
        -1816.96,
        -253.513,
        -2052.31,
        -1333.95,
        2751.82,
        3568.81,
        -4735.19,
        -11536.8,
        -12153.4,
        -5046.67,
        -21.5817,
        198.804,
        -948.092,
        -25.9016,
        -64.099,
        -13.6004,
        -0.0548733,
        -0.0961096,
        -0.0959894,
        -0.0425738,
        -0.0365953,
        0.0475662,
        -0.0184113,
        -58.5108,
        -1237.78,
        -2449.72,
        -1379.28,
        -1011.03,
        -4255.83,
        -8037.3,
        -9665.56,
        -13581.1,
        988.74,
        16956.6,
        2870.58,
        -9022.27,
        -7725.84,
        989.607,
        9509.06,
        1142.65,
        1869.9,
        63.2568,
        -743.177,
        -156.379,
        13.4702,
        -0.0260767,
        0.0043982,
        -0.0370726,
        -0.0221862,
        0.00840878,
        25.0752,
        -363.908,
        -3349.29,
        -3757.59,
        -357.299,
        -5157.82,
        -8440.74,
        -13603.9,
        -8329.34,
        -6959.1,
        11872.1,
        14371.5,
        -5571.02,
        -15113.7,
        -1230.13,
        10380.6,
        472.577,
        -8101.72,
        -1941.27,
        -2310.49,
        -767.374,
        1659.44,
        -225.664,
        175.225,
        -0.0425212,
        -0.0301965,
        -0.0252154,
        0.061877,
        184.437,
        308.991,
        -3317.3,
        -6284.98,
        -7967.94,
        -9330.54,
        -9016.97,
        4414.9,
        -8191.23,
        -3632.67,
        7259.8,
        -5227.94,
        -15736.4,
        -9632.95,
        -7910.29,
        5058.91,
        3890.92,
        -5564.63,
        -8005.28,
        8175.6,
        3994.62,
        -132.349,
        977.114,
        385.987,
        -26.9901,
        -0.0343118,
        0.0519483,
        0.0993549,
        -635.51,
        -3132.61,
        -3346.18,
        -12251.7,
        -17508,
        -16238.3,
        -3694.71,
        303.965,
        -10726.6,
        -2955.21,
        -20509.7,
        -32075.5,
        -31283.7,
        -26480.5,
        -19962.5,
        -16377.4,
        -15035.1,
        2262.64,
        -10028.5,
        1058.49,
        6441.05,
        -6139.24,
        -1250.61,
        -67.3242,
        -74.3112,
        0.0661469,
        0.0909136,
        -0.0476274,
        -385.607,
        -2846.43,
        -2784.37,
        -6981.47,
        -19322.3,
        -8086.39,
        2972.76,
        -4979.09,
        -9807.13,
        -15940.1,
        -10478.8,
        -28313.1,
        -43149.6,
        -38806.8,
        -25403.3,
        -34359.4,
        -23509.4,
        -10175.3,
        -4637.17,
        5793.73,
        3345.45,
        -4229.15,
        -2105.71,
        -62.3335,
        0.000641774,
        -0.0544972,
        909.509,
        -227.74,
        4416.58,
        3743.53,
        1867.26,
        2960.51,
        1318.25,
        5990.73,
        14466.6,
        21382.2,
        8558.7,
        -7374.01,
        1185.98,
        -24081,
        -35069.7,
        -43266.9,
        -29366.3,
        -22451.8,
        -5268.13,
        -5251.35,
        6060.44,
        11747.2,
        6142.3,
        2293.71,
        3473.62,
        -10.3315,
        0.0652004,
        0.094791,
        105,
        -23.386,
        6345.68,
        1504.2,
        -516.858,
        -2615.99,
        3576.58,
        11261,
        10400.4,
        14727.2,
        -14324.4,
        -486.906,
        18225.6,
        -9636.37,
        -17983.7,
        -24983.5,
        -7600.88,
        -3524.34,
        -13465.6,
        -2233.47,
        4137.33,
        8106.11,
        111.705,
        -2814.15,
        341.156,
        -0.781292,
        -0.0747832,
        -0.0591789,
        -0.0128791,
        0.886957,
        2605.94,
        -641.877,
        -3912.76,
        -1879.83,
        3474.09,
        5652.71,
        13086.5,
        17823.1,
        337.546,
        8065.27,
        13681,
        5327.04,
        9033.85,
        -3818.19,
        2443.66,
        -7250.17,
        -22084.8,
        -13360.2,
        1253.61,
        4908.58,
        -2903.09,
        -6886.54,
        -376.052,
        -982.673,
        -0.00584609,
        0.045263,
        -0.00372431,
        6.77706,
        69.3616,
        172.469,
        -6634.98,
        -4289.98,
        -1362.09,
        -4163.04,
        8355.65,
        18207.8,
        4328.9,
        -764.889,
        -13544.3,
        577.326,
        9879.58,
        -1773.71,
        1392,
        -7278.59,
        -2975.66,
        -7138.24,
        1015.71,
        -1745.15,
        -6849.58,
        -3254.76,
        971.199,
        -783.504,
        -0.0715275,
        0.0847714,
        -0.0252178,
        207.065,
        -1499.37,
        -2734.47,
        -10636.1,
        -10670.1,
        -11491.2,
        -9997.38,
        -9580.18,
        -7885.75,
        1463.85,
        -5413.37,
        -10071.3,
        -18656.2,
        -5034.77,
        1741.64,
        1705.9,
        -6419.9,
        -810.343,
        -10568.9,
        -7970.52,
        -13976.6,
        -8222.71,
        -1458.5,
        3045.45,
        -90.4826,
        -0.0534844,
        -0.0788629,
        -0.0182624,
        -4.90955,
        -1582.31,
        -2930.27,
        -13681.9,
        -16790.4,
        -20988.5,
        -26363.6,
        -29813.3,
        -14415.4,
        7611.76,
        24949.3,
        3943.6,
        -9810.79,
        -4296.08,
        -10122.5,
        7497.18,
        -3133,
        7015.42,
        -9352.51,
        -19431.4,
        -16559.1,
        -9650.27,
        -2734.09,
        2308.69,
        -47.2055,
        -0.0681855,
        -0.0928433,
        0.0119435,
        -0.02167,
        -1258.81,
        -1026.37,
        -15601.6,
        -20023.7,
        -16545.7,
        -33348.3,
        -30400,
        -7008.8,
        16551.3,
        -1817.74,
        -10778.6,
        -2752.04,
        -12067.9,
        -22287.5,
        -19488.5,
        -11503.2,
        -2539.27,
        -13285.8,
        -25532.6,
        -13041.9,
        -8007.14,
        -3253.7,
        1260.23,
        -621.697,
        -0.0971008,
        -0.0985325,
        -0.0392946,
        -1.2572,
        -129.375,
        4315.93,
        -7072.89,
        -8473.63,
        -5603.72,
        -17473.1,
        -5499.19,
        -2222.31,
        -4462.82,
        -2380.29,
        -13608.1,
        -4620.27,
        -12314.8,
        -19813.6,
        -14178.3,
        -4583.11,
        -7457.38,
        -11789.2,
        -16538.3,
        -5893.33,
        -2364.77,
        -3019.13,
        -1150.93,
        -403.28,
        0.0557617,
        -0.064375,
        0.0755857,
        12.1842,
        139.094,
        3482.38,
        -2721.72,
        -3582.15,
        -7374.5,
        -7611.82,
        1038.49,
        -11354.6,
        11372.1,
        -10094.8,
        -16594.2,
        -8702.74,
        3549.96,
        -3424.91,
        -986.774,
        -5015.36,
        -17621.9,
        -10833.7,
        -1730.31,
        2416.08,
        -2972.11,
        -2827.85,
        -0.290835,
        0.0671108,
        -0.0165589,
        -0.0850321,
        0.0995849,
        21.3325,
        470.637,
        2320.21,
        -7365.39,
        -4858.87,
        -5692.69,
        -19227.5,
        -11968.9,
        1477.69,
        7446.66,
        3411.92,
        2176.44,
        -21321.6,
        -10702.2,
        6567.76,
        1143.44,
        -15400.6,
        -26589.8,
        -13573.3,
        2984.01,
        -1880.3,
        -5393.86,
        -3508.38,
        -2727.05,
        0.0147603,
        -0.0956763,
        -0.0625758,
        -0.0181288,
        513.76,
        1409.13,
        1908.22,
        -12433.2,
        -4208.13,
        -10792.8,
        -22836.6,
        -11060.1,
        1764.39,
        -1619.61,
        9541.52,
        -16449.3,
        -37981.8,
        -19516.8,
        -10143.8,
        -22811.3,
        -9914.77,
        -11933.7,
        1166.1,
        6352.13,
        -2587.64,
        -7384.7,
        -3915.73,
        -830.012,
        -0.0507832,
        -0.0446373,
        0.0802438,
        0.0639772,
        1534.96,
        1333.94,
        -1120.33,
        -6713.32,
        -2443.01,
        -4621.52,
        -18955.8,
        -12158.5,
        -5963.61,
        -10199.2,
        -15659.5,
        -22172.7,
        -40589.2,
        -33874,
        -26087.7,
        -18198.3,
        -760.765,
        11250.3,
        9246.2,
        5654.06,
        -3484.82,
        -4906.62,
        -2354.86,
        -1456.01,
        -652.093,
        0.010521,
        0.000549756,
        -0.0898009,
        537.235,
        358.919,
        -2184.33,
        -9909.14,
        2174.34,
        -11664.1,
        -17223.5,
        -28356.1,
        -28198.1,
        -30343.6,
        -25661.8,
        -27435.7,
        -26803.9,
        -16567.5,
        -10407.5,
        -1375.28,
        9433.91,
        17924,
        8505.33,
        4276.55,
        342.326,
        -510.07,
        -1499.6,
        -1123.7,
        -1713.9,
        0.0712668,
        -0.0137209,
        -0.0768693,
        -246.88,
        -1420.1,
        -2283.61,
        -8754.27,
        -2651.58,
        3369.13,
        -2848.28,
        -16492.8,
        -20587.8,
        -21880.7,
        -13243.6,
        -3498.83,
        1560.91,
        8354.8,
        1300.22,
        -3649.97,
        9368.43,
        7574.08,
        7228.97,
        1789.74,
        -1164.9,
        -1765.17,
        -1551.27,
        -280.727,
        -643.099,
        0.0542456,
        0.00640193,
        0.0598742,
        0.0255123,
        -144.008,
        3043.36,
        -1040.97,
        -6414.5,
        -1283.09,
        8883.11,
        -9270.54,
        -14989.3,
        -22155.8,
        -15897.5,
        3808.22,
        8879.3,
        6944.05,
        4700.1,
        -1657.84,
        1263.06,
        4237.32,
        5029.51,
        2759.65,
        221.646,
        1121.17,
        -179.401,
        -0.0650667,
        0.00443894,
        0.0754533,
        0.0965754,
        -0.0978353,
        0.0296989,
        1.82472,
        6463.76,
        4982,
        -1629.35,
        4807.77,
        3845.88,
        -13191,
        -21969.4,
        -12969.4,
        -6616.8,
        9896.7,
        1205.74,
        -2624.69,
        6770.76,
        11652.2,
        3087.21,
        -723.165,
        769.308,
        -2154.53,
        -351.429,
        802.314,
        44.6584,
        -0.0830803,
        -0.0920936,
        -0.00725541,
        -0.048147,
        0.0123453,
        -0.0318021,
        -0.316309,
        2925.63,
        1956.21,
        2275.78,
        671.813,
        -98.055,
        -15596.9,
        -19956.2,
        -8291.43,
        -6735.37,
        1311.27,
        617.074,
        -4828.35,
        -2529.94,
        2223.19,
        -1416.08,
        -4051.47,
        -2004.16,
        -472.66,
        -121.201,
        92.8242,
        33.5098,
        -0.0372254,
        -0.0157455,
        -0.0165054,
        -0.0203057,
        -0.00783907,
        0.0762392,
        -100.368,
        -1492.58,
        -2621.37,
        -2301.39,
        -4800.51,
        -6715.45,
        -3049.2,
        -6360.5,
        -4851.78,
        -4267.39,
        -3590.78,
        1069.79,
        -3877.39,
        -5174.74,
        -2510.94,
        1539.8,
        493.307,
        25.1467,
        6.618,
        0.0731011,
        -0.0780643,
        0.0886456,
        -0.059296,
        -0.0907377,
        0.0593632,
        0.00347866,
        -0.00648315,
        -0.0571422,
        0.0831729,
        0.0856778,
        -467.255,
        -1694.42,
        -2008.61,
        -619.002,
        -0.00530424,
        -1.86521,
        -31.7028,
        -47.9432,
        -54.0937,
        109.509,
        -1058.35,
        -1842.03,
        -729.879,
        2623.77,
        1296.8,
        -0.0434652,
        -0.0495904,
        -0.00962773,
        0.0794977,
        0.0756684,
        -0.0365266,
        -0.0985665,
        0.064314,
        150.982,
        -0.0893042,
        0.0236772,
        -0.0923439,
        0.00421264,
        0.066535,
        0.090829,
        -0.0101096,
        0.0856321,
        0.00554921,
        -0.0199255,
        -0.0508337,
        -0.099755,
        0.0892748,
        0.0550344,
        -0.073678,
        -0.00595969,
        0.0563443,
        -0.0691557,
        -0.0840363,
        0.0687154,
        0.036044,
        0.0380162,
        -0.0747499,
        0.0864535,
        -0.0716115,
        -0.0952522,
        0.062122,
        -0.00813813,
        -0.0938187,
        0.0264359,
        0.0960393,
        -0.0831229,
        -0.0498869,
        -0.0963046,
        0.0210897,
        -0.0833519,
        0.0945244,
        -0.0890198,
        -0.0977198,
        7.36699e-05,
        -0.00894535,
        738.596,
        1851.69,
        620.762,
        372.561,
        208.144,
        68.2388,
        16.3557,
        31.9399,
        5.62656,
        0.0315406,
        -0.0064711,
        0.0283497,
        0.0567907,
        -0.0200176,
        0.0567381,
        0.0615386,
        -0.0578956,
        -0.0514,
        0.0677199,
        0.0685404,
        -0.0553607,
        0.084597,
        -0.0813465,
        -0.0516653,
        0.0056867,
        16.3002,
        144.247,
        -182.854,
        895.506,
        2187.03,
        2626.36,
        3744.71,
        4795.09,
        2199.24,
        646.406,
        111.441,
        58.3507,
        41.5923,
        19.6526,
        8.50582,
        0.0898752,
        -0.079094,
        0.0811039,
        0.0466659,
        0.000888453,
        0.037842,
        0.00820445,
        0.0429929,
        0.0864421,
        -77.0073,
        -80.0991,
        1303.3,
        2369.25,
        3869.7,
        4061.98,
        5052.55,
        3295.57,
        1837.23,
        3558.14,
        2617.75,
        2774.7,
        2401.59,
        4675.91,
        1616.13,
        -554.835,
        35.4023,
        21.5018,
        3.16326,
        -0.0540577,
        -0.094271,
        -0.00617775,
        -0.0641825,
        -0.073365,
        -0.0250739,
        0.0824834,
        -55.4332,
        -10.9672,
        -232.583,
        -384.501,
        -905.445,
        1011.99,
        2908.88,
        2905.29,
        8872.32,
        5687.93,
        3486.38,
        3603.03,
        -1753.64,
        -4590.02,
        4150.07,
        2713.62,
        -4947.63,
        -3009.82,
        -1258.06,
        -1817.85,
        -1697.49,
        -15.9755,
        -0.0159971,
        0.086528,
        -0.0935568,
        -0.0102681,
        -0.0196498,
        -87.3875,
        -417.168,
        -869.21,
        1292.39,
        2212.28,
        -1860.41,
        -4020.44,
        -2472.34,
        7056.28,
        4236.35,
        -3642.93,
        -10521.8,
        -5716.6,
        -4265.89,
        3689.32,
        -4112.55,
        -10929.3,
        -12603,
        -14267.1,
        -10359.5,
        -7822.63,
        -1837.88,
        -477.075,
        -782.95,
        -0.00899228,
        0.000605665,
        0.0260824,
        -0.0224643,
        -874.603,
        -3361.56,
        -2969.54,
        6497.62,
        4872.78,
        7209.81,
        6909.45,
        7324.61,
        6191.19,
        10696.7,
        2925.83,
        -4071.27,
        4651.84,
        -2764.54,
        -1613.43,
        -10948.3,
        -18898.9,
        -9853.65,
        -11698.2,
        -17612.4,
        -8190.1,
        -2103.32,
        -1232.3,
        -1618.92,
        -141.755,
        0.0893608,
        0.0710069,
        0.0985167,
        -408.961,
        -5610.59,
        -6395.89,
        1697.18,
        -5052.85,
        5235.19,
        5849.52,
        7495.95,
        3413.47,
        11955.6,
        12728.7,
        15785.9,
        26803.1,
        14993.9,
        17302.2,
        -9147.59,
        -10975.5,
        -17989.8,
        -7938.63,
        1247.73,
        -1167.22,
        1182.64,
        -276.081,
        -719.403,
        -83.6348,
        -0.0745029,
        -0.0025352,
        0.0147968,
        438.517,
        -8357.85,
        -4790.76,
        -1938.22,
        -3304.76,
        6771.27,
        723.127,
        512.831,
        366.435,
        9755.55,
        -2514.83,
        8986.71,
        7977.14,
        5242.16,
        3256.51,
        -3415.38,
        -4484.03,
        -15843.7,
        -3202.24,
        3659.37,
        6225.34,
        3437.71,
        4121.11,
        -68.0681,
        -0.0327718,
        -0.074652,
        746.224,
        -197.634,
        2692.1,
        -2790.04,
        -3418.56,
        -2316.5,
        -510.335,
        5416.46,
        -16745.7,
        -7041.7,
        16740.5,
        7603.14,
        -1806.71,
        18297,
        20510.3,
        6480.67,
        -5096.64,
        4614.25,
        -8386.55,
        -747.627,
        -8556.42,
        -875.219,
        -847.992,
        -714.035,
        -1016.71,
        -5.71929,
        -0.0508149,
        0.0814083,
        86.0419,
        59.8266,
        4670.47,
        -693.525,
        -4648.93,
        -447.005,
        2042.24,
        -6022.39,
        -39136.5,
        -8908.48,
        20165,
        -7287.84,
        -17250.6,
        -3728.16,
        12990.9,
        -8924.41,
        -7522.62,
        439,
        1876.22,
        -1124.23,
        -1742.15,
        -879.077,
        1026.54,
        -2523.19,
        -565.922,
        1.20282,
        -0.0294265,
        -0.0414389,
        0.0783177,
        55.5501,
        521.738,
        -2238.61,
        -3646.76,
        3961.56,
        -2054.29,
        -5418.74,
        -15553.7,
        -2559.16,
        4747.68,
        -4641.44,
        -9378.84,
        11627.3,
        7647.02,
        -4065.11,
        6908.57,
        10566.7,
        1764.02,
        -2125.65,
        -1608.25,
        -2730.69,
        2681.67,
        950.169,
        -167.98,
        -354.407,
        0.0934931,
        -0.020931,
        -0.0884724,
        10.221,
        -1531.67,
        -4877.88,
        -5106.89,
        2640.91,
        1216.12,
        4040.46,
        -14567,
        -12228.2,
        6867.04,
        2860.93,
        325.683,
        -4157.01,
        -12732.6,
        -2645.6,
        20453.8,
        15336.4,
        -1603.15,
        -4203.06,
        846.762,
        2173.33,
        3708.52,
        1592.88,
        446.808,
        -282.623,
        -0.00998804,
        0.0717719,
        -0.0125908,
        94.0411,
        -1201.73,
        -3610.62,
        -3215.55,
        -1316.89,
        5266.08,
        8574.07,
        10848.4,
        8369.91,
        12283.3,
        12813.2,
        -7086.92,
        -8878.95,
        -181.014,
        7638.72,
        7225.36,
        15060.9,
        8941.02,
        5206.44,
        3841.37,
        3598.69,
        4070.73,
        640.238,
        765.96,
        -32.6004,
        -0.0416963,
        0.05146,
        -0.0316766,
        -1.9374,
        -1003.87,
        -3411.48,
        -2050.92,
        -4656.81,
        1898.3,
        1249.02,
        9112.73,
        11829,
        18487,
        -1441.65,
        -4494.1,
        -9097.48,
        1402.31,
        5175.02,
        -1951.39,
        10214.8,
        3939.56,
        2414.75,
        3624.73,
        4089.56,
        4088.89,
        2072.15,
        261.363,
        -50.2672,
        0.0849684,
        0.00176872,
        -0.00920769,
        -0.0567279,
        -1233.69,
        -2864.47,
        -4943.09,
        -9136.81,
        -6413.31,
        -10602.4,
        4518.09,
        6275.13,
        -1677.2,
        3253.75,
        -12567.7,
        -5198.28,
        -1828.48,
        12837,
        12466.3,
        2388.13,
        -6113.38,
        -248.698,
        623.029,
        3157.14,
        6140.49,
        2563.2,
        -2328.07,
        -643.524,
        0.0786258,
        0.0489922,
        0.0797746,
        3.17328,
        24.6938,
        -3887.41,
        -3963.93,
        -5626.18,
        -8492.16,
        -14148.9,
        -5046.96,
        2552.89,
        3903.24,
        -4515.98,
        -5243.43,
        -1433.24,
        -10811.8,
        3403.04,
        2126.52,
        4269.76,
        -9508.47,
        495.597,
        -6648.42,
        -3085.09,
        -277.662,
        -5.40244,
        -809.858,
        -429.362,
        -0.0426322,
        -0.0648152,
        0.0617893,
        21.0936,
        5.41461,
        -193.711,
        42.0962,
        -5422.22,
        -7754.93,
        -18921.5,
        -6345.57,
        -11506.6,
        -10462.4,
        -19684.4,
        -13808.1,
        -12841.5,
        -21254.2,
        -9927.83,
        4840.13,
        1014.38,
        963.572,
        1021.07,
        -4253.84,
        -59.1115,
        1157.49,
        -429.622,
        -643.945,
        -0.0458155,
        -0.028154,
        -0.0167531,
        0.054716,
        65.1202,
        597.634,
        3660.69,
        4178.76,
        -8693.4,
        -22002.1,
        -17260.6,
        -15024.8,
        -11523.8,
        -12928.2,
        -19212.7,
        -15620.2,
        -10462.3,
        -13058.2,
        -2972.14,
        4196.33,
        -11788.6,
        10344.4,
        5213.03,
        -2981.28,
        4013.37,
        213.715,
        -825.791,
        -533.681,
        0.0477586,
        -0.0525581,
        -0.0458101,
        -0.0980569,
        403.792,
        2675.07,
        8285.7,
        8615.73,
        -5428.84,
        -14415.9,
        -7174.16,
        -3060.79,
        -5437.71,
        -15996.2,
        -25241.8,
        -10325.4,
        -10570.4,
        -7974.88,
        1067.07,
        -11453.5,
        -5859.26,
        8053.57,
        252.463,
        -10111.8,
        3174.04,
        -3111.99,
        -1865.74,
        -84.4955,
        -0.0727524,
        -0.0239896,
        0.0631251,
        0.0750062,
        1174.63,
        3322.34,
        5831.62,
        11595.4,
        1003.57,
        -11011.7,
        -6991.4,
        5288,
        2697.86,
        -691.635,
        758.015,
        510.113,
        1650.66,
        10693.8,
        -3251.14,
        -2242.37,
        -9118.48,
        7505.59,
        -3024.16,
        -4560.73,
        -519.085,
        -1566.19,
        156.165,
        982.745,
        -235.272,
        -0.0242696,
        -0.0880344,
        -0.00159189,
        2440.31,
        3511.18,
        6442.39,
        14658.2,
        7519.11,
        -936.878,
        -11298.3,
        3446.14,
        9298.48,
        11696.1,
        8683.04,
        6817.19,
        -1229.51,
        -3881.16,
        676.796,
        3475.52,
        -9450.49,
        3958.36,
        -1574.91,
        -1778.96,
        -1641.68,
        -1383.38,
        1651.25,
        456.77,
        -1717.96,
        -0.0438845,
        -0.0389809,
        0.0490351,
        668.683,
        3396.36,
        7735.12,
        4747.79,
        6341.03,
        -6015.8,
        -4665.24,
        3069.01,
        -10453,
        925.268,
        -6147.57,
        184.566,
        -558.096,
        -12616.3,
        4962.13,
        1962.59,
        -15453.1,
        -6897.75,
        1654.59,
        -1092.08,
        -2877.46,
        704.116,
        1211.22,
        -101.321,
        -232.058,
        -0.0705126,
        -0.0502667,
        -0.00381881,
        -0.0143971,
        95.1981,
        5848.72,
        5897.76,
        6892.32,
        9498.53,
        1285.49,
        4129.21,
        -3584.21,
        -18225.9,
        -18272.2,
        -6521.01,
        -1135.93,
        -14405.7,
        1996.42,
        -10137.3,
        -2263.42,
        2068,
        3824.52,
        -1825.14,
        -1624.45,
        -2908.85,
        277.229,
        0.00344221,
        -0.0515748,
        -0.0641678,
        0.067404,
        -0.0332682,
        -0.0346803,
        109.433,
        7199.43,
        9758.24,
        13435.2,
        6794.67,
        -233.327,
        -414.331,
        -528.408,
        -1849.98,
        -3882.23,
        -2073.79,
        -991.953,
        1272.15,
        2278.41,
        -9992.34,
        8607.97,
        10795.3,
        9237.91,
        2172.69,
        729.95,
        -1271.92,
        107.911,
        -0.0145942,
        0.0306355,
        0.000583623,
        0.0888481,
        0.0790607,
        0.0364158,
        0.248169,
        5507.56,
        8204.96,
        8425.01,
        10424.5,
        1946.26,
        -3137.19,
        8839.33,
        3667.21,
        4660.98,
        20405.6,
        8997.06,
        10376.3,
        10242,
        6747.51,
        11857.5,
        8058.78,
        6976.8,
        1147.73,
        432.058,
        228.4,
        62.5991,
        -0.00520381,
        0.0841809,
        -0.012587,
        0.080202,
        0.0148164,
        0.0879967,
        414.561,
        2985.16,
        3107.43,
        5132.28,
        2745.87,
        1302.25,
        456.377,
        -985.323,
        -1255.73,
        -1059.88,
        -385.166,
        4794.52,
        -1156.73,
        801.663,
        2978.41,
        2927.74,
        -972.385,
        44.8638,
        11.8114,
        -0.0542617,
        -0.00465994,
        0.0890436,
        -0.0843114,
        0.0689184,
        0.0178017,
        0.0104848,
        0.0530993,
        -0.0947853,
        -0.00931316,
        -0.0320843,
        -569.167,
        -2081.91,
        -2108.53,
        -241.102,
        0.0850391,
        -2.06685,
        -35.0452,
        -41.7802,
        -32.5697,
        3.59789,
        -1734.94,
        -3081.33,
        -1208.63,
        4732.29,
        2337.93,
        0.0126855,
        -0.0342011,
        -0.0873542,
        -0.0773841,
        -0.0929013,
        -0.041616,
        0.017956,
        0.0961423,
        -50.0796,
        -0.0131256,
        0.013944,
        0.0845575,
        -0.0600263,
        0.0191587,
        -0.0247557,
        0.00788946,
        0.0123701,
        0.0349812,
        -0.0303177,
        -0.0700059,
        0.0200203,
        0.0711448,
        -0.026234,
        -0.0962492,
        -0.0790175,
        0.0963441,
        -0.0125482,
        -0.0639697,
        0.0187577,
        0.0840292,
        0.0339121,
        -0.0685568,
        -0.050172,
        0.0465579,
        -0.0459409,
        -0.0430733,
        -0.0950581,
        0.0720152,
        -0.046931,
        -0.0209854,
        -0.0411104,
        0.067013,
        -0.0364279,
        -0.00113666,
        -0.0138283,
        0.0388164,
        -0.0932472,
        0.0985419,
        -0.0262024,
        -0.0235649,
        172.601,
        348.997,
        -264.435,
        -256.744,
        0.895097,
        38.775,
        -31.1319,
        -57.2686,
        -9.33756,
        -0.0825962,
        -0.0309502,
        -0.0614952,
        -0.051153,
        0.0188778,
        0.0850627,
        0.00290612,
        0.0758045,
        0.0900046,
        -0.0250787,
        -0.0711264,
        -0.0309808,
        0.0338109,
        0.0958866,
        0.0325913,
        -0.0673258,
        9.2097,
        360.568,
        2183.11,
        2358.42,
        1074.66,
        -1238.34,
        -2871.44,
        -4893.26,
        -5387.43,
        -2449.57,
        -84.1343,
        -54.5542,
        -38.2165,
        22.4056,
        10.8583,
        0.027488,
        -0.00933779,
        0.0751017,
        0.0763349,
        -0.09046,
        0.0601644,
        -0.0207589,
        0.0853445,
        0.050169,
        89.8448,
        299.416,
        1057.44,
        1529.25,
        1401.03,
        2144.27,
        2091.99,
        4487.76,
        3973.78,
        3499.57,
        725.11,
        -1448.8,
        -3756.02,
        -3912.63,
        -2899.27,
        1044.68,
        -7.97419,
        30.9849,
        7.46742,
        -0.0965784,
        -0.0343801,
        -0.0920203,
        0.0309096,
        0.0562821,
        0.0830814,
        0.00724453,
        34.4215,
        699.878,
        1152.36,
        286.165,
        -1672.53,
        -465.807,
        -1349.51,
        -960.572,
        -737.984,
        3913.92,
        6543.16,
        6505.1,
        -8689.8,
        -15824.1,
        -7731.25,
        8766.94,
        4691.23,
        6469.98,
        2581.31,
        -4800.95,
        -3780.44,
        39.2867,
        -0.092615,
        -0.00395939,
        -0.0809262,
        -0.0269951,
        0.00402028,
        -136.856,
        -379.077,
        1946.24,
        5191.68,
        4337.81,
        -265.295,
        -3463.28,
        1177.44,
        209.21,
        3686.61,
        -512.436,
        4213.08,
        1397.68,
        -2623.16,
        -2009,
        8648.15,
        -3241.66,
        2620.54,
        9138.86,
        3055.78,
        -3625.79,
        1447.85,
        500.452,
        -591.444,
        -0.0184687,
        0.0331846,
        -0.0849574,
        0.0775719,
        -1459.77,
        -2089.71,
        1211.11,
        5750.2,
        4947.1,
        -1373.57,
        1289.66,
        2808.05,
        6359.38,
        11017.9,
        -7508.28,
        -7325.85,
        5066.82,
        -414.216,
        -7350.05,
        -980.44,
        3322.53,
        12980.3,
        5491.33,
        277.855,
        334.684,
        2751.47,
        1168.33,
        -1190.81,
        -65.7445,
        0.0250814,
        0.000172733,
        0.0727771,
        -1516.14,
        -4144.99,
        -2467.72,
        3007.9,
        3189.16,
        9341.46,
        5360.9,
        2455.77,
        -358.827,
        13955.5,
        5994.23,
        142.2,
        9909.28,
        4386.8,
        9778.46,
        2440.09,
        449.259,
        13981.4,
        823.071,
        6000.06,
        4233.34,
        4719.55,
        3129.52,
        217.661,
        -50.5634,
        0.0395491,
        -0.0176828,
        0.0518879,
        -1830.26,
        -2244.1,
        1332.11,
        -4307.92,
        1798.18,
        14976.7,
        5163.33,
        -439.271,
        893.201,
        6322.19,
        7296.14,
        9927.6,
        8981.53,
        4445.85,
        6692.99,
        12311.7,
        -421.696,
        7471.44,
        11157.4,
        14093.2,
        14627.9,
        7756.52,
        10771.4,
        46.1148,
        0.0465682,
        -0.0398257,
        -26.9232,
        -135.628,
        599.216,
        494.226,
        2141.51,
        149.046,
        -836.814,
        10368.6,
        518.139,
        -7082.85,
        5367.2,
        -5450.93,
        7675.58,
        1592.19,
        629.074,
        -13974.4,
        3588.52,
        9865.03,
        -6442.05,
        2365.31,
        8518.31,
        9735.26,
        5157.38,
        6995.92,
        5002.56,
        -4.89537,
        -0.0437694,
        -0.0345368,
        -3.12522,
        -1.78314,
        2619,
        439.772,
        -1363.11,
        -2190.42,
        -2893.88,
        -1928.08,
        -10994.2,
        -6999.53,
        -1570.14,
        -7061.9,
        787.882,
        7122.37,
        21135,
        94.8008,
        2307.36,
        -4755.84,
        -7830.59,
        -8948.07,
        -4113.66,
        605.42,
        -6108.66,
        -5541.52,
        110.555,
        0.374401,
        0.0648359,
        -0.0620594,
        -0.0366411,
        -11.9112,
        502.736,
        -2043.4,
        -3242.09,
        -2396.61,
        -5909.43,
        -8988.95,
        -4736.66,
        -7276.34,
        -5678.67,
        -7183.86,
        -9376.09,
        -249.42,
        5923.39,
        -3831.05,
        -8795.44,
        -12805.6,
        -14731.4,
        -25704.7,
        -16503,
        -12470.8,
        -14380.3,
        -8571.48,
        87.7351,
        130.09,
        -0.0381019,
        0.0271784,
        0.0684972,
        -31.5219,
        -568.892,
        -4382.81,
        -6396.11,
        -7935.82,
        -11576.1,
        -13628.7,
        -12808.8,
        -12415.2,
        -3542.32,
        -11500.3,
        -10267.9,
        -4474.02,
        -4625.04,
        -911.383,
        377.232,
        -7055.75,
        -8220.48,
        -14731.8,
        -14931.4,
        -14614.9,
        -12906.9,
        -8303.7,
        -467.752,
        103.763,
        -0.0479032,
        0.0216222,
        -0.000798233,
        -219.996,
        -401.643,
        -2219.09,
        -6690.8,
        -11864.4,
        -7411.64,
        1853.67,
        -5992.09,
        -8831.82,
        10831.1,
        5720.46,
        -2955.31,
        -2538.09,
        -8300.45,
        3220.63,
        2309.58,
        5697.62,
        771.598,
        -6734.04,
        -6945.98,
        -14488.5,
        -12267.7,
        -6700.02,
        -1169.7,
        11.9346,
        0.000211428,
        0.000797902,
        -0.0804145,
        -0.923027,
        -311.282,
        -1476.77,
        -9437.21,
        -14016,
        -8103.59,
        1672.81,
        -5438.48,
        638.489,
        3486.52,
        3021.21,
        -5370.83,
        -9893.01,
        -7259.3,
        -1538.27,
        -4066.46,
        1744.04,
        2610.33,
        -5570.33,
        -5709.99,
        -11174.8,
        -11543.9,
        -4543.71,
        -128.32,
        275.04,
        -0.0660506,
        -0.0702189,
        -0.0478627,
        0.0341608,
        -377.862,
        -1086.81,
        -9569.09,
        -17356.4,
        -9049.65,
        -1598.72,
        -10379.6,
        -8801.67,
        191.905,
        1564.32,
        -3373.42,
        -4430.58,
        -1492.41,
        -12264.5,
        -8736.76,
        -366.344,
        2471.46,
        1426.43,
        2007.49,
        -1136.09,
        -2938.08,
        2904.03,
        5703.33,
        4593.53,
        0.0645511,
        -0.0793897,
        -0.032374,
        1.38,
        29.548,
        6394.42,
        -552.237,
        -14375.6,
        -16038.7,
        -8340.02,
        -5664.27,
        -6217.17,
        -1888.46,
        -8558.25,
        -6848.07,
        -5035.71,
        670.839,
        -8682.15,
        5012.49,
        2412.78,
        5818.6,
        8102.68,
        9185.55,
        6266.45,
        3121.56,
        7115.05,
        4701.86,
        2349.19,
        0.0848276,
        -0.0562313,
        0.0219169,
        2.51135,
        244.799,
        5643.71,
        7582.08,
        768.709,
        -11667.6,
        -13699.7,
        -14353.4,
        -24068.5,
        -11813.9,
        -16334,
        -15676,
        -10565.4,
        387.232,
        -2745.11,
        8300.33,
        89.5816,
        -3501.38,
        2940.45,
        13450.9,
        6897.31,
        1958,
        2529.62,
        775.402,
        0.01936,
        0.0420819,
        -0.0388589,
        0.0785338,
        12.4028,
        700.221,
        3309.12,
        10795.3,
        9958.48,
        -41.2565,
        -8976.93,
        -10335.9,
        -23661.6,
        -10193.6,
        -3313.6,
        -6288.44,
        -1962.91,
        -4040.5,
        8368.28,
        9241.03,
        -4179.61,
        -3304.27,
        5900.13,
        11970.2,
        5657.61,
        -81.3304,
        800.485,
        183.045,
        0.0581367,
        -0.0782341,
        -0.0932371,
        -0.0225033,
        392.239,
        2142.84,
        3859.93,
        5657.22,
        11191.2,
        10844.9,
        3321.83,
        121.436,
        -7936.51,
        -2566.68,
        4120.01,
        2544.5,
        -4915.78,
        2272.84,
        2503.23,
        7155.94,
        2707.49,
        -334.134,
        6941.13,
        5062.97,
        3277.77,
        -3453.41,
        -1491.31,
        -39.472,
        -0.0749283,
        0.0185432,
        -0.0652606,
        0.0832085,
        1119.31,
        2214.3,
        2457.3,
        4607.94,
        8273.52,
        7850.02,
        8894.55,
        940.247,
        2926.98,
        12151.4,
        -748.156,
        11603.6,
        2332.84,
        -832.386,
        19.5853,
        4051.82,
        -5162.31,
        8145.1,
        4602.44,
        -3828.13,
        -1360.5,
        -1297.07,
        1473.97,
        404.868,
        86.3902,
        0.0505453,
        -0.0646327,
        -0.0938,
        743.184,
        1290.87,
        2200.53,
        4430.27,
        3034.62,
        4434.86,
        1808.03,
        1778.9,
        -662.66,
        8817.73,
        -6528.21,
        660.464,
        5811.39,
        10883.5,
        5852.87,
        2542.42,
        2026.36,
        1100.61,
        -5757.99,
        -1907.34,
        23.9435,
        639.872,
        2366.92,
        297.122,
        244.801,
        0.0912134,
        -0.0298787,
        0.0288565,
        -33.6053,
        87.2839,
        457.069,
        -784.365,
        -450.933,
        -11130.5,
        -12284.3,
        3812.38,
        -5220.68,
        3379.47,
        7919.14,
        5344.44,
        7002.93,
        -7289.43,
        -6823.11,
        -1847.06,
        3951.77,
        -8824.86,
        -1127.15,
        -223.533,
        979.883,
        961.049,
        499.699,
        37.1639,
        85.0413,
        -0.0420418,
        0.0796661,
        0.0788012,
        -0.0508284,
        79.71,
        2031.63,
        4133.36,
        6138.08,
        5872.62,
        1280.4,
        -2246.23,
        -2869.6,
        2165.66,
        3532.55,
        -3717.39,
        -7194.1,
        71.2829,
        7168.58,
        -262.672,
        2370.72,
        -3974.33,
        -1340.82,
        -1311.72,
        410.648,
        1619.32,
        69.3478,
        -0.0275933,
        -0.0439314,
        0.0453689,
        0.0754382,
        -0.0128585,
        -0.0966729,
        40.8131,
        3858.4,
        6079.66,
        7803.59,
        3418.13,
        -1436.95,
        -4382.68,
        -2635.78,
        1436.93,
        3895.06,
        5486.32,
        -323.45,
        581.685,
        -5272.03,
        -615.324,
        6477.44,
        2015.52,
        1270.81,
        53.5248,
        -954.655,
        530.883,
        -0.790177,
        -0.0209529,
        0.0790042,
        -0.0562551,
        0.0514538,
        -0.0649272,
        0.0891138,
        4.57146,
        1424.61,
        1809.97,
        1663.02,
        2628.07,
        818.075,
        -1233.78,
        723.619,
        -2139.43,
        -5030.97,
        -5300.01,
        -5304.85,
        259.846,
        2578.33,
        9030.04,
        3746.91,
        1339.99,
        -10.8982,
        -261.916,
        -255.716,
        -0.382987,
        8.01699,
        0.0683687,
        0.0769169,
        0.00570204,
        -0.0525842,
        0.0559211,
        0.0494469,
        78.3985,
        725.35,
        949.862,
        1504.81,
        2157.58,
        -1728.16,
        -3781.72,
        -1520.12,
        -872.668,
        -586.772,
        -1665.97,
        -1769.89,
        -1697.17,
        -190.585,
        1002.77,
        -856.845,
        -468.825,
        0.462471,
        0.122466,
        -0.010424,
        -0.0774579,
        -0.0903756,
        0.0848288,
        -0.0324649,
        -0.0345972,
        0.0531975,
        -0.055548,
        0.0711048,
        -0.0993866,
        -0.0996269,
        -27.3327,
        406.143,
        838.434,
        379.367,
        0.0252447,
        0.314675,
        5.33598,
        1.12735,
        -7.70976,
        -17.965,
        70.3386,
        139.061,
        12.4786,
        -863.413,
        -424.541,
        -0.0717503,
        -0.0508524,
        0.0130166,
        -0.0730619,
        0.0761534,
        -0.0974074,
        -0.0505198,
        0.0857779,
        -32.0287,
        0.0170153,
        -0.0488194,
        0.0406189,
        0.0614673,
        -0.0777145,
        0.0412323,
        0.0618404,
        0.0428372,
        0.0407153,
        0.0532073,
        -0.0980504,
        -0.03404,
        -0.0422176,
        0.0920636,
        0.0989627,
        -0.0362774,
        0.0581188,
        -0.0733884,
        0.0327853,
        0.0884837,
        0.0959625,
        -0.0569577,
        -0.0832665,
        -0.0548899,
        0.0560589,
        -0.0563284,
        -0.0787365,
        0.0586514,
        -0.00684816,
        -0.0929586,
        0.0460728,
        -0.0898328,
        -0.041778,
        -0.0133082,
        0.0716345,
        -0.0194925,
        -0.0720759,
        0.0334748,
        -0.0766553,
        0.0686394,
        -0.0133179,
        -123.572,
        -253.14,
        16.1313,
        -43.5665,
        -79.6324,
        -40.9307,
        -8.6451,
        -8.68494,
        -0.0820044,
        0.0639605,
        -0.0438638,
        0.0840147,
        0.080694,
        0.00124633,
        0.0400735,
        -0.0756345,
        0.0225098,
        -0.00127502,
        0.0175174,
        0.0295512,
        -0.0552022,
        0.0276846,
        0.0877733,
        0.0314896,
        -0.000680949,
        -9.15849,
        -61.2528,
        -613.16,
        -875.79,
        -438.417,
        135.186,
        437.798,
        360.203,
        238.576,
        -38.5771,
        -20.141,
        11.7743,
        7.33249,
        23.5078,
        10.6724,
        -0.026285,
        0.0125247,
        0.0971146,
        -0.0455911,
        -0.086229,
        0.0371882,
        -0.0212255,
        0.0362808,
        -0.0640869,
        -68.2021,
        -92.9401,
        1001.02,
        1490.04,
        1492.03,
        2016.25,
        2161.37,
        -106.822,
        -966.771,
        -402.802,
        -352.645,
        474.272,
        1611.09,
        3621.67,
        1428.67,
        -1017.41,
        19.5272,
        29.7416,
        6.54377,
        0.0744637,
        0.014923,
        0.0247335,
        -0.0518214,
        -0.0725524,
        0.0218481,
        0.00258754,
        -29.6231,
        -173.68,
        -402.375,
        -1601.66,
        -3542.57,
        -849.518,
        2484.02,
        2683.27,
        2552.92,
        1431.57,
        -725.179,
        1933.63,
        3172.81,
        -1203.95,
        3291.14,
        3671.05,
        1413.2,
        -402.708,
        1261.83,
        130.137,
        -1042.7,
        -3.06896,
        0.0799971,
        0.00771991,
        -0.0980609,
        -0.00507991,
        -0.0675466,
        24.2523,
        -276.114,
        -820.203,
        -987.149,
        -2728.39,
        -2403.69,
        -1331.27,
        6982.18,
        7202.79,
        2677.09,
        -872.502,
        -4222.57,
        -1022.85,
        3157.03,
        -1600.62,
        3473.89,
        874.21,
        -744.747,
        871.732,
        -1639.7,
        -3524.3,
        -9.36169,
        63.3258,
        -227.169,
        -0.0280408,
        0.0227538,
        0.0918858,
        0.0796791,
        252.442,
        23.4318,
        -261.045,
        375.324,
        1285.09,
        2462.31,
        3707.97,
        1079.81,
        7272.19,
        1605.54,
        -5776.44,
        -1178.67,
        537.168,
        -4647.14,
        -5784.9,
        -4505.16,
        -2669.18,
        978.05,
        216.655,
        -4067.18,
        -3689.81,
        -823.417,
        -398.174,
        -489.205,
        -68.4574,
        0.00758552,
        0.0774129,
        0.0920574,
        905.294,
        644.164,
        856.222,
        3417.74,
        952.028,
        -819.04,
        -3312.04,
        578.351,
        3815.71,
        1785.39,
        1263.48,
        -850.113,
        -3164.72,
        -6341.83,
        710.569,
        -3556.27,
        -2691,
        -1125.22,
        -1037.78,
        -481.55,
        -2401.02,
        1100.54,
        -296.19,
        -119.229,
        -38.7125,
        0.0218667,
        -0.0254236,
        0.0681591,
        1278.3,
        943.839,
        -411.95,
        -2147.16,
        -2518.12,
        -4672.63,
        -6459.18,
        -2053.99,
        267.164,
        -2669.84,
        -5134.35,
        -4962.17,
        -1021.35,
        120.478,
        3431.95,
        127.647,
        14.1445,
        -2673.38,
        1989.83,
        1943.44,
        2082.61,
        1558.94,
        2160.96,
        -8.9865,
        -0.00404707,
        0.0220638,
        276.948,
        -133.634,
        1063.27,
        1369.69,
        -1296.79,
        -2842.19,
        -2495.02,
        -1578.69,
        -7139.92,
        -8103.19,
        -891.072,
        -3822.49,
        -5353.97,
        -1294.28,
        -861.16,
        3401.15,
        1990.42,
        1082.95,
        -3359.49,
        -511.469,
        1579.47,
        495.128,
        -1956.81,
        -1642.1,
        -492.641,
        -1.53252,
        0.0209911,
        -0.0760595,
        31.8897,
        -63.9245,
        1097.58,
        -703.699,
        -948.376,
        -1712.33,
        -3257.59,
        -4626.52,
        -10549.2,
        -1893.38,
        3828.22,
        -1097.83,
        -6566.01,
        -2612.11,
        2885.35,
        796.32,
        -1289.83,
        -680.939,
        -1033.54,
        988.307,
        1060.9,
        -82.4088,
        -888.303,
        -2051.93,
        -207.612,
        0.171345,
        0.0763789,
        -0.0970077,
        -0.0630774,
        -37.594,
        41.2037,
        -2558.46,
        -1803.24,
        -3345.57,
        -4488.57,
        -4348.62,
        -4959.4,
        -4257.95,
        -3822.1,
        -285.816,
        -5102.57,
        -3162.95,
        -478.595,
        -1209.75,
        -1743.14,
        2212.37,
        2836.2,
        -943.734,
        -1102.03,
        -2180.03,
        -756.375,
        -674.298,
        -51.5609,
        -119.309,
        -0.0163223,
        0.0075673,
        -0.0554372,
        -4.46778,
        -153.9,
        -2153.88,
        -1650.14,
        -3359.09,
        -4771.04,
        -2818.86,
        -2534.25,
        17.4847,
        3459.87,
        1126.84,
        -1811.28,
        -4683.43,
        -7474.65,
        -871.279,
        2843.86,
        412.604,
        -1613.9,
        440.526,
        -27.6699,
        198.152,
        -458.725,
        -222.881,
        208.838,
        -95.0279,
        -0.0701587,
        0.0420785,
        0.0260017,
        -13.5049,
        -46.6826,
        -36.3917,
        122.585,
        -511.917,
        1099.91,
        321.764,
        2287.65,
        9548.35,
        13055.1,
        4492.72,
        -5392.13,
        -2971.91,
        -4485.84,
        -1730.68,
        3522.33,
        5071.06,
        2159.62,
        5833.19,
        2623.52,
        819.739,
        -295.329,
        -353.462,
        353.995,
        -11.0733,
        -0.0138991,
        -0.0357861,
        0.0316361,
        -3.55768,
        -181.523,
        651.151,
        1152.22,
        2744.68,
        4377.76,
        3033.54,
        1381.25,
        6725.72,
        10110.9,
        1184.49,
        -5421.13,
        -834.051,
        -1200.47,
        620.965,
        403.391,
        3612.73,
        4387.55,
        7658.53,
        4998.87,
        1809.56,
        186.569,
        -1039.67,
        70.9053,
        -117.051,
        -0.020163,
        -0.068089,
        -0.0515831,
        0.0659379,
        45.7719,
        715.603,
        1652.08,
        4597.82,
        4093.96,
        6742.93,
        3557.36,
        1532.71,
        1601.8,
        3407.05,
        -1070.65,
        134.837,
        4362.37,
        3691.59,
        2556.29,
        5044.98,
        8100.44,
        5266.65,
        2195,
        1114.34,
        -156.323,
        -2054.73,
        -2399.85,
        -2019.73,
        -0.0145742,
        -0.0687185,
        -0.0964966,
        -2.98366,
        -26.0325,
        344.442,
        976.639,
        2565.36,
        1756.69,
        3404.46,
        403.49,
        1918.53,
        650.361,
        -5678.68,
        -4637.58,
        1472.44,
        3082.31,
        3414.34,
        1478.94,
        2598.93,
        7284.24,
        984.915,
        600.645,
        2360.28,
        1043.29,
        -1395.97,
        -1933.18,
        -998.82,
        0.00496578,
        0.023946,
        0.0172474,
        -4.57085,
        -36.4235,
        394.913,
        469.078,
        649.897,
        -525.572,
        -2630.66,
        876.376,
        -1171.77,
        -5090.79,
        -7844.31,
        -3917.63,
        -1724.2,
        -2598.43,
        366.278,
        4867.35,
        5444.52,
        6252.4,
        485.438,
        534.873,
        2138.38,
        2436.55,
        503.256,
        270.781,
        0.0669417,
        0.0372656,
        0.0737209,
        0.0145331,
        -27.0292,
        180.078,
        1356.8,
        1436.58,
        -407.801,
        -5321.01,
        983.429,
        3042.34,
        -2207.77,
        -4394.11,
        -7398.16,
        -5343.09,
        1329.08,
        1112.72,
        2516.49,
        3735.45,
        -857.382,
        1480.13,
        640.325,
        1735.12,
        5212.4,
        3096.34,
        1395.65,
        56.2916,
        -0.0642473,
        0.0696399,
        -0.0972715,
        -0.0973056,
        70.1071,
        857.399,
        3500.1,
        3448.56,
        -2318.58,
        -1151.06,
        3338.37,
        2158.63,
        -2763.03,
        -3721.2,
        -808.293,
        2001.02,
        745.666,
        1658.01,
        3174.62,
        2115.46,
        -2351.33,
        -1466.22,
        -1497.34,
        -804.865,
        4191.16,
        94.0205,
        -412.652,
        3.25206,
        -0.00478885,
        -0.0744576,
        0.0957902,
        0.0309639,
        312.389,
        1079.1,
        2850.54,
        3829,
        -1295.66,
        -4512.86,
        -1659.56,
        -421.883,
        -5802.18,
        23.233,
        -2153.61,
        3829.3,
        5860.68,
        2589.65,
        3857.37,
        619.706,
        -1719.47,
        1489.35,
        799.112,
        -722.686,
        1047.66,
        -530.088,
        957.732,
        1121.44,
        -79.0423,
        0.0279051,
        0.000627659,
        -0.0344454,
        849.917,
        1117.7,
        2936.36,
        5023.56,
        -3816.79,
        -5357.75,
        -2395.82,
        3544.92,
        2654.83,
        5502.63,
        -441.649,
        2609.72,
        3456.63,
        -4257.72,
        2890.6,
        286.139,
        1488.63,
        1293.27,
        -504.596,
        907.094,
        -1061.34,
        -629.704,
        1740.13,
        599.641,
        -6.97811,
        -0.00932176,
        0.0611119,
        0.0130052,
        260.687,
        1273.23,
        3185.08,
        3482,
        -1916.97,
        -6923.27,
        -5040.35,
        3885.87,
        -947.316,
        -1289.81,
        -2416.85,
        -1926.4,
        1665.19,
        1374.36,
        2989.11,
        -537.442,
        1038.29,
        -1370.55,
        -813.702,
        -871.678,
        -634.377,
        457.455,
        501.965,
        -34.1068,
        -77.9269,
        0.0468723,
        0.0963965,
        0.0295648,
        -0.0624494,
        52.9717,
        1225.93,
        2225.27,
        1557.61,
        624.848,
        -1323.95,
        1101.05,
        -1028.99,
        -3821.49,
        -1680.16,
        -112.12,
        -2719.55,
        -1707.86,
        -269.631,
        -712.642,
        1998.67,
        1116.59,
        -391.57,
        -1641.26,
        -566.532,
        -795.661,
        67.0277,
        0.0649476,
        -0.0196989,
        -0.0629908,
        -0.079494,
        -0.0327959,
        0.0838815,
        112.611,
        736.674,
        1456.32,
        1402.41,
        -229.954,
        -287.75,
        2978.25,
        1303.54,
        -1316.95,
        -3310.81,
        -3223,
        -2285.83,
        -2120.92,
        -3659.54,
        -4669.97,
        223.183,
        3463.31,
        2066.38,
        723.573,
        5.9864,
        -354.052,
        6.10483,
        -0.0943065,
        0.0180203,
        -0.0777618,
        0.070641,
        0.0983213,
        -0.0407526,
        3.39078,
        581.167,
        1749.57,
        2280.67,
        2766.41,
        744.191,
        4204.14,
        3638.68,
        332.069,
        232.702,
        279.425,
        84.2553,
        -827.748,
        -727.73,
        -543.023,
        327.982,
        333.879,
        -708.727,
        -127.251,
        15.2028,
        12.0212,
        1.19318,
        0.0238129,
        -0.0844907,
        0.0374618,
        0.0295064,
        0.0335296,
        0.0597,
        16.5191,
        443.151,
        1249.04,
        1330.96,
        1834.01,
        2582.72,
        -16.9295,
        -1185.15,
        -445.399,
        79.5947,
        -186.88,
        -1568.27,
        -964.316,
        -369.18,
        126.332,
        -458.252,
        -51.9483,
        -1.76889,
        -0.389076,
        0.0191012,
        -0.00379282,
        -0.0423354,
        -0.0580608,
        0.0416626,
        0.0120214,
        0.0657521,
        0.0571719,
        -0.0505168,
        -0.00474152,
        -0.00929845,
        -111.923,
        -138.438,
        -40.227,
        -18.4508,
        -0.0132997,
        -0.0166689,
        1.06276,
        6.58169,
        14.0044,
        3.97046,
        116.169,
        174.452,
        43.7286,
        -545.881,
        -268.726,
        -0.0977701,
        0.0308809,
        0.00649178,
        -0.0787353,
        -0.0152637,
        -0.074407,
        0.0174719,
        0.0424009,
        -27.2749,
        -0.0408655,
        -0.0455777,
        -0.0667157,
        -0.0836936,
        0.00390555,
        0.0285428,
        0.00700798,
        0.0130888,
        0.0239487,
        0.0295605,
        0.0412195,
        -0.089351,
        0.0494894,
        -0.0685735,
        0.0966934,
        -0.0709111,
        -0.0517292,
        -0.0354576,
        -0.030008,
        0.0338792,
        0.0903154,
        -0.0656997,
        0.0361091,
        0.0211963,
        0.0407921,
        0.0573738,
        -0.0940674,
        0.0663851,
        -0.0251543,
        0.0483335,
        -0.0660827,
        0.0339802,
        -0.0972442,
        -0.0327984,
        0.0502866,
        0.00666138,
        0.0957443,
        -0.0427054,
        -0.0802498,
        0.019693,
        0.0868551,
        403.949,
        979.388,
        19.84,
        -137.585,
        69.7117,
        62.0737,
        5.44531,
        3.77965,
        -0.583668,
        0.0745461,
        0.0818932,
        -0.0302743,
        0.0106552,
        0.00308951,
        -0.0894822,
        -0.0319709,
        0.00902209,
        0.0769029,
        0.0428748,
        -0.0426444,
        -0.0891798,
        -0.0231451,
        -0.0398886,
        -0.0219782,
        -0.0728585,
        13.6174,
        224.38,
        1736.45,
        2690.82,
        3336.01,
        656.631,
        -45.453,
        230.611,
        -947.54,
        -741.698,
        35.6478,
        16.0698,
        8.93403,
        -5.7883,
        -2.0784,
        0.0551018,
        -0.0756926,
        -0.02178,
        -0.0342429,
        0.027397,
        -0.0112622,
        0.0337861,
        -0.063581,
        -0.0343593,
        2.42812,
        25.9356,
        -61.8842,
        -417.154,
        220.679,
        1272.03,
        1766.55,
        4051.96,
        5231.43,
        2977.59,
        -475.004,
        -1002.29,
        -677.872,
        887.523,
        2028.48,
        2341.69,
        50.1311,
        -2.76171,
        0.966923,
        0.0751188,
        -0.0612403,
        0.0255834,
        0.0302206,
        -0.0369329,
        -0.0961966,
        0.0959777,
        6.77484,
        225.884,
        293.692,
        -538.114,
        -1873.73,
        -1353.7,
        -691.336,
        -785.521,
        -121.104,
        2549.88,
        7229.14,
        6052.88,
        -1078.65,
        -8548.04,
        -3397.25,
        1179.49,
        1150.21,
        1959.58,
        -1025.91,
        -1465.4,
        -350.355,
        8.08037,
        0.0809365,
        -0.0968148,
        0.0267408,
        -0.0803038,
        0.0287687,
        -81.5269,
        -41.5419,
        1277.5,
        2169.4,
        -610.581,
        -1008.89,
        -1162.98,
        833.467,
        5799.81,
        7.55953,
        21.603,
        232.08,
        -3151.97,
        849.802,
        2021.56,
        -583.547,
        -4951.81,
        238.225,
        2433.79,
        -80.2042,
        -1409.25,
        311.782,
        340.125,
        67.1676,
        0.0235292,
        0.00158,
        -0.0709524,
        0.0267145,
        -882.138,
        -334.05,
        1350.3,
        -1886.92,
        -848.515,
        -3656.73,
        -2712.96,
        5090.26,
        -3067.54,
        309.549,
        -1232.83,
        -1276.14,
        -2687.86,
        1267.29,
        4543.48,
        20.0604,
        -3672.05,
        -2528.55,
        -2982.6,
        -1189.6,
        -1845.16,
        371.794,
        588.3,
        95.9846,
        -96.8379,
        -0.0457023,
        0.0575341,
        -0.0948943,
        -2033,
        -2530.66,
        -1714.72,
        -1029.32,
        -1066.5,
        -255.287,
        1272.73,
        -3560.46,
        -7080.47,
        1396.09,
        -952.045,
        742.095,
        8187.4,
        10063,
        8183.57,
        -3844.25,
        -444.305,
        -991.825,
        -3382.6,
        248.268,
        -1228.36,
        1653.56,
        1841.39,
        116.015,
        -77.5335,
        -0.0612684,
        0.0761839,
        0.0723037,
        -2912.42,
        -1238.61,
        225.462,
        -2751.19,
        1332.49,
        4419.22,
        6206.23,
        40.0652,
        -1168.81,
        6909.42,
        4595.37,
        7390.22,
        3759.52,
        -2184.54,
        -2553.04,
        -918.132,
        274.666,
        -1240.22,
        -1591.41,
        372.465,
        697.221,
        2364.89,
        2623.86,
        -25.8171,
        -0.0780258,
        0.0298069,
        -101.569,
        50.7559,
        -2724.85,
        -2804.38,
        -832.185,
        -255.316,
        -346.189,
        5645.44,
        2751.6,
        7934.8,
        11223.5,
        1084.04,
        2266.46,
        3038.43,
        2728.08,
        -10586.1,
        -5570.82,
        6217.6,
        2129.88,
        -1054.38,
        -855.207,
        -2895.24,
        659.949,
        2531.12,
        1744.55,
        -6.37418,
        -0.0516493,
        -0.0269545,
        -11.6669,
        24.036,
        -2711.24,
        -1058.67,
        305.335,
        1454.3,
        4033.31,
        2534.19,
        -2927.29,
        3051.83,
        4205.21,
        697.522,
        765.397,
        -5286.98,
        -3.50778,
        -7438.69,
        -675.85,
        -255.27,
        1737.72,
        1758.67,
        -2107.84,
        -5309.9,
        -3733.41,
        -366.502,
        0.235361,
        -0.0553336,
        0.0579623,
        -0.0211977,
        -0.0525885,
        -2.52809,
        -661.379,
        1203.98,
        1672.44,
        4516.31,
        1977.51,
        -2017.87,
        1099.15,
        1410.06,
        5627.22,
        452.178,
        -2362.62,
        -4764.5,
        -663.229,
        -5771.27,
        -684.955,
        -6543.43,
        -1382.6,
        2122.71,
        -4090.92,
        -5770.11,
        -5714.73,
        -1301.95,
        -14.1524,
        -97.7672,
        -0.00268929,
        0.0109668,
        0.00836757,
        -32.2459,
        369.47,
        273.175,
        -1735.28,
        -1143.25,
        -4259.32,
        -4706.75,
        -5866.41,
        -7170.76,
        -2424.73,
        -110.665,
        -7451.49,
        -1881.73,
        2589.83,
        718.945,
        72.4177,
        5003.05,
        3824.69,
        -895.045,
        -3874.65,
        -5629.95,
        -4537.05,
        -1488.96,
        -5.9907,
        -77.9693,
        -0.0915798,
        0.0796823,
        -0.0330598,
        -173.068,
        606.235,
        192.574,
        -4232.5,
        -7224.51,
        -5863.4,
        3771.74,
        604.197,
        -7931.46,
        -4130.86,
        -54.4073,
        -1351.83,
        -50.2884,
        4069.06,
        5702.56,
        -4274.06,
        1134.16,
        2512.19,
        -2986.16,
        -2227.03,
        -4860.4,
        -2719.28,
        -1985.29,
        121.735,
        -9.02913,
        -0.0242958,
        -0.0140699,
        -0.0982863,
        0.279139,
        737.611,
        -123.218,
        -6981.84,
        -11764.2,
        -5431.02,
        1381.79,
        3816.4,
        -6123.22,
        -2252.37,
        3986.74,
        -2171.04,
        -1164.1,
        4736.13,
        2221.5,
        -4182.28,
        168.618,
        -421.027,
        -6747.79,
        -7316.09,
        -3769.2,
        -3387.15,
        -1193.77,
        593.742,
        172.94,
        0.0257925,
        -0.074509,
        0.0436617,
        -0.0985033,
        443.582,
        -73.1959,
        -5134.57,
        -9909.55,
        -4191.47,
        -6789.03,
        -617.284,
        5574.01,
        7893.67,
        -1172.51,
        -8599.23,
        -3827.75,
        -3427.5,
        -5134.31,
        -2702.14,
        -2829,
        -7238.98,
        -6757.3,
        -5480.7,
        -2270.25,
        -876.78,
        1788.56,
        4344.37,
        3031.95,
        -0.0901768,
        -0.0407911,
        0.00676882,
        2.27469,
        61.2772,
        2133.48,
        -1626.75,
        -8378.91,
        -9658.84,
        -8599.31,
        3588.51,
        5617.78,
        3491.15,
        488.09,
        -2364.25,
        -1118.03,
        1286.44,
        -4596.19,
        1768.22,
        -646.308,
        -5259.92,
        -1229.25,
        -692.319,
        -75.8334,
        782.725,
        2909.22,
        2969.37,
        1476.99,
        0.0980722,
        0.0567302,
        0.0391958,
        26.9494,
        258.925,
        792.904,
        453.099,
        -3869.59,
        -10095,
        -6816.92,
        833.821,
        -2551.03,
        5014.47,
        -2945.2,
        -1842.6,
        1977.73,
        4637.42,
        -1414.18,
        1899.22,
        -4652.09,
        -8258.59,
        -426.737,
        2303.44,
        1246.12,
        45.8621,
        976.067,
        683.351,
        0.0942209,
        0.00321696,
        -0.0160056,
        -0.0161163,
        74.0401,
        454.593,
        -399.242,
        1945.13,
        3949.28,
        1019.26,
        -3184,
        672.755,
        -1499.97,
        -87.8654,
        9568.66,
        3539.72,
        -2070,
        3038.96,
        4085.48,
        4583.05,
        -3136.37,
        23.8938,
        2188.78,
        3488.52,
        -295.339,
        2455.52,
        2208.58,
        761.566,
        0.0236286,
        0.0797976,
        -0.0523921,
        0.0178495,
        203.586,
        854.06,
        -825.953,
        1061.7,
        9135.99,
        5322.75,
        2673.08,
        922.464,
        -2282.76,
        2612.79,
        2539.19,
        -1512.14,
        272.606,
        260.342,
        1060.29,
        -1628.47,
        627.945,
        712.2,
        2393.17,
        3259.99,
        611.306,
        1879.22,
        1139.89,
        125.518,
        0.0335844,
        0.0288317,
        -0.022996,
        -0.042787,
        504.969,
        486.779,
        103.144,
        1655.4,
        7075.92,
        5253.82,
        49.8024,
        2994.14,
        9004.99,
        6962.48,
        2175.76,
        4348.16,
        -3129.3,
        -37.1023,
        -2601.38,
        -1604.17,
        -3440.39,
        4815.71,
        1220.38,
        2.78652,
        2244.91,
        2623.62,
        1521.43,
        320.093,
        -64.9275,
        0.0309895,
        0.0608844,
        -0.0819078,
        -168.171,
        -237.009,
        -253.023,
        2688.79,
        5227.49,
        2413.23,
        -1517.99,
        -3794.7,
        2949.51,
        2632.68,
        2590.92,
        2557.43,
        -2636.8,
        2179.38,
        -5061.07,
        1963.82,
        1156.54,
        5034.33,
        246.399,
        -1774.14,
        2159.91,
        2781.71,
        2204.03,
        172.578,
        -700.709,
        0.0944929,
        -0.046532,
        0.0777578,
        -233.193,
        -863.69,
        -3123.37,
        -3459.97,
        -2193.89,
        372.48,
        1754.13,
        -3188.13,
        -3794.37,
        1275.84,
        647.75,
        2794.31,
        -3471.24,
        -10870.7,
        -3244.53,
        -1561.6,
        386.827,
        1418.23,
        -1225.9,
        -524.015,
        1812.39,
        1048.32,
        80.5897,
        -27.9169,
        -63.9903,
        -0.0517904,
        -0.069609,
        -0.0865386,
        -0.0572975,
        21.2035,
        -1792.68,
        -4037.8,
        -4632.11,
        -2586.56,
        962.232,
        -3.23123,
        -1379.95,
        -3182.61,
        -4819.73,
        -1743.82,
        -1073.32,
        -3965.09,
        -2651.03,
        -5629.61,
        -1064.62,
        -2495.34,
        1643.8,
        3236.26,
        3039.66,
        2709.33,
        93.3105,
        0.0882786,
        0.0955065,
        0.0658747,
        0.019665,
        0.015718,
        -0.0859157,
        -58.06,
        -1289.5,
        -1981.96,
        -2429.17,
        -1409.54,
        699.104,
        -1646.46,
        -851.858,
        -1331.66,
        -1129.18,
        1370.84,
        -2212.61,
        5002.09,
        7472.08,
        1135.29,
        3424.07,
        2178.74,
        4757.45,
        5736.27,
        1229.15,
        1197.61,
        86.7726,
        0.0873523,
        0.00694795,
        0.0896143,
        0.075631,
        0.00245451,
        0.055489,
        0.109315,
        -659.778,
        -252.807,
        -497.483,
        1697.55,
        751.233,
        -4841.43,
        -2414.34,
        -3333.15,
        -2458.09,
        3200.34,
        2018.2,
        6647.33,
        6840.73,
        6430.08,
        1400.18,
        -171.444,
        3847.11,
        881.684,
        382.363,
        184.849,
        63.4509,
        0.0399897,
        0.00419781,
        0.00459285,
        0.027342,
        -0.0888542,
        -0.00579289,
        151.546,
        1102.21,
        1029.78,
        2184.52,
        1132.22,
        -1129.28,
        -1682.4,
        6.92951,
        16.7183,
        -699.056,
        -1500.57,
        2396.16,
        598.456,
        2606.65,
        2607.5,
        1499.33,
        -521.595,
        54.2987,
        14.3338,
        0.049355,
        -0.035459,
        0.0581645,
        0.009579,
        -0.0353905,
        -0.0278859,
        -0.0504313,
        0.0688073,
        0.076707,
        0.0769106,
        0.0799531,
        -225.118,
        -918.449,
        -1029.13,
        -188.526,
        -0.0218475,
        -2.09113,
        -34.0719,
        -47.5828,
        -48.431,
        -28.7842,
        -686.699,
        -1212.81,
        -471.725,
        1998.3,
        989.549,
        -0.0907748,
        -0.0928044,
        -0.0635752,
        -0.0485247,
        0.0771935,
        0.0857798,
        0.0160163,
        0.035358,
        23.6957,
        0.0806258,
        -0.0925278,
        0.0449274,
        0.0494332,
        0.0841791,
        0.0218381,
        0.0293863,
        -0.0449068,
        -0.0982783,
        -0.0770604,
        0.0757035,
        -0.0201258,
        -0.0517342,
        0.0155831,
        -0.0983524,
        0.0527167,
        0.00109242,
        -0.0536913,
        -0.0959569,
        0.0835634,
        -0.074749,
        0.0774633,
        0.0927886,
        -0.0675533,
        -0.0861119,
        -0.055736,
        -0.0903598,
        0.0996679,
        0.0602803,
        0.0449983,
        -0.00497336,
        0.0409061,
        0.0524704,
        -0.0600459,
        -0.0096607,
        0.0366496,
        0.0617922,
        -0.0802744,
        0.0917428,
        0.0635139,
        -0.0573348,
        706.159,
        1780.13,
        531.596,
        230.853,
        69.7836,
        7.01927,
        37.538,
        74.4104,
        13.0549,
        0.0676852,
        0.0165954,
        -0.0748459,
        0.0604739,
        0.0490421,
        -0.0609578,
        -0.0952622,
        0.0586824,
        -0.0612899,
        0.0650181,
        0.00368062,
        0.0337368,
        0.00592425,
        -0.043849,
        0.0736908,
        0.0962636,
        0.94291,
        -163.683,
        -212.391,
        1324.33,
        3409.25,
        2255.06,
        2503.71,
        4238.01,
        3196.42,
        1296.69,
        172.944,
        70.2327,
        45.2118,
        6.31615,
        2.66902,
        0.0868261,
        0.0953604,
        -0.033922,
        0.0472999,
        0.0444026,
        0.0051202,
        0.0520378,
        0.00308494,
        0.0438303,
        23.8913,
        -14.7202,
        -1118.16,
        -1912.33,
        -1089.04,
        -1715.82,
        -978.439,
        1758.73,
        5145.57,
        6197.78,
        3282.07,
        1477.39,
        836.631,
        1833.61,
        3501.53,
        1372.48,
        46.4447,
        5.5983,
        -0.0329328,
        -0.0535897,
        -0.00569161,
        -0.0223707,
        -0.0667637,
        -0.0103312,
        0.0437072,
        0.0805363,
        -3.10781,
        112.57,
        165.996,
        1723.36,
        5084.48,
        1561.49,
        -1168.83,
        -1740.73,
        5930.39,
        5529.44,
        5606.68,
        7691.43,
        5869.71,
        6794.18,
        1148.47,
        -7491.78,
        -10678.1,
        -7620.88,
        -5994.55,
        351.359,
        1848.52,
        -31.9838,
        -0.0623724,
        0.00115158,
        0.0687464,
        0.031936,
        0.0787808,
        -41.3549,
        204.464,
        601.892,
        717.527,
        -88.4052,
        120.518,
        190.234,
        -7067.85,
        5225.37,
        5147.97,
        -925.418,
        -7141.06,
        -1757.88,
        -3930.36,
        7383.68,
        -18539.6,
        -11932.4,
        -8281.77,
        -13126.3,
        -7859.21,
        -1410.31,
        -2871.84,
        -838.674,
        22.7055,
        0.0416934,
        0.0263682,
        0.0175778,
        -0.057155,
        -444.837,
        -279.62,
        -1461.87,
        -6909.65,
        -5284.02,
        -1118.38,
        -2773.02,
        8053.02,
        -11477,
        -1587.42,
        6395.68,
        1692.05,
        -3951.23,
        160.351,
        11296.1,
        -9032.58,
        -25275.2,
        -22728.9,
        -19320.4,
        -21315.6,
        -12412,
        -6428.26,
        -1487.54,
        12.5701,
        -61.9731,
        0.0191216,
        -0.0289982,
        -0.0988334,
        -2781.26,
        -1703.95,
        -3633.82,
        -10282.8,
        -6730.01,
        -2654.77,
        3280.29,
        -4442.68,
        -13032.2,
        -7312.05,
        1552.27,
        15481.6,
        22926.5,
        22653.5,
        11847.2,
        -5937.7,
        -6986.74,
        -21683.6,
        -7615.03,
        -13476.9,
        -15803,
        -4095.59,
        -1570.08,
        -477.913,
        -35.9654,
        0.033206,
        0.0117027,
        -0.0641232,
        -3203.42,
        -3962.25,
        -2730.78,
        -4181.13,
        -1850.47,
        1863.9,
        10071.1,
        2141.87,
        -3094.84,
        11340.3,
        45.042,
        11974.7,
        5756.01,
        -5569.57,
        -6615.69,
        1408.33,
        6882.59,
        -12871.9,
        -13391.9,
        -17712.6,
        -12873.6,
        -1508.08,
        -3617.06,
        -121.954,
        -0.0606681,
        0.0523563,
        595.719,
        270.494,
        -3531.8,
        -7210.8,
        -5742.32,
        -3677.58,
        -1618.25,
        -2760.71,
        -4488.14,
        16444,
        24706.1,
        17333.1,
        1172.13,
        17665.7,
        19076.3,
        3051.21,
        -10218.7,
        15238.7,
        7970.69,
        -5475.09,
        -19023,
        -18450,
        -6209.61,
        -3443.93,
        -3153.21,
        -1.94387,
        -0.0287533,
        -0.0725191,
        68.6723,
        79.141,
        -4428.92,
        -4317.33,
        -2481.87,
        3113.12,
        9252.94,
        1936.54,
        -12885.4,
        9854.35,
        26177.5,
        7238.37,
        -3371.85,
        -4360.19,
        -2787.68,
        -14292.6,
        287.618,
        4665.27,
        14768.1,
        2415.18,
        -4883.75,
        -8481.84,
        -1893.77,
        2762.51,
        -389.488,
        -0.654278,
        -0.0176704,
        0.0774963,
        -0.0342381,
        56.785,
        153.382,
        2671.25,
        3520.25,
        11489.1,
        13532.3,
        7096.99,
        -3368.8,
        12454,
        19914.1,
        -3680.58,
        -1007.89,
        1213.66,
        -1979.35,
        -3516.07,
        10683,
        5565.5,
        6456.48,
        21412.4,
        4320.71,
        370.734,
        3621.86,
        6101.41,
        -417.556,
        -938.104,
        0.032316,
        0.0614337,
        -0.0497843,
        28.6875,
        1920.85,
        2212.77,
        272.965,
        11079.9,
        18500.5,
        12963,
        -9418.63,
        -13530.5,
        -3464.76,
        -165.854,
        -5929.69,
        -2760.81,
        -2138.52,
        -992.828,
        5839.89,
        13577.5,
        4186.14,
        8481.49,
        5074.21,
        4967.32,
        7480.14,
        5100.75,
        -206.986,
        -747.763,
        -0.0243512,
        -0.0795285,
        -0.0995092,
        -217.216,
        1419.44,
        1086.78,
        215.591,
        3524.63,
        678.039,
        3616.17,
        6049.26,
        -12993.7,
        -29354.9,
        -11627.3,
        -1327.96,
        -1760.67,
        10441.2,
        10339.9,
        -13619,
        -5088.54,
        141.282,
        4008.38,
        2141.67,
        6452.7,
        7812.4,
        2721.57,
        372.873,
        -86.4723,
        -0.0400889,
        -0.0537995,
        -0.0465685,
        3.00069,
        1694.08,
        345.502,
        335.101,
        -7765.94,
        -8522.03,
        -3882.03,
        5649.3,
        -15284.3,
        -18201.7,
        -11861,
        6698.91,
        2088.18,
        14602.1,
        8577.74,
        -2040.09,
        -8329.79,
        -10076.4,
        -6111.35,
        -5434.93,
        3768.95,
        5825.38,
        3851.54,
        524.048,
        24.7463,
        0.0949728,
        0.0474994,
        0.0705154,
        -0.0451161,
        1125.69,
        785.319,
        -710.86,
        -5060.26,
        -2776.62,
        -17555.5,
        2982.49,
        6237.85,
        -7945.11,
        -1781.23,
        -10948.7,
        -3272.9,
        -8378.17,
        9670.48,
        15338.4,
        -2758.65,
        -22973,
        -13119.6,
        -8697.23,
        -2088.08,
        5346.42,
        3137.38,
        1160.39,
        693.786,
        -0.0203614,
        -0.0455792,
        0.0421028,
        2.57127,
        89.3466,
        -2989.8,
        -1923.79,
        -2307.63,
        -4831.43,
        -15775.6,
        -1592.32,
        4149.64,
        6637.98,
        9275.83,
        3175.84,
        3812.57,
        -5884.34,
        3075.54,
        711.242,
        -587.715,
        -20132.8,
        -14339.9,
        -15999.5,
        -12117.3,
        -4185.5,
        -872.662,
        517.186,
        211.336,
        0.0811106,
        -0.0169112,
        -0.00713226,
        18.0631,
        56.1351,
        -3942.44,
        -5043.73,
        -2750.87,
        -3857.95,
        -6536.15,
        5921.2,
        7591.09,
        5052.45,
        9747.31,
        11995.3,
        8549.92,
        -3586.35,
        -4478.06,
        -12686.3,
        -12697,
        -10268.8,
        -6241.07,
        -19264.7,
        -11315.5,
        -2424.59,
        1007.93,
        680.462,
        0.0639354,
        -0.0128413,
        0.0652359,
        -0.0972485,
        55.4274,
        -354.456,
        -3392.85,
        -3437.73,
        -2084.36,
        -3090.67,
        -3823.52,
        -3218.26,
        5956.65,
        -4994.83,
        9145.44,
        7271.98,
        1738.73,
        3074.68,
        -8324.65,
        -4244.21,
        -7653.14,
        10902.7,
        2399.95,
        -13757.1,
        -9803.14,
        3173.4,
        4430.63,
        828.405,
        -0.0986294,
        -0.0872178,
        0.00216402,
        0.065306,
        -58.5863,
        -1557.01,
        -4755.14,
        700.256,
        1679.77,
        -8528.03,
        -2589.8,
        741.432,
        5423.25,
        -1483.48,
        -14365.7,
        -8753.6,
        3763.72,
        -7395.28,
        -2852.82,
        -6097.3,
        1028.06,
        10204.9,
        -76.9301,
        -11599.7,
        -6660.55,
        2041.5,
        2611.64,
        143.695,
        -0.0477021,
        0.0141828,
        0.0650326,
        -0.0463315,
        -256.318,
        -1853.04,
        -1818.39,
        2062.06,
        -955.686,
        -8535.13,
        -6260.88,
        8950.67,
        12061.4,
        2439.68,
        9247.56,
        -3700.69,
        -14255.2,
        -2664.19,
        -16746.8,
        -6186.3,
        -6120.27,
        -1045.47,
        -7175.05,
        -1670.27,
        2324.85,
        1322.88,
        -47.1185,
        -1003.79,
        -622.564,
        0.00261975,
        -0.0451212,
        -0.037372,
        -1062.45,
        -1677.31,
        -1300.65,
        4908.45,
        9514.4,
        4886.08,
        -8499.21,
        -917.316,
        8097.02,
        4264.15,
        10170.9,
        -1500.66,
        -11065.3,
        -8106.3,
        -20358.6,
        -8431.71,
        -12735,
        1716.31,
        2653.49,
        -2289.47,
        1144.45,
        170.793,
        -224.185,
        -909.042,
        -2723.25,
        -0.0770558,
        -0.0644637,
        0.0241596,
        -360.673,
        -1905.91,
        -4130.29,
        -4716.1,
        3061.98,
        10463.4,
        13415.6,
        -7362.37,
        -10921.7,
        -407.975,
        -7910.48,
        5764.93,
        -7736.94,
        -19251.5,
        -712.772,
        4547.65,
        -16194.5,
        6218.48,
        2629.11,
        -320.954,
        -1804.91,
        -97.2911,
        202.727,
        -267.935,
        -613.872,
        -0.0410935,
        0.010175,
        0.0700861,
        -0.0181493,
        -103.138,
        -4101.76,
        -6419.45,
        -8371.15,
        -10446,
        -12089.3,
        -1341.86,
        -4428.61,
        -12126.9,
        -18503.1,
        -6983.09,
        2555.12,
        -14257.7,
        -1411.5,
        -6132.78,
        -6731.43,
        1273.14,
        8429.98,
        6237,
        2117.58,
        99.8581,
        109.17,
        0.0555273,
        -0.0614255,
        -0.0269332,
        0.0302004,
        -0.00516891,
        0.0319733,
        -130.537,
        -5512.07,
        -3428.94,
        -402.618,
        -5804.03,
        -10623,
        -7898.61,
        -2425.81,
        -9300.59,
        -11162.7,
        -5879.54,
        1371.75,
        9330.57,
        17685.8,
        1645.49,
        -25.9819,
        147.183,
        6525.67,
        7520.68,
        2231.95,
        32.2729,
        65.4725,
        -0.0848196,
        0.0999018,
        0.0859741,
        0.0707077,
        -0.0615236,
        -0.0409591,
        -7.52286,
        -2251.1,
        -906.607,
        -1280.48,
        240.543,
        -5730.05,
        -10673.1,
        2.59082,
        -2343.59,
        3327.88,
        24851,
        19009.3,
        17356.4,
        15561.4,
        5033.49,
        1763.04,
        -160.815,
        8734.55,
        1931.98,
        691.21,
        137.631,
        38.7621,
        -0.0546784,
        0.0296993,
        0.0351896,
        -0.0394981,
        0.0296011,
        0.0211637,
        383.077,
        2077.46,
        616.181,
        2297.09,
        -909.372,
        -1118.83,
        4417.56,
        3744.68,
        1576.08,
        -362.545,
        2662.38,
        11582.4,
        4630.65,
        5440.79,
        4012.1,
        4935.74,
        -562.485,
        32.4704,
        8.54538,
        0.0451622,
        0.00695371,
        -0.0942073,
        -0.0562362,
        -0.0743774,
        -0.0580514,
        -0.0109146,
        0.0553219,
        0.0771381,
        0.0495874,
        -0.015077,
        -575.695,
        -2470.13,
        -2830.67,
        -553.327,
        0.0129148,
        -1.05875,
        -18.8809,
        -19.7413,
        -11.176,
        66.8272,
        -2112.8,
        -3737.14,
        -1398.14,
        6644.61,
        3278.54,
        -0.0728524,
        -0.0939516,
        -0.0579485,
        -0.0695891,
        0.0054572,
        0.0872136,
        0.0373646,
        0.0112499,
        -48.6314,
        0.0629872,
        0.0531985,
        0.0200629,
        0.0183091,
        0.0303366,
        -0.0303498,
        -0.0967679,
        -0.0713615,
        -0.0495528,
        -0.0437673,
        0.00714494,
        0.063362,
        -0.0893818,
        0.0568703,
        0.0496782,
        -0.0353866,
        0.0826527,
        0.036766,
        0.0756058,
        -0.0894307,
        -0.0257907,
        0.041179,
        -0.0622831,
        -0.0197423,
        0.0832305,
        -0.0318723,
        0.0857149,
        0.0704441,
        -0.0945077,
        -0.00303518,
        -0.0985784,
        0.0684795,
        -0.0498367,
        0.0214845,
        -0.0132114,
        0.0804999,
        0.0911347,
        -0.00997928,
        -0.0908616,
        -0.058418,
        0.0462534,
        747.882,
        1963.66,
        875.824,
        494.617,
        210.375,
        51.1834,
        9.06272,
        17.5193,
        3.09278,
        -0.0336244,
        0.0655975,
        0.0382699,
        0.00409244,
        -0.0541448,
        0.0215003,
        0.0722202,
        -0.0684299,
        -0.00805556,
        0.0777125,
        0.0285349,
        -0.00663397,
        0.046192,
        0.0786982,
        -0.0851495,
        -0.0670194,
        11.6214,
        -394.249,
        -4518.94,
        -3846.56,
        -2083.64,
        1772.12,
        4816.16,
        5186.13,
        5187.37,
        2409.57,
        126.549,
        35.8106,
        25.2093,
        11.9184,
        5.26389,
        -0.0200446,
        -0.035881,
        0.0829722,
        0.0840478,
        0.00997417,
        0.00447258,
        0.056268,
        0.0415442,
