{
    "NInput": 784,
    "NHidden": 15,
    "NOutput": 10,
    "NHiddenLayers": 1,
    "Weights": [
        -0.506082,
        -0.651392,
        0.777878,
        -0.407841,
        0.745864,
        0.132227,
        -0.999449,
        0.0390666,
        0.115524,
        0.621818,
        0.117479,
        0.432215,
        -0.937229,
        0.0325994,
        -0.222453,
        0.549971,
        -0.0582955,
        0.127305,
        -0.973824,
        -0.226014,
        0.300962,
        -0.642013,
        -0.0599198,
        -0.846733,
        -0.641659,
        -0.322604,
        -0.954981,
        0.536124,
        0.523836,
        -0.572625,
        -0.481074,
        -0.982246,
        -0.224016,
        -0.703195,
        -0.390087,
        -0.478152,
        0.429031,
        -0.389536,
        0.560914,
        -0.455445,
        -0.767718,
        -0.321607,
        0.97677,
        -0.704948,
        0.710993,
        -0.245683,
        0.845023,
        -0.347303,
        0.881622,
        0.871199,
        0.426683,
        0.182584,
        -0.770814,
        -0.633236,
        0.335851,
        -0.412473,
        0.0441597,
        0.38087,
        -0.876348,
        -0.432005,
        0.808245,
        -0.357422,
        -0.414251,
        -0.415772,
        -0.0606172,
        0.195662,
        0.106076,
        -0.631586,
        0.806126,
        -0.33301,
        -0.0870311,
        -0.961593,
        0.345383,
        -0.110261,
        -0.66654,
        0.0563762,
        0.644056,
        -0.821517,
        0.709074,
        0.525678,
        -0.950318,
        0.135757,
        -0.291739,
        -0.721131,
        0.502521,
        -0.955888,
        -0.133604,
        -0.45332,
        0.424982,
        -0.00995225,
        0.114676,
        0.233226,
        0.632626,
        0.700425,
        0.817455,
        -0.427991,
        -0.103913,
        -0.0764695,
        -0.0595772,
        -0.297788,
        0.59052,
        0.853392,
        -0.259381,
        -0.0640963,
        -0.25687,
        0.0740792,
        0.99228,
        -0.612814,
        0.252562,
        0.701354,
        0.912864,
        0.302245,
        -0.162889,
        -0.378874,
        0.581113,
        -0.660369,
        -0.334762,
        -0.552491,
        -0.113689,
        -0.90978,
        0.437557,
        -0.999013,
        0.323446,
        0.0701828,
        0.701411,
        0.140901,
        0.642192,
        -0.402502,
        -0.935569,
        -0.417386,
        0.29971,
        0.654951,
        -0.563994,
        -0.959671,
        -0.409145,
        0.179137,
        0.114408,
        -0.416865,
        0.566323,
        -0.633029,
        -0.715511,
        0.479187,
        0.669216,
        0.121599,
        -0.899688,
        0.250329,
        0.461231,
        -0.23445,
        0.697838,
        -0.652458,
        -0.14423,
        0.135395,
        -0.651471,
        -0.820784,
        -0.794422,
        -0.95006,
        0.320116,
        0.847769,
        -0.352562,
        0.384547,
        -0.569616,
        0.947148,
        0.0394989,
        -0.13361,
        0.987477,
        0.630354,
        -0.954474,
        0.101886,
        -0.786511,
        0.611849,
        0.468856,
        -0.502022,
        0.0910361,
        0.138072,
        0.619578,
        0.191349,
        -0.611599,
        0.0808082,
        0.956899,
        -0.913761,
        0.42835,
        -0.187332,
        0.221634,
        0.776879,
        -0.00811589,
        0.427212,
        0.826819,
        -0.688,
        0.274981,
        -0.525743,
        0.696548,
        0.705365,
        -0.578595,
        -0.263953,
        -0.428246,
        -0.591118,
        -0.633599,
        -0.382719,
        0.510767,
        -0.42011,
        -0.77087,
        -0.0203764,
        0.0778687,
        0.320166,
        -0.882305,
        -0.302554,
        -0.488485,
        -0.493904,
        0.778255,
        -0.531587,
        -0.407665,
        0.206605,
        0.281082,
        0.813969,
        -0.0165167,
        -0.727034,
        0.24118,
        -0.189698,
        -0.415034,
        -0.483839,
        0.284559,
        -0.718486,
        -0.778474,
        0.705963,
        0.0175612,
        -0.20672,
        -0.885155,
        0.383962,
        0.410561,
        0.625612,
        0.963853,
        0.639691,
        -0.394764,
        0.0417213,
        -0.0401428,
        -0.277069,
        0.739168,
        0.471372,
        0.229028,
        0.517422,
        0.939785,
        0.821363,
        -0.275973,
        0.220867,
        0.635332,
        0.70751,
        0.493833,
        -0.123488,
        -0.482188,
        -0.9212,
        0.392673,
        0.802371,
        -0.639686,
        0.614199,
        0.508335,
        0.377875,
        -0.592521,
        0.62318,
        -0.238163,
        0.81804,
        0.248792,
        -0.27431,
        0.45773,
        0.854028,
        0.767412,
        -0.582412,
        -0.42304,
        0.506579,
        0.88896,
        0.805987,
        0.0240015,
        0.828745,
        0.62735,
        0.748028,
        0.0496125,
        0.262682,
        0.455539,
        -0.456554,
        -0.860806,
        0.973351,
        -0.377754,
        0.531867,
        0.775722,
        -0.0174404,
        0.146065,
        0.284057,
        -0.639565,
        0.553544,
        -0.0927632,
        0.122272,
        0.371583,
        -0.843971,
        0.847962,
        -0.170686,
        -0.989943,
        0.615374,
        0.246901,
        -0.412983,
        0.121953,
        0.135861,
        -0.606996,
        -0.854045,
        -0.0353939,
        -0.979646,
        0.893983,
        -0.985781,
        0.283036,
        0.349522,
        -0.442336,
        0.42223,
        0.322873,
        0.17991,
        -0.0459037,
        0.0985949,
        -0.83753,
        -0.899839,
        -0.617348,
        -0.477096,
        0.653705,
        0.289889,
        0.645177,
        0.0252883,
        0.445918,
        0.493139,
        0.854602,
        0.455975,
        0.108513,
        0.101503,
        -0.957008,
        -0.769533,
        -0.762636,
        -0.564004,
        -0.623578,
        0.201971,
        -0.543649,
        -0.729595,
        0.216189,
        0.739387,
        0.619927,
        0.773854,
        0.161616,
        -0.0572004,
        -0.0462366,
        -0.884287,
        -0.958606,
        0.116233,
        -0.784126,
        -0.575954,
        0.639137,
        0.869579,
        0.713935,
        0.284314,
        -0.105133,
        0.159852,
        -0.222547,
        -0.250531,
        -0.384173,
        0.885967,
        0.850973,
        -0.341181,
        -0.883567,
        -0.911663,
        0.094815,
        -0.507145,
        0.290308,
        0.551166,
        -0.23674,
        -0.493503,
        0.290552,
        -0.616813,
        -0.71965,
        -0.547832,
        0.325986,
        0.234114,
        -0.432119,
        0.367381,
        -0.649653,
        -0.216245,
        0.791427,
        0.989484,
        -0.346666,
        0.505362,
        0.273798,
        0.548201,
        -0.334786,
        -0.948749,
        -0.702329,
        0.281041,
        0.937218,
        -0.851356,
        0.93986,
        -0.946348,
        -0.763019,
        0.0346752,
        -0.453493,
        0.527288,
        -0.414159,
        0.309767,
        -0.966215,
        0.876393,
        0.692953,
        -0.685864,
        -0.671438,
        0.0189396,
        0.548249,
        -0.103557,
        -0.61368,
        0.898596,
        0.680197,
        -0.822253,
        0.88808,
        -0.666469,
        0.683109,
        0.161878,
        0.881733,
        -0.651677,
        0.21313,
        -0.820596,
        0.629364,
        0.150348,
        -0.671953,
        0.569224,
        0.203999,
        -0.434972,
        -0.3961,
        0.750506,
        -0.907684,
        0.189741,
        0.0602725,
        -0.873898,
        0.0661335,
        -0.246774,
        -0.559763,
        0.394695,
        0.772165,
        0.988487,
        -0.708862,
        -0.841514,
        0.887083,
        0.971335,
        -0.663767,
        0.775163,
        -0.695133,
        -0.980658,
        -0.0629584,
        -0.8134,
        -0.632335,
        -0.849829,
        -0.633997,
        0.99703,
        0.300519,
        -0.30595,
        0.566254,
        -0.495482,
        0.259078,
        -0.829846,
        -0.744976,
        0.351395,
        0.359895,
        0.315297,
        0.477496,
        -0.573972,
        -0.931478,
        0.917734,
        0.820723,
        0.840688,
        0.90622,
        -0.888139,
        0.999174,
        0.793303,
        -0.916804,
        -0.664593,
        0.568467,
        -0.611937,
        -0.645251,
        -0.494492,
        -0.425338,
        -0.277586,
        -0.344321,
        -0.0593346,
        -0.280556,
        0.956198,
        0.634716,
        -0.714301,
        -0.539283,
        -0.106206,
        -0.544147,
        -0.284259,
        -0.754811,
        0.815747,
        -0.968962,
        0.722685,
        -0.758225,
        -0.90044,
        0.640419,
        -0.937501,
        0.940248,
        0.546639,
        -0.825641,
        0.939422,
        0.339943,
        -0.742445,
        -0.725171,
        -0.0915909,
        -0.354382,
        -0.370422,
        0.413917,
        0.22028,
        0.351992,
        -0.930403,
        -0.839054,
        -0.928564,
        -0.974205,
        0.795661,
        -0.642865,
        -0.513488,
        -0.310544,
        -0.187012,
        0.202253,
        -0.0653557,
        -0.371265,
        0.233291,
        -0.342671,
        -0.12949,
        0.332851,
        -0.702252,
        -0.0669914,
        0.273099,
        0.844388,
        0.107368,
        0.212521,
        0.18433,
        0.364923,
        0.48735,
        -0.907261,
        -0.989459,
        -0.883073,
        0.506656,
        0.230821,
        0.46892,
        0.576253,
        0.391767,
        0.540356,
        0.602048,
        0.187428,
        0.897491,
        -0.91144,
        0.876884,
        -0.289522,
        0.290813,
        -0.188472,
        0.339213,
        -0.475896,
        0.468857,
        -0.790277,
        0.856955,
        0.766606,
        0.142732,
        0.130055,
        0.610993,
        -0.7499,
        -0.657424,
        -0.204677,
        0.615023,
        0.829926,
        -0.111938,
        0.625564,
        0.946853,
        -0.605281,
        -0.143615,
        0.415773,
        0.970971,
        -0.751848,
        -0.0438713,
        0.573019,
        0.43558,
        -0.14638,
        0.661579,
        0.312463,
        0.564098,
        -0.0476077,
        -0.876009,
        -0.0966887,
        0.476496,
        0.592849,
        0.113034,
        0.333451,
        0.359454,
        -0.744234,
        -0.536494,
        -0.0295524,
        -0.494134,
        -0.193918,
        0.765771,
        -0.879112,
        -0.363993,
        -0.346167,
        0.746452,
        -0.41714,
        0.0485517,
        -0.397163,
        0.998633,
        0.0195231,
        -0.149011,
        -0.0452385,
        -0.407457,
        -0.713432,
        0.808381,
        -0.745878,
        0.599031,
        0.372479,
        0.206514,
        0.723023,
        -0.72421,
        -0.31699,
        0.315871,
        0.388825,
        -0.983538,
        -0.324674,
        0.644591,
        -0.520032,
        0.645773,
        -0.849543,
        0.286049,
        0.411544,
        -0.728655,
        0.922056,
        -0.934623,
        -0.982203,
        -0.495083,
        0.113929,
        -0.379366,
        -0.496451,
        -0.866548,
        0.471623,
        0.458311,
        -0.274005,
        0.758191,
        0.266692,
        -0.0198836,
        0.357222,
        -0.360829,
        -0.813369,
        0.0802449,
        -0.0850385,
        -0.130359,
        -0.603884,
        -0.696214,
        -0.113897,
        0.0714417,
        0.948377,
        0.36607,
        -0.282785,
        -0.901166,
        -0.347881,
        -0.871241,
        -0.629821,
        -0.425824,
        -0.805864,
        -0.612024,
        0.0790921,
        0.308065,
        0.00861037,
        0.582642,
        0.441517,
        -0.519767,
        0.0409524,
        -0.832489,
        -0.761576,
        -0.692356,
        0.147627,
        0.595647,
        -0.0531843,
        0.334258,
        -0.324109,
        0.861777,
        -0.796101,
        0.0720075,
        -0.834436,
        0.0900017,
        -0.856551,
        -0.886059,
        -0.543928,
        -0.139336,
        -0.787225,
        0.108191,
        -0.0105774,
        -0.417046,
        0.682367,
        0.183558,
        -0.0290701,
        -0.238541,
        -0.508377,
        0.97954,
        -0.655899,
        0.933139,
        -0.540227,
        0.385053,
        -0.89935,
        -0.301803,
        0.692698,
        0.248278,
        -0.706156,
        -0.360487,
        -0.417464,
        -0.0302648,
        -0.49871,
        -0.213565,
        -0.958257,
        -0.333146,
        0.876437,
        -0.814808,
        -0.219205,
        -0.667492,
        0.0458559,
        -0.00643039,
        0.4407,
        -0.964722,
        0.576523,
        0.123066,
        0.218837,
        -0.452547,
        0.884525,
        0.71046,
        -0.473007,
        -0.771374,
        0.643599,
        -0.0132334,
        0.613679,
        0.74425,
        0.684964,
        0.306376,
        -0.00747257,
        0.978808,
        0.94589,
        0.575063,
        -0.051457,
        -0.55282,
        -0.638502,
        -0.00971425,
        0.114034,
        -0.762065,
        0.175478,
        0.894829,
        -0.429557,
        -0.778666,
        -0.111601,
        -0.988857,
        -0.743388,
        -0.535078,
        0.134209,
        0.475449,
        0.0123751,
        0.0187348,
        0.185909,
        0.539369,
        0.247361,
        -0.170492,
        -0.473865,
        -0.13896,
        -0.426243,
        -0.788901,
        -0.832584,
        0.566285,
        -0.810093,
        -0.886694,
        0.141348,
        0.13845,
        -0.439514,
        0.502846,
        -0.871264,
        0.67452,
        0.740781,
        0.304213,
        0.569349,
        -0.688775,
        0.525547,
        -0.542252,
        -0.677633,
        0.782159,
        -0.0773301,
        0.456577,
        0.257608,
        0.935045,
        -0.524688,
        -0.556484,
        0.474414,
        0.722672,
        0.273024,
        -0.999451,
        -0.416288,
        0.846781,
        -0.788352,
        -0.248872,
        0.413066,
        -0.598446,
        -0.135566,
        -0.445586,
        0.540004,
        0.42492,
        -0.942739,
        0.66874,
        0.0994399,
        0.798042,
        -0.0270467,
        -0.331211,
        -0.890734,
        -0.5015,
        0.126537,
        -0.568366,
        -0.719341,
        -0.950793,
        0.888211,
        0.538267,
        0.984252,
        -0.636478,
        0.981783,
        0.458665,
        -0.913805,
        0.254807,
        0.459214,
        -0.330093,
        0.101588,
        0.670862,
        0.421035,
        -0.485346,
        -0.927584,
        -0.714532,
        0.0690686,
        0.612421,
        0.710388,
        0.126329,
        0.28116,
        -0.190172,
        -0.0756289,
        -0.745886,
        0.478617,
        0.0336375,
        -0.247386,
        -0.394846,
        0.465271,
        0.0332729,
        -0.345639,
        0.353482,
        -0.42846,
        -0.361387,
        0.717005,
        -0.446678,
        -0.902721,
        0.803199,
        0.808129,
        0.556493,
        -0.526894,
        -0.0902825,
        0.227355,
        0.894141,
        0.424372,
        0.299771,
        -0.820391,
        -0.50656,
        -0.0878085,
        0.889997,
        0.61977,
        -0.806648,
        -0.300175,
        -0.455859,
        -0.552534,
        -0.821558,
        0.577778,
        0.20008,
        -0.216403,
        0.0430496,
        -0.766647,
        0.437958,
        -0.603468,
        -0.195108,
        -0.923429,
        -0.886464,
        0.358215,
        -0.82615,
        0.916736,
        0.166344,
        0.730343,
        -0.610158,
        -0.923939,
        -0.0423022,
        -0.716018,
        0.500433,
        -0.742531,
        -0.536409,
        0.993874,
        0.16966,
        -0.646412,
        0.613643,
        0.363012,
        0.0534133,
        -0.842216,
        0.810478,
        0.231856,
        0.735562,
        0.0105578,
        -0.984548,
        -0.221388,
        0.24391,
        0.45341,
        0.175143,
        -0.951197,
        0.529981,
        0.28868,
        0.407017,
        0.703831,
        0.205415,
        -0.426639,
        0.434174,
        0.595257,
        -0.350577,
        -0.608128,
        0.879239,
        -0.850144,
        -0.350659,
        -0.65717,
        -0.856271,
        0.819001,
        -0.303582,
        0.757372,
        0.182014,
        0.749832,
        0.915156,
        -0.00750816,
        -0.0183129,
        0.650718,
        -0.99695,
        -0.00286067,
        -0.57067,
        0.24696,
        -0.549451,
        0.604473,
        0.295763,
        0.980531,
        -0.106847,
        -0.29722,
        0.684362,
        -0.901432,
        0.276141,
        0.118537,
        0.693825,
        0.925564,
        0.510409,
        0.573064,
        -0.924581,
        -0.84025,
        0.915894,
        -0.780851,
        0.978751,
        -0.387688,
        0.976521,
        0.160765,
        -0.637856,
        0.891677,
        -0.846743,
        0.343831,
        0.542396,
        -0.843693,
        -0.65903,
        0.971726,
        0.403267,
        -0.20848,
        0.576199,
        -0.30097,
        -0.22795,
        -0.530648,
        0.40181,
        -0.543588,
        -0.43208,
        -0.322049,
        0.574949,
        -0.738255,
        -0.396485,
        0.0853578,
        0.834809,
        -0.321066,
        0.245108,
        0.750703,
        -0.101917,
        0.223859,
        -0.636985,
        -0.125396,
        -0.615376,
        -0.274841,
        -0.233719,
        -0.462119,
        -0.93101,
        -0.691323,
        -0.305812,
        -0.59004,
        -0.719597,
        -0.902545,
        0.20148,
        0.856602,
        -0.203516,
        0.97353,
        -0.674046,
        -0.801706,
        -0.570058,
        -0.106126,
        -0.123756,
        -0.995109,
        0.15562,
        0.479759,
        0.0902491,
        -0.00957149,
        -0.841307,
        -0.664643,
        -0.258869,
        0.0567757,
        0.559216,
        0.104147,
        0.931379,
        0.94384,
        0.829306,
        -0.302339,
        -0.518278,
        0.898295,
        0.00633788,
        0.175909,
        -0.691745,
        0.286741,
        0.273364,
        0.509735,
        0.143343,
        -0.930152,
        0.483265,
        0.469297,
        -0.731858,
        0.913207,
        -0.636828,
        0.144386,
        0.918099,
        0.518791,
        -0.375855,
        0.00834763,
        -0.49078,
        -0.217162,
        0.343705,
        0.250351,
        0.839613,
        -0.0970794,
        -0.645502,
        0.770993,
        -0.153239,
        -0.816197,
        -0.531346,
        0.328483,
        -0.917902,
        0.474992,
        -0.495608,
        -0.609646,
        -0.238267,
        0.777756,
        0.900089,
        0.905076,
        0.847604,
        0.383353,
        0.374373,
        -0.884254,
        0.296561,
        0.737544,
        0.260131,
        0.214659,
        0.256336,
        0.884276,
        -0.776993,
        0.765555,
        -0.332886,
        0.566711,
        0.0159062,
        -0.493272,
        -0.530368,
        0.370404,
        -0.722279,
        0.316393,
        0.554207,
        -0.253626,
        -0.355124,
        0.636306,
        -0.778634,
        0.149268,
        -0.973341,
        -0.0169014,
        -0.0729764,
        0.926748,
        -0.111826,
        -0.225372,
        0.310101,
        -0.737453,
        -0.109627,
        -0.393338,
        -0.999909,
        -0.849495,
        0.821321,
        0.256427,
        -0.965219,
        -0.955672,
        0.0219823,
        -0.298105,
        0.61104,
        -0.962112,
        0.208623,
        -0.919328,
        0.408292,
        0.486344,
        0.397065,
        -0.0375006,
        -0.767282,
        -0.95806,
        -0.401195,
        -0.545916,
        0.191208,
        -0.374536,
        0.437183,
        -0.881768,
        -0.447788,
        -0.674643,
        -0.107141,
        0.862314,
        -0.412096,
        0.783232,
        -0.531024,
        -0.412005,
        0.933737,
        -0.709703,
        0.844422,
        0.968518,
        -0.665374,
        -0.133595,
        -0.329587,
        0.945665,
        -0.0957068,
        0.879036,
        -0.973663,
        -0.687414,
        0.365379,
        0.423402,
        0.275085,
        0.598097,
        0.465342,
        0.87389,
        -0.947819,
        -0.34345,
        -0.500646,
        0.489364,
        -0.225218,
        0.0515664,
        0.81472,
        0.667641,
        -0.0861201,
        -0.597376,
        0.450873,
        0.382856,
        -0.00938052,
        0.38461,
        0.673153,
        -0.164958,
        0.353128,
        -0.992222,
        0.701447,
        -0.976459,
        0.953444,
        -0.39426,
        0.902576,
        0.979781,
        -0.0816746,
        0.267956,
        0.403183,
        -0.80659,
        -0.133947,
        -0.131475,
        -0.9327,
        -0.0817664,
        0.525076,
        -0.433345,
        -0.592403,
        -0.700142,
        0.618221,
        -0.777683,
        0.967499,
        -0.467899,
        -0.375058,
        0.418372,
        0.914957,
        0.615561,
        -0.197018,
        0.588109,
        -0.549397,
        -0.84389,
        0.595888,
        -0.84795,
        -0.820349,
        0.549332,
        -0.242211,
        -0.917773,
        0.529113,
        0.676115,
        0.350183,
        -0.0677046,
        0.869525,
        -0.783765,
        0.800821,
        0.936825,
        0.134469,
        0.325896,
        -0.49652,
        0.542066,
        0.625754,
        -0.878299,
        0.764384,
        0.593253,
        -0.346198,
        -0.610675,
        0.0116251,
        -0.431242,
        -0.995114,
        0.814607,
        -0.843132,
        -0.544511,
        0.970718,
        0.752756,
        -0.392461,
        -0.849632,
        0.302088,
        0.365328,
        -0.767404,
        -0.1688,
        0.0414426,
        0.582778,
        0.763496,
        -0.0890324,
        0.799013,
        0.564316,
        -0.152207,
        -0.0665175,
        -0.109787,
        0.351273,
        -0.524451,
        -0.484033,
        0.472974,
        -0.760068,
        -0.890781,
        -0.873224,
        -0.370743,
        0.120844,
        -0.304466,
        -0.365857,
        -0.0645481,
        -0.147598,
        0.0896324,
        -0.0938305,
        -0.394842,
        0.697171,
        0.0565379,
        0.907246,
        0.0624989,
        0.289133,
        -0.261554,
        -0.896058,
        -0.128088,
        -0.498059,
        0.0149091,
        -0.329075,
        -0.933742,
        0.862702,
        0.604408,
        -0.0435297,
        0.213975,
        -0.920044,
        0.472437,
        -0.313051,
        -0.680112,
        0.581656,
        -0.186275,
        -0.0508546,
        -0.297499,
        0.509259,
        0.583289,
        0.637953,
        -0.638339,
        -0.327079,
        -0.455878,
        -0.033181,
        -0.629908,
        0.60066,
        -0.125936,
        0.432591,
        -0.110206,
        0.61251,
        0.536533,
        0.761705,
        -0.885549,
        -0.448558,
        -0.56737,
        -0.819291,
        -0.585856,
        -0.962962,
        0.137179,
        0.628119,
        -0.883006,
        -0.390384,
        -0.684932,
        -0.563117,
        -0.808727,
        0.128793,
        0.386028,
        -0.106227,
        -0.361948,
        -0.0306832,
        -0.468274,
        -0.000286996,
        0.642238,
        0.0758486,
        0.966532,
        -0.98767,
        -0.323491,
        -0.159404,
        0.444921,
        0.566302,
        -0.546893,
        -0.0185459,
        0.328007,
        -0.432442,
        0.532896,
        0.760638,
        -0.251733,
        0.94704,
        0.797676,
        0.885446,
        0.575159,
        0.91467,
        -0.504938,
        0.890227,
        -0.648447,
        -0.313665,
        0.0190203,
        0.737581,
        0.580108,
        0.657072,
        -0.293102,
        -0.888165,
        -0.343215,
        -0.650864,
        0.187683,
        -0.376683,
        -0.638534,
        0.864192,
        0.463914,
        0.806388,
        0.430494,
        0.91702,
        -0.212158,
        -0.241498,
        -0.515422,
        -0.679262,
        -0.48086,
        0.232845,
        -0.732222,
        -0.683184,
        0.118291,
        0.842937,
        -0.768514,
        0.613353,
        0.733164,
        -0.416961,
        -0.700312,
        -0.247815,
        -0.679379,
        0.879797,
        -0.590743,
        0.0275186,
        0.991632,
        0.0660421,
        0.376655,
        0.179315,
        0.689359,
        0.738121,
        0.0435066,
        0.153273,
        0.544509,
        -0.525999,
        0.0702928,
        -0.66765,
        0.232502,
        0.554871,
        -0.346912,
        0.751642,
        -0.212284,
        -0.0791337,
        -0.931542,
        0.906007,
        -0.236197,
        -0.700056,
        0.51936,
        -0.503032,
        -0.117017,
        0.819049,
        0.249152,
        0.203604,
        0.698845,
        0.658409,
        -0.768878,
        0.690477,
        -0.275549,
        0.607777,
        -0.130208,
        -0.58619,
        0.345898,
        0.913298,
        0.567083,
        -0.109593,
        -0.612701,
        -0.362624,
        0.222757,
        0.619802,
        -0.807753,
        0.875846,
        0.371444,
        -0.0200377,
        -0.203288,
        0.439901,
        -0.114031,
        0.560515,
        0.739845,
        -0.594671,
        -0.942517,
        -0.377171,
        -0.775622,
        0.306635,
        0.826433,
        0.923223,
        -0.0349553,
        -0.942445,
        0.6137,
        0.689496,
        0.665332,
        -0.516508,
        -0.896694,
        0.0112303,
        -0.60321,
        0.670389,
        0.901637,
        -0.215911,
        -0.692235,
        0.124395,
        -0.596109,
        -0.499988,
        0.000240326,
        0.775334,
        0.479974,
        0.796952,
        0.215236,
        -0.634057,
        0.357468,
        -0.0449187,
        -0.228727,
        0.414951,
        0.57791,
        -0.00434953,
        -0.278414,
        0.404343,
        -0.0811263,
        0.686631,
        0.461898,
        -0.467426,
        0.376127,
        0.12723,
        0.0160654,
        0.479433,
        -0.86154,
        0.412855,
        0.149822,
        -0.959903,
        -0.803056,
        0.457588,
        0.164492,
        -0.399165,
        0.9576,
        -0.835268,
        -0.62383,
        0.437574,
        0.961684,
        0.591406,
        0.803517,
        0.319152,
        -0.453513,
        -0.42521,
        -0.265897,
        -0.875603,
        0.570441,
        0.455689,
        0.52874,
        -0.510686,
        0.14232,
        -0.00936264,
        0.021888,
        -0.481553,
        -0.882133,
        -0.962047,
        0.99788,
        -0.743673,
        0.450809,
        0.147703,
        -0.703575,
        0.647753,
        -0.39471,
        0.460916,
        -0.751412,
        -0.43711,
        0.625648,
        -0.375242,
        -0.999536,
        0.587333,
        -0.783836,
        0.803982,
        -0.0935148,
        -0.237349,
        -0.621228,
        0.640588,
        -0.112952,
        0.949212,
        0.0962776,
        -0.584213,
        -0.561473,
        -0.761402,
        0.406425,
        0.460415,
        -0.242955,
        0.524292,
        0.498368,
        -0.245075,
        0.780619,
        -0.0508233,
        0.902628,
        -0.922957,
        -0.40307,
        -0.492082,
        0.53796,
        -0.154482,
        0.0708084,
        0.163608,
        0.470276,
        0.0712726,
        -0.249059,
        0.68644,
        -0.124746,
        0.657426,
        -0.550909,
        0.254026,
        0.298015,
        0.336138,
        0.203238,
        -0.605708,
        0.751925,
        0.641765,
        -0.36711,
        0.15835,
        0.10218,
        0.389935,
        -0.317358,
        -0.399452,
        -0.85514,
        -0.536739,
        0.549724,
        -0.952512,
        -0.459696,
        -0.853346,
        -0.444594,
        -0.921736,
        -0.00782728,
        0.626214,
        0.241872,
        -0.537551,
        -0.302513,
        0.992814,
        -0.851111,
        0.572741,
        0.65024,
        -0.40202,
        -0.173233,
        -0.0517452,
        0.934118,
        -0.969994,
        0.342547,
        0.686044,
        0.671771,
        0.975437,
        -0.155606,
        -0.22605,
        0.365372,
        0.527036,
        0.374498,
        0.510232,
        0.990296,
        -0.0757775,
        0.557719,
        -0.469399,
        0.0708768,
        -0.886875,
        -0.391135,
        -0.93695,
        0.739339,
        0.850737,
        -0.474501,
        -0.563174,
        0.843551,
        -0.325612,
        -0.990433,
        0.493791,
        0.272368,
        -0.163665,
        -0.557954,
        0.206486,
        -0.13366,
        0.784593,
        -0.107471,
        -0.461889,
        0.76003,
        0.736923,
        0.312061,
        0.125402,
        0.263958,
        -0.313441,
        -0.364366,
        0.254255,
        0.610782,
        -0.806647,
        0.784856,
        -0.318341,
        -0.693521,
        -0.606279,
        -0.255292,
        -0.954182,
        -0.755542,
        0.270207,
        -0.517356,
        -0.911991,
        0.944595,
        -0.507789,
        0.5818,
        0.216962,
        0.328546,
        -0.976154,
        -0.576552,
        -0.805114,
        0.808439,
        0.315977,
        -0.267003,
        0.56847,
        0.0529,
        -0.954942,
        -0.306128,
        -0.683142,
        -0.268383,
        0.329506,
        0.571113,
        -0.657601,
        0.522859,
        0.355969,
        0.0240577,
        0.829337,
        0.749689,
        0.768766,
        0.875155,
        0.994147,
        0.0389727,
        -0.642201,
        -0.917844,
        -0.0164326,
        -0.149989,
        0.663957,
        -0.79947,
        -0.821443,
        0.687803,
        -0.376022,
        -0.626557,
        0.496242,
        0.939955,
        0.106439,
        0.0647115,
        -0.00714535,
        0.151497,
        0.758583,
        0.309713,
        0.883115,
        0.0880886,
        -0.119174,
        -0.774486,
        -0.389052,
        -0.763205,
        0.249572,
        -0.559715,
        0.986484,
        0.0183377,
        -0.68456,
        0.980632,
        -0.94269,
        -0.32676,
        -0.937212,
        0.0408778,
        0.523251,
        0.726745,
        0.241408,
        0.701807,
        0.414547,
        0.865385,
        -0.92475,
        -0.0892106,
        0.80534,
        0.181689,
        0.975501,
        -0.201805,
        -0.666813,
        0.734084,
        -0.892092,
        -0.783698,
        -0.177827,
        -0.0112663,
        -0.558184,
        0.43312,
        0.225529,
        0.691388,
        0.873405,
        0.212013,
        -0.290275,
        -0.811154,
        0.192645,
        -0.232964,
        -0.137914,
        0.255433,
        0.807914,
        -0.614664,
        -0.0178223,
        0.0493212,
        -0.912856,
        -0.603275,
        -0.0852936,
        -0.837607,
        0.307515,
        -0.279954,
        0.344083,
        0.283015,
        0.518241,
        0.67727,
        0.0170995,
        0.626148,
        0.893572,
        0.839272,
        -0.385118,
        -0.664612,
        0.272393,
        0.840411,
        -0.973225,
        0.145798,
        0.0524237,
        -0.263499,
        0.334644,
        -0.754931,
        0.503536,
        -0.803271,
        0.500502,
        0.31145,
        -0.417934,
        -0.517321,
        -0.639229,
        -0.330791,
        -0.120596,
        0.275478,
        -0.168397,
        -0.813081,
        0.995524,
        -0.824314,
        0.469935,
        0.513765,
        0.852955,
        -0.512966,
        0.139913,
        0.746527,
        -0.673694,
        0.754795,
        -0.918085,
        0.598699,
        0.595206,
        -0.89131,
        -0.255503,
        -0.35237,
        -0.15481,
        -0.92086,
        -0.107302,
        -0.651273,
        -0.72413,
        -0.6068,
        0.660177,
        -0.142064,
        -0.124121,
        -0.979052,
        0.527145,
        0.755283,
        0.296426,
        -0.641253,
        0.942203,
        0.29195,
        -0.465567,
        0.412137,
        -0.194286,
        -0.612612,
        0.899171,
        0.945627,
        -0.866085,
        -0.774522,
        0.700423,
        -0.78417,
        0.824176,
        0.295629,
        -0.67548,
        -0.431327,
        0.943258,
        0.16971,
        -0.352186,
        -0.164043,
        0.518437,
        -0.0763164,
        0.229157,
        0.178613,
        0.781619,
        -0.894964,
        0.199561,
        0.308764,
        0.860319,
        -0.504013,
        0.667511,
        0.802522,
        0.787937,
        -0.798056,
        0.214659,
        -0.406349,
        -0.410667,
        0.11383,
        -0.460722,
        -0.276752,
        0.339308,
        -0.760299,
        -0.0609219,
        0.163484,
        0.53533,
        0.263598,
        0.732157,
        0.478588,
        -0.566692,
        -0.620029,
        -0.685455,
        0.951744,
        0.303655,
        0.543702,
        0.130358,
        0.0852739,
        0.648737,
        -0.670081,
        -0.605962,
        0.509056,
        -0.174094,
        -0.938451,
        0.311578,
        -0.386157,
        -0.736507,
        -0.473763,
        0.207494,
        -0.147174,
        0.640067,
        0.746772,
        0.576074,
        -0.0206251,
        0.986473,
        -0.484848,
        -0.857141,
        0.521803,
        0.77875,
        0.875016,
        0.000391245,
        -0.787942,
        -0.745012,
        0.314936,
        -0.836198,
        0.558642,
        -0.141362,
        0.29416,
        -0.356084,
        -0.492625,
        0.624079,
        0.037954,
        -0.983569,
        -0.550014,
        0.099503,
        0.328009,
        0.0638285,
        0.362996,
        0.854246,
        -0.728678,
        -0.784177,
        0.494314,
        -0.981906,
        0.791897,
        -0.526311,
        -0.995432,
        -0.692951,
        -0.383452,
        0.526371,
        -0.914201,
        -0.508436,
        -0.473238,
        -0.702143,
        -0.253448,
        0.841698,
        -0.53834,
        -0.694806,
        -0.299664,
        0.75582,
        -0.0508897,
        0.20771,
        0.379899,
        0.987064,
        0.224142,
        0.829885,
        0.0865673,
        -0.447849,
        -0.106286,
        -0.550436,
        -0.593602,
        0.165036,
        -0.334614,
        0.900711,
        0.18313,
        -0.542717,
        -0.6256,
        0.187698,
        -0.235668,
        -0.0090524,
        -0.285932,
        -0.149868,
        0.482512,
        0.24083,
        0.147989,
        -0.770936,
        0.0825284,
        0.609649,
        -0.465742,
        0.782864,
        0.365469,
        0.483368,
        -0.00942564,
        -0.254632,
        0.470432,
        -0.785284,
        -0.424747,
        -0.443,
        -0.233133,
        0.468967,
        0.00656343,
        0.173265,
        -0.365998,
        0.67195,
        0.0739758,
        0.817133,
        -0.870767,
        0.448376,
        0.00483048,
        -0.106435,
        -0.560677,
        0.718899,
        0.743697,
        0.921835,
        -0.0402708,
        -0.108314,
        -0.849101,
        -0.957742,
        -0.498665,
        -0.314844,
        0.825122,
        0.866804,
        -0.831476,
        -0.184304,
        -0.387828,
        0.638957,
        0.0304118,
        0.187425,
        -0.804044,
        0.797279,
        -0.343608,
        0.20252,
        -0.0294566,
        0.290394,
        -0.12553,
        -0.955481,
        0.107527,
        0.0037024,
        0.492895,
        -0.887643,
        0.897268,
        0.932218,
        0.831256,
        0.640965,
        0.854053,
        -0.209015,
        -0.467349,
        -0.995048,
        -0.166757,
        0.033986,
        -0.309892,
        -0.341636,
        -0.0992101,
        -0.141367,
        0.47406,
        0.512962,
        -0.502411,
        -0.495528,
        -0.299613,
        -0.306454,
        -0.698249,
        0.356779,
        0.896066,
        0.272295,
        -0.352827,
        -0.229465,
        0.316814,
        0.7547,
        0.774238,
        -0.190291,
        0.867057,
        0.671505,
        -0.258073,
        0.698314,
        0.31247,
        -0.40402,
        -0.510701,
        0.845121,
        -0.399068,
        0.322542,
        -0.120893,
        0.291041,
        0.980906,
        0.779897,
        -0.850327,
        0.454967,
        0.292859,
        -0.352737,
        0.959439,
        0.993246,
        0.340809,
        -0.73881,
        0.350024,
        0.236874,
        0.533485,
        0.997198,
        -0.99259,
        -0.149702,
        0.751897,
        0.781647,
        0.660007,
        0.618955,
        0.453153,
        -0.598066,
        0.317268,
        -0.234377,
        -0.00208545,
        0.806567,
        -0.389256,
        0.598847,
        0.12911,
        0.489851,
        -0.110112,
        0.110016,
        0.269748,
        0.039561,
        -0.435017,
        -0.437394,
        0.686824,
        -0.475578,
        -0.444148,
        0.0276328,
        -0.214388,
        0.905876,
        -0.735493,
        -0.680904,
        0.903074,
        -0.728083,
        0.169395,
        0.654971,
        -0.946436,
        -0.170598,
        0.273926,
        0.506717,
        0.231336,
        -0.408805,
        -0.72766,
        -0.77075,
        -0.602238,
        -0.116916,
        0.828097,
        0.526872,
        -0.627066,
        -0.282015,
        -0.363112,
        0.642682,
        0.757546,
        0.20187,
        -0.794712,
        0.44437,
        0.726292,
        -0.23886,
        -0.527997,
        -0.488096,
        -0.332983,
        -0.26349,
        -0.169,
        -0.429909,
        0.00842738,
        -0.999606,
        -0.774938,
        0.0619918,
        -0.170204,
        0.498988,
        -0.431291,
        -0.938868,
        -0.909817,
        -0.158951,
        -0.709617,
        -0.512055,
        0.724132,
        -0.88152,
        -0.985183,
        -0.902933,
        -0.163535,
        -0.348295,
        0.739749,
        -0.405989,
        0.853575,
        0.945037,
        -0.961619,
        0.579867,
        -0.293823,
        -0.489616,
        -0.90823,
        0.373194,
        0.246895,
        -0.0772297,
        0.943285,
        -0.744678,
        -0.0768353,
        -0.831653,
        0.317314,
        0.752961,
        0.667335,
        0.886023,
        0.814093,
        0.757518,
        -0.272928,
        -0.895524,
        -0.754536,
        -0.548796,
        -0.777044,
        -0.739719,
        -0.451729,
        0.0594209,
        -0.0880143,
        -0.71198,
        0.653432,
        -0.234439,
        -0.766943,
        0.691813,
        -0.654572,
        -0.0607659,
        -0.797802,
        -0.562802,
        -0.687572,
        0.449092,
        0.359968,
        -0.744287,
        0.704414,
        -0.716867,
        -0.57594,
        0.0217284,
        -0.963906,
        -0.908605,
        -0.0922488,
        0.850187,
        0.848913,
        0.634823,
        0.954663,
        -0.905623,
        -0.913973,
        -0.822381,
        -0.645342,
        -0.365702,
        0.23704,
        0.266644,
        -0.0776823,
        -0.109528,
        -0.967795,
        0.155374,
        -0.417715,
        -0.622368,
        -0.905391,
        -0.215517,
        -0.18517,
        -0.592963,
        -0.766424,
        -0.825201,
        -0.33725,
        0.93799,
        -0.542068,
        0.0868094,
        -0.0402815,
        -0.505974,
        0.178204,
        0.86747,
        -0.655787,
        0.0271178,
        0.502293,
        -0.701124,
        0.121495,
        0.58832,
        -0.523505,
        0.476153,
        -0.777382,
        0.713534,
        -0.257203,
        0.144935,
        -0.395994,
        -0.224998,
        -0.69969,
        0.186292,
        0.152634,
        -0.605081,
        0.970775,
        0.967464,
        -0.198045,
        -0.795649,
        -0.857737,
        0.464705,
        -0.857659,
        -0.399805,
        -0.448486,
        0.102059,
        0.0942209,
        0.729719,
        -0.0304711,
        0.438434,
        -0.243163,
        -0.528179,
        0.73731,
        0.878332,
        -0.939859,
        -0.786196,
        0.354485,
        -0.717241,
        0.927339,
        -0.902718,
        0.427694,
        -0.468655,
        -0.127716,
        0.728004,
        0.717637,
        -0.975082,
        -0.877077,
        0.688412,
        0.992382,
        -0.0751219,
        0.892762,
        -0.865355,
        -0.610417,
        -0.964897,
        -0.26516,
        -0.0589026,
        0.137162,
        0.829061,
        -0.329184,
        -0.893309,
        0.267495,
        0.427653,
        -0.421487,
        0.00480461,
        0.305984,
        -0.361346,
        0.218609,
        -0.339531,
        -0.0785872,
        0.145947,
        -0.242249,
        -0.650893,
        0.677292,
        0.630035,
        -0.922889,
        0.394929,
        0.654952,
        -0.799966,
        0.0833405,
        0.647334,
        0.124912,
        -0.0238972,
        0.781979,
        0.514495,
        0.0112058,
        -0.48318,
        -0.544407,
        -0.851632,
        -0.654119,
        0.126409,
        -0.744941,
        0.613376,
        -0.445938,
        -0.166428,
        -0.381819,
        0.860047,
        0.472225,
        0.836789,
        -0.479484,
        -0.606362,
        -0.0172631,
        0.278267,
        -0.257255,
        -0.339971,
        -0.0916981,
        -0.180143,
        -0.945042,
        -0.436746,
        0.0198913,
        0.138299,
        -0.789411,
        -0.855196,
        -0.885598,
        0.992568,
        0.659299,
        0.125607,
        -0.490612,
        -0.885108,
        0.273975,
        -0.144731,
        0.241301,
        0.529034,
        -0.531355,
        0.795363,
        -0.637394,
        0.0868251,
        0.65541,
        0.834831,
        -0.0763854,
        -0.824075,
        -0.77153,
        0.906352,
        0.454193,
        -0.0287849,
        -0.433619,
        -0.637505,
        0.791072,
        -0.378661,
        -0.0742512,
        -0.189037,
        0.759638,
        0.136337,
        -0.0442331,
        0.874039,
        0.128906,
        -0.384934,
        -0.000353336,
        0.638293,
        -0.270042,
        -0.726378,
        -0.506438,
        0.971259,
        0.802656,
        -0.0377934,
        0.766622,
        -0.834738,
        -0.950968,
        0.422032,
        -0.999906,
        -0.0273536,
        0.597957,
        -0.771437,
        -0.121002,
        0.0521499,
        0.199778,
        0.445379,
        0.414644,
        -0.00914967,
        -0.933282,
        -0.659607,
        0.801813,
        0.826356,
        0.476731,
        -0.24242,
        0.700395,
        -0.394364,
        0.372646,
        -0.299958,
        -0.75607,
        -0.897396,
        -0.0263363,
        -0.262508,
        -0.926137,
        -0.22368,
        0.699698,
        0.840485,
        -0.0584179,
        0.74873,
        0.262517,
        -0.0583243,
        -0.278623,
        -0.139525,
        0.170239,
        0.600375,
        0.912624,
        -0.629983,
        0.0457535,
        0.327269,
        0.360868,
        0.112471,
        0.667662,
        0.162681,
        -0.0611727,
        0.144393,
        0.920262,
        -0.360777,
        0.750029,
        0.292908,
        0.339264,
        0.993959,
        0.395512,
        -0.687072,
        -0.268549,
        0.469376,
        0.0892481,
        -0.568851,
        0.309861,
        -0.96917,
        -0.820121,
        -0.427622,
        -0.0274942,
        -0.0987441,
        0.432853,
        -0.857255,
        -0.49837,
        0.345477,
        -0.487238,
        0.547384,
        -0.327254,
        0.873629,
        -0.340145,
        -0.659591,
        0.0363106,
        0.598683,
        0.484802,
        -0.0434279,
        -0.762095,
        0.234831,
        -0.75052,
        0.57717,
        0.228791,
        0.644992,
        0.890098,
        0.960241,
        0.114368,
        -0.0206541,
        -0.608609,
        -0.575771,
        0.0101761,
        -0.42873,
        -0.00339288,
        0.982682,
        0.472526,
        -0.57054,
        -0.874573,
        0.974156,
        0.774937,
        -0.361811,
        0.52154,
        -0.552316,
        -0.488182,
        -0.818604,
        -0.211908,
        0.548129,
        0.780078,
        -0.727106,
        -0.495299,
        -0.982016,
        0.507726,
        -0.245819,
        0.595153,
        -0.263484,
        -0.600827,
        0.485251,
        -0.303243,
        0.513541,
        -0.535403,
        0.0881481,
        0.937769,
        0.474773,
        0.659418,
        -0.0656236,
        0.457455,
        0.131944,
        0.363836,
        0.582882,
        0.1061,
        0.138774,
        -0.77893,
        -0.37236,
        0.586458,
        -0.267112,
        -0.190964,
        -0.62545,
        -0.718983,
        -0.410886,
        -0.352556,
        -0.214282,
        -0.392902,
        -0.84483,
        0.539898,
        -0.797749,
        -0.108314,
        0.939071,
        0.687502,
        0.588444,
        0.452611,
        -0.847901,
        -0.323408,
        0.390381,
        0.626872,
        -0.66399,
        -0.675243,
        0.0843267,
        0.467954,
        0.688594,
        -0.332792,
        -0.425946,
        -0.172633,
        -0.111722,
        0.201694,
        -0.586175,
        0.621167,
        -0.98927,
        -0.211625,
        0.902183,
        -0.400156,
        0.435819,
        -0.312099,
        0.206941,
        0.590989,
        -0.772201,
        0.409192,
        -0.517325,
        -0.83313,
        0.0966941,
        -0.928881,
        0.619481,
        0.248793,
        -0.252289,
        0.00986195,
        -0.124335,
        0.0837203,
        0.334619,
        0.959991,
        -0.448326,
        0.0232126,
        -0.3728,
        0.125728,
        0.85058,
        0.515478,
        -0.672579,
        -0.735595,
        0.136645,
        -0.661849,
        0.0527796,
        0.0388281,
        -0.0620052,
        -0.511401,
        0.726729,
        -0.855064,
        -0.920412,
        0.954528,
        0.554129,
        -0.437737,
        -0.878602,
        -0.349177,
        -0.366618,
        0.740879,
        0.899616,
        0.381093,
        -0.249259,
        -0.22472,
        -0.535187,
        -0.91464,
        -0.264728,
        0.0164869,
        0.108573,
        0.362471,
        -0.857786,
        -0.0408474,
        -0.12205,
        -0.530364,
        0.223557,
        -0.985406,
        -0.192213,
        -0.723663,
        0.0534223,
        0.745782,
        -0.235064,
        -0.219849,
        0.890718,
        -0.155476,
        -0.265321,
        0.444846,
        0.406787,
        -0.143923,
        -0.904331,
        -0.959831,
        -0.403043,
        0.995284,
        0.421262,
        0.347698,
        -0.229435,
        0.886075,
        0.433058,
        0.505836,
        -0.0974385,
        -0.458369,
        -0.131692,
        0.044776,
        0.500784,
        0.746257,
        0.514412,
        -0.275659,
        0.760852,
        -0.677802,
        0.000678182,
        -0.185726,
        -0.93202,
        0.765614,
        0.594425,
        0.958698,
        -0.389862,
        -0.670895,
        0.403544,
        -0.983076,
        0.185182,
        0.499213,
        -0.942907,
        0.782139,
        0.494497,
        0.478355,
        0.129837,
        -0.734938,
        0.36443,
        -0.437105,
        0.770898,
        -0.733009,
        0.104526,
        -0.360794,
        0.311767,
        -0.39469,
        -0.614537,
        -0.173821,
        0.329651,
        -0.853685,
        0.148377,
        -0.66967,
        -0.0394112,
        0.216357,
        -0.904056,
        -0.444986,
        0.175055,
        -0.293919,
        -0.115881,
        -0.421401,
        -0.276994,
        -0.930699,
        -0.922189,
        -0.219901,
        0.851439,
        0.572308,
        -0.741546,
        -0.0187237,
        0.83737,
        0.622884,
        0.544171,
        0.608268,
        0.889875,
        -0.351302,
        -0.752526,
        0.201642,
        0.254008,
        -0.367063,
        -0.972179,
        -0.41634,
        -0.220748,
        0.176198,
        -0.0860109,
        0.739841,
        -0.607444,
        0.00993264,
        -0.705145,
        0.567611,
        0.716014,
        0.178973,
        -0.853791,
        -0.560981,
        0.248274,
        -0.775979,
        0.219118,
        0.0997134,
        0.796329,
        0.477572,
        -0.91901,
        0.633699,
        0.100456,
        0.625161,
        0.241968,
        -0.00966936,
        -0.726141,
        0.489442,
        -0.808027,
        0.527867,
        -0.877621,
        -0.780206,
        -0.888473,
        -0.0983689,
        0.395992,
        0.0255158,
        -0.358528,
        0.788548,
        -0.964552,
        -0.0636731,
        0.356158,
        0.751462,
        -0.8847,
        0.502368,
        -0.809519,
        0.363575,
        0.726388,
        0.4096,
        -0.536712,
        0.522718,
        -0.112828,
        -0.455722,
        0.156417,
        0.987628,
        -0.830561,
        -0.601615,
        -0.0220419,
        -0.556702,
        0.887826,
        0.169931,
        0.971165,
        -0.989795,
        0.389725,
        -0.917308,
        -0.0881635,
        -0.214283,
        0.108207,
        0.553308,
        -0.425736,
        0.143656,
        -0.510365,
        0.930423,
        -0.104882,
        -0.395064,
        0.43279,
        0.0855995,
        0.96851,
        0.159179,
        -0.504801,
        -0.568202,
        -0.318103,
        0.382371,
        -0.0239242,
        0.838314,
        0.369998,
        0.145514,
        -0.763301,
        -0.652044,
        0.588812,
        -0.875475,
        0.517887,
        0.559977,
        -0.865269,
        -0.0923882,
        0.642669,
        0.0465671,
        0.693328,
        -0.249124,
        -0.400124,
        -0.732407,
        0.894532,
        0.089511,
        -0.801984,
        -0.21035,
        0.694447,
        0.630806,
        0.87525,
        0.662957,
        -0.210015,
        -0.629551,
        -0.905245,
        0.471882,
        0.75282,
        0.0708309,
        0.310195,
        0.122818,
        -0.783655,
        0.546894,
        0.470774,
        0.805158,
        0.67142,
        -0.0113383,
        0.365135,
        0.80615,
        0.896273,
        0.00780368,
        -0.147283,
        0.589602,
        0.75868,
        0.452593,
        0.857195,
        0.653212,
        -0.457896,
        -0.944789,
        -0.557138,
        -0.763449,
        0.686017,
        -0.681888,
        0.899508,
        -0.523999,
        -0.311439,
        0.994263,
        0.947883,
        -0.55862,
        0.0650941,
        0.258078,
        0.564198,
        0.28144,
        -0.195027,
        0.0349729,
        0.0865973,
        -0.523608,
        -0.976365,
        -0.548268,
        -0.717458,
        0.919908,
        0.459536,
        0.13526,
        0.50951,
        0.218216,
        -0.412147,
        0.366705,
        -0.128572,
        0.129957,
        0.421916,
        0.31429,
        0.366508,
        0.107932,
        0.632401,
        0.266015,
        0.583933,
        -0.679038,
        0.260279,
        0.531816,
        -0.237658,
        -0.674627,
        -0.210105,
        -0.673459,
        0.606812,
        0.594868,
        0.361514,
        -0.30659,
        -0.92874,
        0.385148,
        0.145142,
        -0.646198,
        0.305056,
        -0.395322,
        0.489062,
        -0.185434,
        0.822894,
        -0.923085,
        -0.818729,
        -0.305679,
        0.206872,
        0.603187,
        -0.991389,
        -0.426621,
        -0.288881,
        0.641013,
        0.839394,
        -0.704947,
        0.961975,
        0.099673,
        0.826869,
        -0.275683,
        0.425046,
        -0.383236,
        0.0508581,
        0.0318581,
        -0.788368,
        -0.587628,
        0.725268,
        -0.717108,
        0.79752,
        -0.12959,
        -0.363306,
        0.102577,
        0.475088,
        -0.874244,
        0.917143,
        0.297982,
        -0.797329,
        -0.901585,
        0.992303,
        0.409543,
        0.701602,
        -0.999086,
        0.982922,
        -0.587279,
        0.641927,
        0.822316,
        -0.292227,
        0.603902,
        -0.0780108,
        -0.465357,
        -0.671781,
        -0.652965,
        0.151407,
        0.379077,
        0.378893,
        0.363038,
        0.791449,
        0.104161,
        0.64593,
        0.588969,
        0.974571,
        -0.717376,
        -0.308454,
        0.449659,
        -0.59162,
        -0.391311,
        -0.25236,
        -0.388949,
        -0.292897,
        -0.260057,
        -0.979406,
        -0.591295,
        -0.259142,
        -0.996485,
        -0.178574,
        -0.617216,
        0.825832,
        0.529199,
        0.986686,
        -0.252179,
        -0.936158,
        -0.685095,
        0.0948557,
        0.215248,
        0.693982,
        -0.526251,
        -0.421714,
        0.485431,
        0.57791,
        -0.775784,
        0.0743996,
        0.552481,
        -0.49316,
        0.765945,
        0.00213921,
        -0.0847802,
        -0.625366,
        0.74978,
        0.526271,
        0.0817369,
        -0.510277,
        0.546864,
        0.490442,
        0.230581,
        0.55038,
        -0.688133,
        0.613365,
        0.376211,
        0.841066,
        0.600051,
        -0.875968,
        0.904908,
        0.914956,
        0.218888,
        0.120156,
        0.608938,
        0.692636,
        0.698442,
        0.0943685,
        0.270546,
        0.922658,
        -0.831232,
        -0.176973,
        -0.570502,
        0.934713,
        0.825166,
        0.344718,
        -0.690653,
        0.574945,
        -0.129011,
        0.391084,
        -0.935332,
        -0.582147,
        -0.118474,
        0.295249,
        0.968233,
        0.193393,
        -0.0913861,
        0.344444,
        0.0344594,
        -0.491335,
        0.468476,
        -0.0606328,
        -0.576379,
        -0.312636,
        -0.940477,
        -0.967441,
        -0.62,
        0.757966,
        0.126927,
        0.650546,
        0.680624,
        0.295695,
        -0.526427,
        -0.889877,
        0.230409,
        -0.701261,
        0.454841,
        0.539756,
        0.873684,
        -0.67417,
        -0.0691603,
        0.938352,
        -0.256317,
        0.812365,
        0.233601,
        -0.288084,
        0.0057584,
        -0.857785,
        -0.94364,
        -0.959782,
        -0.34912,
        0.524837,
        -0.020415,
        0.0745007,
        -0.787799,
        0.0391083,
        0.107059,
        -0.407799,
        -0.202926,
        -0.766014,
        -0.757253,
        -0.522302,
        0.529682,
        -0.28368,
        -0.412179,
        -0.23991,
        0.0150585,
        -0.957339,
        -0.700154,
        -0.111258,
        -0.631509,
        0.230686,
        -0.172905,
        0.112174,
        0.043051,
        -0.939304,
        0.82409,
        -0.951191,
        -0.797089,
        0.88045,
        -0.910973,
        -0.146209,
        0.405287,
        0.0686122,
        0.928292,
        0.617488,
        -0.89228,
        0.0353509,
        -0.790312,
        -0.0952056,
        0.269337,
        -0.547564,
        0.382492,
        -0.200981,
        0.168755,
        0.970313,
        0.55911,
        -0.816186,
        -0.987026,
        0.858956,
        0.0725564,
        -0.618535,
        0.0896411,
        0.899651,
        0.493639,
        -0.867308,
        0.960347,
        0.317729,
        -0.818499,
        -0.836742,
        0.198179,
        -0.729471,
        0.0170488,
        -0.396534,
        0.339141,
        -0.0546595,
        -0.779046,
        0.446861,
        0.980691,
        -0.569358,
        -0.648344,
        0.250029,
        -0.116922,
        0.734148,
        -0.950952,
        -0.948167,
        0.704461,
        0.608158,
        -0.764353,
        0.717435,
        0.467113,
        0.308204,
        -0.9011,
        -0.443246,
        0.207855,
        0.592539,
        -0.310554,
        0.168202,
        -0.0897321,
        -0.129052,
        0.33146,
        -0.891553,
        0.141476,
        -0.651491,
        -0.288087,
        -0.519383,
        0.293849,
        -0.0671329,
        0.927478,
        0.274541,
        0.363509,
        -0.720866,
        -0.475431,
        -0.753413,
        -0.986718,
        -0.426382,
        -0.701579,
        0.717743,
        -0.818225,
        -0.465932,
        0.435178,
        0.648888,
        0.842271,
        0.534079,
        -0.794358,
        0.0501263,
        0.126618,
        -0.104911,
        -0.781672,
        -0.963114,
        0.766036,
        0.549788,
        -0.854667,
        -0.0924875,
        0.898297,
        -0.142754,
        0.38813,
        0.192146,
        0.790113,
        0.315608,
        -0.533313,
        0.153623,
        0.594742,
        -0.00874394,
        0.40021,
        0.608024,
        0.564874,
        0.698631,
        0.325767,
        0.746649,
        -0.767302,
        -0.239055,
        0.395537,
        -0.92503,
        -0.704976,
        0.601179,
        0.125096,
        0.421642,
        -0.503732,
        0.343424,
        0.458528,
        -0.737696,
        -0.106788,
        0.603861,
        0.169817,
        -0.208491,
        -0.538893,
        -0.442054,
        0.983655,
        -0.74878,
        0.873554,
        -0.549658,
        0.404843,
        0.468296,
        0.441598,
        -0.194947,
        0.0763198,
        0.00647151,
        -0.496316,
        -0.597913,
        -0.24688,
        -0.263618,
        0.163032,
        -0.851343,
        -0.188648,
        0.458056,
        0.749837,
        0.936448,
        -0.120302,
        -0.753895,
        0.279872,
        -0.661774,
        -0.491591,
        -0.826916,
        0.942087,
        0.678226,
        -0.0354063,
        -0.596806,
        -0.763828,
        -0.0517511,
        -0.345585,
        -0.890274,
        0.398591,
        -0.940742,
        0.578022,
        -0.159811,
        -0.135689,
        -0.345658,
        0.84666,
        0.367994,
        0.0564289,
        -0.400219,
        -0.895624,
        -0.780539,
        -0.251562,
        -0.0842718,
        0.677517,
        -0.501725,
        -0.147824,
        -0.442784,
        -0.255621,
        -0.867952,
        -0.104558,
        0.252788,
        -0.694867,
        -0.162471,
        -0.0689858,
        0.269727,
        0.240723,
        0.167186,
        -0.782025,
        0.895138,
        0.276913,
        0.616566,
        0.954395,
        -0.145065,
        -0.543245,
        -0.181294,
        0.509277,
        -0.696585,
        -0.813299,
        -0.434294,
        -0.0968043,
        -0.708923,
        -0.214833,
        0.651634,
        0.206805,
        -0.537316,
        -0.850092,
        -0.941019,
        0.0199,
        -0.105712,
        -0.808971,
        0.915342,
        -0.852924,
        -0.503838,
        -0.24713,
        0.0780902,
        0.765889,
        0.993593,
        -0.754723,
        0.983864,
        0.888731,
        0.522189,
        0.60043,
        0.843126,
        -0.622875,
        -0.942815,
        -0.338167,
        0.886402,
        -0.6394,
        -0.151467,
        -0.547892,
        0.263796,
        0.13961,
        0.237275,
        -0.0845704,
        -0.653585,
        0.69996,
        0.0653378,
        -0.594604,
        -0.28014,
        0.959625,
        -0.403574,
        -0.364799,
        -0.893299,
        0.0925879,
        0.388072,
        0.184791,
        -0.141523,
        0.381665,
        0.430068,
        -0.157659,
        0.270396,
        -0.0477426,
        -0.557229,
        0.113523,
        0.329382,
        -0.500044,
        0.775355,
        0.215784,
        -0.139443,
        -0.376112,
        0.667892,
        -0.875647,
        0.763498,
        -0.0948328,
        0.0397823,
        -0.890087,
        -0.394873,
        -0.89488,
        -0.484691,
        0.324986,
        -0.935255,
        0.111735,
        0.960188,
        -0.828553,
        -0.795677,
        0.348259,
        0.356238,
        0.0627996,
        -0.270075,
        -0.213694,
        0.905141,
        -0.999679,
        0.738563,
        -0.652088,
        0.113844,
        0.0679452,
        -0.152132,
        -0.110801,
        -0.716271,
        0.708425,
        0.513087,
        0.951621,
        0.832778,
        0.276585,
        -0.143212,
        -0.12744,
        0.386498,
        0.461915,
        -0.0223201,
        0.901808,
        -0.213098,
        0.0424253,
        0.0135424,
        -0.252911,
        0.213872,
        0.217865,
        -0.904651,
        -0.42989,
        -0.719335,
        -0.174726,
        0.356416,
        -0.814195,
        -0.174406,
        0.0949788,
        -0.466283,
        0.939438,
        -0.837076,
        0.381585,
        -0.171363,
        -0.553347,
        0.0900098,
        -0.658276,
        -0.601726,
        -0.0772128,
        0.618309,
        0.255062,
        0.795347,
        0.00480747,
        -0.283023,
        -0.226973,
        -0.093385,
        0.503879,
        0.815452,
        0.920157,
        -0.749032,
        0.0293241,
        0.138023,
        -0.653683,
        0.599434,
        0.418688,
        0.17159,
        -0.0441505,
        0.604493,
        0.997185,
        -0.949172,
        -0.86179,
        0.936623,
        -0.786248,
        0.519795,
        -0.23474,
        -0.339595,
        -0.390195,
        0.106984,
        0.0586796,
        0.532592,
        -0.274707,
        -0.686258,
        0.32794,
        0.730101,
        0.0307193,
        -0.899034,
        -0.363284,
        -0.465402,
        0.916419,
        -0.443127,
        -0.214433,
        -0.0542573,
        0.694896,
        0.131884,
        -0.454823,
        0.113584,
        -0.696526,
        0.501026,
        -0.281923,
        -0.699341,
        0.551854,
        -0.143712,
        -0.762718,
        0.765607,
        -0.623917,
        0.00254214,
        -0.573988,
        -0.014112,
        -0.890474,
        0.484692,
        -0.48152,
        -0.16518,
        0.798434,
        0.84642,
        -0.435079,
        -0.170847,
        0.947386,
        0.201637,
        0.363751,
        0.863805,
        0.75851,
        -0.850682,
        -0.190452,
        0.453406,
        0.281201,
        0.354724,
        -0.43301,
        0.584675,
        -0.14425,
        0.285068,
        0.885334,
        -0.592395,
        -0.858645,
        -0.877384,
        -0.826789,
        -0.482562,
        0.125158,
        -0.400776,
        0.503326,
        0.234685,
        -0.916085,
        -0.978193,
        -0.930495,
        0.882349,
        0.868227,
        -0.365575,
        -0.288498,
        0.815613,
        0.836062,
        -0.924747,
        0.679418,
        0.594572,
        -0.775429,
        -0.511035,
        0.0479785,
        0.505772,
        0.84369,
        0.614969,
        0.0904478,
        -0.30056,
        -0.0999632,
        -0.0242181,
        0.107045,
        0.041392,
        0.0983982,
        0.280256,
        0.55883,
        -0.776443,
        0.87948,
        0.0621563,
        0.458241,
        0.963395,
        0.0839629,
        0.527746,
        0.845744,
        -0.0478106,
        -0.837829,
        -0.442754,
        -0.232198,
        0.998233,
        -0.367501,
        -0.55278,
        0.592805,
        -0.142929,
        -0.0638145,
        -0.359216,
        -0.637157,
        -0.220125,
        -0.744247,
        0.453291,
        0.479315,
        0.15579,
        -0.570927,
        -0.41364,
        -0.802818,
        0.527471,
        0.866616,
        0.756012,
        0.751027,
        0.746096,
        -0.181832,
        0.209269,
        0.709491,
        0.902131,
        -0.262985,
        0.555234,
        -0.14568,
        -0.100814,
        -0.88752,
        0.622123,
        -0.102581,
        -0.25502,
        -0.930657,
        -0.509776,
        0.602051,
        0.00552809,
        0.131008,
        0.964894,
        0.785403,
        0.386761,
        0.418185,
        0.264718,
        -0.45745,
        0.847257,
        0.851078,
        -0.260268,
        0.374728,
        0.717694,
        -0.504256,
        0.125756,
        0.46379,
        0.313912,
        -0.664975,
        0.17328,
        0.216043,
        0.0720392,
        -0.271485,
        -0.929637,
        0.971225,
        -0.159005,
        0.692485,
        -0.131356,
        0.585975,
        0.761828,
        0.358868,
        0.188026,
        -0.232644,
        -0.510124,
        0.152919,
        -0.447241,
        0.876637,
        -0.428896,
        0.817478,
        -0.580813,
        -0.581639,
        0.668556,
        0.158919,
        0.793089,
        0.38625,
        0.654663,
        -0.0811549,
        -0.14996,
        -0.0314255,
        0.25387,
        -0.97668,
        -0.815383,
        -0.674091,
        -0.248165,
        -0.74502,
        -0.702866,
        0.59283,
        0.947465,
        0.165778,
        0.178806,
        0.709293,
        -0.475354,
        -0.633169,
        -0.523351,
        0.0145218,
        0.519751,
        0.0294087,
        -0.108841,
        -0.909146,
        -0.153114,
        0.310346,
        -0.490784,
        -0.484558,
        -0.530735,
        -0.697695,
        0.901693,
        -0.876072,
        0.22115,
        -0.248267,
        0.092502,
        -0.52498,
        -0.224947,
        0.277119,
        -0.199071,
        0.526888,
        0.532099,
        0.0980625,
        0.119719,
        0.479564,
        -0.73616,
        -0.701475,
        0.188858,
        -0.211514,
        -0.334644,
        0.665507,
        0.803008,
        -0.814893,
        -0.305084,
        -0.305833,
        -0.724039,
        0.541802,
        -0.995488,
        -0.214823,
        -0.942755,
        -0.526223,
        0.0874816,
        0.958937,
        -0.402295,
        -0.691368,
        -0.28933,
        0.690207,
        -0.216349,
        0.485723,
        -0.0326744,
        0.58458,
        0.012612,
        -0.500575,
        -0.317357,
        -0.867669,
        0.978989,
        -0.0535172,
        -0.569145,
        0.167847,
        0.734969,
        0.0962114,
        -0.166646,
        0.537977,
        0.281318,
        0.52827,
        -0.767857,
        0.557279,
        0.0700723,
        -0.763344,
        -0.657544,
        0.127317,
        -0.289567,
        0.429937,
        0.0862545,
        0.308138,
        0.738569,
        0.796925,
        -0.00165588,
        -0.477779,
        0.282648,
        0.96567,
        -0.893199,
        -0.70474,
        -0.534906,
        -0.210557,
        -0.572409,
        -0.555917,
        0.735926,
        -0.141553,
        0.61193,
        0.470895,
        0.954658,
        -0.554716,
        0.00887167,
        0.235976,
        0.973554,
        0.241015,
        -0.206745,
        0.0436265,
        0.477671,
        0.135711,
        -0.829056,
        -0.811896,
        -0.434352,
        0.257198,
        0.496241,
        -0.695783,
        0.054123,
        -0.505414,
        -0.173562,
        -0.663229,
        -0.539745,
        -0.0667616,
        -0.367968,
        -0.0746503,
        0.722682,
        0.0596226,
        0.369433,
        0.458607,
        0.918069,
        -0.0186366,
        -0.0704978,
        0.872727,
        0.426648,
        0.938374,
        0.108703,
        0.400202,
        0.179389,
        0.901958,
        -0.556171,
        -0.34294,
        0.0376692,
        -0.385228,
        -0.154836,
        0.603317,
        0.87197,
        -0.658595,
        0.907535,
        -0.0739066,
        -0.164009,
        -0.266027,
        0.262865,
        0.296246,
        0.667211,
        0.894896,
        -0.778404,
        0.389893,
        -0.0454812,
        0.591029,
        -0.1515,
        -0.127412,
        -0.427608,
        0.778002,
        -0.254685,
        0.99904,
        0.716376,
        0.854018,
        0.399242,
        -0.104235,
        0.755977,
        0.84307,
        0.552825,
        -0.206354,
        -0.542158,
        -0.602011,
        -0.603037,
        -0.670187,
        -0.260606,
        -0.695502,
        0.255906,
        0.575385,
        0.0384709,
        -0.481229,
        -0.128369,
        -0.294318,
        -0.586333,
        0.0932262,
        -0.904425,
        0.368186,
        -0.315745,
        -0.0559253,
        -0.759226,
        0.256647,
        -0.277923,
        -0.0139108,
        0.255687,
        -0.561547,
        -0.159892,
        -0.345072,
        0.334218,
        -0.403916,
        -0.502002,
        -0.112956,
        0.38973,
        -0.0441594,
        0.285033,
        0.786694,
        0.285653,
        -0.975573,
        -0.908808,
        -0.45844,
        0.599811,
        0.129663,
        0.0603304,
        -0.528558,
        0.835345,
        0.473997,
        0.564668,
        0.93092,
        -0.157817,
        -0.751077,
        -0.125006,
        0.0829571,
        0.50557,
        0.597071,
        -0.930954,
        -0.238744,
        -0.964475,
        -0.090846,
        0.416184,
        0.369743,
        0.505238,
        0.914183,
        -0.743214,
        -0.105031,
        -0.129977,
        0.541819,
        -0.318337,
        -0.844323,
        0.566246,
        -0.227145,
        -0.302764,
        0.166057,
        0.902517,
        0.757566,
        0.637499,
        0.737862,
        0.231564,
        0.202167,
        0.668782,
        -0.926253,
        0.45109,
        -0.456224,
        0.156704,
        -0.0433407,
        -0.859153,
        0.22575,
        0.717916,
        -0.823628,
        -0.865095,
        0.1341,
        0.546115,
        0.640143,
        0.0482823,
        0.802901,
        -0.464888,
        0.918305,
        0.34472,
        0.216775,
        -0.926018,
        -0.0890341,
        0.989629,
        -0.228782,
        -0.922977,
        0.892147,
        -0.471215,
        0.714521,
        0.630009,
        0.760348,
        -0.0833119,
        0.298791,
        0.834095,
        -0.632222,
        0.842567,
        -0.00920033,
        0.324437,
        0.983414,
        -0.78345,
        0.0423526,
        -0.840214,
        -0.648545,
        -0.823548,
        0.705901,
        0.991598,
        0.224735,
        0.508802,
        -0.473291,
        0.14304,
        -0.146477,
        0.743484,
        0.217022,
        0.764488,
        0.733113,
        0.98824,
        0.841511,
        0.62526,
        -0.482975,
        0.556033,
        0.255269,
        -0.722627,
        -0.527279,
        -0.44594,
        -0.888531,
        -0.159502,
        -0.603374,
        0.102268,
        -0.835064,
        -0.619959,
        0.318818,
        0.207288,
        -0.460173,
        0.670273,
        0.38374,
        -0.754272,
        0.661871,
        -0.391525,
        0.75453,
        -0.81142,
        0.751515,
        -0.391947,
        0.932064,
        -0.0314628,
        -0.627459,
        0.665177,
        -0.0432227,
        -0.785948,
        0.290437,
        0.473802,
        0.770085,
        -0.454294,
        0.751175,
        -0.757195,
        0.099766,
        0.862644,
        0.0833039,
        0.496392,
        -0.0350881,
        0.248239,
        0.876433,
        -0.71627,
        -0.544472,
        -0.58374,
        0.954003,
        0.839268,
        -0.338013,
        0.615874,
        -0.552257,
        -0.583483,
        0.804454,
        -0.800742,
        0.0245702,
        0.736519,
        0.167795,
        0.397111,
        0.401696,
        -0.875427,
        0.611164,
        -0.307866,
        0.598375,
        0.381248,
        0.23784,
        0.34955,
        0.624054,
        -0.662394,
        0.212193,
        -0.292642,
        0.833998,
        -0.822895,
        0.955597,
        0.710432,
        -0.539165,
        -0.588875,
        -0.873309,
        -0.585161,
        -0.749607,
        -0.211321,
        -0.969287,
        -0.301864,
        0.205196,
        0.835167,
        -0.102606,
        -0.770233,
        0.571686,
        -0.934811,
        0.626878,
        -0.0266178,
        -0.810238,
        0.238042,
        0.665516,
        0.788136,
        -0.38071,
        -0.0966441,
        0.137686,
        -0.756656,
        0.240962,
        -0.650121,
        -0.049298,
        0.0749604,
        -0.473015,
        -0.0937006,
        -0.214608,
        -0.0121801,
        0.317424,
        -0.0879167,
        0.402659,
        0.567817,
        0.700762,
        0.433372,
        -0.734047,
        -0.0940415,
        0.268539,
        0.163347,
        0.135725,
        -0.159775,
        0.228536,
        -0.237397,
        0.813607,
        0.418298,
        -0.999355,
        0.479123,
        0.206434,
        -0.380065,
        -0.617521,
        -0.655879,
        -0.136721,
        0.623441,
        -0.306,
        0.813981,
        -0.301598,
        0.220984,
        -0.27972,
        0.483793,
        -0.791196,
        -0.962295,
        -0.604123,
        0.611463,
        0.605522,
        -0.903361,
        0.0448349,
        0.871475,
        0.00259745,
        -0.686626,
        0.0348215,
        -0.861677,
        0.153599,
        -0.736642,
        -0.0990744,
        -0.0327932,
        0.681656,
        -0.0984296,
        -0.55367,
        -0.11191,
        0.521505,
        -0.171191,
        0.232211,
        -0.615216,
        -0.547749,
        0.926211,
        -0.801235,
        0.150652,
        0.147195,
        -0.0809542,
        -0.365554,
        0.355999,
        -0.0432495,
        0.0303228,
        -0.0325376,
        -0.437728,
        0.126962,
        -0.987703,
        -0.566253,
        -0.870441,
        -0.674329,
        0.468568,
        -0.732118,
        0.479271,
        0.731926,
        0.168807,
        -0.553523,
        0.413581,
        -0.929622,
        -0.107192,
        -0.698328,
        0.591883,
        0.721617,
        0.533882,
        0.976667,
        -0.826132,
        0.460093,
        -0.824567,
        0.32452,
        -0.392712,
        0.0944785,
        0.958966,
        0.963287,
        -0.948771,
        -0.0107111,
        -0.0692505,
        -0.386499,
        -0.883749,
        -0.0569533,
        0.047248,
        -0.75419,
        0.268718,
        -0.484184,
        -0.486309,
        -0.252011,
        -0.752258,
        0.682499,
        0.194466,
        0.661324,
        0.752877,
        -0.912726,
        0.962995,
        0.34476,
        0.808891,
        0.496878,
        0.321427,
        0.982759,
        -0.0430294,
        0.49686,
        0.307279,
        0.564258,
        -0.408662,
        0.266245,
        0.527546,
        -0.357433,
        -0.744466,
        -0.541705,
        0.256068,
        -0.628215,
        0.401342,
        -0.696684,
        -0.382406,
        -0.32994,
        -0.180867,
        0.131286,
        0.418049,
        0.0668751,
        -0.186215,
        -0.387485,
        -0.271801,
        -0.433339,
        -0.300211,
        -0.308806,
        0.911421,
        -0.49132,
        -0.811928,
        0.232848,
        -0.508561,
        0.145043,
        -0.270292,
        0.798718,
        -0.290699,
        0.321046,
        0.0649633,
        -0.763153,
        0.963613,
        0.320498,
        -0.304858,
        0.219682,
        0.692282,
        -0.903517,
        0.522998,
        -0.690123,
        -0.233457,
        -0.657869,
        0.441163,
        -0.815408,
        0.409006,
        -0.745052,
        -0.202893,
        -0.862795,
        -0.178391,
        0.496896,
        -0.171601,
        -0.26697,
        -0.994425,
        0.016471,
        0.965878,
        -0.502986,
        -0.838486,
        -0.304414,
        -0.704268,
        -0.129185,
        -0.983368,
        0.360695,
        0.107661,
        0.980245,
        -0.318807,
        0.802803,
        0.199926,
        -0.626525,
        0.899286,
        -0.277076,
        -0.316648,
        -0.33417,
        0.0650548,
        -0.875485,
        -0.149578,
        -0.525939,
        -0.620538,
        0.647528,
        -0.388735,
        0.201072,
        0.144424,
        0.439664,
        0.934102,
        0.149999,
        -0.543865,
        0.89998,
        0.647013,
        -0.382351,
        -0.404434,
        0.942745,
        0.488464,
        -0.387803,
        0.303441,
        -0.403875,
        -0.407558,
        0.984634,
        -0.601072,
        0.792368,
        -0.641891,
        -0.701786,
        -0.484708,
        0.0414609,
        -0.0359567,
        0.580346,
        0.165976,
        0.814465,
        -0.945593,
        0.545438,
        0.461993,
        -0.334328,
        -0.25349,
        -0.393583,
        -0.894663,
        -0.319389,
        0.756417,
        -0.438528,
        -0.419409,
        0.40343,
        0.179121,
        0.176157,
        0.346175,
        -0.332415,
        0.788354,
        -0.350384,
        0.26371,
        -0.619204,
        -0.36575,
        0.662637,
        -0.826837,
        -0.00764138,
        0.960851,
        -0.311545,
        -0.966181,
        -0.0751058,
        -0.731198,
        0.199795,
        -0.260641,
        -0.676791,
        -0.254767,
        -0.798648,
        -0.0111189,
        0.491743,
        -0.19223,
        0.0942179,
        -0.827646,
        -0.435814,
        0.65569,
        -0.247055,
        0.967616,
        -0.165189,
        0.929102,
        0.313792,
        0.502396,
        0.717456,
        0.963408,
        -0.233894,
        -0.901748,
        -0.402343,
        -0.571257,
        -0.728585,
        0.590016,
        -0.610406,
        -0.0401299,
        0.623835,
        0.314488,
        0.228672,
        -0.176369,
        -0.946153,
        0.55188,
        0.568864,
        -0.7448,
        -0.459239,
        0.0606066,
        0.0629692,
        0.634979,
        0.232961,
        0.627156,
        0.290669,
        0.985906,
        0.594772,
        -0.874519,
        0.915008,
        -0.0914367,
        0.627877,
        0.632464,
        -0.128029,
        -0.606017,
        0.730716,
        0.469628,
        -0.177274,
        -0.997869,
        0.0596443,
        0.21232,
        -0.0379987,
        -0.31652,
        -0.473192,
        -0.809327,
        0.50711,
        -0.419345,
        0.742553,
        0.0759742,
        -0.164145,
        -0.716685,
        -0.863419,
        0.898824,
        0.918294,
        0.369542,
        0.52598,
        0.208963,
        0.355448,
        0.120751,
        0.334444,
        0.270456,
        -0.970685,
        -0.0376794,
        -0.0970795,
        -0.0987146,
        0.356303,
        -0.366363,
        -0.629086,
        -0.820971,
        -0.364232,
        0.430558,
        0.391349,
        0.597769,
        -0.885962,
        0.918157,
        0.788442,
        0.621148,
        -0.501188,
        0.530995,
        -0.302877,
        0.334667,
        0.81431,
        -0.166297,
        0.233491,
        0.732604,
        -0.796755,
        -0.24053,
        -0.0584333,
        0.558693,
        0.880222,
        -0.72399,
        -0.170851,
        0.909536,
        0.238331,
        0.732069,
        -0.189178,
        -0.405366,
        -0.634294,
        0.181735,
        -0.226337,
        0.00147367,
        -0.387707,
        -0.834988,
        -0.400757,
        -0.273669,
        -0.916831,
        -0.612315,
        -0.65252,
        -0.418019,
        0.91868,
        0.0446023,
        0.916648,
        0.73299,
        0.878306,
        0.150138,
        0.465594,
        -0.918449,
        0.909609,
        -0.592839,
        0.640243,
        0.78983,
        -0.316829,
        -0.530608,
        0.699367,
        0.921502,
        -0.798539,
        -0.489812,
        -0.483864,
        -0.432833,
        0.691923,
        0.289799,
        0.568641,
        -0.695783,
        0.454812,
        -0.832116,
        0.0305479,
        0.53798,
        -0.444431,
        0.378027,
        -0.880039,
        -0.525751,
        -0.57737,
        -0.963391,
        -0.792761,
        -0.699065,
        0.186747,
        0.672833,
        -0.617514,
        0.0963563,
        -0.920006,
        -0.977271,
        -0.113813,
        -0.236835,
        -0.507878,
        -0.414447,
        -0.315333,
        -0.306417,
        0.0957412,
        0.200803,
        0.26075,
        -0.212336,
        -0.509398,
        -0.170609,
        0.091881,
        0.945414,
        -0.00272495,
        -0.877571,
        0.483395,
        0.552844,
        0.500456,
        0.603356,
        -0.972907,
        0.923086,
        0.639965,
        -0.765668,
        -0.775979,
        -0.173288,
        0.907165,
        -0.393493,
        0.923069,
        0.987159,
        -0.370763,
        -0.190745,
        -0.249676,
        0.121358,
        0.394808,
        0.434991,
        0.814941,
        -0.509451,
        -0.364206,
        0.0756916,
        0.278214,
        0.126396,
        0.905083,
        -0.629905,
        0.0718099,
        -0.0976421,
        -0.507476,
        -0.444796,
        -0.544798,
        0.99298,
        -0.84144,
        -0.517705,
        0.916066,
        0.798525,
        -0.283373,
        -0.859913,
        -0.374763,
        -0.376208,
        -0.253406,
        -0.451694,
        -0.389049,
        0.375831,
        0.357561,
        0.361275,
        -0.50281,
        -0.247631,
        -0.203735,
        -0.687869,
        0.242919,
        0.432059,
        0.387823,
        -0.478868,
        -0.441545,
        0.292905,
        -0.108773,
        0.630265,
        -0.804737,
        0.383751,
        -0.814531,
        -0.349535,
        0.376731,
        -0.655971,
        0.13276,
        0.292797,
        -0.857446,
        0.849386,
        0.432884,
        -0.232209,
        -0.526822,
        -0.820522,
        0.316097,
        0.0841295,
        0.55531,
        -0.326342,
        -0.554596,
        -0.947501,
        0.426027,
        0.24167,
        -0.63537,
        -0.331054,
        -0.326271,
        0.752453,
        0.190078,
        0.232183,
        0.0453581,
        -0.918695,
        -0.137552,
        0.240621,
        0.465056,
        0.047917,
        0.891086,
        -0.158213,
        0.391946,
        0.0238463,
        -0.865416,
        0.5345,
        -0.126767,
        0.567468,
        -0.697709,
        0.346411,
        0.746946,
        0.618388,
        -0.569459,
        0.302256,
        -0.707954,
        -0.124055,
        0.354755,
        0.718073,
        -0.882386,
        0.719385,
        -0.612981,
        -0.208657,
        0.471838,
        0.577097,
        -0.976474,
        -0.482804,
        0.658402,
        -0.114026,
        0.757817,
        0.123459,
        0.933891,
        0.648903,
        0.965246,
        0.325837,
        -0.32725,
        -0.90017,
        -0.139663,
        0.545982,
        0.667298,
        0.162629,
        -0.107606,
        0.414244,
        -0.218983,
        0.322934,
        -0.2835,
        0.0730637,
        -0.801121,
        -0.928745,
        -0.208863,
        -0.683507,
        0.79064,
        0.178156,
        0.107836,
        0.262477,
        -0.244747,
        0.131362,
        0.779673,
        -0.586345,
        -0.982663,
        0.53749,
        0.537114,
        0.951228,
        0.186393,
        0.50236,
        0.277065,
        0.859143,
        0.60219,
        -0.862597,
        0.405126,
        0.269487,
        0.300032,
        -0.702481,
        -0.316269,
        -0.918951,
        0.620453,
        0.400231,
        0.154113,
        0.819332,
        0.471485,
        0.94525,
        -0.864175,
        0.262125,
        0.123406,
        0.243661,
        -0.475398,
        0.878659,
        -0.624976,
        -0.695725,
        -0.707686,
        -0.607639,
        0.841765,
        0.829428,
        -0.656411,
        0.0281583,
        0.331788,
        0.620654,
        -0.112698,
        -0.0660229,
        0.758057,
        -0.707573,
        -0.796536,
        0.0580883,
        -0.410054,
        -0.112805,
        0.139137,
        -0.7896,
        -0.712574,
        -0.70675,
        -0.970268,
        0.758911,
        -0.7615,
        -0.834443,
        0.0210359,
        0.361906,
        0.409218,
        0.545638,
        0.240564,
        0.784242,
        0.849913,
        0.532878,
        -0.823397,
        0.691678,
        0.362306,
        -0.479809,
        -0.280164,
        -0.305906,
        -0.859155,
        0.607138,
        0.628071,
        0.898902,
        0.899565,
        0.831535,
        -0.0430099,
        -0.510489,
        -0.28127,
        -0.903872,
        -0.300089,
        0.00615633,
        -0.610622,
        -0.270358,
        -0.234933,
        -0.372122,
        -0.104801,
        0.786103,
        0.989784,
        -0.695583,
        0.331741,
        0.230348,
        -0.911341,
        0.181654,
        -0.236774,
        -0.734738,
        -0.126668,
        -0.874468,
        -0.214547,
        0.593168,
        -0.180374,
        -0.0737014,
        0.200305,
        -0.552303,
        -0.1748,
        0.0998697,
        -0.720768,
        0.782191,
        0.589381,
        -0.00203794,
        0.878318,
        -0.710708,
        -0.995882,
        -0.732304,
        0.0189338,
        -0.230814,
        -0.104427,
        0.914133,
        -0.444711,
        -0.114643,
        -0.78145,
        0.88703,
        -0.884295,
        -0.69279,
        0.0686843,
        -0.121069,
        -0.427528,
        0.942016,
        0.00446332,
        0.357925,
        0.535183,
        0.824089,
        -0.715776,
        -0.264512,
        -0.728214,
        0.109424,
        0.835358,
        -0.448983,
        -0.108385,
        0.424739,
        0.548979,
        -0.230067,
        0.714031,
        0.553098,
        0.0376288,
        -0.267036,
        -0.677716,
        0.933202,
        -0.352903,
        -0.122427,
        -0.181441,
        -0.134353,
        -0.235397,
        -0.0657359,
        0.172857,
        0.833287,
        0.813195,
        0.745329,
        0.775303,
        -0.182342,
        0.103254,
        0.310487,
        -0.358252,
        0.387478,
        -0.954025,
        -0.0864668,
        -0.503098,
        0.881333,
        0.46455,
        0.388517,
        0.306072,
        0.0135298,
        -0.84155,
        0.0201029,
        -0.433372,
        0.196079,
        0.753067,
        -0.111089,
        0.129281,
        -0.599836,
        0.766484,
        0.947841,
        0.265812,
        -0.468913,
        -0.117895,
        -0.561331,
        -0.635625,
        -0.3047,
        -0.816002,
        -0.860322,
        0.512958,
        0.287252,
        0.450165,
        -0.845294,
        -0.32527,
        0.49614,
        0.068239,
        0.171632,
        0.377474,
        -0.467211,
        -0.43985,
        -0.316454,
        0.546319,
        -0.2814,
        0.703649,
        -0.887053,
        0.914679,
        0.456716,
        0.00185788,
        0.0439602,
        0.85688,
        -0.231658,
        -0.00819916,
        0.122692,
        0.299429,
        0.873906,
        0.561361,
        0.663803,
        -0.430795,
        0.745359,
        0.803481,
        -0.917836,
        0.0326107,
        0.253646,
        -0.763131,
        0.707341,
        -0.250213,
        0.305108,
        -0.121027,
        -0.87274,
        0.837898,
        0.439123,
        -0.189194,
        0.384217,
        -0.842278,
        -0.485545,
        0.497164,
        -0.927599,
        0.971171,
        -0.500979,
        0.116361,
        0.828051,
        0.267363,
        -0.891838,
        -0.0492567,
        -0.433208,
        0.982068,
        -0.487896,
        -0.769405,
        -0.448727,
        -0.742537,
        -0.965923,
        -0.366563,
        0.290074,
        0.287723,
        -0.129694,
        -0.00258547,
        -0.96249,
        -0.824586,
        0.876387,
        -0.83523,
        -0.986688,
        0.31551,
        -0.0244241,
        0.397529,
        0.473232,
        0.490031,
        -0.105308,
        0.545634,
        0.461202,
        0.393713,
        -0.338005,
        0.289253,
        -0.338924,
        -0.229842,
        -0.760004,
        0.227868,
        -0.247775,
        -0.2479,
        0.458464,
        0.303499,
        0.00956357,
        0.49254,
        0.936935,
        -0.700363,
        -0.219736,
        -0.192759,
        0.297052,
        -0.182227,
        -0.0173446,
        0.17344,
        -0.0174568,
        -0.00403285,
        -0.511051,
        0.958119,
        -0.606504,
        0.962182,
        0.44815,
        0.288188,
        0.507815,
        -0.0906485,
        -0.318099,
        -0.830189,
        -0.801396,
        0.342977,
        -0.0600318,
        -0.5614,
        -0.429155,
        0.692194,
        0.190701,
        -0.970691,
        -0.00430787,
        -0.799736,
        0.52185,
        -0.0673726,
        -0.500098,
        -0.697887,
        0.739869,
        0.796954,
        0.119886,
        -0.277476,
        -0.0296066,
        -0.89757,
        0.718491,
        0.459343,
        -0.939451,
        -0.888013,
        0.421525,
        0.508699,
        0.400174,
        -0.0706599,
        -0.58195,
        -0.917925,
        0.0991508,
        -0.383346,
        0.425053,
        -0.960881,
        0.0552546,
        0.995898,
        0.731312,
        -0.754045,
        -0.974793,
        -0.272995,
        -0.55378,
        0.547057,
        0.659632,
        -0.0538783,
        0.84917,
        0.399501,
        -0.256924,
        -0.0309439,
        -0.877975,
        0.713469,
        0.0714858,
        0.840516,
        0.172812,
        0.132034,
        0.952503,
        -0.405664,
        -0.359267,
        0.352678,
        0.523676,
        0.0587832,
        0.434753,
        -0.377173,
        0.675437,
        -0.140194,
        -0.338054,
        -0.269308,
        -0.144296,
        -0.606742,
        -0.0233526,
        -0.119089,
        0.120263,
        0.422867,
        -0.572032,
        -0.220105,
        -0.631011,
        -0.722863,
        -0.820604,
        0.112064,
        0.246193,
        -0.698579,
        -0.174467,
        -0.682321,
        -0.858063,
        0.998345,
        0.449713,
        -0.90556,
        -0.407319,
        -0.909553,
        0.447117,
        -0.883642,
        0.14923,
        -0.11813,
        -0.260815,
        -0.175333,
        0.741676,
        0.401131,
        0.555359,
        -0.402621,
        0.794389,
        -0.467993,
        0.47829,
        -0.0853478,
        0.954874,
        0.906258,
        0.694547,
        -0.676137,
        -0.816605,
        0.873943,
        0.435927,
        0.429588,
        -0.824637,
        -0.738539,
        0.747267,
        -0.6827,
        -0.740194,
        0.196981,
        -0.58826,
        -0.147513,
        0.287427,
        0.858857,
        -0.0311554,
        -0.563343,
        -0.259273,
        0.70803,
        0.261324,
        -0.517597,
        0.10916,
        -0.183317,
        0.0797822,
        -0.0964504,
        0.34869,
        -0.441927,
        0.818202,
        0.303564,
        -0.53567,
        0.512749,
        0.627427,
        -0.352275,
        0.386692,
        0.0633538,
        -0.922686,
        0.562055,
        0.324814,
        0.824581,
        0.879355,
        0.58462,
        0.0215616,
        -0.708906,
        -0.562893,
        -0.691011,
        -0.850049,
        0.405951,
        -0.254354,
        -0.109322,
        0.113981,
        -0.99303,
        0.373081,
        -0.776859,
        -0.176347,
        -0.547136,
        0.126691,
        -0.827657,
        0.010936,
        -0.0551075,
        0.475907,
        0.475266,
        -0.542359,
        0.103334,
        -0.877008,
        0.844333,
        -0.833312,
        -0.799695,
        0.406388,
        0.491502,
        -0.975114,
        0.285742,
        0.0761219,
        0.0464475,
        0.576836,
        0.513229,
        0.355436,
        0.726788,
        -0.0808198,
        -0.898918,
        -0.382534,
        -0.966839,
        -0.891947,
        0.990548,
        -0.743698,
        -0.068294,
        -0.556589,
        0.382993,
        0.104049,
        0.454347,
        -0.672114,
        -0.420044,
        -0.0703866,
        -0.214473,
        0.68329,
        0.0526049,
        -0.37014,
        0.849978,
        0.25291,
        -0.963753,
        0.34148,
        0.277796,
        0.321989,
        -0.582398,
        -0.675757,
        -0.101174,
        0.93083,
        0.67968,
        -0.374386,
        -0.14999,
        0.780762,
        0.24308,
        -0.116829,
        0.888815,
        0.233627,
        0.139474,
        -0.179479,
        0.677039,
        -0.477533,
        0.92457,
        0.131386,
        -0.149648,
        -0.495474,
        -0.939001,
        0.635879,
        -0.812184,
        0.113604,
        -0.734262,
        -0.962206,
        -0.633486,
        -0.698014,
        0.379274,
        0.64431,
        0.623975,
        0.796875,
        0.968553,
        -0.477199,
        0.727705,
        0.648233,
        0.148414,
        -0.422284,
        0.428995,
        -0.608506,
        0.460887,
        0.317809,
        0.625121,
        -0.399639,
        -0.86167,
        0.30216,
        0.122828,
        -0.9371,
        -0.566454,
        0.97318,
        -0.432574,
        -0.505455,
        0.609059,
        -0.244757,
        0.608149,
        0.874797,
        -0.206963,
        0.974663,
        -0.823217,
        -0.827689,
        0.618973,
        0.800758,
        0.969186,
        0.587525,
        -0.676442,
        0.696891,
        0.235758,
        0.471973,
        -0.725393,
        -0.335247,
        0.863467,
        0.735495,
        0.982562,
        0.488588,
        -0.664144,
        -0.879108,
        -0.209252,
        0.458684,
        -0.816208,
        0.224294,
        0.431864,
        -0.248782,
        0.718838,
        0.0409225,
        0.506461,
        0.326987,
        -0.0842801,
        -0.700502,
        0.30165,
        0.092503,
        -0.528192,
        -0.0793774,
        -0.106739,
        -0.559006,
        -0.491852,
        0.216819,
        -0.862114,
        0.743906,
        -0.311208,
        -0.587507,
        -0.591341,
        -0.447742,
        -0.852012,
        -0.608779,
        -0.959154,
        -0.516157,
        -0.487886,
        -0.168406,
        0.942527,
        -0.304094,
        -0.944112,
        0.37439,
        0.447124,
        0.774727,
        -0.584687,
        -0.0464146,
        0.101714,
        0.331033,
        0.253083,
        -0.596636,
        -0.576464,
        0.724892,
        0.323986,
        0.316797,
        -0.834114,
        0.832134,
        -0.466384,
        -0.696229,
        0.576041,
        0.222408,
        -0.283736,
        0.9847,
        0.774666,
        -0.135748,
        -0.624079,
        0.815513,
        0.348095,
        -0.111965,
        -0.352893,
        0.290622,
        0.583941,
        -0.297005,
        -0.334987,
        0.031065,
        -0.522278,
        0.0803257,
        0.98465,
        0.579435,
        -0.588641,
        0.237734,
        0.982799,
        -0.165106,
        -0.0373747,
        0.306785,
        -0.848309,
        0.128511,
        0.13892,
        -0.314693,
        0.432283,
        -0.285039,
        0.907715,
        -0.851453,
        -0.30034,
        0.682381,
        0.0127993,
        0.0755813,
        0.497893,
        -0.639105,
        0.963616,
        -0.855,
        0.651517,
        0.547557,
        -0.152004,
        -0.68347,
        -0.421378,
        0.325717,
        0.396855,
        -0.436728,
        -0.0948474,
        0.808214,
        0.801006,
        -0.112048,
        -0.356892,
        -0.236369,
        -0.805263,
        -0.2052,
        0.892142,
        0.333657,
        0.480107,
        0.324425,
        -0.951382,
        0.387821,
        0.472972,
        -0.251722,
        0.070202,
        -0.514229,
        0.823859,
        -0.431905,
        -0.153334,
        0.787475,
        -0.286904,
        -0.501817,
        0.335032,
        0.561091,
        -0.185287,
        0.913653,
        -0.113192,
        -0.788432,
        -0.523075,
        0.791961,
        -0.980218,
        -0.722069,
        -0.320087,
        -0.337109,
        0.0415618,
        -0.12535,
        0.45769,
        -0.066296,
        -0.791693,
        -0.0622032,
        -0.741871,
        -0.743075,
        -0.674382,
        0.731101,
        0.00520229,
        0.39582,
        -0.783127,
        -0.170939,
        0.963915,
        0.0635388,
        -0.383464,
        -0.322989,
        0.561722,
        0.951568,
        -0.761898,
        -0.623565,
        0.865222,
        0.12491,
        -0.411997,
        -0.657853,
        -0.0831286,
        -0.392215,
        -0.379922,
        0.596784,
        0.270676,
        0.661639,
        -0.528566,
        -0.271634,
        -0.404657,
        -0.320259,
        0.666163,
        -0.146528,
