{
    "NInput": 784,
    "NHidden": 15,
    "NOutput": 10,
    "NHiddenLayers": 1,
    "Weights": [
        0.971399,
        -0.917133,
        -0.583604,
        -0.841611,
        0.225,
        -0.103124,
        -0.662506,
        -0.0792213,
        0.50864,
        -0.891447,
        0.532213,
        0.289037,
        0.748003,
        -0.40799,
        0.665812,
        0.985051,
        -0.320647,
        -0.837676,
        0.431789,
        0.532135,
        0.108613,
        0.892249,
        0.23305,
        0.0795641,
        -0.732476,
        0.578884,
        -0.802604,
        0.329218,
        0.835527,
        0.445295,
        0.941821,
        0.806926,
        0.528162,
        -0.641783,
        0.965314,
        -0.246839,
        0.255093,
        -0.697191,
        0.67394,
        -0.236267,
        -0.588638,
        0.206153,
        -0.94723,
        -0.840635,
        0.798163,
        0.718582,
        -0.855584,
        -0.522485,
        0.880907,
        0.576205,
        -0.990349,
        -0.0104806,
        0.468454,
        0.242701,
        -0.930916,
        0.735978,
        -0.178415,
        -0.73352,
        0.0651959,
        -0.342888,
        0.711774,
        0.00701737,
        -0.535962,
        0.239936,
        0.365234,
        -0.570648,
        0.993097,
        -0.379673,
        -0.267839,
        0.667037,
        0.38406,
        0.143522,
        -0.12681,
        0.43683,
        0.302887,
        -0.328647,
        0.155412,
        0.447303,
        0.148869,
        0.036319,
        0.023508,
        0.158519,
        -0.974162,
        -0.508038,
        -0.598779,
        -0.905078,
        -0.772059,
        0.222806,
        -0.638598,
        0.293137,
        0.879918,
        -0.926824,
        -0.699846,
        -0.656044,
        0.313112,
        0.665388,
        -0.226692,
        0.306209,
        -0.714284,
        0.505468,
        -0.0267539,
        0.669776,
        -0.351009,
        0.846436,
        0.106606,
        0.951878,
        -0.482211,
        -0.737981,
        0.399181,
        0.666658,
        0.298338,
        -0.577312,
        -0.174823,
        0.324176,
        -0.0853491,
        0.226398,
        0.419098,
        0.142592,
        -0.550796,
        0.7805,
        -0.564272,
        -0.670878,
        0.853675,
        -0.264117,
        -0.326923,
        0.166787,
        -0.598729,
        0.446385,
        -0.527004,
        -0.313013,
        -0.0481471,
        0.446242,
        -0.643238,
        0.600843,
        0.292678,
        0.463369,
        0.552721,
        0.810468,
        0.725387,
        -0.0480986,
        0.477125,
        0.0237249,
        0.37459,
        -0.697697,
        -0.652099,
        -0.710759,
        0.528701,
        0.766999,
        0.431833,
        0.977905,
        0.547499,
        0.867561,
        -0.692974,
        0.401175,
        -0.396557,
        -0.0198963,
        -0.432038,
        0.00471449,
        -0.573511,
        0.0409577,
        0.691701,
        0.378341,
        -0.5128,
        -0.951536,
        -0.0208152,
        0.779878,
        0.511832,
        -0.468094,
        0.590346,
        0.23722,
        0.483807,
        0.0674713,
        -0.739056,
        -0.141603,
        0.369774,
        -0.391154,
        0.147638,
        -0.101525,
        -0.624155,
        -0.42053,
        -0.123621,
        0.923344,
        -0.552969,
        0.183406,
        0.324518,
        0.0504748,
        -0.836491,
        0.89248,
        -0.944811,
        -0.410002,
        -0.0665624,
        0.74689,
        0.968339,
        0.420637,
        0.795354,
        -0.0524759,
        0.200516,
        0.307186,
        0.47943,
        -0.209139,
        -0.455594,
        -0.036763,
        0.858333,
        -0.19465,
        0.821634,
        0.228107,
        0.414196,
        -0.030728,
        -0.873419,
        0.790041,
        0.548742,
        0.00296056,
        0.713384,
        0.995774,
        -0.813634,
        0.0379026,
        0.0462487,
        -0.650124,
        -0.0696175,
        0.101438,
        -0.0601264,
        0.86382,
        -0.151672,
        -0.091787,
        0.284458,
        -0.356317,
        0.855737,
        -0.515027,
        0.950869,
        0.335167,
        0.275835,
        -0.504725,
        -0.701596,
        0.134167,
        0.300625,
        -0.879962,
        -0.637726,
        -0.285179,
        0.0893102,
        -0.511145,
        -0.495138,
        -0.361947,
        0.491816,
        -0.781754,
        -0.366174,
        0.678182,
        0.256149,
        0.680075,
        -0.971942,
        -0.813469,
        -0.218487,
        -0.0320686,
        -0.949649,
        0.629841,
        0.876144,
        0.334809,
        -0.726476,
        0.731881,
        0.819782,
        -0.775607,
        0.0670485,
        0.0956167,
        -0.280332,
        0.365453,
        -0.770216,
        -0.979707,
        0.485491,
        -0.407942,
        -0.264886,
        -0.425199,
        0.0809138,
        0.239976,
        0.212853,
        -0.42727,
        0.458222,
        0.84668,
        -0.749088,
        -0.28563,
        0.526755,
        -0.72103,
        -0.0990986,
        -0.691732,
        0.246901,
        -0.0487473,
        0.938109,
        0.123046,
        -0.713939,
        -0.788367,
        -0.145073,
        -0.894157,
        -0.563974,
        0.921976,
        0.20146,
        0.155694,
        0.287428,
        0.431244,
        0.175986,
        -0.227081,
        -0.976698,
        0.9111,
        0.34772,
        0.104216,
        0.151076,
        -0.439427,
        0.676946,
        -0.390703,
        -0.592747,
        0.927858,
        0.323668,
        0.934007,
        -0.793172,
        -0.775431,
        -0.757725,
        0.453729,
        0.175822,
        -0.819616,
        -0.423225,
        0.461883,
        -0.607983,
        0.431702,
        0.567726,
        -0.171957,
        0.353678,
        -0.230813,
        0.983737,
        -0.358894,
        -0.799569,
        0.159723,
        0.414025,
        -0.776267,
        0.0708234,
        -0.238255,
        0.32795,
        -0.778101,
        0.322318,
        0.00489557,
        -0.168804,
        0.729571,
        -0.0672464,
        -0.845136,
        0.663578,
        0.139581,
        -0.620567,
        0.905853,
        -0.406689,
        0.555254,
        -0.913763,
        0.170086,
        0.0171375,
        -0.521745,
        -0.398212,
        -0.415136,
        0.306298,
        0.955466,
        0.354051,
        0.290035,
        -0.403428,
        0.554482,
        -0.550242,
        -0.989402,
        0.778215,
        0.520582,
        -0.227658,
        0.106164,
        0.742481,
        -0.90534,
        -0.88894,
        -0.426323,
        0.824231,
        0.0438136,
        -0.271459,
        0.487808,
        -0.816605,
        0.107974,
        0.393662,
        -0.223294,
        -0.336772,
        0.479899,
        0.946791,
        0.680366,
        0.958154,
        -0.451421,
        -0.73477,
        0.264452,
        -0.495955,
        0.61928,
        -0.445513,
        0.100617,
        0.173762,
        0.00424552,
        0.111215,
        -0.0480234,
        -0.475173,
        0.883557,
        -0.941859,
        -0.732692,
        0.978217,
        -0.830799,
        -0.159015,
        0.802448,
        0.213014,
        0.569526,
        0.290256,
        0.39641,
        -0.3225,
        -0.316082,
        -0.826885,
        0.340728,
        -0.836183,
        -0.880094,
        0.0210936,
        -0.878029,
        -0.331514,
        0.286323,
        0.386423,
        0.172531,
        -0.0943964,
        0.940911,
        -0.726852,
        -0.920635,
        -0.0548438,
        0.384363,
        0.0313421,
        0.469983,
        0.26792,
        0.0894831,
        0.737291,
        0.246138,
        0.258684,
        -0.421724,
        0.0485855,
        -0.528301,
        -0.852198,
        -0.661158,
        0.868108,
        -0.174698,
        0.02276,
        -0.958777,
        -0.833971,
        0.186577,
        -0.83887,
        0.187123,
        0.308548,
        -0.170385,
        -0.526554,
        -0.305028,
        -0.997854,
        0.37905,
        -0.364118,
        -0.724706,
        0.458415,
        0.581038,
        0.659657,
        -0.510243,
        0.0510218,
        -0.0724223,
        0.579241,
        -0.211687,
        -0.826285,
        -0.162075,
        0.366589,
        0.222301,
        0.309623,
        0.514391,
        0.561143,
        0.177731,
        -0.660307,
        -0.416097,
        0.218955,
        -0.494278,
        0.77048,
        0.380085,
        0.692845,
        0.0790281,
        -0.7903,
        -0.833709,
        0.774,
        -0.788154,
        0.545341,
        -0.590118,
        -0.512859,
        0.00375664,
        0.990921,
        -0.853202,
        0.493514,
        0.0419424,
        0.0743757,
        0.0727546,
        0.830255,
        0.248091,
        0.910679,
        0.196844,
        -0.529608,
        0.220303,
        -0.288765,
        -0.968465,
        -0.601966,
        0.050928,
        -0.384563,
        0.616989,
        0.55665,
        -0.614083,
        -0.00292689,
        0.249495,
        0.464946,
        0.206773,
        0.415786,
        0.238945,
        0.418619,
        -0.0388724,
        0.648828,
        0.90576,
        0.964884,
        0.639748,
        -0.947442,
        0.458398,
        -0.318309,
        0.126934,
        -0.468847,
        -0.488054,
        -0.624975,
        -0.558168,
        0.70879,
        -0.154583,
        0.662135,
        -0.579974,
        -0.123048,
        -0.939831,
        0.470954,
        0.492389,
        0.677157,
        0.0276039,
        0.878307,
        -0.32577,
        -0.722901,
        0.343252,
        0.881004,
        0.692885,
        -0.417803,
        0.299623,
        -0.345987,
        -0.768975,
        0.205383,
        -0.381103,
        0.870773,
        0.257941,
        -0.922705,
        -0.447536,
        -0.615125,
        -0.391552,
        0.0644095,
        -0.2401,
        0.0502806,
        -0.2268,
        0.605317,
        -0.287585,
        0.193226,
        -0.517732,
        -0.227416,
        -0.335821,
        0.974658,
        -0.550258,
        0.691783,
        0.852964,
        0.123972,
        0.968882,
        0.196216,
        0.00497556,
        0.661767,
        0.778413,
        -0.695402,
        -0.68422,
        -0.990562,
        0.509981,
        -0.0653227,
        0.880211,
        -0.232078,
        0.0119727,
        -0.567325,
        0.152797,
        0.620421,
        0.497085,
        0.912697,
        -0.329298,
        -0.729716,
        0.518014,
        0.383117,
        0.46351,
        -0.999718,
        -0.844299,
        -0.872311,
        0.97494,
        -0.394557,
        0.819472,
        0.827904,
        0.729415,
        0.788354,
        0.02412,
        -0.26561,
        0.450122,
        -0.197467,
        0.0389887,
        0.765902,
        -0.188028,
        -0.45103,
        -0.299421,
        -0.307817,
        0.316892,
        0.712552,
        0.124858,
        -0.53031,
        0.332973,
        -0.378057,
        -0.617613,
        -0.996326,
        -0.107772,
        0.900401,
        0.386791,
        -0.644263,
        0.900683,
        0.542492,
        -0.516573,
        0.875623,
        -0.852065,
        -0.697101,
        0.703527,
        0.87735,
        -0.908747,
        -0.272353,
        -0.38826,
        0.541375,
        0.53018,
        0.650729,
        0.307277,
        -0.657848,
        -0.800301,
        -0.992144,
        0.0343353,
        0.516591,
        0.720408,
        -0.840806,
        0.986281,
        0.0533813,
        -0.218863,
        -0.631333,
        0.0570557,
        0.673364,
        -0.730932,
        -0.556153,
        -0.970898,
        -0.830249,
        0.986339,
        -0.487472,
        -0.954626,
        -0.865725,
        -0.184573,
        0.748901,
        -0.988376,
        -0.0933192,
        -0.523453,
        -0.376636,
        -0.551944,
        -0.993273,
        -0.725907,
        0.755333,
        -0.651121,
        -0.526208,
        0.763189,
        0.383214,
        0.990383,
        0.483598,
        0.542408,
        0.976664,
        -0.463021,
        -0.676455,
        -0.654669,
        0.594035,
        0.996909,
        -0.385601,
        -0.962118,
        -0.973989,
        -0.21585,
        -0.975779,
        -0.461461,
        -0.170476,
        -0.841504,
        0.353967,
        -0.421575,
        -0.82988,
        -0.739353,
        0.0549718,
        -0.206515,
        -0.291297,
        0.0616992,
        0.0675775,
        -0.535964,
        0.410578,
        0.541369,
        -0.772774,
        -0.206207,
        0.531752,
        0.710823,
        -0.663799,
        0.508416,
        -0.752198,
        -0.340254,
        0.853747,
        0.841837,
        -0.343345,
        -0.531854,
        0.879719,
        -0.317334,
        0.252296,
        0.90394,
        0.221205,
        -0.91818,
        -0.937564,
        -0.424828,
        -0.339755,
        -0.767443,
        -0.164181,
        0.715217,
        0.0260413,
        0.544523,
        -0.223084,
        -0.906381,
        -0.991441,
        -0.812506,
        0.634988,
        -0.764215,
        -0.018713,
        0.16674,
        0.946608,
        0.317488,
        -0.324844,
        -0.805589,
        0.977234,
        -0.471098,
        -0.963752,
        -0.366111,
        -0.0029518,
        0.915967,
        0.316555,
        -0.750656,
        0.819908,
        -0.46224,
        -0.668835,
        0.882344,
        0.112932,
        -0.00859034,
        -0.885099,
        0.948751,
        -0.293374,
        0.140942,
        0.493274,
        0.483542,
        0.234561,
        0.501833,
        0.671037,
        -0.130452,
        0.737617,
        -0.347676,
        -0.963712,
        0.684225,
        0.969812,
        -0.288556,
        0.878636,
        0.947045,
        0.240346,
        0.914884,
        -0.419066,
        -0.762606,
        0.830851,
        0.897489,
        -0.513261,
        0.650758,
        -0.564751,
        -0.182096,
        0.533102,
        0.54818,
        0.809313,
        0.648003,
        0.496932,
        -0.48406,
        -0.211055,
        -0.00979453,
        0.999482,
        -0.976495,
        -0.507962,
        0.670519,
        -0.106946,
        -0.770344,
        -0.677158,
        -0.070658,
        0.913881,
        -0.707346,
        0.640786,
        0.792517,
        -0.760301,
        -0.118868,
        0.7074,
        -0.179367,
        0.118527,
        0.538251,
        -0.281878,
        0.605265,
        0.189009,
        0.15337,
        -0.576831,
        -0.277889,
        -0.298449,
        -0.767518,
        -0.629886,
        -0.801518,
        -0.251578,
        0.159059,
        0.188688,
        -0.252096,
        0.182564,
        0.680726,
        -0.581578,
        -0.924383,
        0.910382,
        -0.258736,
        0.00495911,
        0.824262,
        0.033918,
        -0.354255,
        0.616779,
        0.273617,
        0.526877,
        0.324179,
        -0.90575,
        -0.354596,
        -0.13757,
        -0.187629,
        -0.749331,
        -0.94856,
        0.965742,
        -0.326162,
        -0.226449,
        -0.332708,
        -0.0936798,
        0.143665,
        -0.134225,
        0.654742,
        -0.697277,
        -0.945538,
        -0.597354,
        0.485287,
        0.735188,
        -0.178932,
        0.560904,
        0.64557,
        0.562332,
        -0.434137,
        0.469832,
        -0.40375,
        0.211609,
        0.0866114,
        0.869867,
        -0.261514,
        -0.589209,
        0.964117,
        0.383889,
        0.273221,
        -0.223511,
        0.634558,
        0.324661,
        -0.25777,
        -0.691604,
        -0.901789,
        0.409523,
        0.214717,
        0.241876,
        -0.724703,
        -0.130542,
        0.5446,
        -0.67024,
        0.272104,
        0.0298868,
        -0.935052,
        -0.906828,
        -0.409209,
        0.710518,
        0.655504,
        0.156655,
        0.180351,
        -0.748245,
        -0.631737,
        -0.733038,
        -0.878378,
        0.106749,
        -0.322247,
        -0.914261,
        -0.509362,
        0.950974,
        -0.137772,
        -0.874804,
        0.275634,
        0.604458,
        -0.566407,
        0.373846,
        0.0139807,
        0.648309,
        -0.384278,
        0.289278,
        -0.482232,
        -0.839678,
        0.619038,
        0.789872,
        0.190209,
        0.683986,
        0.883044,
        0.781,
        0.394504,
        0.538548,
        -0.0623454,
        -0.425145,
        0.790303,
        0.305918,
        -0.158184,
        0.911925,
        -0.587333,
        0.519569,
        0.997665,
        -0.0966954,
        0.470543,
        -0.140107,
        0.028501,
        -0.253823,
        -0.535649,
        0.462094,
        -0.879977,
        0.478331,
        0.110403,
        -0.264255,
        -0.232391,
        0.628171,
        -0.103933,
        -0.613353,
        0.418043,
        -0.913724,
        -0.929367,
        0.301087,
        0.867276,
        0.465137,
        -0.160365,
        -0.19507,
        -0.960009,
        -0.370062,
        -0.889152,
        -0.118192,
        -0.458136,
        -0.476485,
        -0.598623,
        -0.460472,
        0.426819,
        0.87192,
        0.399421,
        -0.54468,
        -0.381903,
        0.863772,
        0.917414,
        -0.261881,
        0.342103,
        0.0278174,
        0.473864,
        -0.890288,
        -0.344012,
        -0.630069,
        -0.503641,
        -0.925969,
        -0.543793,
        -0.433008,
        0.375118,
        -0.676518,
        -0.967871,
        -0.785247,
        0.128412,
        -0.92788,
        -0.155308,
        0.23926,
        -0.0460724,
        0.386556,
        0.762775,
        0.355304,
        0.926084,
        0.189594,
        0.227224,
        0.325505,
        0.644915,
        0.845321,
        0.189277,
        0.562329,
        -0.41656,
        -0.46862,
        -0.409854,
        -0.942696,
        -0.358908,
        0.246135,
        -0.572765,
        0.137451,
        0.320166,
        -0.116558,
        0.704443,
        -0.304716,
        0.206924,
        0.736572,
        -0.0899626,
        -0.664664,
        0.808692,
        0.754729,
        0.574596,
        -0.237381,
        0.141285,
        0.337371,
        -0.882076,
        0.067369,
        -0.473035,
        0.345148,
        -0.607126,
        -0.82812,
        0.190469,
        0.582151,
        0.734209,
        0.773909,
        -0.88647,
        -0.675645,
        0.831213,
        -0.245377,
        0.570489,
        -0.741552,
        0.892074,
        -0.109345,
        0.14189,
        0.596517,
        0.585939,
        -0.651187,
        0.333089,
        -0.504023,
        -0.315851,
        0.141781,
        -0.749294,
        -0.741254,
        0.904401,
        0.391991,
        0.596117,
        -0.977675,
        -0.54064,
        -0.876917,
        0.367473,
        -0.147766,
        -0.705037,
        -0.442058,
        -0.565616,
        -0.970829,
        -0.668149,
        -0.452085,
        -0.646474,
        -0.836937,
        0.302537,
        0.924016,
        -0.578488,
        0.194611,
        -0.185329,
        0.563401,
        -0.208872,
        -0.59939,
        0.912214,
        -0.875783,
        -0.103414,
        -0.403636,
        0.265998,
        0.147292,
        -0.144891,
        0.170399,
        -0.460717,
        -0.548774,
        0.192724,
        -0.00135761,
        -0.425691,
        -0.439804,
        0.850876,
        -0.130729,
        0.118138,
        -0.71474,
        -0.101557,
        0.449988,
        -0.166825,
        0.251969,
        0.613052,
        -0.864288,
        0.175984,
        -0.965437,
        0.330323,
        0.990655,
        0.597964,
        -0.878549,
        -0.608735,
        0.510179,
        -0.754332,
        0.287851,
        -0.893458,
        0.511667,
        -0.564857,
        -0.0383483,
        -0.317934,
        -0.0255738,
        0.412878,
        0.874789,
        0.973068,
        0.987187,
        -0.565014,
        0.823944,
        -0.143542,
        0.553123,
        -0.890795,
        0.754901,
        0.00311184,
        -0.0576207,
        0.00686979,
        -0.383836,
        0.0780911,
        -0.817146,
        -0.349273,
        -0.591586,
        -0.826491,
        -0.751309,
        -0.470135,
        -0.435226,
        0.75887,
        -0.224467,
        0.852625,
        0.865413,
        -0.7128,
        -0.712232,
        -0.172936,
        -0.0307342,
        0.262195,
        -0.760058,
        -0.155945,
        0.235263,
        -0.772871,
        0.27904,
        0.0592076,
        0.0835874,
        -0.167836,
        0.168412,
        -0.161512,
        0.835276,
        -0.889209,
        0.845358,
        -0.548561,
        0.188883,
        -0.971788,
        0.102166,
        0.597296,
        -0.798279,
        0.350858,
        -0.872839,
        -0.233505,
        0.109728,
        -0.0973052,
        -0.38088,
        -0.0248594,
        0.189895,
        -0.0931112,
        0.802205,
        -0.840839,
        -0.830917,
        -0.957853,
        0.00321555,
        0.404347,
        -0.730724,
        -0.717744,
        -0.536446,
        0.352864,
        0.11442,
        0.631966,
        -0.808648,
        -0.0503045,
        0.742758,
        -0.96329,
        0.401135,
        -0.0683598,
        -0.935077,
        -0.496699,
        -0.471063,
        -0.733356,
        0.854159,
        -0.343902,
        0.0331391,
        -0.0361131,
        0.558793,
        0.652259,
        0.939028,
        -0.251312,
        -0.440852,
        0.741233,
        -0.0921515,
        -0.271768,
        0.78338,
        0.911064,
        -0.867422,
        -0.947344,
        -0.80668,
        -0.403867,
        0.40552,
        0.30774,
        -0.771901,
        0.596872,
        -0.742565,
        0.970856,
        0.633582,
        0.65857,
        -0.0975034,
        0.698505,
        -0.838129,
        0.431433,
        0.965149,
        -0.98397,
        -0.912469,
        -0.00171232,
        -0.020083,
        0.646324,
        -0.349453,
        -0.0810555,
        -0.604988,
        0.209696,
        -0.339823,
        0.302861,
        0.937927,
        -0.556443,
        0.213925,
        -0.929494,
        -0.503787,
        0.407245,
        -0.333362,
        0.901733,
        -0.285015,
        -0.105263,
        0.498605,
        -0.0275798,
        -0.134406,
        0.132187,
        -0.36901,
        0.76809,
        -0.169308,
        -0.207138,
        0.199523,
        -0.20416,
        -0.191108,
        0.287055,
        0.794128,
        0.788809,
        -0.0666207,
        -0.555325,
        -0.292247,
        0.328392,
        0.654371,
        0.36793,
        -0.368748,
        0.592298,
        0.811487,
        0.845177,
        0.662804,
        -0.6923,
        0.252422,
        -0.670558,
        -0.790568,
        0.967407,
        0.22418,
        0.708037,
        -0.0601732,
        -0.910227,
        -0.159776,
        0.570817,
        0.857863,
        0.670915,
        -0.636321,
        0.0573865,
        -0.533244,
        0.172571,
        -0.655559,
        -0.739117,
        -0.0386205,
        0.277821,
        -0.294442,
        0.669133,
        -0.393788,
        -0.640071,
        0.0370631,
        0.237465,
        0.952227,
        -0.15145,
        0.0826415,
        0.615031,
        0.15625,
        -0.664937,
        0.944474,
        0.365682,
        -0.69753,
        0.168653,
        0.0737195,
        0.242297,
        0.258426,
        0.913943,
        -0.186886,
        0.116289,
        0.584859,
        0.176793,
        -0.826324,
        -0.948386,
        -0.650636,
        -0.481883,
        -0.687502,
        0.310743,
        0.795938,
        0.0180564,
        -0.0201241,
        -0.59785,
        0.377985,
        -0.983061,
        0.639614,
        0.330213,
        -0.134511,
        -0.277744,
        -0.0547562,
        -0.978261,
        0.0573194,
        -0.110283,
        0.387421,
        0.359789,
        -0.94163,
        -0.538859,
        -0.397914,
        0.316796,
        -0.624916,
        0.4152,
        -0.566915,
        0.959943,
        -0.408007,
        -0.393239,
        -0.988442,
        -0.0586434,
        0.124878,
        -0.675944,
        -0.7479,
        -0.0791842,
        0.342112,
        0.231975,
        0.322966,
        -0.279903,
        0.248914,
        -0.0374197,
        -0.94969,
        -0.885596,
        0.684836,
        -0.00444609,
        -0.863857,
        -0.257844,
        0.885271,
        0.523564,
        -0.898055,
        0.943641,
        0.984705,
        -0.295969,
        0.260437,
        -0.64021,
        -0.880769,
        0.693523,
        -0.680267,
        -0.288776,
        -0.699716,
        -0.668709,
        0.652581,
        0.425161,
        -0.344654,
        0.904681,
        -0.654023,
        0.997458,
        0.136656,
        0.668943,
        -0.282444,
        -0.61443,
        -0.368477,
        -0.232134,
        -0.500026,
        -0.68364,
        0.76342,
        -0.363883,
        0.0585154,
        0.648691,
        -0.840319,
        0.16046,
        0.592332,
        -0.855614,
        0.864492,
        -0.14723,
        -0.495824,
        0.983723,
        -0.453708,
        -0.176092,
        -0.305053,
        -0.153424,
        0.155199,
        -0.652472,
        -0.728263,
        0.810545,
        -0.747791,
        -0.382286,
        0.808004,
        0.388865,
        -0.713342,
        -0.474441,
        0.774435,
        -0.0818191,
        0.293425,
        -0.725591,
        0.234541,
        0.0568452,
        -0.0894739,
        -0.706944,
        -0.294464,
        0.070207,
        0.453517,
        -0.702132,
        0.214593,
        0.318008,
        0.150638,
        0.718769,
        0.301731,
        0.69693,
        -0.457323,
        0.996679,
        -0.456494,
        0.697876,
        -0.655793,
        -0.184757,
        0.508422,
        -0.403584,
        0.432958,
        0.316425,
        0.985281,
        0.719615,
        0.841985,
        0.759716,
        -0.362204,
        0.13541,
        -0.965874,
        0.872337,
        -0.807745,
        -0.0553482,
        -0.834607,
        -0.102209,
        -0.985141,
        0.618909,
        0.19566,
        0.229452,
        -0.0630825,
        -0.653702,
        -0.0517797,
        -0.761351,
        -0.956772,
        0.490897,
        -0.764673,
        -0.413267,
        0.188773,
        -0.420466,
        0.401976,
        -0.302805,
        0.17595,
        -0.165066,
        -0.98638,
        0.161231,
        -0.445451,
        0.855605,
        -0.079053,
        0.192345,
        -0.00898528,
        -0.0449274,
        0.0646816,
        0.18327,
        0.899724,
        0.230074,
        -0.918939,
        0.914583,
        -0.151016,
        0.276721,
        0.144035,
        0.785901,
        0.623018,
        -0.907745,
        -0.97545,
        0.666246,
        0.583152,
        -0.740123,
        -0.747021,
        -0.228074,
        -0.160589,
        0.654956,
        0.469121,
        -0.984639,
        -0.510111,
        0.482741,
        0.176592,
        0.0444384,
        0.338346,
        -0.902461,
        -0.763217,
        -0.67064,
        0.0526116,
        0.301465,
        0.51263,
        -0.0476641,
        -0.468461,
        0.593691,
        -0.133081,
        0.380523,
        -0.129588,
        -0.989046,
        0.166424,
        -0.50657,
        -0.896791,
        0.190974,
        -0.840324,
        0.686361,
        0.450851,
        -0.587345,
        -0.541713,
        -0.709738,
        -0.93239,
        0.927408,
        -0.694377,
        -0.4425,
        0.410148,
        0.482215,
        0.601938,
        -0.251506,
        0.579754,
        0.838722,
        0.077854,
        -0.367634,
        0.140187,
        -0.409516,
        0.584702,
        0.671726,
        -0.815825,
        -0.548379,
        0.0522487,
        0.0545872,
        -0.537425,
        -0.781327,
        0.548017,
        -0.434217,
        0.409647,
        0.707693,
        -0.747855,
        -0.139502,
        -0.879652,
        -0.289569,
        0.15076,
        -0.812042,
        -0.362161,
        0.456383,
        -0.254542,
        -0.952013,
        -0.0614015,
        -0.652604,
        -0.203519,
        -0.481647,
        -0.813882,
        0.874335,
        0.150719,
        0.326304,
        -0.53518,
        -0.26458,
        -0.00196975,
        -0.351005,
        0.187041,
        -0.949721,
        0.703582,
        0.649616,
        -0.731048,
        0.251599,
        -0.784601,
        0.678598,
        -0.0407076,
        -0.532456,
        -0.460904,
        0.0796404,
        0.177975,
        0.689856,
        0.267599,
        0.815814,
        0.146239,
        -0.986943,
        0.863802,
        -0.915163,
        -0.639547,
        -0.339717,
        -0.39681,
        -0.453429,
        -0.465381,
        0.753909,
        0.872876,
        -0.000561833,
        -0.510671,
        -0.129094,
        0.648433,
        0.676371,
        -0.078815,
        0.352015,
        0.325986,
        0.190137,
        -0.396386,
        0.541386,
        -0.131265,
        0.562907,
        -0.99107,
        0.407831,
        -0.357453,
        0.186905,
        0.0976868,
        0.910146,
        0.0027194,
        -0.756074,
        0.923203,
        -0.133479,
        -0.671237,
        -0.716344,
        0.526805,
        -0.0680473,
        -0.169773,
        -0.938577,
        -0.314139,
        -0.296897,
        0.0608613,
        0.17519,
        0.574009,
        -0.290706,
        -0.148439,
        -0.504806,
        -0.938691,
        -0.822453,
        0.685331,
        -0.335076,
        0.718933,
        -0.445934,
        -0.77217,
        0.727863,
        0.961897,
        -0.129623,
        -0.0852324,
        0.0595841,
        -0.219477,
        0.917487,
        0.30351,
        -0.296274,
        -0.215992,
        0.632272,
        -0.0126173,
        -0.689187,
        -0.435775,
        0.81761,
        -0.627764,
        0.250086,
        -0.479287,
        0.433098,
        -0.574723,
        -0.905278,
        -0.857608,
        0.276838,
        -0.410084,
        -0.796299,
        0.454385,
        -0.724753,
        -0.131375,
        0.173318,
        -0.170686,
        0.0964551,
        -0.0988194,
        -0.208789,
        0.966833,
        0.815948,
        0.850795,
        -0.252644,
        0.733435,
        0.154305,
        0.451082,
        -0.482556,
        -0.213423,
        -0.561535,
        -0.171743,
        0.350802,
        -0.743925,
        0.200493,
        -0.399112,
        -0.223212,
        -0.366409,
        0.0261651,
        -0.128489,
        -0.224018,
        -0.696997,
        0.461427,
        -0.0203165,
        0.757388,
        0.736675,
        0.848308,
        -0.0692943,
        -0.434012,
        -0.0552367,
        0.831886,
        0.357199,
        -0.0884042,
        0.647834,
        0.207994,
        0.658952,
        0.38127,
        -0.637701,
        0.110034,
        0.898714,
        0.148876,
        0.548499,
        -0.27303,
        -0.500322,
        0.804574,
        0.927463,
        0.100567,
        -0.418637,
        -0.438946,
        -0.873268,
        0.452874,
        0.337036,
        -0.570266,
        -0.085699,
        -0.68328,
        -0.812878,
        -0.349024,
        -0.834972,
        0.117828,
        0.216964,
        0.109792,
        -0.050286,
        -0.425837,
        -0.978613,
        -0.402452,
        0.782157,
        0.680339,
        0.978818,
        -0.855544,
        -0.209627,
        0.877532,
        0.293332,
        -0.661128,
        -0.395498,
        0.79301,
        -0.856553,
        -0.468035,
        -0.106424,
        -0.27519,
        0.0930195,
        0.020308,
        -0.822317,
        -0.569944,
        0.450042,
        0.0919842,
        -0.253224,
        0.637165,
        0.74296,
        -0.088196,
        -0.245008,
        -0.0400763,
        -0.978404,
        0.704706,
        0.534087,
        -0.957017,
        -0.697745,
        0.316244,
        0.723322,
        -0.718927,
        0.460699,
        -0.486305,
        -0.841395,
        -0.245969,
        -0.147432,
        -0.236893,
        -0.452959,
        -0.0039854,
        0.295072,
        0.440617,
        0.720824,
        -0.611908,
        -0.539074,
        0.898507,
        -0.181852,
        0.910968,
        -0.00950831,
        0.564924,
        0.548133,
        -0.266549,
        -0.523272,
        -0.696875,
        0.693375,
        -0.501677,
        -0.992169,
        0.227462,
        -0.458694,
        -0.689914,
        -0.456295,
        -0.735372,
        -0.408841,
        -0.995595,
        -0.221677,
        -0.250236,
        -0.241564,
        0.630891,
        0.512871,
        0.305477,
        -0.373094,
        -0.192056,
        -0.253905,
        -0.65227,
        0.196036,
        0.20702,
        -0.753763,
        -0.985816,
        0.117988,
        0.236729,
        0.579107,
        -0.333879,
        0.970181,
        -0.944165,
        -0.0307544,
        0.663556,
        -0.445842,
        -0.0229231,
        -0.108982,
        0.0954643,
        0.287163,
        0.434723,
        0.360092,
        0.878322,
        0.439128,
        -0.861584,
        -0.371913,
        -0.802436,
        0.769307,
        -0.859042,
        0.503041,
        -0.603787,
        -0.0510984,
        -0.750865,
        -0.256058,
        -0.855063,
        0.456155,
        -0.00982016,
        -0.840879,
        -0.425857,
        -0.773091,
        0.738228,
        0.240264,
        -0.802911,
        0.794063,
        -0.790491,
        0.860645,
        -0.651779,
        0.186586,
        -0.248337,
        0.443686,
        -0.52625,
        -0.813614,
        -0.196222,
        -0.647928,
        0.625513,
        -0.0578062,
        -0.0198411,
        0.823077,
        -0.288499,
        0.121117,
        0.326117,
        0.107713,
        -0.929982,
        0.575253,
        0.851656,
        -0.785044,
        0.031408,
        -0.158165,
        -0.625923,
        0.605551,
        0.0687444,
        -0.887695,
        -0.154185,
        0.265834,
        0.906368,
        0.0553247,
        0.126479,
        -0.745411,
        -0.758089,
        0.878142,
        0.698275,
        -0.284339,
        -0.935472,
        -0.497947,
        0.0677328,
        0.690041,
        0.444247,
        -0.952108,
        0.513118,
        -0.844253,
        0.169009,
        -0.160765,
        0.263461,
        0.239027,
        -0.585512,
        0.115116,
        0.453983,
        0.445896,
        0.956952,
        0.828059,
        0.0514469,
        0.0256962,
        0.940364,
        0.897262,
        -0.70847,
        0.846732,
        -0.0474131,
        0.418009,
        -0.898679,
        0.194498,
        0.296151,
        0.799596,
        0.910159,
        0.360679,
        -0.698352,
        -0.0221084,
        0.0507196,
        0.745895,
        0.0257833,
        -0.436163,
        0.901643,
        -0.805208,
        0.403072,
        0.165103,
        0.433819,
        0.81756,
        -0.71978,
        -0.112198,
        0.263456,
        -0.762829,
        -0.284139,
        -0.685097,
        0.262867,
        -0.343775,
        -0.787835,
        0.554398,
        -0.497044,
        0.164752,
        -0.0275932,
        -0.395723,
        -0.64075,
        -0.731442,
        -0.596128,
        -0.730591,
        0.629237,
        -0.294479,
        0.2473,
        -0.320044,
        -0.548584,
        -0.726916,
        0.243794,
        -0.646941,
        -0.532125,
        -0.353134,
        0.518162,
        0.901694,
        -0.535573,
        0.798382,
        -0.210504,
        0.727882,
        -0.964447,
        0.505357,
        -0.957215,
        0.29842,
        -0.838419,
        -0.74505,
        -0.147182,
        -0.335463,
        0.419702,
        0.825225,
        0.268814,
        0.778952,
        -0.906217,
        0.672687,
        -0.951639,
        0.72302,
        -0.621792,
        0.295661,
        -0.597024,
        -0.170376,
        0.568745,
        0.64677,
        0.182683,
        -0.96338,
        -0.706364,
        -0.299155,
        0.938314,
        -0.241937,
        -0.500773,
        -0.27219,
        -0.514055,
        -0.46522,
        -0.766833,
        -0.471269,
        0.8332,
        -0.605252,
        -0.216319,
        -0.313982,
        0.0592854,
        -0.796617,
        -0.488757,
        -0.6719,
        0.982336,
        -0.394974,
        -0.999213,
        -0.969303,
        -0.671955,
        -0.621005,
        0.326358,
        -0.268978,
        0.208619,
        -0.104898,
        -0.622208,
        -0.608698,
        -0.0682777,
        -0.328572,
        0.0921474,
        -0.129963,
        0.429491,
        0.591374,
        0.597847,
        0.915436,
        -0.873846,
        0.831013,
        -0.555834,
        0.959354,
        -0.774239,
        0.227847,
        -0.354628,
        0.285047,
        0.43123,
        0.156615,
        0.613146,
        0.413566,
        0.761641,
        0.613933,
        0.444263,
        -0.910313,
        0.992928,
        -0.22938,
        -0.179292,
        0.201547,
        0.665722,
        0.1985,
        0.592849,
        -0.402555,
        0.869928,
        -0.315003,
        0.467481,
        0.299418,
        -0.723629,
        0.0653278,
        0.214854,
        -0.597475,
        -0.103659,
        0.65902,
        -0.638121,
        0.122102,
        -0.113133,
        0.00725162,
        -0.592851,
        -0.681902,
        -0.836133,
        -0.979705,
        0.731664,
        0.925508,
        0.634228,
        0.175926,
        -0.984805,
        0.627157,
        0.946546,
        -0.164096,
        -0.171296,
        0.612269,
        -0.965597,
        -0.578447,
        -0.790287,
        0.904331,
        0.10655,
        0.677194,
        0.203749,
        0.382921,
        -0.257478,
        -0.581397,
        0.785446,
        0.638863,
        -0.922377,
        -0.852675,
        -0.239035,
        -0.0355092,
        0.154577,
        0.168114,
        0.282588,
        0.318444,
        0.188409,
        0.0142523,
        0.243953,
        -0.177362,
        -0.809821,
        0.259148,
        -0.550206,
        -0.863275,
        -0.904949,
        0.278498,
        0.748994,
        -0.870545,
        0.700052,
        0.958707,
        -0.966214,
        -0.193398,
        0.635901,
        0.237535,
        -0.810477,
        -0.621576,
        0.656139,
        0.974969,
        -0.982713,
        0.733762,
        -0.877705,
        -0.221748,
        -0.301747,
        0.276872,
        0.946366,
        0.980841,
        -0.404684,
        0.134775,
        -0.00490648,
        0.839268,
        0.957413,
        0.185272,
        0.0984162,
        -0.592793,
        0.321997,
        0.193467,
        0.685706,
        0.0709903,
        0.322922,
        0.385757,
        0.0296972,
        0.356708,
        -0.807641,
        -0.334402,
        -0.405757,
        -0.618117,
        0.0440221,
        -0.749618,
        -0.643148,
        0.0613089,
        0.984144,
        -0.520853,
        0.839561,
        -0.317604,
        0.756019,
        0.785927,
        -0.336762,
        -0.648666,
        -0.0792972,
        0.658331,
        -0.809397,
        -0.121884,
        -0.156397,
        0.289019,
        0.285323,
        -0.8344,
        -0.517514,
        -0.028971,
        0.23659,
        0.805409,
        -0.643214,
        -0.733713,
        0.162117,
        -0.450854,
        -0.0681141,
        0.75636,
        -0.0689716,
        0.975908,
        -0.993259,
        0.28788,
        0.0372168,
        0.990885,
        0.767027,
        -0.123222,
        -0.326719,
        0.523046,
        -0.337295,
        0.336519,
        0.87438,
        0.583408,
        -0.00515026,
        -0.935017,
        -0.538476,
        0.838453,
        0.354002,
        0.746847,
        -0.995947,
        0.836488,
        -0.282124,
        0.240643,
        0.641897,
        0.0746624,
        0.50693,
        -0.195987,
        0.623808,
        -0.561184,
        -0.439627,
        -0.445163,
        -0.585276,
        -0.432886,
        0.842717,
        0.451941,
        -0.442001,
        0.609744,
        -0.671281,
        0.23128,
        0.13279,
        -0.00857604,
        -0.432201,
        0.0071696,
        -0.425168,
        0.562649,
        0.0721525,
        0.0363557,
        0.401101,
        -0.573846,
        -0.216797,
        0.405154,
        -0.737357,
        0.501079,
        -0.354203,
        0.90454,
        -0.424259,
        -0.847272,
        -0.291447,
        -0.80045,
        -0.408456,
        0.268926,
        -0.245614,
        0.00626814,
        0.83604,
        -0.402896,
        -0.541791,
        -0.60596,
        -0.793152,
        -0.213072,
        0.62532,
        0.339637,
        0.778352,
        -0.806881,
        -0.653193,
        -0.646816,
        0.755767,
        0.418959,
        0.38954,
        0.156869,
        0.845114,
        -0.827258,
        -0.437977,
        -0.892244,
        0.673821,
        0.20782,
        -0.987704,
        -0.750437,
        0.360548,
        -0.279151,
        -0.550888,
        0.952092,
        0.989775,
        0.203499,
        -0.0416399,
        0.825816,
        0.800602,
        0.416569,
        -0.780145,
        -0.99255,
        -0.796503,
        0.845175,
        0.347087,
        0.981849,
        -0.961707,
        0.693894,
        -0.664967,
        0.794061,
        0.112854,
        0.724573,
        -0.0490707,
        -0.0420324,
        0.897315,
        0.512952,
        0.065724,
        0.571136,
        -0.279227,
        0.07802,
        0.820699,
        -0.918679,
        0.798869,
        -0.730188,
        -0.966588,
        0.788644,
        0.47331,
        -0.00822747,
        0.61446,
        0.273913,
        -0.591658,
        0.834315,
        0.281363,
        -0.388161,
        0.679489,
        -0.37155,
        -0.406312,
        0.717783,
        -0.677655,
        -0.0712788,
        0.511844,
        0.435198,
        -0.346706,
        -0.537227,
        -0.606834,
        -0.449391,
        0.975725,
        0.45889,
        -0.878254,
        -0.303502,
        -0.46309,
        0.942445,
        -0.222182,
        -0.664221,
        -0.787744,
        -0.188769,
        -0.875577,
        0.685567,
        0.803003,
        0.738883,
        -0.0405206,
        -0.788655,
        0.573198,
        -0.759158,
        -0.176816,
        0.252687,
        -0.130708,
        0.416872,
        -0.02953,
        0.191637,
        -0.654407,
        -0.517686,
        -0.373165,
        -0.0011127,
        -0.0549135,
        0.0200011,
        0.549496,
        -0.0791882,
        -0.521109,
        0.671242,
        0.61731,
        0.0158012,
        0.613687,
        -0.604872,
        0.35158,
        0.825943,
        0.206359,
        0.476004,
        0.51151,
        0.00936222,
        0.214886,
        -0.529011,
        0.220707,
        -0.211916,
        -0.288169,
        -0.956109,
        -0.959229,
        0.581123,
        0.460764,
        0.0112411,
        -0.22724,
        0.806357,
        0.493555,
        0.399595,
        -0.194756,
        -0.561359,
        -0.580404,
        -0.645259,
        0.359453,
        -0.101513,
        -0.974017,
        -0.0232375,
        0.914289,
        0.639669,
        0.371891,
        0.265869,
        0.465612,
        -0.421751,
        -0.258128,
        -0.0228783,
        0.587612,
        0.956759,
        0.448111,
        -0.191681,
        -0.255157,
        -0.840058,
        -0.14779,
        -0.214386,
        0.741065,
        -0.687026,
        0.796855,
        -0.486175,
        -0.880669,
        0.290409,
        0.91342,
        -0.0754247,
        0.729051,
        -0.666983,
        0.279316,
        0.0885035,
        0.231504,
        0.305299,
        -0.934734,
        0.145793,
        -0.0550321,
        0.437157,
        -0.588339,
        -0.58942,
        -0.984594,
        0.153534,
        0.387702,
        0.603017,
        0.110292,
        -0.164188,
        -0.588664,
        0.855135,
        -0.00424576,
        0.263547,
        -0.359251,
        -0.263181,
        0.57652,
        -0.562397,
        0.250645,
        0.695851,
        0.728013,
        0.164065,
        -0.379573,
        0.457063,
        0.497082,
        0.899743,
        -0.454433,
        -0.271414,
        0.205041,
        -0.389167,
        0.874378,
        -0.849991,
        -0.952011,
        -0.713961,
        -0.439411,
        -0.936605,
        0.439573,
        0.948291,
        0.666413,
        -0.450135,
        -0.215897,
        -0.922251,
        -0.595,
        0.779858,
        0.341295,
        0.0457491,
        -0.483323,
        -0.0821841,
        0.483352,
        0.767321,
        -0.386333,
        0.211365,
        -0.0686136,
        0.234094,
        -0.331572,
        -0.571532,
        0.133837,
        0.213995,
        0.157054,
        -0.661122,
        0.824828,
        0.0314317,
        -0.511113,
        0.872817,
        0.317471,
        0.0494761,
        0.936213,
        -0.242956,
        -0.00223297,
        0.602625,
        0.30691,
        0.78187,
        0.680374,
        0.71191,
        0.561728,
        0.0216695,
        -0.242341,
        -0.921595,
        0.939485,
        -0.758988,
        0.845726,
        -0.446847,
        0.452377,
        -0.222887,
        0.787247,
        -0.879195,
        0.205581,
        -0.0789169,
        0.3348,
        -0.637366,
        0.259961,
        0.159629,
        0.394066,
        0.748848,
        0.0324459,
        -0.288463,
        -0.201676,
        -0.0313415,
        0.468581,
        0.796091,
        -0.428716,
        -0.224509,
        0.577962,
        -0.748342,
        -0.512598,
        0.139689,
        0.273327,
        0.245061,
        0.218094,
        0.212813,
        0.486073,
        0.0638204,
        0.765965,
        -0.0615507,
        0.840933,
        0.553212,
        0.0592546,
        0.0465137,
        -0.525705,
        -0.605945,
        0.409148,
        0.734256,
        0.553684,
        -0.196786,
        0.483104,
        -0.41387,
        0.514751,
        -0.718572,
        0.554788,
        -0.0166676,
        -0.922481,
        -0.873928,
        0.758824,
        0.655481,
        -0.62227,
        -0.753775,
        -0.20483,
        0.651057,
        0.491286,
        -0.986735,
        -0.13613,
        -0.0226414,
        0.0770851,
        -0.370165,
        0.915808,
        -0.0819818,
        -0.816953,
        -0.0249375,
        0.964532,
        -0.342658,
        0.369118,
        0.37368,
        -0.608402,
        -0.0771987,
        -0.823106,
        0.874702,
        0.508931,
        0.691645,
        -0.84387,
        0.063719,
        -0.325023,
        -0.766351,
        0.189791,
        -0.566199,
        0.88913,
        0.567521,
        -0.319974,
        -0.315699,
        0.218578,
        -0.828688,
        -0.302435,
        -0.917553,
        0.148671,
        0.774651,
        -0.287718,
        0.0644788,
        -0.307331,
        -0.104671,
        -0.960459,
        -0.342799,
        0.55267,
        0.408659,
        -0.96912,
        0.944268,
        -0.66854,
        -0.792226,
        0.81897,
        0.840391,
        0.899419,
        0.975099,
        -0.0958896,
        -0.425604,
        -0.791251,
        -0.906099,
        0.00819623,
        -0.902121,
        0.661422,
        0.688222,
        -0.21782,
        -0.12,
        0.859534,
        0.479745,
        -0.0375533,
        0.00820506,
        0.254396,
        0.674729,
        -0.927316,
        0.947065,
        -0.429942,
        -0.887775,
        -0.395735,
        -0.877272,
        0.520884,
        -0.364854,
        -0.933004,
        0.852345,
        -0.15708,
        0.885966,
        0.692736,
        -0.257661,
        0.861066,
        -0.403154,
        0.316734,
        -0.930186,
        -0.309253,
        -0.67507,
        -0.832307,
        -0.647831,
        -0.986847,
        -0.0501271,
        0.232169,
        0.872687,
        -0.570382,
        -0.805384,
        -0.119108,
        0.684014,
        0.869345,
        -0.0464239,
        0.631079,
        -0.560598,
        0.0658013,
        -0.764656,
        -0.437869,
        -0.413315,
        -0.12951,
        -0.370873,
        -0.56097,
        0.71341,
        -0.484907,
        -0.868234,
        -0.544251,
        -0.623842,
        -0.271388,
        0.772483,
        -0.554027,
        0.419359,
        -0.902587,
        -0.386334,
        0.771529,
        -0.889434,
        0.563539,
        0.00369763,
        0.983253,
        0.993157,
        0.198313,
        -0.135854,
        0.677171,
        0.0676578,
        0.817722,
        0.30825,
        0.50706,
        -0.116477,
        0.543594,
        -0.930809,
        0.470208,
        -0.585916,
        -0.301683,
        0.909238,
        -0.872506,
        0.21341,
        -0.958996,
        -0.416757,
        0.589569,
        -0.230385,
        -0.644274,
        -0.964459,
        -0.811025,
        -0.546861,
        -0.350793,
        0.960503,
        -0.436295,
        -0.787254,
        -0.035799,
        -0.453041,
        -0.794097,
        -0.837486,
        0.411104,
        0.883074,
        0.230172,
        0.228826,
        0.191324,
        -0.262768,
        -0.887652,
        -0.265082,
        -0.193577,
        0.582557,
        0.149002,
        0.50474,
        0.491795,
        0.276496,
        -0.281849,
        0.532798,
        0.859738,
        -0.69228,
        -0.697586,
        -0.784536,
        -0.656739,
        -0.508612,
        -0.331397,
        -0.00753164,
        -0.548108,
        0.232309,
        0.205214,
        0.416093,
        0.779267,
        0.411117,
        0.578607,
        0.190371,
        0.294191,
        -0.191221,
        -0.580803,
        -0.514485,
        0.546012,
        -0.468455,
        0.220432,
        -0.647565,
        -0.885898,
        -0.630566,
        0.857175,
        0.605896,
        0.645929,
        -0.424674,
        0.138695,
        0.505668,
        -0.116955,
        0.441108,
        0.721132,
        0.226307,
        0.932497,
        -0.610264,
        -0.781225,
        -0.615611,
        0.622044,
        0.423989,
        0.800481,
        0.401311,
        -0.164893,
        0.379088,
        -0.408318,
        -0.870702,
        -0.812132,
        0.010879,
        -0.385188,
        0.733879,
        0.542424,
        0.835245,
        -0.913686,
        0.656526,
        -0.795322,
        0.943489,
        0.262422,
        0.850608,
        -0.481185,
        -0.598883,
        0.356276,
        0.40186,
        0.842226,
        0.0774081,
        -0.371833,
        0.774722,
        0.467144,
        -0.153058,
        -0.840889,
        0.0891877,
        -0.729069,
        0.959592,
        -0.509501,
        0.106038,
        0.338681,
        0.0821813,
        0.235335,
        0.526549,
        -0.90694,
        0.850148,
        0.260428,
        0.635485,
        0.685392,
        0.346742,
        0.29201,
        0.890071,
        0.290231,
        -0.445567,
        0.740679,
        0.809045,
        -0.0444502,
        0.0969543,
        0.210905,
        -0.202225,
        -0.825638,
        0.839072,
        -0.427502,
        0.641506,
        -0.313986,
        -0.268391,
        -0.269306,
        -0.0430551,
        -0.308799,
        0.221193,
        -0.937018,
        -0.970118,
        -0.696626,
        0.298318,
        0.55643,
        -0.603565,
        0.148466,
        -0.183142,
        -0.968081,
        -0.166142,
        -0.8364,
        0.323929,
        -0.276071,
        0.45383,
        0.878362,
        -0.535393,
        0.262876,
        -0.166088,
        0.561561,
        -0.526219,
        0.631687,
        0.735924,
        -0.687147,
        -0.795815,
        0.37743,
        -0.00113302,
        -0.0642064,
        -0.891876,
        0.955812,
        0.626995,
        0.329316,
        -0.981206,
        0.656877,
        0.63269,
        0.317112,
        0.213307,
        -0.970875,
        -0.534422,
        -0.969835,
        -0.938956,
        0.299436,
        -0.806235,
        0.384974,
        -0.976636,
        0.647595,
        0.263336,
        -0.512029,
        -0.0895292,
        -0.902752,
        -0.950467,
        0.384252,
        0.728935,
        0.785456,
        0.697105,
        0.93312,
        0.162886,
        -0.304028,
        -0.131086,
        0.27101,
        -0.348216,
        -0.504092,
        -0.399674,
        -0.329422,
        -0.847215,
        -0.766983,
        0.98769,
        0.366092,
        -0.737858,
        -0.546732,
        0.396257,
        -0.676814,
        0.752704,
        0.590022,
        0.708159,
        0.776068,
        0.237617,
        -0.0285051,
        -0.735961,
        -0.851912,
        0.0687425,
        -0.686428,
        0.53234,
        -0.202322,
        -0.900972,
        0.229445,
        -0.269203,
        0.261914,
        0.925416,
        0.599711,
        -0.467076,
        -0.4228,
        -0.904381,
        0.13325,
        0.247778,
        -0.751596,
        0.366266,
        0.235468,
        0.614496,
        0.628408,
        0.688736,
        0.0107534,
        0.951594,
        0.44144,
        -0.399225,
        0.659753,
        0.217507,
        0.838393,
        -0.368752,
        0.481546,
        0.986481,
        0.69999,
        0.795118,
        0.518821,
        -0.502332,
        0.894146,
        -0.251735,
        0.228465,
        0.15606,
        -0.326319,
        -0.171824,
        0.688984,
        0.250881,
        -0.0762044,
        -0.177766,
        -0.501341,
        0.1722,
        -0.8115,
        0.734128,
        -0.213304,
        0.816908,
        0.422864,
        0.79745,
        0.768502,
        -0.135696,
        -0.601775,
        0.428255,
        -0.918189,
        -0.763382,
        -0.940498,
        0.563358,
        -0.776901,
        0.759493,
        0.358476,
        0.741919,
        -0.74284,
        0.252622,
        -0.509816,
        0.485625,
        -0.591318,
        0.163865,
        -0.686198,
        -0.902335,
        -0.585253,
        0.237597,
        -0.0801011,
        -0.086594,
        -0.590203,
        0.108399,
        -0.352466,
        0.196493,
        -0.0746927,
        -0.929603,
        -0.00605696,
        -0.306191,
        -0.065299,
        0.392168,
        -0.877936,
        0.0165123,
        0.628786,
        -0.818434,
        -0.42013,
        0.851884,
        0.941059,
        0.938346,
        0.593803,
        -0.801781,
        0.190967,
        -0.916013,
        0.683844,
        0.599648,
        0.247853,
        0.997646,
        0.697314,
        0.662599,
        0.235243,
        -0.382787,
        -0.423995,
        0.645041,
        0.725612,
        0.223539,
        -0.158466,
        -0.349081,
        0.293936,
        0.835477,
        0.344728,
        -0.771363,
        0.227645,
        0.466792,
        0.245149,
        -0.143569,
        0.648359,
        0.825019,
        -0.291685,
        0.589418,
        0.763365,
        -0.697882,
        0.787637,
        -0.0456682,
        -0.613894,
        0.471481,
        -0.44602,
        0.633958,
        0.469127,
        -0.748706,
        0.296557,
        -0.295629,
        -0.131493,
        0.872562,
        -0.650589,
        -0.405881,
        0.0961009,
        0.190945,
        0.245038,
        -0.609963,
        0.026422,
        -0.410234,
        -0.381326,
        -0.745933,
        -0.943441,
        0.863823,
        0.110498,
        0.704917,
        0.688842,
        0.818813,
        0.294335,
        0.452207,
        -0.879069,
        0.0819716,
        -0.593461,
        -0.492963,
        -0.446547,
        -0.039481,
        -0.859005,
        -0.97742,
        0.211813,
        0.437552,
        -0.273049,
        -0.91968,
        0.310115,
        0.0763618,
        -0.325562,
        -0.593784,
        -0.732693,
        0.919476,
        -0.203747,
        0.293729,
        -0.490758,
        0.414927,
        0.547796,
        -0.434199,
        0.27875,
        -0.341706,
        -0.729282,
        -0.032408,
        -0.522893,
        0.565053,
        -0.580201,
        -0.401962,
        -0.352975,
        -0.173662,
        0.105075,
        0.200478,
        0.786857,
        0.24607,
        0.223058,
        -0.00133008,
        -0.316378,
        0.950009,
        0.0789897,
        0.993737,
        0.0263704,
        0.753428,
        -0.600047,
        0.293677,
        0.672904,
        0.196206,
        -0.412594,
        -0.817853,
        -0.388868,
        -0.864798,
        -0.252053,
        0.889882,
        -0.206505,
        0.0186657,
        -0.142526,
        0.270602,
        -0.416281,
        0.277273,
        0.86864,
        0.230744,
        -0.896389,
        -0.0262851,
        -0.568778,
        0.890467,
        -0.780215,
        0.654279,
        -0.110863,
        -0.0965925,
        0.604288,
        0.968127,
        -0.102855,
        -0.369341,
        0.721555,
        0.297098,
        0.924336,
        0.394459,
        -0.506697,
        -0.488258,
        0.576606,
        0.104435,
        -0.353056,
        -0.675447,
        -0.00568289,
        0.440439,
        0.343219,
        0.851791,
        -0.288959,
        0.926938,
        0.129064,
        -0.420319,
        0.157682,
        0.232674,
        0.553396,
        0.588903,
        0.123142,
        0.773181,
        0.243183,
        -0.987721,
        -0.323411,
        -0.152529,
        0.980406,
        0.573733,
        0.478129,
        0.701961,
        -0.129169,
        0.402465,
        0.0964206,
        0.364134,
        0.914207,
        -0.326973,
        -0.53143,
        -0.43885,
        -0.00241989,
        0.462887,
        -0.99841,
        -0.659201,
        0.314678,
        -0.287369,
        -0.732263,
        -0.556259,
        0.292312,
        0.425419,
        0.676416,
        -0.154292,
        0.0143222,
        -0.200443,
        -0.38111,
        -0.742495,
        -0.188164,
        0.295478,
        0.104976,
        -0.207758,
        -0.130788,
        -0.416895,
        -0.505797,
        0.740043,
        0.98557,
        0.590624,
        0.104177,
        0.899777,
        -0.736349,
        0.572747,
        -0.539072,
        0.261231,
        0.0356336,
        -0.537483,
        0.60203,
        -0.649689,
        0.175148,
        0.869767,
        -0.205947,
        -0.53254,
        0.295186,
        -0.529532,
        0.313169,
        -0.690492,
        0.270025,
        0.932058,
        -0.432987,
        -0.918139,
        0.227536,
        0.671989,
        -0.125897,
        -0.903252,
        -0.744906,
        0.368306,
        0.83679,
        -0.759336,
        -0.0410698,
        -0.0590325,
        -0.859559,
        0.222581,
        -0.486286,
        -0.398631,
        -0.516189,
        0.549348,
        0.0638866,
        -0.914159,
        0.899659,
        -0.760965,
        0.955608,
        -0.306288,
        -0.293505,
        0.250794,
        0.16418,
        -0.980336,
        0.560302,
        -0.565795,
        0.951722,
        -0.872686,
        -0.483934,
        0.179258,
        0.799303,
        0.390169,
        0.276006,
        -0.945603,
        -0.241524,
        0.112796,
        -0.704939,
        0.717406,
        -0.946236,
        -0.564498,
        -0.0600134,
        -0.432522,
        0.0368717,
        0.423798,
        -0.883174,
        -0.899242,
        0.509639,
        -0.983515,
        -0.660207,
        0.465247,
        -0.289803,
        0.0462883,
        -0.283959,
        0.874376,
        0.0659521,
        -0.723658,
        -0.691419,
        0.0176739,
        -0.596343,
        -0.175353,
        -0.803068,
        -0.79704,
        -0.785184,
        0.472938,
        -0.742644,
        -0.0267079,
        -0.414266,
        -0.447583,
        -0.309302,
        -0.360502,
        -0.0120804,
        0.630684,
        0.206976,
        -0.975209,
        0.0544826,
        0.323802,
        -0.87445,
        -0.435878,
        0.340288,
        -0.534657,
        -0.970631,
        -0.949516,
        0.511631,
        -0.25459,
        0.924861,
        -0.422417,
        0.0217521,
        -0.766558,
        0.595257,
        0.425409,
        0.058089,
        0.792189,
        0.628368,
        0.272905,
        0.265127,
        0.885725,
        -0.753802,
        0.850861,
        -0.561858,
        -0.0631045,
        -0.509641,
        0.426061,
        -0.43242,
        0.697336,
        0.450853,
        0.622063,
        0.0211381,
        0.576402,
        -0.813816,
        -0.638574,
        -0.958255,
        -0.784447,
        -0.58809,
        0.553376,
        -0.0390372,
        -0.66323,
        -0.869041,
        0.982715,
        -0.429788,
        0.726216,
        0.408124,
        0.628301,
        0.518405,
        0.036492,
        -0.0987933,
        -0.216469,
        -0.0777835,
        0.147404,
        -0.365608,
        0.360358,
        -0.9157,
        0.124752,
        -0.21358,
        -0.34812,
        -0.177913,
        -0.762728,
        -0.726058,
        0.843225,
        0.813675,
        -0.539873,
        -0.795349,
        0.85542,
        -0.32432,
        -0.383439,
        0.408796,
        0.636643,
        -0.0466687,
        0.539755,
        0.619358,
        0.523544,
        0.26597,
        0.0274813,
        0.151845,
        -0.215625,
        -0.936027,
        -0.946949,
        0.567906,
        -0.0138102,
        0.200456,
        -0.797701,
        -0.653452,
        0.284755,
        0.32705,
        0.132968,
        0.936635,
        -0.850862,
        0.37024,
        -0.789422,
        0.992363,
        0.183914,
        -0.329296,
        -0.802986,
        0.0393341,
        0.346384,
        -0.186425,
        -0.55187,
        -0.016973,
        0.766906,
        0.987884,
        -0.397615,
        0.29045,
        0.253855,
        0.629866,
        -0.557706,
        -0.96177,
        0.693839,
        -0.504654,
        0.606136,
        -0.319971,
        0.695801,
        0.808435,
        0.0265772,
        -0.0194429,
        0.135485,
        -0.840455,
        -0.0828076,
        0.284623,
        0.529785,
        0.12777,
        0.276986,
        -0.286301,
        0.798475,
        0.474,
        0.753033,
        0.144859,
        -0.712426,
        -0.798837,
        -0.872114,
        -0.94552,
        -0.810953,
        -0.269729,
        0.34493,
        0.442902,
        -0.639863,
        0.787224,
        0.481132,
        -0.946024,
        -0.71743,
        0.0872679,
        -0.265995,
        0.978372,
        -0.104297,
        0.760582,
        -0.0410714,
        -0.968812,
        0.920127,
        0.876121,
        0.315811,
        0.449912,
        0.00389123,
        -0.407203,
        -0.836389,
        -0.197634,
        -0.933203,
        0.916644,
        0.947225,
        -0.645629,
        -0.882193,
        -0.924889,
        -0.591148,
        -0.693146,
        -0.194618,
        0.753781,
        0.749756,
        0.165519,
        0.541006,
        0.230888,
        0.219494,
        0.823576,
        -0.681845,
        0.9535,
        0.801947,
        0.213858,
        0.714082,
        -0.239124,
        0.245047,
        0.634209,
        -0.363003,
        -0.439142,
        0.0841209,
        0.640888,
        0.153655,
        0.247732,
        -0.556746,
        0.220452,
        0.164376,
        -0.609521,
        0.574823,
        0.282183,
        -0.53441,
        0.983675,
        0.589037,
        0.270972,
        0.737456,
        0.338793,
        -0.56351,
        0.278462,
        -0.43032,
        0.655985,
        0.102038,
        -0.112164,
        0.609484,
        -0.0960154,
        -0.898306,
        0.323566,
        0.66486,
        0.346741,
        -0.0422244,
        -0.698143,
        0.907599,
        -0.958103,
        0.942745,
        0.0612539,
        0.289628,
        -0.614001,
        -0.718294,
        -0.545996,
        -0.223522,
        0.856529,
        0.736187,
        0.242068,
        0.840204,
        0.325224,
        -0.48696,
        0.57766,
        -0.335983,
        -0.0504698,
        -0.143878,
        0.233697,
        -0.394485,
        0.95816,
        -0.878468,
        -0.785001,
        -0.137855,
        -0.776774,
        0.538566,
        -0.472995,
        0.569967,
        -0.503658,
        -0.171138,
        0.477566,
        -0.461762,
        -0.228393,
        -0.46118,
        0.827866,
        0.157606,
        -0.179475,
        -0.718129,
        0.934084,
        -0.322945,
        -0.981942,
        0.176152,
        -0.482741,
        0.343282,
        0.689192,
        -0.905081,
        -0.992702,
        -0.361278,
        -0.0489581,
        0.240995,
        0.244237,
        -0.0907982,
        0.362528,
        0.459237,
        0.771346,
        0.585754,
        -0.0021975,
        -0.701649,
        0.155721,
        0.494144,
        0.127213,
        -0.366713,
        -0.967618,
        0.89882,
        0.172107,
        0.860249,
        0.0564265,
        0.992632,
        -0.857881,
        -0.00948936,
        -0.330313,
        -0.839823,
        -0.833337,
        0.186946,
        0.503458,
        0.855855,
        0.281865,
        0.510757,
        -0.505423,
        -0.767093,
        -0.248248,
        0.738814,
        0.142109,
        -0.88572,
        0.19805,
        -0.0865448,
        0.700034,
        -0.804147,
        0.211806,
        -0.144245,
        0.689997,
        -0.66098,
        0.489042,
        0.722379,
        -0.76216,
        -0.338852,
        0.582628,
        0.294267,
        -0.34622,
        0.724747,
        -0.715223,
        0.323467,
        0.884924,
        -0.54856,
        -0.489587,
        0.388382,
        -0.692705,
        0.792278,
        -0.100861,
        -0.198129,
        -0.974815,
        0.650891,
        -0.459315,
        0.167294,
        0.76517,
        0.738736,
        -0.919251,
        0.465204,
        0.934589,
        0.292555,
        -0.679041,
        0.624586,
        0.631575,
        0.810001,
        0.346965,
        0.869415,
        -0.52885,
        -0.0704075,
        0.163682,
        0.12493,
        -0.345661,
        0.448459,
        -0.551603,
        -0.460737,
        0.899899,
        -0.0411899,
        0.927645,
        -0.792807,
        -0.248912,
        -0.173216,
        0.00906467,
        -0.223727,
        -0.522325,
        0.54975,
        0.943567,
        -0.757155,
        0.288486,
        -0.975684,
        0.70805,
        0.223074,
        0.316872,
        -0.970991,
        -0.15234,
        -0.0515532,
        0.83901,
        -0.805375,
        -0.182138,
        -0.68984,
        0.124217,
        0.981544,
        0.43509,
        0.778557,
        0.430003,
        0.883487,
        -0.68218,
        0.329901,
        -0.157702,
        -0.754535,
        0.537095,
        0.593386,
        0.0722488,
        -0.453841,
        -0.630341,
        0.549924,
        -0.904091,
        -0.686774,
        0.792769,
        0.384395,
        -0.662458,
        0.500818,
        -0.392531,
        0.654414,
        0.529827,
        0.455129,
        -0.397139,
        0.368837,
        0.649754,
        0.420723,
        0.678998,
        -0.226029,
        0.402266,
        0.114088,
        -0.447472,
        -0.167731,
        -0.00242484,
        -0.129652,
        -0.83783,
        0.839873,
        0.115813,
        0.699265,
        0.433258,
        -0.811939,
        -0.754576,
        0.802917,
        0.737985,
        -0.658667,
        -0.883857,
        0.530754,
        0.725728,
        -0.546315,
        0.0315722,
        -0.666803,
        -0.891901,
        -0.438601,
        0.788325,
        -0.28904,
        0.930237,
        0.438079,
        -0.868318,
        0.609234,
        -0.78795,
        0.533949,
        -0.276678,
        -0.235422,
        -0.633783,
        0.720897,
        0.634926,
        -0.471612,
        0.56077,
        -0.249261,
        -0.772348,
        -0.00597167,
        -0.0611998,
        -0.526924,
        -0.203054,
        -0.323215,
        -0.185591,
        -0.0869113,
        -0.792461,
        -0.459863,
        0.366774,
        0.239111,
        -0.126667,
        0.474873,
        0.800511,
        -0.338341,
        -0.814167,
        0.730748,
        -0.900262,
        -0.682485,
        0.339982,
        -0.688212,
        0.851464,
        -0.936696,
        0.0763664,
        -0.782319,
        0.784202,
        -0.288708,
        -0.253931,
        0.344972,
        0.462031,
        -0.0262792,
        -0.661,
        -0.599169,
        0.446797,
        0.135945,
        0.0776166,
        -0.738794,
        -0.950966,
        0.285156,
        -0.198657,
        0.415808,
        -0.475733,
        0.674676,
        -0.109319,
        -0.675222,
        -0.663665,
        0.0765139,
        -0.944474,
        -0.563927,
        0.394029,
        0.395508,
        -0.252139,
        0.245492,
        0.458812,
        0.824228,
        0.463173,
        0.243014,
        -0.46448,
        -0.790758,
        -0.412015,
        0.997551,
        0.182963,
        -0.0730149,
        -0.601618,
        -0.37024,
        -0.937069,
        0.475999,
        -0.109034,
        -0.888035,
        -0.238845,
        0.692309,
        0.527773,
        0.285422,
        0.366985,
        -0.581546,
        0.6102,
        0.703321,
        0.494968,
        0.665725,
        -0.860607,
        -0.111003,
        0.0612334,
        -0.112745,
        -0.865511,
        -0.479954,
        -0.288518,
        0.597662,
        0.763059,
        0.247002,
        0.806904,
        -0.648956,
        0.244553,
        -0.0101337,
        0.27803,
        0.642936,
        0.619626,
        0.34096,
        0.118935,
        -0.489408,
        0.452925,
        0.880089,
        -0.797099,
        -0.0193024,
        0.165511,
        0.569886,
        0.399152,
        -0.224289,
        0.273207,
        -0.105881,
        -0.558564,
        0.4126,
        0.783116,
        0.50267,
        -0.700145,
        0.917605,
        -0.977285,
        0.0113368,
        0.515267,
        0.785774,
        -0.741661,
        0.32217,
        -0.863181,
        0.502892,
        -0.687963,
        0.414848,
        0.145828,
        0.931663,
        -0.244191,
        -0.735237,
        -0.557745,
        -0.791267,
        -0.855148,
        -0.354845,
        0.189431,
        0.310363,
        -0.784958,
        -0.411418,
        -0.913926,
        0.488248,
        0.482702,
        -0.472489,
        -0.0991517,
        0.265818,
        -0.96982,
        0.200703,
        0.183422,
        -0.947104,
        -0.78796,
        -0.301311,
        0.83867,
        -0.529621,
        -0.97914,
        0.975489,
        0.973271,
        -0.667103,
        0.390338,
        0.119099,
        -0.735441,
        -0.853854,
        0.383862,
        -0.293186,
        -0.645121,
        0.528714,
        0.35197,
        0.54431,
        -0.160922,
        0.567011,
        -0.867108,
        -0.0748479,
        0.0552595,
        0.615594,
        0.452663,
        0.956108,
        -0.118588,
        0.482843,
        0.156811,
        -0.935166,
        0.535739,
        0.36885,
        -0.236477,
        0.374409,
        0.839229,
        -0.215617,
        0.349898,
        0.8125,
        0.11728,
        -0.259764,
        -0.0684002,
        0.381839,
        -0.113618,
        -0.684538,
        -0.911347,
        0.241261,
        0.844176,
        0.440623,
        -0.214428,
        -0.316746,
        0.00763404,
        -0.081536,
        0.608406,
        -0.937106,
        -0.465942,
        0.0610693,
        -0.980999,
        0.41547,
        -0.456088,
        0.175812,
        0.480304,
        -0.920349,
        -0.455338,
        -0.756173,
        0.454061,
        -0.616108,
        0.0282105,
        -0.196041,
        -0.803608,
        -0.85451,
        0.544195,
        0.127992,
        0.527329,
        -0.569423,
        0.443454,
        0.615983,
        0.671838,
        0.28763,
        0.0566053,
        -0.54259,
        0.970884,
        -0.935761,
        0.375874,
        0.579291,
        -0.872867,
        0.909932,
        -0.35964,
        -0.853866,
        0.325402,
        0.184272,
        0.321946,
        -0.194294,
        0.263924,
        0.866609,
        0.0495334,
        -0.282016,
        -0.7495,
        -0.922256,
        0.521943,
        -0.553108,
        -0.776766,
        0.0661379,
        0.574884,
        0.750563,
        0.496715,
        0.0183377,
        0.366546,
        0.168553,
        -0.694032,
        -0.576849,
        0.625963,
        -0.723148,
        -0.512609,
        0.00183642,
        0.856143,
        -0.385476,
        -0.0882317,
        -0.503497,
        -0.239342,
        -0.76283,
        0.680776,
        -0.917396,
        0.042876,
        -0.0553006,
        0.949213,
        -0.907591,
        0.662684,
        -0.800287,
        -0.829847,
        0.184627,
        -0.353395,
        -0.606613,
        -0.749235,
        -0.778511,
        -0.856049,
        0.747479,
        0.239826,
        0.510497,
        -0.0839677,
        0.545794,
        0.933648,
        -0.458005,
        0.822646,
        -0.578961,
        0.543831,
        0.67879,
        0.0355623,
        -0.5444,
        -0.824707,
        0.79622,
        -0.30723,
        0.856068,
        0.878824,
        0.735646,
        -0.199232,
        0.828037,
        0.828055,
        -0.536549,
        -0.97225,
        0.998208,
        0.648078,
        -0.325646,
        -0.608404,
        0.898843,
        -0.104157,
        -0.464454,
        0.646322,
        -0.86433,
        -0.953957,
        -0.437645,
        0.681464,
        0.979691,
        0.10435,
        0.50411,
        -0.599271,
        -0.351819,
        0.1829,
        0.436292,
        0.103781,
        0.358193,
        0.232512,
        0.796551,
        0.214261,
        0.111336,
        0.532196,
        -0.984972,
        -0.0606266,
        0.360252,
        -0.52152,
        -0.032877,
        0.35846,
        -0.873442,
        0.641477,
        0.750056,
        -0.974599,
        -0.462679,
        -0.714398,
        0.671723,
        -0.32701,
        -0.668355,
        -0.765922,
        -0.645546,
        -0.688664,
        0.338428,
        0.858564,
        -0.287935,
        0.986609,
        0.0414641,
        -0.851643,
        0.09039,
        -0.600343,
        0.380869,
        -0.113059,
        0.613917,
        -0.507795,
        -0.580863,
        0.628946,
        0.431578,
        0.779389,
        -0.892575,
        -0.601299,
        0.137848,
        -0.766017,
        -0.959821,
        -0.112096,
        -0.740616,
        -0.4225,
        0.173506,
        0.931108,
        0.25049,
        0.505151,
        -0.834814,
        0.604944,
        0.816487,
        0.503614,
        0.463508,
        -0.471448,
        0.490223,
        -0.495028,
        -0.323092,
        -0.419387,
        -0.0953717,
        -0.942223,
        0.467553,
        -0.481454,
        -0.450018,
        0.88669,
        -0.852509,
        0.981561,
        0.666079,
        -0.745083,
        -0.619738,
        -0.196072,
        -0.5111,
        -0.579559,
        0.691832,
        -0.251716,
        -0.00205952,
        -0.134662,
        -0.320609,
        -0.75157,
        -0.629511,
        -0.155423,
        0.853374,
        -0.813024,
        -0.651809,
        0.316881,
        -0.284473,
        0.838414,
        0.821853,
        0.392436,
        -0.580973,
        -0.273519,
        0.450213,
        0.88658,
        0.245027,
        -0.999805,
        0.773271,
        0.392518,
        0.981756,
        0.43935,
        0.647434,
        -0.637982,
        -0.756723,
        -0.863666,
        -0.217541,
        0.935109,
        -0.115382,
        0.780399,
        -0.199553,
        0.564009,
        -0.971171,
        0.170936,
        -0.591414,
        0.882203,
        0.357912,
        -0.243223,
        0.199084,
        -0.926561,
        -0.404809,
        0.020937,
        0.465875,
        0.0142177,
        0.747418,
        -0.0839126,
        -0.099202,
        -0.00755519,
        -0.0837176,
        -0.325931,
        -0.615037,
        -0.101962,
        -0.886582,
        -0.967603,
        0.260056,
        -0.643304,
        -0.831269,
        -0.957485,
        -0.708195,
        0.0533495,
        0.822914,
        0.0922515,
        -0.382641,
        0.851743,
        -0.736813,
        0.0259453,
        0.733946,
        0.621099,
        0.782722,
        -0.06697,
        0.694538,
        -0.622086,
        0.953967,
        0.160412,
        0.392131,
        0.701385,
        -0.9235,
        -0.707071,
        -0.30617,
        -0.00721776,
        -0.033002,
        0.0787927,
        0.89082,
        0.0804163,
        0.11119,
        0.150876,
        0.437112,
        0.279921,
        0.193391,
        0.728917,
        -0.666729,
        0.0163044,
        -0.178832,
        -0.0493703,
        -0.131953,
        0.0843555,
        0.976575,
        -0.398007,
        -0.294546,
        0.759297,
        0.535023,
        -0.600008,
        -0.862789,
        0.48899,
        0.560405,
        0.529342,
        0.190375,
        0.636905,
        0.822272,
        0.884205,
        -0.370313,
        -0.21073,
        -0.0370021,
        -0.479493,
        0.869686,
        -0.925812,
        0.671383,
        0.306798,
        0.354109,
        -0.135226,
        0.0357143,
        0.68738,
        0.881078,
        0.856882,
        -0.36199,
        -0.250874,
        -0.0587622,
        -0.385415,
        0.351119,
        0.646692,
        -0.626118,
        -0.113858,
        -0.953315,
        -0.488907,
        -0.624868,
        0.607089,
        -0.959564,
        0.565508,
        0.243994,
        0.862707,
        0.449713,
        0.873681,
        -0.348023,
        -0.587289,
        -0.605812,
        -0.478337,
        -0.513101,
        -0.934429,
        0.828461,
        0.841008,
        -0.0696551,
        -0.135825,
        0.528388,
        -0.188577,
        -0.278943,
        -0.833602,
        0.560549,
        0.662295,
        -0.219017,
        -0.0883325,
        0.308987,
        0.154865,
        0.79781,
        0.355672,
        0.665958,
        -0.827058,
        -0.0372386,
        0.706393,
        0.73845,
        -0.793245,
        0.5691,
        0.188163,
        -0.919564,
        -0.778923,
        0.600874,
        -0.525376,
        -0.25726,
        -0.912227,
        -0.459805,
        -0.428799,
        0.928781,
        0.47054,
        0.435376,
        0.457169,
        -0.718037,
        -0.843567,
        0.623567,
        0.842512,
        0.818728,
        -0.59545,
        -0.245821,
        0.127715,
        0.559414,
        -0.448011,
        -0.516613,
        0.225372,
        -0.275069,
        0.446149,
        -0.0682346,
        -0.536619,
        0.652904,
        -0.499134,
        0.651544,
        0.73334,
        -0.278057,
        0.252418,
        -0.792036,
        0.464684,
        0.340191,
        -0.251841,
        -0.964115,
        0.268972,
        -0.781301,
        0.471261,
        -0.273859,
        -0.499338,
        0.627694,
        -0.650292,
        -0.656826,
        0.446422,
        -0.245742,
        0.0973535,
        -0.425862,
        -0.686328,
        0.649342,
        0.057525,
        0.539044,
        -0.625727,
        -0.496326,
        -0.52919,
        -0.162346,
        -0.843422,
        -0.0283242,
        -0.510802,
        0.889918,
        0.693619,
        0.741616,
        -0.902117,
        0.158303,
        0.081807,
        -0.153958,
        0.194188,
        -0.649221,
        0.0647416,
        -0.334552,
        0.07692,
        0.565404,
        -0.706858,
        0.426628,
        0.908578,
        0.739564,
        -0.819114,
        0.00593162,
        -0.686298,
        -0.505442,
        -0.344726,
        0.371227,
        -0.966397,
        0.0295472,
        0.874901,
        -0.495587,
        0.867201,
        -0.968521,
        0.476088,
        -0.6436,
        0.921397,
        0.169708,
        -0.901984,
        -0.98072,
        -0.671989,
        0.179823,
        -0.134677,
        0.522198,
        0.530602,
        0.930064,
        -0.812353,
        -0.392478,
        0.495468,
        -0.519211,
        -0.96585,
        0.404046,
        -0.779646,
        -0.784964,
        -0.590022,
        -0.465945,
        -0.290406,
        0.0652519,
        0.905282,
        -0.256803,
        -0.905201,
        0.780183,
        0.24761,
        0.962001,
        0.811662,
        -0.276302,
        -0.6816,
        0.73306,
        0.893406,
        -0.583584,
        0.75234,
        -0.778583,
        0.596239,
        -0.382337,
        0.743615,
        0.126841,
        -0.452273,
        0.931262,
        0.734362,
        -0.956805,
        -0.587949,
        0.768512,
        0.447241,
        -0.367595,
        0.983548,
        0.857219,
        0.16646,
        -0.306857,
        -0.0775289,
        0.0717428,
        0.43634,
        0.0172703,
        -0.148074,
        -0.31605,
        -0.0207291,
        -0.336412,
        0.407648,
        0.297671,
        -0.603352,
        0.301054,
        0.714087,
        -0.851012,
        0.522471,
        0.310326,
        -0.233349,
        0.266087,
        -0.562833,
        0.314377,
        0.197349,
        -0.828471,
        0.357572,
        0.6094,
        0.940042,
        -0.195186,
        -0.758195,
        0.92359,
        -0.337967,
        0.408266,
        -0.383267,
        0.584504,
        -0.519992,
        -0.946927,
        -0.398226,
        0.331934,
        -0.262977,
        0.581045,
        0.995523,
        -0.855329,
        -0.121284,
        -0.607829,
        0.445725,
        -0.407196,
        -0.458841,
        -0.0318034,
        0.90313,
        0.30781,
        -0.765717,
        -0.659703,
        -0.377813,
        0.431632,
        -0.488173,
        0.97976,
        0.0410323,
        -0.548132,
        -0.215427,
        0.282838,
        -0.624542,
        0.446606,
        -0.308897,
        -0.00780934,
        0.0311099,
        0.171112,
        0.0452632,
        0.632884,
        -0.496954,
        0.782286,
        0.213929,
        -0.501431,
        0.926957,
        -0.907354,
        -0.10926,
        0.372682,
        -0.31455,
        0.431899,
        -0.659121,
        -0.41142,
        -0.260292,
        -0.424838,
        -0.0711224,
        0.361895,
        -0.993206,
        0.440704,
        0.341655,
        0.0478262,
        0.892573,
        -0.873772,
        -0.669336,
        -0.731969,
        0.572834,
        0.0217669,
        0.260221,
        -0.396056,
        -0.807122,
        -0.694515,
        -0.763172,
        -0.304075,
        -0.91223,
        0.450757,
        0.194493,
        -0.985273,
        0.543403,
        -0.914767,
        0.387409,
        -0.771147,
        0.517131,
        0.728288,
        -0.182567,
        -0.74316,
        -0.69655,
        0.746311,
        0.618735,
        -0.689757,
        0.187015,
        -0.03961,
        0.35807,
        0.0795877,
        0.0866179,
        0.688733,
        0.347618,
        -0.340548,
        -0.2895,
        -0.39216,
        0.263396,
        -0.0966215,
        -0.0866754,
        0.500224,
        0.599303,
        0.00109506,
        -0.0490188,
        -0.206204,
        0.0158221,
        -0.505616,
        -0.120971,
        -0.596769,
        -0.276763,
        -0.603839,
        -0.868481,
        0.540671,
        -0.347,
        -0.565032,
        0.286981,
        -0.728264,
        -0.254788,
        -0.526004,
        0.232126,
        -0.896719,
        0.553584,
        -0.681257,
        0.792015,
        -0.0987977,
        -0.0218046,
        -0.497485,
        0.509042,
        -0.758409,
        0.405893,
        -0.577633,
        0.741815,
        0.00519633,
        0.423462,
        -0.307204,
        0.798993,
        -0.560716,
        0.187181,
        -0.321978,
        -0.157485,
        0.910418,
        0.0741829,
        -0.0259663,
        0.451089,
        0.727183,
        0.409002,
        -0.26193,
        0.998919,
        -0.845786,
        0.212066,
        0.231044,
        -0.742505,
        -0.23435,
        0.549788,
        -0.950491,
        0.666852,
        -0.472017,
        -0.447976,
        0.175894,
        -0.230426,
        0.957917,
        0.598261,
        -0.488611,
        -0.0368863,
        0.021723,
        0.204186,
        -0.237894,
        0.461007,
        -0.608634,
        0.440128,
        -0.696478,
        -0.698215,
        -0.485689,
        0.277555,
        0.752873,
        -0.758505,
        -0.313443,
        -0.509057,
        -0.759587,
        -0.159229,
        0.703009,
        0.471458,
        0.0982659,
        -0.531341,
        0.0212455,
        0.147775,
        -0.864489,
        0.549229,
        0.6998,
        0.311405,
        -0.681197,
        0.657717,
        -0.0903336,
        -0.169808,
        -0.379169,
        0.931389,
        -0.965622,
        0.382937,
        0.392396,
        -0.574255,
        -0.176934,
        0.695918,
        -0.272471,
        0.337377,
        -0.0265265,
        -0.519598,
        0.578871,
        0.660031,
        -0.0286552,
        0.819285,
        -0.499198,
        -0.325646,
        0.290743,
        0.599068,
        0.143012,
        -0.688012,
        -0.253157,
        0.278523,
        0.861217,
        -0.553357,
        -0.410072,
        -0.819981,
        -0.89564,
        0.499595,
        0.0102119,
        -0.27481,
        0.430984,
        0.04459,
        -0.891873,
        -0.17662,
        0.470335,
        -0.0688071,
        -0.480702,
        -0.802136,
        -0.73143,
        0.492772,
        -0.321734,
        0.847441,
        0.152803,
        0.649611,
        0.666726,
        0.653605,
        -0.676036,
        -0.0425316,
        0.252672,
        0.466976,
        0.269456,
        0.999516,
        -0.254501,
        0.130673,
        -0.553841,
        0.335427,
        0.310692,
        -0.449482,
        -0.164978,
        -0.679096,
        0.275709,
        -0.733994,
        0.365494,
        0.383836,
        0.089386,
        -0.164171,
        -0.684971,
        0.608684,
        0.0336925,
        -0.416402,
        0.101456,
        0.711958,
        -0.56896,
        -0.745742,
        0.361569,
        -0.902235,
        0.907863,
        0.685533,
        0.0552338,
        0.160535,
        0.152509,
        -0.67531,
        0.160051,
        0.898008,
        0.455363,
        0.60621,
        0.233436,
        -0.233944,
        -0.843272,
        -0.931542,
        0.0869598,
        0.432436,
        -0.665537,
        -0.547546,
        -0.183728,
        0.423849,
        0.288283,
        0.131301,
        0.0325334,
        -0.678025,
        0.7149,
        -0.866011,
        -0.966066,
        -0.854061,
        -0.611752,
        0.395502,
        -0.756295,
        -0.703889,
        0.0810349,
        0.298938,
        0.456646,
        -0.766456,
        0.623629,
        -0.383303,
        -0.868448,
        0.0789917,
        -0.777093,
        0.364988,
        0.845047,
        -0.620366,
        0.433445,
        -0.067993,
        0.812071,
        0.767909,
        0.384461,
        -0.371657,
        0.191758,
        -0.327256,
        0.759645,
        -0.775709,
        -0.00528049,
        0.474544,
        -0.641719,
        0.028653,
        0.620483,
        -0.253472,
        -0.575845,
        0.864188,
        0.0426388,
        0.50519,
        0.163126,
        -0.500715,
        0.738734,
        -0.213245,
        0.115982,
        0.870286,
        0.865747,
        0.338888,
        0.235274,
        0.710794,
        0.718523,
        -0.331281,
        -0.357199,
        0.530594,
        -0.563372,
        -0.972738,
        -0.841063,
        0.628386,
        -0.299994,
        0.918581,
        0.852677,
        0.694726,
        0.393125,
        -0.789042,
        -0.276621,
        0.0136088,
        -0.0425141,
        0.147534,
        -0.122203,
        -0.999875,
        -0.347276,
        -0.959077,
        -0.500591,
        -0.608542,
        -0.172322,
        0.615391,
        -0.738256,
        -0.306575,
        -0.0457211,
        0.497018,
        -0.595781,
        -0.327199,
        -0.834264,
        0.0470194,
        -0.796605,
        -0.397636,
        0.0742812,
        -0.637668,
        -0.76925,
        0.774287,
        -0.719087,
        -0.916573,
        0.469013,
        0.674039,
        -0.705615,
        -0.807609,
        -0.312353,
        0.251871,
        0.339925,
        0.565444,
        0.251995,
        0.992649,
        0.606367,
        0.751404,
        -0.615893,
        -0.565955,
        0.366795,
        -0.354149,
        0.12747,
        -0.678926,
        -0.857132,
        0.531688,
        -0.00612444,
        -0.691395,
        -0.421292,
        0.197271,
        -0.0890312,
        0.652989,
        0.559602,
        0.141719,
        0.427276,
        0.840515,
        0.225146,
        -0.103711,
        0.514554,
        0.51953,
        0.0886803,
        -0.797799,
        -0.228599,
        -0.571395,
        0.767645,
        -0.976604,
        -0.578745,
        0.374012,
        0.7748,
        -0.194639,
        0.808058,
        0.141595,
        0.451212,
        -0.0644724,
        0.462669,
        0.59408,
        -0.532784,
        -0.543455,
        0.902685,
        0.0459238,
        0.653815,
        -0.186347,
        -0.301087,
        0.213418,
        0.955372,
        -0.873811,
        0.053933,
        0.180518,
        0.022478,
        -0.431513,
        -0.299952,
        -0.888842,
        -0.229312,
        0.471448,
        -0.460236,
        -0.461667,
        0.494844,
        -0.0389817,
        0.912346,
        0.269644,
        0.76638,
        0.720403,
        -0.588761,
        0.217592,
        -0.344069,
        0.873908,
        -0.188328,
        0.123147,
        -0.669547,
        -0.285644,
        -0.830929,
        0.984268,
        0.52801,
        -0.132016,
        0.197685,
        0.483382,
        -0.00582725,
        -0.748382,
        -0.3361,
        -0.983349,
        -0.179895,
        0.363947,
        -0.872191,
        0.590793,
        -0.164604,
        -0.332427,
        -0.870873,
        -0.66976,
        0.628591,
        -0.958527,
        0.599884,
        0.394971,
        0.761876,
        -0.988878,
        -0.387438,
        -0.582193,
        0.885031,
        0.424234,
        0.540954,
        -0.784517,
        -0.86141,
        0.710025,
        -0.800249,
        0.6666,
        -0.421991,
        0.397436,
        0.149982,
        0.572182,
        0.649055,
        0.813882,
        0.588832,
        -0.53084,
        0.177829,
        0.716642,
        -0.940046,
        -0.986775,
        -0.615786,
        -0.81092,
        -0.656535,
        -0.987195,
        -0.769447,
        0.943348,
        0.407776,
        0.992429,
        0.954471,
        -0.979662,
        -0.589763,
        0.839501,
        0.444572,
        0.951191,
        -0.945015,
        0.583162,
        0.661216,
        -0.745265,
        0.249762,
        -0.760775,
        0.652172,
        -0.600256,
        0.811407,
        0.301226,
        -0.786374,
        0.40024,
        0.770387,
        0.391456,
        0.116881,
        0.83034,
        0.404681,
        0.501095,
        -0.980579,
        0.748146,
        0.5139,
        -0.750026,
        0.691494,
        -0.078324,
        -0.757597,
        0.645965,
        -0.0579862,
        -0.34736,
        0.485466,
        -0.613415,
        -0.396169,
        0.540451,
        0.969747,
        -0.734953,
        0.795187,
        0.219509,
        -0.495727,
        0.447358,
        0.619254,
        -0.68432,
        -0.251415,
        0.83288,
        0.715919,
        -0.481029,
        0.224336,
        -0.167199,
        -0.650688,
        -0.370983,
        -0.666104,
        -0.631268,
        -0.622837,
        0.847796,
        -0.381294,
        -0.931343,
        -0.230528,
        -0.138891,
        0.714622,
        0.711486,
        0.513749,
        0.200089,
        -0.901928,
        -0.88242,
        -0.25946,
        -0.932181,
        -0.617372,
        -0.464274,
        0.287328,
        -0.1131,
        0.983085,
        -0.0934177,
        0.20258,
        -0.26833,
        -0.260537,
        -0.0815007,
        0.250641,
        0.963799,
        0.7513,
        0.599953,
        -0.407184,
        -0.914804,
        0.968685,
        -0.030021,
        0.932992,
        -0.412609,
        0.0386363,
        -0.297535,
        0.448501,
        -0.246741,
        -0.586049,
        -0.0377497,
        0.953348,
        -0.487978,
        0.0798306,
        -0.306112,
        -0.420159,
        0.462458,
        0.229614,
        0.86717,
        -0.650642,
        0.212699,
        -0.226248,
        0.551938,
        0.944369,
        0.513215,
        -0.529562,
        0.19501,
        0.477013,
        -0.778263,
        -0.205038,
        -0.930171,
        -0.693067,
        -0.236352,
        0.0398084,
        -0.760075,
        0.351039,
        -0.921555,
        -0.0576101,
        -0.20046,
        -0.168297,
        0.356341,
        0.76179,
        -0.214949,
        0.868363,
        -0.158379,
        0.478939,
        -0.551796,
        -0.695921,
        -0.291447,
        -0.684626,
        -0.346563,
        0.921252,
        0.089126,
        -0.794625,
        0.865621,
        -0.397659,
        -0.324187,
        0.0606308,
        -0.920646,
        -0.10245,
        0.855593,
        -0.850816,
        0.204484,
        -0.380759,
        0.188992,
        0.444409,
        0.97028,
        0.267437,
        -0.613201,
        -0.230181,
        -0.90086,
        0.743139,
        -0.468391,
        -0.115809,
        0.611502,
        0.37323,
        -0.63687,
        -0.940293,
        0.677309,
        0.0716834,
        -0.624919,
        -0.669254,
        -0.00706422,
        0.464207,
        -0.463878,
        -0.141443,
        -0.933453,
        0.211935,
        0.919188,
        -0.854098,
        -0.890515,
        0.774781,
        -0.704915,
        0.313968,
        -0.605978,
        0.484077,
        -0.241623,
        -0.635699,
        -0.248487,
        0.145176,
        0.134121,
        -0.149347,
        -0.111685,
        0.66573,
        0.734845,
        -0.500182,
        0.0389603,
        -0.902025,
        -0.440476,
        -0.283731,
        0.169658,
        -0.0653949,
        0.0470154,
        -0.837406,
        -0.601188,
        0.583137,
        0.0211507,
        -0.534641,
        -0.204928,
        -0.0596616,
        -0.388739,
        -0.0954434,
        -0.284881,
        -0.0936543,
        -0.781475,
        0.109141,
        -0.609577,
        -0.0230978,
        0.473442,
        0.141936,
        -0.877922,
        -0.392437,
        0.992589,
        0.0103933,
        -0.726707,
        0.727434,
        0.510211,
        0.312253,
        0.825409,
        -0.930265,
        -0.971477,
        -0.0049333,
        0.00434041,
        0.0755382,
        0.157661,
        0.403152,
        -0.341325,
        -0.821189,
        0.868511,
        0.453747,
        0.11915,
        -0.520228,
        -0.641696,
        0.834269,
        0.386118,
        -0.423171,
        -0.0565903,
        0.776541,
        0.553731,
        -0.583148,
        -0.0815236,
        0.675809,
        0.0244149,
        -0.0889342,
        -0.313798,
        0.297708,
        -0.3615,
        -0.803587,
        -0.390039,
        -0.536092,
        -0.733852,
        -0.361516,
        0.458975,
        0.270489,
        0.714022,
        -0.383364,
        -0.326359,
        -0.627303,
        -0.204553,
        -0.457848,
        0.826444,
        0.914597,
        0.0219246,
        -0.815252,
        0.748866,
        -0.591957,
        -0.238423,
        -0.307725,
        -0.815417,
        -0.684693,
        0.109127,
        0.10306,
        0.991116,
        -0.866458,
        -0.985875,
        -0.322682,
        0.43125,
        -0.347375,
        -0.126269,
        -0.958788,
        0.116533,
        0.13988,
        -0.320304,
        -0.424492,
        -0.589631,
        -0.606282,
        0.192144,
        0.0840095,
        -0.233585,
        0.987591,
        0.626162,
        -0.407141,
        0.902187,
        -0.351913,
        -0.222393,
        0.651053,
        0.0561292,
        0.539184,
        -0.656672,
        0.240712,
        0.854491,
        0.452456,
        -0.656228,
        0.845607,
        0.585998,
        -0.642103,
        -0.477074,
        0.017248,
        0.0105219,
        0.396657,
        0.0584596,
        -0.872945,
        -0.463463,
        0.738155,
        -0.297437,
        -0.0530945,
        -0.868127,
        0.894707,
        -0.969085,
        -0.101712,
        0.882297,
        0.657077,
        0.491147,
        0.784484,
        -0.694837,
        -0.731246,
        0.435537,
        0.361293,
        0.807938,
        0.778866,
        -0.397995,
        0.662429,
        0.231321,
        -0.0542234,
        0.508036,
        -0.182681,
        0.303674,
        -0.969038,
        0.834567,
        -0.685805,
