{
    "NInput": 784,
    "NHidden": 150,
    "NOutput": 10,
    "NHiddenLayers": 1,
    "Weights": [
        0.0297603,
        -0.0704635,
        0.0782511,
        -0.0540362,
        -0.00341786,
        0.0927031,
        0.066163,
        -0.0958317,
        0.0584499,
        -0.00808582,
        0.110166,
        0.0834996,
        0.147397,
        -0.0361677,
        0.0255973,
        0.115567,
        -0.0385385,
        0.115121,
        -0.170921,
        0.0896222,
        0.0496566,
        0.00998544,
        -0.0749127,
        -0.110682,
        0.0225697,
        0.0174766,
        0.0328475,
        0.0122532,
        0.0510393,
        -0.00904707,
        0.0236478,
        -0.137081,
        -0.0800293,
        -0.00520528,
        -0.120159,
        0.121281,
        0.0870721,
        -0.0617381,
        0.0621939,
        0.00887203,
        -0.0864081,
        -0.052125,
        -0.102967,
        0.107773,
        0.0955103,
        0.00942369,
        -0.0371698,
        -0.0384854,
        -0.064414,
        -0.0738346,
        -0.0102476,
        0.0894974,
        0.0642213,
        0.0420613,
        -0.0203261,
        -0.136448,
        0.053178,
        0.0466367,
        0.0764488,
        0.0502792,
        -0.0410746,
        0.0238967,
        0.0139859,
        -0.0481424,
        0.00230514,
        -0.0522505,
        -0.0786045,
        0.0145681,
        -0.050714,
        0.131242,
        -0.0721851,
        -0.0634826,
        0.165647,
        0.0775142,
        -0.0232711,
        0.0588555,
        -0.0346979,
        0.0146884,
        -0.0314846,
        0.0231334,
        -0.022111,
        0.0140319,
        -0.0808097,
        0.205999,
        -0.0526083,
        0.113802,
        0.0294769,
        -0.114406,
        -0.023851,
        0.091277,
        0.0203315,
        -0.0118332,
        -0.0807018,
        -0.0840122,
        0.0287589,
        -0.0944381,
        0.0437548,
        -0.142921,
        0.123876,
        0.0393993,
        0.0822845,
        0.0208631,
        0.156784,
        0.0158243,
        -0.0167095,
        0.0337374,
        0.103882,
        -0.00802234,
        -0.0162303,
        0.0710939,
        -0.0287806,
        -0.163516,
        -0.056038,
        0.11384,
        0.0190082,
        0.00468211,
        0.0985141,
        -0.173789,
        0.0653829,
        -0.0286312,
        0.146759,
        0.192666,
        0.0156474,
        -0.0709565,
        -0.0162509,
        0.00551089,
        0.0545643,
        0.105272,
        0.0911992,
        -0.0591401,
        0.0122392,
        0.0504513,
        -0.0405314,
        -0.0213539,
        0.206283,
        -0.0335459,
        -0.159366,
        0.011962,
        -0.0510954,
        -0.068476,
        -0.0177519,
        0.0160084,
        0.0445435,
        -0.0277008,
        -0.00466732,
        0.119177,
        -0.0165438,
        0.026863,
        0.0249845,
        -0.0033031,
        0.0956973,
        0.0407329,
        0.0951407,
        0.00195489,
        0.0924046,
        0.105454,
        0.0967087,
        -0.132635,
        -0.198123,
        -0.0675676,
        -0.276708,
        0.0580732,
        0.053073,
        0.17585,
        0.000324651,
        -0.0620604,
        0.0218502,
        0.0335346,
        -0.111313,
        -0.0564945,
        0.0783571,
        -0.189918,
        0.00464996,
        0.0263937,
        -0.133245,
        0.188988,
        0.0593951,
        -0.0594416,
        0.0705523,
        0.210922,
        0.0752405,
        0.116921,
        -0.0230593,
        -0.134899,
        -0.182872,
        -0.178473,
        -0.0879504,
        -0.222152,
        0.141116,
        -0.152138,
        0.131165,
        -0.0744474,
        -0.0650073,
        -0.0144468,
        -0.048626,
        0.0627366,
        -0.0711615,
        0.00989199,
        0.00872423,
        0.0180931,
        -0.0294566,
        0.15555,
        -0.0813788,
        0.0931276,
        -0.0956284,
        -0.0788232,
        0.0262563,
        -0.00879903,
        0.202585,
        0.12574,
        0.0132816,
        -0.141663,
        0.0598422,
        -0.120039,
        -0.0982744,
        -0.104463,
        -0.0748574,
        -0.017384,
        0.0377136,
        0.125427,
        -0.0103729,
        -0.077696,
        0.0386425,
        0.124552,
        0.0137539,
        -0.0131448,
        -0.119604,
        -0.0075127,
        -0.125934,
        -0.0944521,
        -0.237615,
        0.0246155,
        -0.172187,
        -0.149688,
        -0.0617613,
        -0.263449,
        -0.133513,
        -0.074495,
        -0.0211984,
        0.0506475,
        0.235827,
        -0.025892,
        -0.00215151,
        -0.397681,
        -0.305228,
        -0.0522076,
        -0.157473,
        -0.223437,
        0.0460772,
        -0.0789485,
        -0.00739915,
        -0.0622728,
        0.0106229,
        0.0891539,
        -0.018031,
        -0.0208747,
        0.0152346,
        0.166233,
        -0.00928509,
        -0.0174777,
        -0.287925,
        -0.174109,
        -0.152099,
        -0.110419,
        -0.184611,
        -0.114868,
        -0.283004,
        -0.0129189,
        0.324953,
        -0.185809,
        -0.0655731,
        -0.341634,
        -0.335807,
        -0.257024,
        -0.0699914,
        -0.223324,
        -0.0641457,
        -0.00198994,
        -0.023323,
        0.0401513,
        -0.00025618,
        0.0752865,
        -0.019194,
        -0.0362455,
        -0.00596779,
        0.0136499,
        -0.104548,
        -0.134487,
        -0.0111615,
        -0.275799,
        -0.0317224,
        -0.123579,
        0.0848338,
        -0.354101,
        -0.124043,
        0.198716,
        0.0523485,
        0.0143524,
        0.102823,
        -0.215826,
        0.0521817,
        -0.240976,
        -0.105228,
        -0.18542,
        -0.142167,
        0.101309,
        -0.0883226,
        -0.06064,
        0.067475,
        0.0672868,
        -0.0101206,
        -0.0468229,
        0.106262,
        -0.152944,
        -0.164735,
        -0.048016,
        -0.418643,
        -0.056126,
        -0.0842149,
        -0.0903637,
        -0.155239,
        -0.173924,
        -0.191144,
        0.118986,
        0.074957,
        -0.018234,
        0.0285425,
        -0.00346449,
        -0.0113737,
        -0.139022,
        -0.226626,
        -0.137845,
        -0.14825,
        -0.00436395,
        -0.0621984,
        0.10934,
        0.0714127,
        -0.00475967,
        0.127166,
        -0.161546,
        0.130561,
        -0.111732,
        -0.0968084,
        -0.0890385,
        -0.144338,
        0.206301,
        0.0811517,
        -0.0786454,
        -0.0428887,
        0.223014,
        0.152771,
        0.136034,
        0.0636803,
        -0.185356,
        0.0250162,
        -0.0618446,
        0.00260099,
        -0.0736209,
        -0.199901,
        -0.146509,
        -0.0484659,
        0.0959357,
        0.0134873,
        -0.101826,
        -0.103989,
        0.0359959,
        0.171655,
        -0.0100894,
        0.0350274,
        -0.115544,
        -0.105642,
        0.0128525,
        -0.16769,
        0.154448,
        -0.0580875,
        -0.0127345,
        0.0161851,
        0.129306,
        0.130911,
        0.288234,
        -0.141923,
        -0.0371845,
        0.172997,
        0.209645,
        0.048496,
        0.0190123,
        -0.15804,
        -0.0858562,
        -0.00280675,
        0.122544,
        0.0913157,
        0.0267409,
        -0.0377927,
        -0.0290669,
        0.0273484,
        0.178967,
        0.0185981,
        -0.210837,
        -0.100959,
        -0.0359288,
        0.151958,
        0.34981,
        0.238013,
        0.297827,
        0.0262975,
        0.326037,
        0.479887,
        0.362771,
        0.0643611,
        0.0906916,
        0.0516295,
        0.085729,
        0.0234331,
        -0.03274,
        -0.214091,
        -0.138347,
        -0.0439731,
        0.0489638,
        -0.0554533,
        0.0877898,
        0.0514307,
        -0.0506248,
        0.0565302,
        0.116817,
        -0.00733147,
        -0.0459984,
        -0.171208,
        -0.0466389,
        0.0580002,
        0.151635,
        0.164022,
        0.214396,
        0.400407,
        0.384211,
        0.273972,
        0.391975,
        0.0988468,
        0.00239359,
        0.194588,
        0.151791,
        0.0321821,
        -0.130472,
        -0.0465699,
        -0.0591703,
        -0.116038,
        -0.00145862,
        0.0217399,
        0.00237623,
        -0.00419486,
        -0.0364176,
        -0.0405895,
        0.0362895,
        -0.105237,
        0.0223331,
        -0.116469,
        -0.182157,
        0.0591175,
        -0.00383721,
        0.0342086,
        0.270185,
        0.247899,
        0.381055,
        -0.0543127,
        0.249263,
        -0.0329283,
        0.0240633,
        0.117464,
        0.0681115,
        -0.128189,
        0.0167722,
        -0.154335,
        -0.0563502,
        0.0461684,
        0.0496937,
        0.00696119,
        -0.0129669,
        0.045335,
        0.0438124,
        0.0469774,
        -0.0736328,
        -0.124369,
        -0.0243082,
        -0.119724,
        -0.255269,
        -0.0203322,
        -0.233402,
        0.115178,
        0.223959,
        0.351395,
        0.113559,
        0.109178,
        -0.151188,
        -0.0238559,
        -0.0820049,
        0.285312,
        0.155603,
        0.122142,
        0.0527474,
        -0.0136859,
        0.0376188,
        0.112713,
        0.0908698,
        0.126647,
        0.061427,
        -0.0459464,
        0.0521755,
        0.0556376,
        -0.0757889,
        0.0481625,
        -0.224601,
        -0.38431,
        -0.306273,
        -0.210281,
        -0.137825,
        -0.085931,
        0.175985,
        0.0986881,
        -0.174783,
        -0.214137,
        -0.121485,
        -0.0305624,
        0.0299113,
        0.232389,
        0.0802899,
        0.0629381,
        0.0042538,
        -0.0218835,
        0.0345808,
        0.250537,
        0.162465,
        -0.0650717,
        0.0211032,
        -0.0163417,
        -0.0249665,
        0.0764578,
        -0.013487,
        -0.0709026,
        -0.17479,
        -0.206688,
        -0.218557,
        -0.295856,
        -0.108137,
        0.184372,
        0.127043,
        0.0894202,
        -0.0731094,
        -0.272647,
        -0.113696,
        0.208418,
        -0.0632298,
        0.182491,
        0.0247825,
        0.192738,
        -0.0164662,
        0.0413668,
        0.078675,
        0.123168,
        0.0287607,
        -0.036713,
        0.0180871,
        0.0653197,
        0.1351,
        -0.0989369,
        0.00263861,
        0.0133331,
        -0.162366,
        -0.117565,
        0.0918814,
        -0.25107,
        -0.364874,
        0.00580423,
        0.303302,
        0.256777,
        -0.272394,
        0.0496431,
        0.101063,
        0.401753,
        0.161029,
        0.0778048,
        0.117605,
        0.263848,
        0.123998,
        -0.0280857,
        0.137764,
        -0.00229168,
        0.00539899,
        -0.0539867,
        -0.0987566,
        -0.0289823,
        0.0419136,
        0.0111195,
        -0.0801134,
        0.0464412,
        -0.0604066,
        0.11169,
        -0.110051,
        -0.293959,
        -0.333219,
        0.00328541,
        -0.0625832,
        0.0355998,
        0.0159269,
        -0.076036,
        -0.0746201,
        0.0965093,
        -0.216943,
        0.0679731,
        -0.0363759,
        0.0859941,
        0.0865743,
        0.0284424,
        0.182239,
        0.0549302,
        0.00278831,
        0.0523222,
        -0.00309485,
        0.0939388,
        0.0303772,
        0.0735371,
        -0.251814,
        0.0358954,
        0.0881808,
        0.216434,
        -0.120533,
        -0.0248904,
        -0.379408,
        -0.454699,
        -0.00471754,
        -0.0628839,
        -0.0870768,
        0.101141,
        -0.0123695,
        0.119607,
        0.0240584,
        0.0488257,
        -0.183492,
        0.0323169,
        -0.00378766,
        -0.00402203,
        0.138783,
        0.0594791,
        0.039592,
        -0.111931,
        0.0660057,
        0.0268154,
        0.166906,
        -0.0726137,
        -0.0282961,
        -0.137437,
        -0.0583587,
        0.101839,
        -0.000961808,
        -0.278923,
        -0.0327902,
        -0.040197,
        -0.173559,
        -0.107076,
        0.00276603,
        0.0719137,
        0.0925718,
        0.0297348,
        -0.0444778,
        -0.0848342,
        -0.160842,
        -0.0193178,
        0.0217023,
        0.0267345,
        0.0329591,
        -0.0398064,
        -0.0147277,
        -0.0671704,
        -0.000643877,
        0.0138482,
        0.015448,
        0.00445796,
        0.0151607,
        -0.0489613,
        -0.076193,
        -0.0753026,
        0.149113,
        -0.0849773,
        0.0969933,
        0.0722716,
        -0.01401,
        0.0195879,
        -0.0845859,
        0.0091959,
        -0.0688195,
        -0.266757,
        0.0736961,
        -0.0416467,
        -0.190905,
        -0.0738659,
        0.111141,
        0.0224836,
        -0.0572437,
        -0.0211912,
        -0.035372,
        -0.00499794,
        -0.105063,
        -3.76432e-05,
        -0.0175913,
        -0.0568697,
        -0.0201571,
        -0.0809453,
        0.047669,
        -0.136012,
        -0.191561,
        0.0826474,
        0.164235,
        -0.220819,
        -0.0859123,
        0.0549108,
        -0.0378405,
        0.098176,
        -0.275879,
        -0.192087,
        -0.0629144,
        -0.026863,
        -0.0423777,
        -0.0568166,
        -0.064016,
        -0.0263816,
        -0.0251933,
        -0.14107,
        0.052468,
        0.114347,
        -0.031849,
        0.115763,
        -0.0297665,
        0.109363,
        0.0852909,
        -0.0460671,
        -0.0711443,
        0.0641414,
        0.0216925,
        -0.0321731,
        -0.0497372,
        0.0509523,
        -0.143253,
        -0.151491,
        -0.111942,
        -0.213926,
        -0.0642783,
        -0.0749394,
        -0.0258179,
        -0.155998,
        -0.0106904,
        -0.0261904,
        -0.0123085,
        -0.0128491,
        0.00617846,
        -0.00322371,
        0.00279477,
        -0.0730391,
        0.0293309,
        0.0087228,
        -0.0332985,
        0.0906141,
        0.0401182,
        0.0505265,
        -0.0854672,
        -0.0601259,
        0.0362053,
        0.0183914,
        -0.0135875,
        0.0210828,
        0.0902013,
        -0.0824777,
        0.00410339,
        -0.0685465,
        0.0486419,
        -0.00847495,
        0.0294261,
        -0.184949,
        0.0545363,
        0.134461,
        -0.0150331,
        -0.0593124,
        0.10268,
        -0.0369842,
        -0.0528094,
        -0.057401,
        0.0499208,
        0.116316,
        0.176838,
        -0.156638,
        0.048824,
        0.0239775,
        0.0829418,
        -0.107814,
        -0.00196872,
        0.0880665,
        -0.0576103,
        0.168506,
        -0.0637772,
        0.11033,
        0.0132653,
        0.0235203,
        -0.0943779,
        0.16791,
        0.0821256,
        -0.0830161,
        -0.0795486,
        0.0605454,
        -0.0973749,
        0.0385372,
        -0.00889607,
        0.0787158,
        -0.0217647,
        -0.159356,
        0.0820887,
        -0.137249,
        0.0194866,
        -0.0931066,
        0.040664,
        -0.0747763,
        -0.054159,
        0.128952,
        0.00871373,
        0.192533,
        0.0309368,
        -0.131201,
        -0.017051,
        -0.0887181,
        0.0490706,
        0.0763998,
        0.0324377,
        0.135401,
        -0.149211,
        -0.116357,
        0.0914351,
        0.0487372,
        0.0256505,
        -0.150202,
        -0.0371565,
        -0.0269788,
        -0.0863446,
        -0.0267339,
        -0.00467672,
        0.0200768,
        -0.0292662,
        0.156456,
        -0.0272204,
        0.0500827,
        0.0966794,
        -0.0343536,
        -0.0436262,
        0.0129743,
        0.104316,
        -0.0348507,
        -0.112707,
        0.00179995,
        0.0193981,
        0.0444237,
        0.0818715,
        0.206338,
        0.323916,
        0.0586806,
        0.0893916,
        0.171742,
        0.0811612,
        -0.055843,
        0.00267268,
        -0.171191,
        -0.0495805,
        -0.0429095,
        0.109334,
        0.0849856,
        0.0191661,
        -0.194176,
        0.244083,
        0.0187508,
        -0.0587744,
        0.112842,
        0.116503,
        0.165211,
        0.181483,
        0.0583558,
        -0.123339,
        -0.0679625,
        -0.155742,
        -0.00377734,
        0.073531,
        0.0682473,
        -0.0330125,
        0.0826254,
        0.177248,
        -0.113409,
        -0.136734,
        0.103491,
        0.089538,
        0.017833,
        -0.0440785,
        -0.103239,
        -0.0201376,
        0.0313151,
        0.0732882,
        0.0519769,
        -0.160311,
        -0.0398827,
        0.106971,
        -0.212185,
        0.0631554,
        0.136876,
        0.0972918,
        0.0533478,
        0.0210651,
        -0.132434,
        0.0946064,
        0.313672,
        0.14146,
        0.0372546,
        -0.0565082,
        0.381108,
        0.0773417,
        -0.0686305,
        0.0394763,
        0.163826,
        0.319734,
        0.0487684,
        0.0642057,
        -0.0755182,
        -0.123945,
        0.155013,
        0.247115,
        0.0824856,
        0.0542626,
        0.0719011,
        -0.0167857,
        -0.03157,
        0.0671549,
        -0.190904,
        -0.267338,
        -0.141128,
        -0.267289,
        -0.255421,
        -0.0648829,
        -0.0349295,
        -0.270317,
        0.227126,
        -0.408373,
        -0.197046,
        -0.134308,
        0.0603757,
        -0.362438,
        -0.17828,
        0.0878765,
        0.062943,
        0.0501867,
        0.0115915,
        -0.1459,
        0.0666752,
        0.0802905,
        0.0976647,
        -0.0156043,
        -0.246248,
        -0.266596,
        -0.15107,
        -0.0357837,
        0.0402876,
        -0.178214,
        -0.0464912,
        -0.223826,
        -0.172439,
        -0.0509659,
        0.112808,
        -0.175554,
        0.123145,
        -0.02946,
        -0.167262,
        -0.117543,
        -0.123234,
        -0.0732047,
        0.1673,
        -0.303085,
        0.0722261,
        -0.250118,
        -0.121188,
        -0.138235,
        0.0486922,
        -0.0784236,
        -0.0530671,
        0.0592121,
        -0.102351,
        -0.199104,
        -0.10446,
        0.0829896,
        -0.252525,
        -0.217304,
        -0.148222,
        -0.384478,
        -0.321565,
        -0.191239,
        -0.037979,
        0.0804419,
        0.0644864,
        -0.290541,
        0.182441,
        -0.0869818,
        -0.263935,
        0.117962,
        0.11115,
        0.126681,
        0.127566,
        -0.0799131,
        -0.0723513,
        -0.149634,
        -0.301103,
        0.177588,
        -0.139545,
        -0.0233256,
        -0.23543,
        -0.0577304,
        0.0508994,
        0.0328204,
        0.0178035,
        -0.00540727,
        0.0283235,
        -0.0349702,
        -0.439568,
        -0.19753,
        -0.222513,
        -0.233616,
        -0.129222,
        -0.0849169,
        -0.242773,
        0.0611832,
        -0.186362,
        -0.157547,
        -0.0818442,
        -0.0501156,
        -0.373303,
        0.154746,
        -0.091112,
        -0.203247,
        -0.10725,
        -0.0589748,
        0.138492,
        0.0975848,
        -0.0183788,
        0.175843,
        -0.000841935,
        0.257143,
        -0.0215581,
        -0.0509973,
        0.220624,
        0.139252,
        -0.106311,
        -0.142065,
        -0.137894,
        -0.248756,
        -0.185854,
        -0.35285,
        -0.336545,
        0.0022501,
        -0.0774046,
        -0.0172986,
        0.00540225,
        -0.181354,
        -0.319528,
        -0.180024,
        -0.175949,
        0.175568,
        -0.231656,
        -0.0216917,
        -0.00294051,
        0.085917,
        -0.0168846,
        -0.0276962,
        0.196498,
        0.229731,
        0.167215,
        0.140304,
        0.273511,
        0.282054,
        0.122371,
        0.120491,
        0.0196016,
        0.149274,
        -0.301152,
        -0.0831388,
        -0.321312,
        -0.0187497,
        -0.13389,
        -0.0253706,
        0.0658964,
        0.102027,
        0.0635277,
        0.130682,
        -0.337835,
        -0.182947,
        -0.00667282,
        -0.0391316,
        -0.0733942,
        -0.00729397,
        -0.166605,
        0.0397027,
        0.174184,
        0.159792,
        0.511958,
        0.448576,
        0.144363,
        0.175917,
        0.0909163,
        0.0587867,
        0.297186,
        0.360567,
        0.110861,
        0.287305,
        0.0658968,
        0.09242,
        0.186754,
        0.218802,
        0.115858,
        0.0868234,
        0.0242044,
        0.102362,
        -0.00169688,
        -0.0973471,
        0.114669,
        0.0800299,
        0.0945608,
        0.101925,
        0.1696,
        0.218758,
        0.348371,
        0.0680474,
        0.192788,
        -0.0297019,
        0.139082,
        0.0555663,
        -0.322093,
        -0.00878997,
        0.335154,
        0.14705,
        0.422542,
        0.0370687,
        0.323274,
        0.0309354,
        0.439728,
        -0.172306,
        0.239292,
        0.262476,
        0.201883,
        0.0385715,
        0.0627867,
        0.180853,
        0.107294,
        -0.0879972,
        0.104347,
        -0.175845,
        0.174923,
        0.448304,
        0.218879,
        -0.0104585,
        0.0203882,
        0.0328064,
        0.0185258,
        -0.225602,
        -0.198583,
        0.359871,
        0.408029,
        0.203762,
        0.33168,
        -0.0887685,
        0.440246,
        0.124896,
        0.274516,
        0.0455408,
        0.20965,
        0.230642,
        0.12249,
        -0.205873,
        -0.0558655,
        0.015468,
        -0.123707,
        0.0608876,
        -0.0214015,
        0.0753718,
        0.126054,
        0.0109998,
        0.154808,
        -0.0294519,
        -0.0987664,
        -0.054041,
        -0.281467,
        -0.228217,
        0.290784,
        0.190756,
        0.270312,
        0.263241,
        0.163603,
        0.294604,
        0.408002,
        0.139146,
        0.0274232,
        -0.00629148,
        0.0351097,
        0.198679,
        -0.142956,
        -0.331263,
        0.0807969,
        0.0177557,
        -0.162012,
        0.00450625,
        0.173532,
        0.0464395,
        -0.0708539,
        -0.039982,
        -0.153956,
        -0.0417743,
        -0.227386,
        -0.23713,
        -0.212213,
        0.273527,
        0.249597,
        0.41435,
        0.340581,
        0.376924,
        0.130465,
        0.354977,
        0.270564,
        0.0918328,
        0.190327,
        -0.174187,
        -0.112246,
        0.378467,
        -0.0822826,
        -0.336638,
        0.0734248,
        -0.12886,
        -0.0172657,
        0.102046,
        0.125308,
        0.0119404,
        -0.0303787,
        0.209287,
        0.110625,
        0.239959,
        -0.224959,
        0.049949,
        0.0656352,
        0.340233,
        0.520144,
        0.238792,
        0.48377,
        0.193591,
        0.424864,
        -0.0768291,
        0.185646,
        0.390439,
        -0.147673,
        0.0107128,
        -0.523052,
        -0.188519,
        -0.0129378,
        -0.338017,
        -0.129812,
        0.0483176,
        0.0859604,
        0.0621625,
        -0.169058,
        0.0428743,
        -0.123499,
        0.146592,
        -0.0561397,
        -0.174278,
        0.231213,
        0.060327,
        0.277,
        0.138474,
        0.130963,
        0.280051,
        0.135291,
        0.265084,
        0.271789,
        0.308717,
        0.177685,
        -0.0131815,
        0.0568294,
        -0.0849515,
        -0.455629,
        -0.125522,
        0.0751391,
        0.0645719,
        -0.0788223,
        -0.0455661,
        -0.0920487,
        0.0460955,
        -0.28374,
        0.148276,
        -0.0580564,
        0.000225231,
        -0.0417722,
        -0.202838,
        0.0975798,
        0.0339852,
        0.410421,
        0.329322,
        0.205528,
        0.323355,
        0.50102,
        0.370276,
        0.418376,
        0.219778,
        0.0314046,
        0.0273335,
        -0.0998796,
        -0.0772683,
        -0.250471,
        -0.425455,
        -0.0741319,
        -0.0486931,
        -0.0913077,
        -0.0858467,
        -0.056764,
        0.0269884,
        -0.0777202,
        -0.0104452,
        0.233233,
        -0.0634711,
        -0.179734,
        -0.190561,
        0.380605,
        0.242489,
        0.711215,
        0.554777,
        0.388281,
        0.111755,
        0.149472,
        0.0962704,
        0.142279,
        0.281984,
        -0.0729847,
        0.0668198,
        -0.00305795,
        -0.347436,
        -0.177606,
        -0.133999,
        0.120999,
        0.205099,
        -0.140922,
        -0.113704,
        -0.0563538,
        -0.167611,
        -0.0259779,
        -0.172223,
        -0.0771871,
        -0.00745807,
        -0.0794763,
        -0.00323682,
        -0.317431,
        0.00691326,
        0.264478,
        0.0822712,
        0.0850536,
        -0.0511816,
        -0.244728,
        -0.015252,
        0.0472554,
        -0.319823,
        -0.0294957,
        0.0843093,
        -0.218419,
        0.0463048,
        -0.200032,
        -0.0298593,
        0.00619213,
        0.307472,
        0.0317232,
        -0.132813,
        -0.206309,
        -0.040295,
        -0.087413,
        0.036832,
        0.114061,
        -0.0358023,
        0.00027685,
        -0.317322,
        -0.117261,
        -0.193874,
        -0.0789521,
        -0.333674,
        -0.602465,
        -0.457696,
        -0.435586,
        -0.39731,
        -0.37182,
        -0.56472,
        -0.336098,
        -0.182608,
        -0.256719,
        -0.145057,
        0.188391,
        -0.106386,
        -0.0805502,
        -0.0428793,
        0.0540539,
        0.0694843,
        -0.143625,
        0.0575395,
        0.0226862,
        -0.0858819,
        -0.204149,
        -0.0776909,
        -0.124557,
        -0.131526,
        -0.249629,
        -0.374669,
        -0.492058,
        -0.345042,
        -0.541865,
        -0.365002,
        -0.186054,
        -0.0455594,
        -0.285332,
        -0.086095,
        -0.208103,
        -0.152469,
        -0.144736,
        0.157996,
        0.156497,
        -0.128921,
        -0.0578476,
        -0.196239,
        -0.0941869,
        0.0585008,
        -0.00859717,
        0.0555717,
        0.164663,
        -0.0393838,
        -0.183394,
        -0.229103,
        -0.0831636,
        -0.369343,
        -0.310809,
        -0.0576107,
        -0.114792,
        -0.127848,
        -0.254317,
        -0.0376193,
        0.0692032,
        -0.0546308,
        -0.0428617,
        -0.0689386,
        0.0196921,
        0.0524913,
        -0.133933,
        0.00191084,
        0.00327227,
        0.105836,
        0.0615258,
        0.0379452,
        0.0221933,
        0.158784,
        -0.182197,
        -0.144122,
        0.0421085,
        0.150346,
        -0.0656765,
        0.0869411,
        -0.315059,
        -0.213043,
        -0.100691,
        -0.162982,
        0.151993,
        -0.254317,
        0.0282324,
        -0.305744,
        -0.202789,
        -0.0739132,
        0.026033,
        0.260101,
        0.00145099,
        -0.0631833,
        -0.101292,
        0.0336179,
        -0.128222,
        -0.172394,
        0.113487,
        -0.0668795,
        -0.0704513,
        -0.131093,
        -0.00610853,
        0.141349,
        -0.124249,
        -0.0323412,
        0.0053957,
        0.0688312,
        0.148779,
        -0.0189367,
        -0.111891,
        -0.300925,
        -0.329358,
        -0.0453365,
        -0.256603,
        -0.233446,
        -0.0412284,
        -0.127311,
        0.00745359,
        -0.0347033,
        -0.041731,
        0.198725,
        -0.22528,
        -0.312655,
        -0.266569,
        -0.0456694,
        -0.158184,
        0.106327,
        0.117589,
        -0.0117841,
        -0.0344904,
        -0.0129581,
        0.0154647,
        -0.005087,
        0.146027,
        0.0472643,
        0.258228,
        0.165847,
        -0.0835844,
        -0.00247589,
        0.158051,
        -0.118785,
        -0.0544472,
        -0.190091,
        -0.0898358,
        -0.0276099,
        -0.231121,
        -0.0824068,
        0.0313447,
        0.0325751,
        -0.273512,
        -0.0402895,
        -0.0304502,
        -0.0308101,
        -0.239749,
        -0.113523,
        -0.0871656,
        -0.0553758,
        0.0427722,
        -0.163204,
        0.0336775,
        0.0587691,
        0.149476,
        -0.0377387,
        -0.00209475,
        -0.0752369,
        -0.125758,
        0.0907817,
        -0.126258,
        -0.13275,
        0.0943217,
        -0.0299599,
        0.0715669,
        -0.014514,
        -0.094386,
        0.00835507,
        0.0460961,
        -0.116456,
        -0.134245,
        0.057364,
        -0.0715328,
        0.111442,
        -0.0937975,
        -0.0368859,
        0.0284432,
        -0.185204,
        -0.0480317,
        -0.389786,
        -0.0657701,
        -0.0818721,
        0.083522,
        -0.0874023,
        0.0286433,
        -0.0422341,
        -0.0235766,
        0.00650833,
        0.0153634,
        0.00555993,
        -0.00366314,
        0.0179715,
        -0.0323985,
        0.0488896,
        -0.107215,
        0.132287,
        0.0116396,
        0.0200014,
        0.0650357,
        0.0108134,
        -0.0205519,
        0.0771031,
        0.00879642,
        -0.047468,
        -0.182426,
        0.0341499,
        -0.0338704,
        0.0640622,
        -0.0482822,
        -0.116786,
        0.0311325,
        0.0153052,
        -0.0788733,
        -0.0159065,
        -0.0646052,
        -0.0218098,
        0.102756,
        -0.0502258,
        0.0301542,
        0.0323291,
        0.00656499,
        0.0519181,
        -0.122208,
        0.0849085,
        0.0733126,
        0.0101665,
        0.0993315,
        -0.015522,
        0.0248357,
        -0.000348773,
        0.0567073,
        0.0751528,
        0.0843627,
        -0.0309927,
        -0.0587733,
        -0.0161114,
        0.0113404,
        -0.0176285,
        0.0276962,
        0.0829888,
        0.0532977,
        0.012173,
        0.0507665,
        -0.0119837,
        -0.0511826,
        -0.00461614,
        -0.0271672,
        -0.0913515,
        0.0935785,
        -0.130908,
        -0.0687826,
        -0.064618,
        -0.108227,
        -0.13688,
        0.0460688,
        -0.100504,
        0.0237452,
        0.0992869,
        -0.135415,
        0.111925,
        0.0182312,
        -0.050252,
        0.0473876,
        0.0942839,
        -0.0205446,
        -0.086477,
        -0.0337936,
        -0.0035654,
        0.0841665,
        -0.00280694,
        -0.0550769,
        -0.0902195,
        -0.154152,
        -0.20037,
        0.124603,
        -0.085464,
        -0.0275317,
        0.00245139,
        0.0371009,
        -0.183299,
        -0.101557,
        -0.0859314,
        -0.167957,
        -0.153561,
        -0.150294,
        -0.0764942,
        -0.0260949,
        -0.0889255,
        -0.101553,
        -0.0358435,
        0.0456978,
        0.0277679,
        0.1049,
        -0.0944254,
        -0.0616695,
        0.0699801,
        -0.0347365,
        -0.0502546,
        -0.154579,
        -0.044679,
        -0.256287,
        -0.0326034,
        -0.218557,
        -0.141012,
        -0.0798944,
        -0.101635,
        -0.272244,
        -0.0782486,
        -0.169129,
        -0.0415511,
        -0.159501,
        -0.0096795,
        -0.0399601,
        0.0996749,
        -0.0433139,
        0.103523,
        -0.0583868,
        -0.0143048,
        0.0712256,
        0.024501,
        -0.0312616,
        -0.0137217,
        -0.0284202,
        0.0667188,
        -0.0376033,
        -0.0220648,
        0.0676908,
        -0.164278,
        -0.0975386,
        -0.0161306,
        -0.074954,
        -0.0140359,
        -0.125344,
        0.0284787,
        0.191991,
        0.0405007,
        -0.0809473,
        0.147626,
        -0.00153815,
        -0.125817,
        -0.220994,
        -0.185899,
        -0.23377,
        -0.0384362,
        -0.190719,
        -0.0378002,
        -0.0390448,
        0.0498238,
        -0.0164529,
        0.00785681,
        0.0728601,
        -0.0402102,
        -0.124002,
        0.179011,
        0.0343734,
        -0.265758,
        -0.179259,
        -0.142764,
        -0.00204583,
        0.186621,
        0.136188,
        0.341412,
        0.286634,
        -0.183698,
        -0.0770284,
        0.130696,
        -0.145001,
        -0.220529,
        -0.0635249,
        0.0624041,
        -0.146268,
        -0.137807,
        0.0605141,
        -0.0635224,
        0.123073,
        0.0568956,
        -0.134508,
        -0.0408173,
        0.0755456,
        -0.182353,
        -0.143852,
        0.0657664,
        -0.0685722,
        -0.0459217,
        -0.223547,
        -0.0937724,
        -0.0378842,
        0.119852,
        0.307219,
        0.302984,
        -0.0842238,
        -0.292717,
        -0.307828,
        -0.392085,
        -0.342506,
        -0.264061,
        -0.299003,
        -0.0901832,
        0.00332361,
        -0.119645,
        -0.104665,
        -0.191463,
        0.109197,
        -0.00209469,
        -0.00654131,
        0.0133996,
        -0.0318743,
        0.0311366,
        -0.168949,
        -0.0663675,
        -0.211897,
        -0.0785504,
        -0.343722,
        -0.171802,
        -0.337082,
        -0.255478,
        0.119553,
        -0.207628,
        -0.201696,
        -0.174958,
        0.0326767,
        -0.135373,
        -0.0620711,
        -0.192338,
        0.109975,
        0.107218,
        -0.257525,
        0.14763,
        -0.125256,
        0.00709588,
        0.00350745,
        -0.024047,
        0.131505,
        -0.051015,
        -0.0974856,
        0.0167605,
        0.00538156,
        0.0605887,
        -0.0413719,
        0.00488342,
        -0.0908904,
        -0.384476,
        -0.129758,
        -0.114036,
        0.0710603,
        -0.179428,
        0.00377973,
        -0.116619,
        0.192636,
        0.0492645,
        0.261522,
        -0.0137905,
        0.178233,
        0.162941,
        0.111136,
        0.0733766,
        -0.176693,
        -0.0292259,
        0.0249817,
        0.071493,
        -0.0362103,
        -0.00506541,
        -0.0231044,
        0.0314241,
        0.0592513,
        0.229261,
        0.148029,
        0.0274975,
        -0.0460677,
        0.0189272,
        -0.0325474,
        0.15499,
        0.207451,
        0.252896,
        -0.000572921,
        0.21899,
        0.00315356,
        0.00473634,
        0.200325,
        0.324911,
        0.357601,
        0.0932071,
        0.337115,
        -0.0297925,
        0.15909,
        0.142478,
        0.0405745,
        0.0150573,
        0.0521742,
        -0.053051,
        0.0427384,
        0.0387429,
        0.0519837,
        -0.0248759,
        0.128872,
        0.0308519,
        -0.0690347,
        0.0387796,
        -0.168361,
        0.217302,
        0.260649,
        0.106772,
        0.0384668,
        -0.149949,
        -0.14755,
        0.00987838,
        -0.0260217,
        0.108704,
        0.079144,
        0.263833,
        0.263335,
        0.0538217,
        -0.0951285,
        -0.0350687,
        -0.0285921,
        -0.0310498,
        0.00199277,
        0.044163,
        -0.0875011,
        0.0575628,
        0.0148768,
        -0.114781,
        0.114678,
        0.0965539,
        0.179452,
        0.0802438,
        0.0816902,
        0.163002,
        0.0418481,
        -0.122739,
        -0.15672,
        0.119488,
        -0.107292,
        -0.0499771,
        0.160063,
        0.16405,
        0.0234829,
        -0.00707958,
        0.00639038,
        0.0403077,
        -0.0382561,
        0.10079,
        0.0539648,
        0.0280616,
        -0.0197372,
        0.0565945,
        -0.0539549,
        0.0936685,
        -0.0986544,
        0.169181,
        0.0583629,
        0.0544501,
        -0.00173236,
        0.127211,
        0.0550732,
        0.0270452,
        0.0568519,
        -0.271522,
        -0.0194307,
        -0.0852759,
        -0.30405,
        -0.00818406,
        0.0692659,
        0.116432,
        -0.00555641,
        0.131513,
        0.0481292,
        0.0145367,
        0.0271141,
        0.0139752,
        0.169802,
        0.0791965,
        -0.0339511,
        -0.0387975,
        0.0695716,
        0.0441434,
        0.0630956,
        0.0994435,
        0.138832,
        0.13057,
        0.0462753,
        0.011361,
        0.105466,
        0.222604,
        0.175796,
        0.152875,
        -0.0346438,
        -0.238728,
        -0.216468,
        0.140398,
        -0.0407338,
        0.357494,
        -0.0563695,
        0.162191,
        0.100673,
        0.143997,
        0.0240739,
        -0.136471,
        -0.0348059,
        -0.116272,
        -0.033791,
        -0.089591,
        -0.0276866,
        0.0257621,
        0.183295,
        0.154121,
        0.0839845,
        0.0709717,
        -0.000100542,
        -0.0115906,
        0.22604,
        0.0777375,
        0.127369,
        0.203147,
        0.00438521,
        0.137936,
        -0.220956,
        0.0957398,
        0.171827,
        -0.141956,
        -0.0428114,
        -0.0713172,
        0.0240249,
        0.124847,
        0.168946,
        -0.0251523,
        -0.130672,
        0.0227872,
        -0.0260601,
        0.0245892,
        -0.109776,
        0.051462,
        0.0199206,
        -0.00616115,
        -0.185272,
        0.152487,
        0.154388,
        0.0650423,
        -0.124056,
        -0.0107151,
        0.0783735,
        0.107521,
        0.239361,
        0.0950605,
        -0.0632557,
        0.157887,
        0.055879,
        -0.0392837,
        -0.125714,
        -0.0479305,
        -0.143581,
        -0.0212718,
        -0.195205,
        -0.190375,
        -0.0117094,
        0.032408,
        -0.0514157,
        -0.0717631,
        -0.0118548,
        -0.0506384,
        -0.026735,
        -0.0302923,
        0.0457648,
        -0.0901655,
        -0.199245,
        -0.179284,
        -0.281093,
        -0.175455,
        0.0301016,
        0.0235694,
        -0.00998697,
        0.0463809,
        0.0137362,
        0.0859047,
        0.118726,
        -0.104537,
        -0.0319337,
        -0.0516495,
        0.0533219,
        0.00850358,
        -0.0719138,
        -0.051323,
        0.0592398,
        -0.0751809,
        -0.0527857,
        -0.0474812,
        -0.0397152,
        -0.0524457,
        0.0635355,
        -0.0176673,
        -0.0403364,
        -0.0988229,
        0.0289654,
        -0.270384,
        -0.238319,
        -0.0136731,
        -0.0228574,
        0.0520299,
        0.0465815,
        0.0696479,
        0.265038,
        0.0314333,
        -0.044032,
        -0.185493,
        -0.200256,
        0.00643427,
        0.0557092,
        -0.143055,
        -0.106418,
        -0.0664666,
        0.088461,
        0.0148472,
        -0.0555645,
        0.199555,
        0.113788,
        -0.0875995,
        -0.125908,
        -0.0207585,
        -0.0825576,
        -0.0953097,
        0.113589,
        -0.1533,
        -0.23935,
        0.0274849,
        0.196424,
        0.0508267,
        0.0339657,
        0.000970649,
        0.0194649,
        -0.151489,
        -0.0203898,
        -0.124326,
        -0.340403,
        -0.147952,
        -0.121119,
        -0.291153,
        0.142198,
        -0.116226,
        -0.0148453,
        -0.0193183,
        -0.0460471,
        -0.00976484,
        -0.0721302,
        0.0164423,
        -0.137904,
        -0.250813,
        -0.108952,
        -0.101637,
        0.242291,
        0.12018,
        -0.0865208,
        0.189445,
        -0.111492,
        0.0955077,
        -0.422724,
        -0.229889,
        -0.157536,
        -0.132699,
        0.0560385,
        -0.0266924,
        -0.0844209,
        -0.022819,
        -0.0505086,
        -0.17629,
        -0.0174131,
        -0.0325624,
        -0.0241669,
        0.0263526,
        -0.0152542,
        -0.04345,
        -0.0301538,
        -0.0796457,
        -0.208642,
        -0.102781,
        -0.0989714,
        0.023833,
        -0.0434182,
        0.0130736,
        0.00487396,
        0.166181,
        -0.167563,
        -0.31675,
        -0.24785,
        -0.00972946,
        -0.111946,
        -0.0851345,
        -0.140529,
        -0.207521,
        -0.110108,
        0.180891,
        0.0419101,
        0.00753769,
        0.00491995,
        0.0938402,
        0.131745,
        -0.0422049,
        0.0514452,
        -0.00296782,
        0.175658,
        0.00719684,
        -0.175492,
        0.0925354,
        0.0727775,
        -0.124973,
        -0.0360741,
        -0.0625051,
        -0.0622672,
        0.108591,
        0.131431,
        -0.282804,
        -0.135342,
        -0.0869617,
        -0.069381,
        -0.146382,
        0.0902432,
        0.0432558,
        -0.236538,
        -0.000565907,
        -0.0871664,
        0.0388333,
        -0.223683,
        -0.0810983,
        0.0288633,
        0.0911922,
        0.0260421,
        0.00166787,
        -0.124054,
        -0.105368,
        0.135992,
        0.0723402,
        0.289042,
        0.282254,
        -0.161394,
        -0.105528,
        0.118975,
        -0.172475,
        0.142891,
        -0.122945,
        -0.0114693,
        -0.238105,
        -0.0509553,
        -0.0114796,
        -0.190802,
        -0.0872437,
        -0.154083,
        0.0665464,
        -0.194659,
        -0.119077,
        -0.010209,
        -0.0944793,
        -0.0330971,
        0.0425828,
        0.0762896,
        -0.0964361,
        0.0241748,
        -0.0359126,
        0.0606498,
        0.0914837,
        -0.0134287,
        -0.0526695,
        0.0412726,
        -0.0530404,
        -0.0242448,
        -0.0588899,
        -0.0771844,
        0.0373277,
        0.0161768,
        -0.0844611,
        -0.085741,
        0.17732,
        -0.12753,
        -0.0480925,
        -0.246874,
        0.00363919,
        -0.101042,
        -0.0474613,
        0.00559944,
        -0.0316159,
        0.0704826,
        0.0107425,
        -0.0121803,
        0.0601454,
        -0.015933,
        0.0818567,
        0.0320604,
        -0.111852,
        -0.0457373,
        -0.221091,
        -0.247758,
        -0.1407,
        -0.124373,
        0.0470394,
        -0.0862609,
        -0.146554,
        -0.120769,
        0.0212993,
        -0.112656,
        -0.0562811,
        -0.0628492,
        -0.08406,
        0.00453795,
        0.0165871,
        -0.0996474,
        -0.0391133,
        0.0339657,
        0.0151821,
        -0.0288431,
        0.0777946,
        -0.145508,
        -0.0248186,
        -0.0499569,
        -0.00650292,
        -0.0732495,
        -0.111639,
        -0.139535,
        -0.00212631,
        -0.0529341,
        -0.141883,
        -0.0954617,
        -0.0239418,
        -0.0479439,
        -0.151125,
        -0.208334,
        -0.0301981,
        -0.0176436,
        -0.19853,
        -0.0690072,
        0.0334818,
        -0.147995,
        -0.0835011,
        -0.0403757,
        -0.119289,
        0.00458751,
        -0.0543041,
        -0.109026,
        -0.0350161,
        -0.0431449,
        -0.138231,
        -0.0116275,
        -0.143044,
        0.0563578,
        0.144386,
        -0.0429058,
        0.0478533,
        0.0250707,
        0.032606,
        0.00073865,
        -0.0547863,
        -0.0353364,
        -0.178334,
        -0.134009,
        -0.0998622,
        -0.0186529,
        0.0794227,
        0.0128529,
        -0.0609305,
        0.0232771,
        -0.0693789,
        0.105247,
        8.43308e-05,
        -0.0109772,
        -0.120697,
        0.036299,
        -0.238685,
        1.89819,
        -0.057378,
        0.0322532,
        -0.0538676,
        0.0319359,
        0.0903677,
        0.0599681,
        -0.0260019,
        -0.0176873,
        -0.103539,
        -0.0251128,
        0.0609,
        -0.0621786,
        -0.0065146,
        -0.0358908,
        -0.025819,
        -0.0201385,
        0.0792514,
        -0.075006,
        -0.0591199,
        0.0757766,
        0.0632058,
        0.0418349,
        -0.0593578,
        -0.0258139,
        0.0379268,
        -0.0349978,
        0.0221474,
        0.0265188,
        0.0490047,
        -0.0313715,
        -0.0138565,
        -0.0170821,
        -3.45839e-05,
        -0.106786,
        -0.0637695,
        0.0413666,
        -0.0275898,
        -0.00319307,
        0.0439605,
        0.0468776,
        -0.0133668,
        0.0960353,
        -0.0142818,
        -0.0116448,
        -0.01225,
        -0.0287181,
        0.00215388,
        0.0484184,
        -0.0249179,
        0.0310571,
        0.0011648,
        -0.0404083,
        0.0713818,
        -0.0217487,
        -0.0246377,
        0.0115646,
        0.023721,
        0.0148154,
        0.00339373,
        0.0635575,
        -0.0293644,
        -0.0599461,
        0.0571101,
        -0.0422705,
        0.0348446,
        0.0661385,
        0.0536349,
        0.0247428,
        -0.025841,
        0.0471511,
        -0.0238936,
        0.0470064,
        0.0317826,
        0.0961895,
        -0.00456018,
        0.00139495,
        0.00165411,
        0.000316226,
        0.0399371,
        -0.118791,
        -0.0277563,
        0.0712787,
        -0.0586162,
        -0.0755948,
        0.0214605,
        0.0706428,
        0.0236203,
        -0.0373748,
        -0.0449708,
        0.0223283,
        0.00910227,
        0.0145909,
        -0.00691836,
        0.118367,
        0.0103296,
        -0.0441659,
        -0.0984615,
        0.0137202,
        -0.00321259,
        0.120548,
        0.0112159,
        -0.0552814,
        0.139249,
        -0.00645297,
        0.0150378,
        0.0992931,
        0.100782,
        0.0530315,
        0.0360584,
        -0.0152216,
        -0.0365188,
        -0.00549931,
        0.0300521,
        -0.0566142,
        -0.048349,
        -0.096172,
        -0.0321354,
        -0.0134696,
        -0.00172434,
        0.0631012,
        0.00289033,
        0.0392589,
        -0.00860555,
        -0.109316,
        -0.0627588,
        -0.0651918,
        0.0546084,
        0.0147904,
        0.0177504,
        -0.031438,
        -0.0192726,
        0.0588294,
        0.0169778,
        0.0216673,
        0.099039,
        0.0121414,
        8.62166e-05,
        -0.0659439,
        0.000558863,
        -0.0161651,
        0.0899537,
        -0.00934983,
        -0.00483038,
        -0.0111231,
        0.0592331,
        -0.0119742,
        0.00174432,
        -0.0483481,
        -0.0218667,
        -0.0952937,
        -0.103103,
        -0.15688,
        -0.0152882,
        -0.0533616,
        0.0856132,
        0.0435981,
        0.136871,
        0.0435221,
        -0.0082852,
        0.077755,
        0.119755,
        0.146551,
        0.0932308,
        0.0914316,
        0.14154,
        0.0262987,
        0.0525757,
        0.00125771,
        -0.0421311,
        0.0510123,
        -0.00134727,
        0.0139022,
        -0.0718279,
        0.0371757,
        -0.0248014,
        -0.06572,
        -0.0771458,
        -0.0232916,
        -0.136268,
        -0.203896,
        -0.0233628,
        -0.097239,
        0.00268204,
        -0.0370817,
        -0.0205535,
        -0.0187945,
        -0.0131416,
        0.0446079,
        0.0732186,
        -0.0254789,
        0.137932,
        0.0764093,
        0.158312,
        -0.0171811,
        0.0281909,
        0.0776101,
        0.0661669,
        0.040084,
        -0.0617092,
        -0.0144868,
        0.0478977,
        0.0133705,
        -0.00326597,
        0.0443434,
        0.0791864,
        -0.045489,
        -0.0734878,
        -0.195555,
        0.0387238,
        0.0612475,
        0.148444,
        0.0748175,
        0.0140745,
        -0.000318839,
        -0.0348601,
        0.0262317,
        0.057868,
        0.123855,
        -0.0985669,
        0.011465,
        0.0538535,
        0.0210397,
        0.0829495,
        -0.068122,
        0.0292967,
        0.0283933,
        0.050069,
        -0.0419263,
        0.033391,
        -0.0616804,
        0.0369954,
        0.103475,
        -0.0246275,
        -0.00213899,
        -0.0496193,
        0.00922871,
        -0.0496963,
        0.0716431,
        0.0229647,
        -0.0482799,
        -0.155729,
        -0.00959429,
        -0.0299013,
        0.0211318,
        0.0232217,
        -0.0881489,
        -0.143736,
        -0.0675163,
        -0.0475083,
        0.0544958,
        -0.0356924,
        0.0188846,
        -0.0436655,
        -0.0403578,
        -0.0650109,
        -0.00813055,
        0.0166729,
        -0.0493456,
        0.0166747,
        0.0857704,
        0.13999,
        0.0655669,
        0.0188453,
        -0.039071,
        -0.102376,
        -0.101459,
        -0.0585089,
        -0.0497845,
        -0.071857,
        -0.214174,
        -0.0314743,
        -0.185802,
        -0.24398,
        -0.182641,
        -0.116403,
        -0.161141,
        0.027813,
        0.0156339,
        0.0996296,
        0.00841112,
        0.100358,
        0.00933403,
        -0.0773362,
        -0.0952759,
        0.0253039,
        -0.0720237,
        -0.0547267,
        0.0225783,
        0.0470212,
        -0.116572,
        0.00447483,
        -0.025044,
        0.0340095,
        -0.129816,
        -0.0483818,
        -0.00721785,
        -0.108484,
        -0.128993,
        -0.143288,
        -0.0794596,
        -0.0429063,
        -0.162445,
        -0.194076,
        -0.0502705,
        0.000736146,
        0.002717,
        -0.0509645,
        -0.0282162,
        -0.0160701,
        -0.0520048,
        -0.0579905,
        -0.0320969,
        0.104709,
        0.028443,
        -0.00110527,
        -0.0352665,
        -0.188353,
        -0.0746828,
        0.00394235,
        -0.0865771,
        -0.0138126,
        -0.0353616,
        -0.0944452,
        0.0751903,
        0.164017,
        -0.00212965,
        0.0366869,
        0.049978,
        -0.116501,
        -0.0312978,
        -0.136662,
        -0.0271554,
        -0.00941601,
        0.02393,
        0.0107545,
        -0.0540238,
        0.0426759,
        -0.0113173,
        0.0348023,
        -0.0800795,
        0.078718,
        -0.0600036,
        -0.0777305,
        0.0196043,
        -0.0421373,
        0.0267591,
        -0.047254,
        0.0505552,
        0.0192391,
        -0.0073111,
        0.151523,
        0.0237517,
        0.0713518,
        0.117469,
        -0.00349188,
        -0.0284587,
        0.0679417,
        -0.00616078,
        -0.0524037,
        -0.0953522,
        -0.0399229,
        0.0681673,
        -0.0498487,
        -0.0458325,
        -0.00964601,
        -0.070489,
        -0.0247972,
        -0.00869069,
        -0.0601871,
        -0.0577769,
        -0.0702554,
        0.0157472,
        -0.0760289,
        0.0260028,
        0.0600539,
        0.103304,
        0.000905319,
        0.0215029,
        0.0144975,
        0.0360584,
        0.0852888,
        -0.0231956,
        0.0543489,
        0.141092,
        0.169947,
        -0.0125851,
        -0.099783,
        -0.01889,
        0.0205593,
        -0.0660392,
        -0.0605913,
        -0.0352372,
        -0.0399454,
        0.0121745,
        -0.0696469,
        0.0693816,
        0.0824436,
        -0.0578624,
        -0.0222148,
        -0.039127,
        -0.065013,
        -0.0509984,
        -0.0248549,
        -0.0220266,
        -0.139043,
        -0.0253101,
        0.12292,
        0.0509772,
        0.185416,
        0.0719327,
        -0.0426056,
        -0.0613569,
        -0.0158076,
        -0.0628523,
        -0.0373355,
        -0.017843,
        -0.00583702,
        0.11519,
        -0.0253888,
        -0.0273737,
        0.0126111,
        -0.0299744,
        0.0546355,
        0.0595421,
        -0.0445912,
        -0.0573346,
        0.061488,
        0.0771254,
        0.00899443,
        -0.0589161,
        -0.0269506,
        0.053539,
        0.0637492,
        0.0915441,
        0.0957039,
        -0.0213173,
        0.0597975,
        -0.0281799,
        -0.133571,
        0.00255799,
        -0.0737348,
        -0.0273747,
        0.00256157,
        -0.0375878,
        0.00528475,
        0.103653,
        0.0324076,
        -0.0301038,
        -0.00558386,
        -0.0240468,
        0.0121,
        0.019447,
        -0.0833783,
        0.0336154,
        -0.00273736,
        -0.0208667,
        0.0184336,
        -0.0445328,
        -0.00900854,
        0.182465,
        0.0962359,
        0.119069,
        0.0860649,
        0.128587,
        0.0732623,
        -0.0215969,
        0.00143044,
        -0.0203666,
        -0.0440833,
        0.00305785,
        -0.0110692,
        0.0199449,
        0.141134,
        0.0625883,
        0.0244646,
        -0.0203726,
        -0.100641,
        -0.0741611,
        0.00732614,
        -0.00622826,
        0.00704117,
        -0.0304676,
        0.0920815,
        -0.0871863,
        0.124017,
        0.0511917,
        0.010874,
        0.150335,
        0.185865,
        0.194691,
        0.186429,
        0.137044,
        0.0958558,
        -0.0589959,
        -0.0319659,
        0.0534912,
        0.142077,
        0.120936,
        0.0481827,
        0.0473581,
        0.0587889,
        0.0873383,
        -0.0919935,
        0.017925,
        -0.00660645,
        0.0620832,
        -0.0276303,
        0.00778696,
        0.00807783,
        0.0692549,
        -0.00515544,
        0.00465932,
        -0.035977,
        -0.0309778,
        -0.0246733,
        -0.0722889,
        0.0622149,
        0.0511594,
        -0.0531297,
        -0.0308681,
        0.0330554,
        -0.0192263,
        0.130368,
        0.0982094,
        0.19684,
        -0.0144041,
        -0.00368669,
        0.0380967,
        0.117582,
        -0.00258851,
        -0.0208187,
        -0.00139626,
        0.0301204,
        -0.0178187,
        0.0415335,
        -0.0237045,
        -0.00683632,
        -0.00830572,
        0.0529651,
        -0.07227,
        -0.0668258,
        0.0516393,
        -0.0366374,
        0.0648193,
        -0.184576,
        -0.134098,
        0.00442147,
        -0.0241318,
        0.0625777,
        0.0314654,
        -0.0336169,
        -0.0393551,
        0.0152693,
        0.127234,
        -0.0309336,
        0.155373,
        -0.0327537,
        0.0224507,
        0.0124511,
        0.0170401,
        0.0558382,
        0.00279732,
        0.061523,
        -0.0525167,
        -0.00900803,
        -0.0437565,
        0.0065113,
        0.0386958,
        -0.100784,
        -0.0764198,
        0.0235385,
        -0.0138527,
        -0.0732816,
        -0.177114,
        -0.0234141,
        0.0580627,
        0.123687,
        0.0365682,
        0.0490705,
        -0.0217979,
        0.0372012,
        0.0168842,
        0.0489904,
        0.0369955,
        0.0313972,
        0.0170467,
        0.0156863,
        -0.0593529,
        -0.0256085,
        -0.042583,
        0.0546948,
        0.00550127,
        0.0298677,
        -0.0376167,
        0.149802,
        0.0552414,
        0.0107688,
        0.0684935,
        -0.019664,
        -0.00865284,
        -0.00892134,
        -0.0370532,
        0.0789897,
        -0.00452871,
        -0.0375254,
        -0.0443765,
        0.100293,
        0.00715618,
        0.00621057,
        0.0329756,
        0.019838,
        0.0763352,
        0.160645,
        -0.0831891,
        -0.0755244,
        -0.0120573,
        0.0417713,
        0.0566437,
        0.039158,
        0.00103192,
        0.0666259,
        -0.0114981,
        0.0492839,
        0.059856,
        -0.0768955,
        -0.0529455,
        0.0743082,
        -0.0128841,
        -0.084843,
        0.0141682,
        0.0455869,
        0.0421549,
        0.0639769,
        0.0511009,
        0.0333657,
        -0.00464801,
        0.0391184,
        0.0964879,
        -0.0386818,
        0.0621197,
        0.113956,
        -0.0274165,
        -0.0507044,
        0.0326442,
        -0.0399791,
        0.0293942,
        0.0273273,
        0.0425698,
        0.0455867,
        0.0941977,
        0.0329829,
        -0.0891006,
        0.0359724,
        0.0425653,
        -0.0821229,
        -0.0458445,
        0.00157886,
        0.0181538,
        0.0528374,
        0.128269,
        0.0708177,
        0.020833,
        0.00905571,
        0.0567365,
        0.0814003,
        -0.0220122,
        0.00678358,
        0.0350331,
        -0.0174762,
        0.0218841,
        0.0364864,
        0.00803335,
        0.0271084,
        0.0704436,
        -0.0251376,
        -0.0514393,
        -0.108969,
        -0.0630105,
        -0.0207259,
        -0.0769753,
        -0.0292488,
        0.101796,
        -0.00192323,
        -0.00514384,
        0.0222078,
        -0.102013,
        -0.0455019,
        -0.0093907,
        -0.0501877,
        0.0976026,
        0.00896674,
        0.0151428,
        0.00114198,
        0.025117,
        0.0294842,
        0.0273631,
        -0.0308236,
        -0.017009,
        -0.041341,
        -0.031412,
        -0.020793,
        0.00763222,
        0.00434401,
        0.0506702,
        -0.016633,
        0.00405493,
        -0.034406,
        0.0147175,
        0.0383053,
        0.00413201,
        0.0308113,
        -0.0595507,
        0.0882079,
        -0.0174232,
        0.144726,
        -0.0118047,
        -0.0370441,
        0.0504233,
        -0.0149026,
        0.0753017,
        -0.0283786,
        -0.0310396,
        0.0857266,
        0.0178949,
        0.0324505,
        0.017607,
        0.0712055,
        -0.0005277,
        -0.0313896,
        -0.0228385,
        0.00991672,
        0.0505968,
        -0.0536074,
        0.021578,
        0.00561012,
        -0.0907883,
        -0.0267934,
        -0.0674253,
        0.0390856,
        -0.046737,
        -0.0649857,
        -0.212085,
        -0.0969995,
        -0.0289818,
        0.00487875,
        -0.036358,
        -0.0532113,
        -0.0305368,
        -0.0575297,
        0.0276397,
        -0.0188493,
        0.00723611,
        -0.000178883,
        -0.0144303,
        0.0850032,
        0.0626709,
        -0.023832,
        0.0174531,
        0.0194575,
        -0.0471084,
        -0.0768405,
        -0.0038862,
        0.0106126,
        -0.0417095,
        -0.0267916,
        -0.0460729,
        -0.0134607,
        0.032642,
        -0.0793585,
        -0.0178426,
        0.0113947,
        -0.0246107,
        -0.0136811,
        0.00576447,
        -0.00997456,
        -0.0349753,
        0.00751728,
        0.054498,
        -0.0840455,
        0.0960338,
        0.00377808,
        0.00463833,
        0.00484434,
        0.0792537,
        -0.068523,
        -0.0457955,
        -0.101469,
        0.0794562,
        -0.126683,
        0.127415,
        -0.128759,
        0.148617,
        0.0109674,
        -0.108011,
        0.0732207,
        -0.0715061,
        -0.0542554,
        -0.0975044,
        0.0671481,
        0.0126657,
        -0.0560494,
        0.225764,
        -0.00671295,
        -0.0587009,
        -0.195161,
        0.0598175,
        -0.00597189,
        -0.000432641,
        0.0321635,
        -0.0693108,
        0.0506289,
        -0.00228947,
        -0.163052,
        -0.103141,
        0.18899,
        -0.0594015,
        -0.0481016,
        0.173598,
        0.022102,
        -0.0471289,
        -0.0704669,
        0.133459,
        0.0143673,
        -0.000741302,
        -0.0197647,
        -0.126263,
        0.0678455,
        0.00434053,
        0.106999,
        -0.263495,
        -0.120664,
        -0.0187972,
        -0.0950936,
        -0.112091,
        0.0592966,
        0.135571,
        0.0297052,
        -0.0215864,
        -0.0396366,
        -0.0306965,
        0.0246949,
        -0.116126,
        0.0946337,
        -0.0345038,
        0.238474,
        -0.0666809,
        0.0016009,
        -0.0577077,
        -0.0479088,
        0.0661944,
        0.0332507,
        -0.275375,
        -0.0463131,
        -0.00774956,
        -0.0356925,
        0.0561019,
        0.110222,
        0.110223,
        0.0519015,
        -0.0853329,
        0.191585,
        -0.12894,
        -0.0324429,
        0.229796,
        -0.113232,
        -0.0485501,
        0.0817037,
        -0.0589898,
        -0.11192,
        0.158029,
        0.111921,
        0.192129,
        -0.183936,
        -0.0466282,
        -0.125102,
        -0.226039,
        -0.0518283,
        -0.136384,
        -0.0730236,
        -0.259008,
        -0.20004,
        -0.130013,
        0.00889405,
        0.0711542,
        0.160079,
        -0.0724234,
        0.0911981,
        0.0791267,
        0.172803,
        0.190189,
        0.0788541,
        -0.00657658,
        -0.0726016,
        0.144999,
        0.0181411,
        0.0259579,
        0.104234,
        0.104071,
        0.143658,
        0.0761146,
        0.0357652,
        0.00964402,
        0.0183266,
        -0.193894,
        0.10284,
        -0.0305703,
        -0.261043,
        -0.251019,
        -0.0438906,
        -0.0106001,
        0.266578,
        0.125436,
        0.0329411,
        -0.272204,
        -0.110633,
        -0.143471,
        -0.291989,
        -5.02977e-05,
        -0.169974,
        0.0399824,
        0.0589065,
        -0.0110096,
        -0.17105,
        0.102189,
        0.0500517,
        0.0332966,
        -0.0952204,
        0.154182,
        -0.100884,
        0.0243398,
        -0.112857,
        0.15336,
        0.221892,
        0.0304629,
        -0.193698,
        -0.203613,
        -0.219614,
        -0.136633,
        -0.11939,
        0.21767,
        0.0784205,
        0.0671672,
        -0.356047,
        -0.458032,
        -0.368877,
        -0.323221,
        -0.166458,
        -0.0182298,
        0.349523,
        -0.0447062,
        0.0115834,
        -0.138035,
        -0.0188569,
        0.166546,
        -0.0434306,
        0.057454,
        0.126552,
        0.0151964,
        0.140815,
        0.126978,
        -0.137208,
        -0.351181,
        -0.0523202,
        -0.394619,
        -0.727977,
        -0.555027,
        -0.738572,
        -0.914371,
        -1.08568,
        -0.779442,
        -0.591813,
        -0.283783,
        -0.0973325,
        0.0965788,
        -0.0334925,
        -0.0132737,
        -0.178338,
        0.139125,
        -0.0740008,
        0.018233,
        0.0369095,
        0.0202669,
        0.161073,
        -0.0192659,
        -0.120266,
        -0.15662,
        0.196012,
        0.13564,
        0.115212,
        -0.385812,
        -0.12735,
        -0.385866,
        -0.497966,
        -0.375983,
        -0.664084,
        -0.638249,
        -0.568298,
        -0.137017,
        0.403742,
        -0.121625,
        0.192475,
        0.158111,
        0.139871,
        0.0263028,
        0.256758,
        0.350429,
        0.0231465,
        -0.0323965,
        0.0778616,
        0.085072,
        0.0908568,
        0.212717,
        0.140946,
        0.128513,
        0.171348,
        -0.339295,
        0.0230892,
        -0.627407,
        -0.3852,
        -0.220755,
        -0.223677,
        -0.134858,
        0.0928094,
        0.164281,
        0.168091,
        0.0548802,
        0.378288,
        -0.101304,
        -0.319535,
        -0.0751598,
        -0.0181319,
        -0.0991771,
        0.212954,
        -0.0296821,
        0.139475,
        -0.082058,
        0.093329,
        -0.216816,
        -0.0871103,
        -0.118301,
        0.193462,
        0.0612286,
        0.251187,
        -0.128778,
        0.00210714,
        -0.172439,
        -0.146632,
        -0.102268,
        0.0374384,
        0.230571,
        0.425765,
        0.631048,
        0.121493,
        0.258491,
        -0.103447,
        0.116093,
        -0.123628,
        -0.101629,
        -0.0464296,
        0.0235983,
        0.183307,
        -0.0796304,
        0.0737947,
        0.12433,
        -0.128904,
        -0.0753558,
        0.00132783,
        0.233122,
        0.176271,
        0.0164281,
        0.221161,
        -0.333868,
        0.305216,
        0.049519,
        0.160761,
        0.415445,
        0.0929374,
        0.724991,
        0.673724,
        0.304671,
        0.321584,
        -0.128103,
        -0.218092,
        -0.456065,
        -0.19129,
        -0.190145,
        -0.111049,
        -0.086362,
        -0.0120336,
        -0.08357,
        0.203207,
        0.109629,
        -0.0250873,
        -0.0175286,
        -0.0646575,
        0.118616,
        0.148531,
        -0.100993,
        0.248465,
        0.0438558,
        0.226217,
        0.104432,
        0.257159,
        0.371058,
        0.361432,
        0.28138,
        -0.21066,
        -0.0893231,
        -0.0928275,
        0.0038401,
        -0.229104,
        -0.074586,
        -0.0643067,
        -0.16661,
        0.278992,
        -0.195004,
        0.0712564,
        -0.104515,
        -0.0667583,
        0.150837,
        -0.0426191,
        -0.0333164,
        0.0759827,
        0.212798,
        0.030752,
        -0.139133,
        0.370747,
        0.0968708,
        0.262648,
        0.492548,
        -0.07896,
        0.403479,
        0.0215976,
        0.0832887,
        -0.27159,
        -0.0875068,
        0.168385,
        -0.0709618,
        0.179674,
        0.0865269,
        0.0978614,
        0.0144075,
        -0.0262593,
        0.263024,
        -0.0738259,
        0.0344447,
        0.277077,
        0.062238,
        0.0214301,
        0.241688,
        0.0886385,
        0.0771251,
        -0.0335567,
        0.0958543,
        0.236824,
        0.338545,
        0.118444,
        0.223658,
        0.0958629,
        0.0983295,
        0.126107,
        -0.00250099,
        0.0037366,
        0.396004,
        -0.094261,
        -0.0808714,
        0.00895571,
        0.0608001,
        0.0240836,
        -0.0318993,
        0.120228,
        0.331822,
        0.181682,
        -0.169667,
        0.195061,
        0.142751,
        -0.0758717,
        0.181033,
        0.122695,
        -0.0496539,
        -0.0479477,
        0.0549835,
        0.187851,
        0.118431,
        0.152062,
        -0.272831,
        0.137977,
        -0.0879441,
        -0.0420303,
        0.171117,
        -0.151255,
        0.117938,
        0.0834254,
        0.23381,
        0.209126,
        0.0790275,
        0.179317,
        -0.0485827,
        0.275943,
        0.292177,
        0.0905908,
        0.0610764,
        -0.0485851,
        -0.020079,
        -0.0465938,
        0.0918262,
        0.245059,
        -0.0727316,
        -0.0737815,
        0.195991,
        -0.0501018,
        -0.134435,
        0.0247355,
        -0.0716835,
        -0.0833957,
        0.0138123,
        -0.0787415,
        0.299331,
        0.0248952,
        0.063429,
        -0.247489,
        -0.369546,
        -0.0436344,
        -0.191765,
        0.291424,
        0.394193,
        -0.115408,
        -0.0701654,
        0.0917287,
        -0.0327354,
        0.178943,
        0.16155,
        -0.0369529,
        0.00850275,
        0.060615,
        -0.0692993,
        0.290498,
        0.207341,
        0.065237,
        -0.228493,
        -0.324956,
        0.0226936,
        -0.0542097,
        -0.0428822,
        0.0156795,
        -0.015966,
        0.263061,
        0.0977521,
        -0.0665485,
        -0.0787278,
        -0.00160188,
        -0.0541425,
        0.299892,
        0.110243,
        0.289418,
        -0.134359,
        -0.0735908,
        0.0549302,
        0.115093,
        0.16893,
        -0.111145,
        0.0469233,
        0.145454,
        0.111372,
        0.0595503,
        0.0825636,
        -0.0772792,
        -0.0244977,
        0.300993,
        0.0699743,
        0.0883507,
        -0.0250351,
        0.10255,
        -0.0518303,
        -0.0357511,
        -0.207313,
        -0.22601,
        0.148777,
        0.0270043,
        0.136569,
        0.0948617,
        -0.172763,
        0.481453,
        0.0324809,
        0.0633469,
        -0.115803,
        0.160579,
        0.0727654,
        -0.160954,
        0.0333463,
        0.0138269,
        0.0277607,
        -0.00638523,
        0.12748,
        0.0554696,
        -0.161167,
        0.0305422,
        0.105476,
        0.268735,
        -0.179097,
        0.260336,
        0.0348587,
        0.401483,
        0.187822,
        0.0181017,
        0.396454,
        -0.0308582,
        0.185708,
        0.505066,
        -0.192864,
        0.179891,
        -0.130843,
        0.0115834,
        -0.285068,
        0.0282723,
        0.25715,
        -0.0433563,
        -0.0775086,
        0.000467107,
        0.198601,
        0.0899711,
        0.267952,
        -0.0798324,
        0.192579,
        0.038536,
        0.0887252,
        -0.00640915,
        0.132076,
        0.483979,
        -0.00683314,
        -0.0407514,
        0.29743,
        0.133101,
        0.0729564,
        0.284914,
        0.150945,
        -0.170598,
        -0.203847,
        0.159099,
        -0.0256907,
        0.105341,
        -0.100132,
        0.0363643,
        0.0454387,
        -0.0608711,
        -0.146565,
        0.119138,
        -0.030851,
        0.201406,
        0.0281697,
        -0.0741424,
        -0.0859858,
        -0.012373,
        -0.36776,
        0.21423,
        0.0105504,
        -0.215267,
        0.11581,
        0.170014,
        0.175829,
        0.375009,
        0.0811211,
        0.0814144,
        0.271679,
        0.0876592,
        -0.250757,
        -0.144111,
        -0.435148,
        -0.125615,
        0.0839096,
        -0.063068,
        0.0945438,
        0.0638448,
        -0.0830937,
        0.0236115,
        0.0774292,
        0.162717,
        -0.283469,
        -0.340638,
        -0.0232538,
        -0.323757,
        0.04164,
        0.0280828,
        -0.00309336,
        0.0657011,
        -0.216569,
        -0.0820233,
        0.322006,
        0.168943,
        -0.337043,
        -0.222942,
        -0.0998707,
        -0.138744,
        -0.21593,
        -0.290112,
        -0.0879608,
        0.0951378,
        -0.0140021,
        -0.042764,
        0.0219211,
        -0.286882,
        -0.039479,
        -0.0164475,
        0.0585197,
        -0.0403557,
        -0.136536,
        -0.240667,
        -0.28141,
        -0.149221,
        0.0206648,
        0.0197595,
        -0.186558,
        0.225158,
        -0.0837457,
        -0.139631,
        -0.299589,
        -0.253166,
        -0.130045,
        -0.123613,
        -0.11543,
        -0.00370537,
        -0.297492,
        0.032293,
        -0.0739464,
        -0.0480539,
        -0.0819439,
        -0.241205,
        0.0987219,
        0.0556548,
        0.100689,
        0.207367,
        0.260392,
        0.0181649,
        0.00965328,
        -0.208429,
        0.0648132,
        0.0842582,
        -0.159371,
        -0.00115417,
        -0.0894923,
        -0.144404,
        0.0749436,
        -0.0465366,
        -0.223226,
        -0.00635455,
        -0.226803,
        -0.205383,
        0.0300052,
        -0.0813135,
        -0.0938788,
        -0.00656915,
        -0.0634096,
        -0.0280242,
        -0.14287,
        0.0630127,
        0.0640944,
        0.0247312,
        0.234237,
        0.0710931,
        0.114807,
        0.0502926,
        -0.113459,
        -0.0497044,
        0.0639724,
        0.0493869,
        0.0131991,
        0.273859,
        -0.0433442,
        -0.0325847,
        0.0378298,
        -0.122453,
        0.00951079,
        -0.127361,
        0.238941,
        0.24164,
        -0.193621,
        -0.166982,
        0.118844,
        0.341994,
        0.0542921,
        0.066561,
        -0.114873,
        0.112673,
        -0.128221,
        -0.0637287,
        0.00797814,
        -0.0778618,
        0.228891,
        0.12286,
        0.0935812,
        -0.0346134,
        0.215321,
        -0.19233,
        -0.102944,
        0.114425,
        -0.21884,
        0.175588,
        -0.179284,
        -0.201149,
        -0.213776,
        0.0337623,
        -0.0603756,
        0.287747,
        0.171177,
        -0.180144,
        -0.243678,
        -0.0800043,
        -0.0679935,
        0.105177,
        -0.0336529,
        0.0233885,
        -0.0626568,
        0.0744663,
        -0.0374002,
        -0.216556,
        0.061935,
        0.0761213,
        0.206951,
        -0.151498,
        0.246435,
        0.079151,
        -0.0678823,
        0.0021257,
        -0.132968,
        -0.102766,
        -0.0491731,
        0.0736895,
        0.0494563,
        -0.0956795,
        0.0573484,
        0.0343556,
        -0.111219,
        -0.113143,
        -0.21545,
        -0.231612,
        -0.15591,
        -0.0233198,
        0.0823224,
        0.111308,
        0.0855368,
        0.126609,
        -0.0561386,
        0.0356372,
        -0.0439376,
        -0.112362,
        -0.108528,
        0.0826545,
        -0.0866314,
        0.120482,
        -0.0122502,
        -0.0112521,
        0.0326521,
        -0.227508,
        0.109971,
        -0.175321,
        0.0235978,
        0.100978,
        -0.152026,
        0.0104172,
        0.119043,
        0.0443893,
        -0.0201666,
        -0.114025,
        -0.0435777,
        0.0469681,
        0.0391587,
        -0.061521,
        -0.0279105,
        0.00151828,
        -0.449184,
        0.146853,
        -0.00603805,
        -0.157011,
        0.0160089,
        0.0494347,
        -0.0489801,
        -0.00853673,
        -0.00765713,
        -0.0496923,
        0.0689467,
        0.0370288,
        -0.0445204,
        -0.0657254,
        0.129276,
        0.0452587,
        0.144773,
        0.143285,
        0.0580455,
        0.0480681,
        -0.17727,
        0.0336824,
        -0.159042,
        -0.0454818,
        -0.0517061,
        -0.0388797,
        0.0498951,
        0.00355777,
        -0.0339277,
        -0.0913444,
        -0.150887,
        0.14,
        -0.0254328,
        0.0374614,
        -0.153745,
        -0.010656,
        -0.0519112,
        0.147151,
        -0.0012389,
        -0.263194,
        -0.0110242,
        0.107648,
        -0.0298693,
        0.0269273,
        0.0976756,
        -0.0325282,
        0.00935961,
        0.0900246,
        0.230401,
        0.0256983,
        0.0308172,
        0.0103591,
        0.0421995,
        0.0167716,
        0.0203306,
        -0.0717257,
        0.0521821,
        0.0587207,
        0.0148375,
        0.0711757,
        0.0770996,
        -0.00445088,
        0.0468818,
        -0.16692,
        0.136715,
        0.00318703,
        -0.0514485,
        0.252693,
        0.300035,
        0.119782,
        0.127187,
        0.0162241,
        0.154401,
        0.118775,
        0.167796,
        0.0313258,
        0.0651093,
        0.0274919,
        0.000815587,
        0.159643,
        0.110191,
        0.0678083,
        0.0828235,
        0.185576,
        0.0246769,
        -0.0435709,
        0.0138467,
        0.160501,
        0.203031,
        0.0183243,
        0.077444,
        0.143519,
        0.00933698,
        0.0996032,
        0.0754721,
        0.154295,
        0.298543,
        0.0959986,
        0.329237,
        0.368522,
        0.318589,
        0.199616,
        0.0309489,
        0.445766,
        0.354115,
        0.0382702,
        0.133143,
        0.043716,
        0.0245048,
        0.0896664,
        0.0351195,
        -0.176989,
        0.135985,
        -0.176722,
        -0.032559,
        -0.0191791,
        -0.0625992,
        0.0286942,
        0.0016877,
        0.0785701,
        -0.0922152,
        -0.0937086,
        0.101916,
        0.126762,
        0.207532,
        0.134219,
        0.0176423,
        0.269057,
        0.274694,
        0.281013,
        0.254176,
        0.120151,
        0.269898,
        0.136573,
        0.0340787,
        -0.0752622,
        0.0913183,
        -0.0780144,
        0.0911183,
        0.1363,
        -0.0269669,
        -0.0756438,
        -0.00446174,
        -0.0322765,
        -0.0194344,
        0.031764,
        0.180547,
        -0.0464934,
        -0.121017,
        -0.0780949,
        -0.0325748,
        0.258611,
        0.0530539,
        -0.0688991,
        -0.028082,
        0.207327,
        0.0622517,
        0.180883,
        0.287005,
        -0.154123,
        0.28806,
        0.0827959,
        0.169934,
        0.173887,
        0.0066252,
        0.0623911,
        0.0564696,
        0.136811,
        -0.0689582,
        -0.0533496,
        0.0727544,
        0.0254811,
        0.147351,
        0.00898487,
        -0.0261916,
        -0.0194821,
        -0.0242356,
        -0.0655518,
        -0.183654,
        -0.383638,
        -0.00843213,
        -0.3412,
        -0.0463727,
        -0.271523,
        -0.169432,
        0.114763,
        -0.0110364,
        0.160536,
        -0.0463229,
        -0.018987,
        -0.284861,
        -0.00827399,
        0.126375,
        0.194956,
        0.104906,
        -0.086853,
        0.00756882,
        -0.213757,
        -0.0656647,
        -0.140982,
        -0.0625054,
        0.0276093,
        -0.0329173,
        -0.125243,
        -0.163046,
        -0.0311037,
        -0.132172,
        0.0547827,
        -0.231192,
        -0.266304,
        -0.185399,
        -0.197412,
        -0.0387619,
        -0.147391,
        -0.050271,
        0.141715,
        -0.013474,
        -0.214831,
        0.0828246,
        0.290213,
        0.187101,
        0.0992309,
        -0.0546657,
        -0.0273167,
        0.0671871,
        0.124888,
        0.00996244,
        0.00941037,
        -0.0864148,
        0.195404,
        -0.161553,
        -0.0878521,
        -0.123042,
        -0.141732,
        -0.207495,
        -0.198392,
        0.0349366,
        0.0632689,
        0.037274,
        -0.195153,
        -0.105761,
        -0.231942,
        -0.00504917,
        -0.0576525,
        -0.046543,
        0.361513,
        0.159226,
        0.0798014,
        -0.0946386,
        0.177179,
        0.069896,
        -0.055275,
        0.0522461,
        0.0826147,
        0.100095,
        0.0778786,
        -0.00237212,
        -0.0705703,
        -0.29749,
        -0.0849798,
        -0.292679,
        0.0563263,
        0.161109,
        0.154324,
        0.205211,
        -0.311718,
        -0.0481646,
        0.200948,
        -0.314873,
        -0.266449,
        -0.421883,
        -0.263842,
        0.131478,
        -0.0368014,
        0.284427,
        -0.0128206,
        0.0455619,
        0.11939,
        0.424227,
        0.130563,
        -0.0451364,
        0.0466205,
        -0.0549404,
        0.0515142,
        -0.300679,
        0.0888676,
        -0.287046,
        -0.103698,
        0.187001,
        0.233741,
        0.221269,
        0.261611,
        0.357008,
        -0.173365,
        -0.0805146,
        -0.0323727,
        0.0490194,
        -0.196935,
        -0.206816,
        -0.402222,
        -0.0978651,
        0.213015,
        0.0806317,
        0.210023,
        0.207672,
        0.268572,
        0.0530128,
        0.16163,
        -0.071248,
        0.122215,
        -0.0786486,
        -0.114067,
        0.187409,
        0.204073,
        0.0685749,
        0.0467575,
        0.262779,
        0.00713524,
        -0.117756,
        0.00741148,
        0.127895,
        0.0174407,
        0.312561,
        0.315965,
        0.0600143,
        -0.159187,
        -0.283611,
        -0.242617,
        -0.243929,
        -0.119794,
        0.274146,
        -0.121934,
        0.140289,
        0.333543,
        0.0109598,
        -0.049605,
        -0.0063517,
        0.0030673,
        0.0416249,
        -0.0860119,
        0.185964,
        0.0187287,
        -0.314692,
        0.0294986,
        0.327892,
        0.0911656,
        0.244764,
        0.114209,
        0.288152,
        0.102099,
        0.40511,
        0.232722,
        -0.0783254,
        -0.0480451,
        -0.0856641,
        -0.231395,
        -0.306565,
        -0.147084,
        -0.0149115,
        0.131572,
        0.256047,
        0.238196,
        -0.129868,
        0.0386317,
        -0.125176,
        0.008387,
        -0.0287372,
        0.0876592,
        0.195989,
        0.0626012,
        -0.134097,
        -0.117847,
        -0.00944142,
        -0.126284,
        0.161628,
        -0.0625716,
        0.0399983,
        0.0869547,
        -0.106291,
        0.173663,
        -0.104619,
        -0.0916094,
        -0.375151,
        -0.277259,
        0.184612,
        -0.0493554,
        0.000812524,
        0.250237,
        0.173713,
        -0.00274287,
        -0.0795136,
        0.00374131,
        -0.0922976,
        -0.0677788,
        -0.0152545,
        -0.0752315,
        0.0520563,
        -0.0994154,
        -0.172052,
        -0.109831,
        0.107789,
        0.0508154,
        0.149537,
        -0.0498933,
        -0.0426944,
        -0.0262417,
        0.266585,
        -0.303437,
        -0.00579065,
        -0.328651,
        -0.397371,
        -0.320729,
        -0.364593,
        -0.18048,
        0.0897736,
        0.0531826,
        0.0946219,
        0.236153,
        -0.0929588,
        0.0404985,
        -0.0537304,
        -0.0511875,
        0.139918,
        0.102081,
        0.0343145,
        -0.101415,
        0.0307416,
        -0.160068,
        0.190571,
        -0.112683,
        0.00170383,
        0.104201,
        -0.19255,
        -0.00753845,
        0.294377,
        0.0828878,
        -0.415234,
        -0.371923,
        -0.219053,
        -0.160003,
        -0.253196,
        -0.183172,
        -0.0579445,
        -0.218725,
        0.0170546,
        0.0662465,
        0.0397548,
        -0.165282,
        -0.088955,
        0.104295,
        -0.0686861,
        -0.0712077,
        -0.0506613,
        0.0773867,
        0.0129016,
        -0.0382628,
        -0.371194,
        -0.0764869,
        -0.13241,
        0.0695536,
        0.119616,
        0.0496208,
        0.0235157,
        -0.480233,
        -0.41931,
        -0.226433,
        -0.138955,
        -0.11662,
        -0.178843,
        -0.117696,
        -0.162958,
        0.00428194,
        0.098256,
        0.0878032,
        -0.0885138,
        -0.202537,
        0.046946,
        0.0979261,
        0.109316,
        -0.0178981,
        -0.129029,
        0.129327,
        0.108893,
        0.166711,
        -0.14941,
        0.0905839,
        0.0212211,
        0.186495,
        0.216467,
        0.263434,
        -0.121982,
        -0.208512,
        -0.469314,
        -0.123565,
        -0.0757708,
        0.0572869,
        0.00496117,
        0.292811,
        -0.207526,
        -0.0115998,
        0.174768,
        0.120216,
        0.145026,
        -0.135712,
        -0.0119803,
        -0.0345421,
        -0.0166976,
        0.0713309,
        -0.0353053,
        -0.0724062,
        -0.133033,
        0.150982,
        0.0213528,
        -0.0488678,
        0.0340075,
        0.0982078,
        0.135847,
        0.0333087,
        -0.256826,
        -0.178613,
        -0.213818,
        -0.224724,
        -0.273056,
        0.0496322,
        -0.11744,
        0.0400573,
        0.0239778,
        -0.0379282,
        -0.00985646,
        0.124748,
        -0.0860325,
        -0.106543,
        -0.0240899,
        -0.0478563,
        0.0508743,
        0.221202,
        0.123378,
        0.129258,
        0.139414,
        0.483509,
        0.35619,
        0.368495,
        0.192525,
        0.18316,
        0.310985,
        0.304124,
        -0.258115,
        -0.196314,
        0.0523677,
        0.104987,
        0.0844936,
        0.184975,
        0.134911,
        -0.0197059,
        -0.15647,
        -0.155277,
        0.17951,
        -0.039189,
        0.128831,
        -0.0817365,
        -0.0572351,
        0.0744926,
        0.0685653,
        -0.0116101,
        0.111836,
        0.0349306,
        -0.0256762,
        0.420228,
        0.252157,
        0.206904,
        -0.0573151,
        0.376839,
        0.211245,
        0.215743,
        0.267326,
        0.29916,
        0.209645,
        0.191757,
        0.0470286,
        0.237792,
        -0.0804784,
        -0.093322,
        -0.0714803,
        0.109049,
        0.000951026,
        -0.0792007,
        -0.0959046,
        -0.0555924,
        -0.0485688,
        0.0856562,
        -0.0522931,
        -0.103751,
        0.00418771,
        0.027906,
        0.135331,
        0.336981,
        0.358874,
        0.166764,
        0.336849,
        -0.2176,
        0.402456,
        0.288773,
        0.303926,
        0.3434,
        0.245272,
        0.0804711,
        0.116614,
        0.0965242,
        -0.004595,
        0.0402268,
        -0.135192,
        -0.0178117,
        -0.0337417,
        -0.0483361,
        0.0315341,
        -0.0542106,
        0.145843,
        0.275905,
        0.047729,
        -0.00356838,
        0.000623427,
        0.224145,
        0.221856,
        0.0378246,
        0.202127,
        0.176307,
        0.196097,
        0.112302,
        -0.0857815,
        0.214903,
        0.163627,
        0.0393285,
        0.161267,
        0.179388,
        0.0496506,
        0.200214,
        -0.0807132,
        -0.139266,
        -0.36165,
        -0.184879,
        -0.00420195,
        -0.308392,
        -0.0209337,
        -0.0637573,
        -0.0603275,
        0.0503843,
        0.0219191,
        0.00238211,
        -0.0355626,
        0.0344279,
        0.101293,
        0.146865,
        -0.251059,
        -0.0736047,
        0.197994,
        -0.017049,
        0.379848,
        0.203419,
        0.120142,
        0.218785,
        0.120965,
        0.150827,
        -0.0729042,
        -0.0493966,
        -0.229261,
        -0.135689,
        -0.039354,
        -0.116103,
        0.0789777,
        -0.189498,
        0.144911,
        0.0813573,
        -0.0185001,
        0.0294439,
        0.233848,
        0.0155172,
        -0.0222619,
        -0.0547939,
        0.0474137,
        -0.0611812,
        -0.281205,
        -0.256412,
        -0.013897,
        -0.0899863,
        0.261914,
        0.137457,
        0.0919859,
        -0.0522214,
        0.0142718,
        -0.0597104,
        -0.172056,
        -0.0572858,
        -0.0287882,
        -0.175085,
        -0.086559,
        -0.000850135,
        -0.0539739,
        -0.00534614,
        -0.050377,
        -0.0846545,
        -0.0100319,
        0.00436495,
        -0.0320879,
        -0.0199711,
        0.119406,
        -0.0986335,
        -0.089922,
        -0.00413909,
        -0.0727499,
        0.0357978,
        0.0386523,
        0.00880358,
        0.160248,
        0.140783,
        0.143466,
        -0.0242955,
        -0.17691,
        -0.226428,
        -0.0687168,
        -0.041418,
        0.188744,
        -0.0423274,
        -0.0294368,
        0.0685004,
        0.137996,
        -0.00850694,
        -0.0518725,
        -0.18425,
        0.0285309,
        0.0369435,
        0.132022,
        -0.117646,
        -0.0886237,
        0.0337001,
        -0.147758,
        -0.197707,
        0.00692184,
        0.0760432,
        0.0172628,
        -0.120831,
        -0.043552,
        -0.0470893,
        -0.0478259,
        -0.0928463,
        -0.0925095,
        -0.000322103,
        -0.00178438,
        -0.0339762,
        0.0436253,
        0.0401438,
        0.104406,
        -0.0768745,
        0.147254,
        0.0595476,
        0.0149429,
        0.00133631,
        0.109066,
        -0.0174133,
        -0.0500752,
        0.0156041,
        -0.0760457,
        -0.0445906,
        0.0116641,
        -0.155164,
        -0.118827,
        -0.088844,
        0.00792083,
        0.0466074,
        -0.0394967,
        -0.0189451,
        -0.0638711,
        -0.0743232,
        -0.18706,
        -0.109994,
        0.0163355,
        0.0350042,
        -0.0738104,
        0.020823,
        -0.0387553,
        -0.149167,
        0.014904,
        0.151013,
        -0.0556941,
        -0.0617363,
        -0.0296942,
        -0.0885154,
        0.0761022,
        0.00989246,
        0.071136,
        -0.00571609,
        -0.0659522,
        0.0514843,
        0.0175252,
        -0.0567536,
        0.0842789,
        -0.0229859,
        -0.0928196,
        0.0227942,
        0.0480158,
        0.00283748,
        -0.0308757,
        0.0560703,
        -0.0294347,
        0.0664888,
        -0.078734,
        0.101567,
        -0.0401045,
        0.0117434,
        0.0233855,
        -0.0164739,
        0.0227605,
        -0.0351087,
        -0.0426165,
        -0.0380346,
        0.152578,
        -0.0919204,
        -0.171314,
        -0.0213659,
        -0.0661975,
        -0.0176322,
        0.0438794,
        -0.0240507,
        0.0109835,
        0.0273819,
        0.121242,
        -0.0108101,
        0.0536314,
        0.0365731,
        0.0595431,
        -0.146214,
        -0.15627,
        -0.0924595,
        0.031125,
        -0.0848922,
        0.108601,
        0.0164916,
        0.0352329,
        -0.0216374,
        0.0187254,
        -0.0463185,
        0.045885,
        0.0142868,
        0.0218709,
        0.0641807,
        -0.0837867,
        0.000419305,
        0.000596694,
        -0.0504122,
        -0.0710712,
        -0.0231292,
        -0.0010172,
        -0.107652,
        -0.132758,
        -0.0769501,
        -0.0858895,
        0.0404156,
        -0.191826,
        -0.176813,
        -0.0434137,
        -0.186912,
        -0.153139,
        -0.0827386,
        0.0298347,
        -0.117341,
        -0.0322277,
        0.0479082,
        -0.0214213,
        -0.042799,
        -0.100455,
        -0.120854,
        0.0364948,
        -0.158156,
        0.0248823,
        0.00692929,
        -0.0504948,
        -0.0261454,
        0.0274464,
        0.0638641,
        0.0226986,
        0.0346033,
        -0.0746441,
        -0.0570986,
        0.111548,
        -0.0699756,
        -0.100746,
        -0.0948187,
        -0.233754,
        -0.174628,
        -0.128526,
        -0.0910976,
        -0.113325,
        -0.109,
        -0.0826977,
        -0.126415,
        0.0224799,
        -0.0611147,
        -0.0519785,
        0.0964797,
        0.0162677,
        -0.107685,
        0.0321386,
        0.0478547,
        0.0291139,
        -0.0690083,
        -0.0429436,
        -0.00437317,
        -0.0622831,
        0.105813,
        -0.0986353,
        -0.11895,
        0.130127,
        0.0855211,
        0.151944,
        0.151444,
        0.0787848,
        -0.113903,
        -0.100095,
        -0.0812555,
        -0.264785,
        -0.166171,
        0.00519811,
        0.018929,
        -0.0300538,
        0.15601,
        0.00458525,
        0.0167879,
        -0.0031725,
        0.0162838,
        -0.0944228,
        0.221717,
        -0.103623,
        0.0717774,
        -0.0775403,
        0.0237226,
        -0.232067,
        -0.0328594,
        -0.150521,
        -0.0374854,
        0.0583669,
        0.0476848,
        0.144057,
        0.374765,
        0.0910723,
        -0.127805,
        -0.112337,
        -0.0773524,
        -0.0638478,
        -0.173047,
        -0.0297202,
        -0.0118392,
        -0.0873022,
        -0.0643004,
        -0.0805389,
        0.0147537,
        -0.056897,
        0.0244814,
        0.0490534,
        -0.0402014,
        -0.0509465,
        -0.0214453,
        -0.21244,
        -0.188062,
        -0.264904,
        -0.222608,
        -0.183492,
        -0.0677204,
        -0.00677096,
        0.0480148,
        -0.0292869,
        0.0567031,
        0.0737509,
        0.291404,
        0.0292022,
        -0.337865,
        0.0306719,
        0.0600421,
        -0.088578,
        0.0313814,
        -0.134293,
        -0.022368,
        0.0509128,
        -0.0483271,
        -0.0857952,
        -0.145122,
        -0.00517264,
        -0.108916,
        0.0158431,
        -0.106098,
        -0.252788,
        -0.16414,
        -0.284422,
        -0.164662,
        -0.345537,
        0.0266929,
        0.0953286,
        0.149747,
        0.176242,
        0.183802,
        0.111821,
        -0.0738755,
        -0.0127817,
        -0.0371534,
        0.0566376,
        -0.216192,
        -0.207312,
        -0.0362496,
        -0.117302,
        -0.0422154,
        -0.0136297,
        -0.0231083,
        -0.0166478,
        -0.00250293,
        -0.0680701,
        -0.0778207,
        -0.152341,
        -0.104498,
        -0.204933,
        -0.0863085,
        -0.0502532,
        -0.0620565,
        0.105769,
        0.051827,
        0.19785,
        -0.0731147,
        0.019348,
        -0.17763,
        -0.0696028,
        -0.15693,
        0.0827526,
        -0.0341688,
        -0.184946,
        -0.0237082,
        -0.0527038,
        -0.281288,
        -0.0494272,
        -0.0461124,
        -0.00344157,
        -0.0186431,
        -0.071729,
        -0.0131412,
        0.0223942,
        -0.0415652,
        -0.166875,
        -0.0831606,
        -0.134547,
        -0.24059,
        -0.0465119,
        0.0604589,
        0.0848188,
        -0.0148298,
        0.268028,
        0.29881,
        -0.173873,
        0.0242727,
        0.0161535,
        -0.149299,
        0.0744205,
        0.0816008,
        -0.00985651,
        -0.0367889,
        -0.0592635,
        -0.0569565,
        -0.0813109,
        -0.00556399,
        0.00412852,
        -0.107724,
        -0.0470876,
        -0.0292055,
        -0.0642268,
        -0.00356413,
        0.0639277,
        -0.0769093,
        -0.193827,
        -0.182495,
        -0.0251783,
        -0.151086,
        0.0357721,
        0.0954178,
        0.135709,
        0.0313937,
        0.422798,
        0.237412,
        0.131572,
        0.0122304,
        -0.0121209,
        0.183678,
        0.108267,
        -0.0245764,
        -0.0316551,
        0.152244,
        0.00935956,
        -0.0236939,
        -0.132911,
        0.0021041,
        0.0531033,
        0.087814,
        -0.0555315,
        -0.125948,
        -0.120089,
        -0.178655,
        -0.192714,
        -0.0535652,
        -0.092689,
        -0.162979,
        0.0467433,
        -0.099178,
        -0.102004,
        0.0571476,
        0.368755,
        0.141605,
        -0.067635,
        -0.26082,
        -0.169132,
        -0.00861964,
        0.125813,
        -0.0830312,
        0.116982,
        0.107694,
        -0.122139,
        -0.0215594,
        -0.074824,
        0.148709,
        0.102705,
        -0.0165349,
        -0.0419719,
        0.00753487,
        -0.00752696,
        0.0634869,
        -0.0709835,
        -0.219369,
        -0.291543,
        -0.089807,
        -0.0663731,
        -0.13646,
        0.216811,
        0.370631,
        0.147554,
        -0.00153626,
        -0.360858,
        -0.282631,
        -0.0661233,
        0.186181,
        0.1967,
        0.0597679,
        -0.0535556,
        0.00397132,
        0.0209869,
        0.0703278,
        0.0701132,
        -0.0465733,
        -0.0229451,
        0.150228,
        -0.074365,
        -0.117248,
        0.10696,
        -0.130401,
        0.0510481,
        -0.0529405,
        -0.119461,
        -0.175304,
        -0.294627,
        0.0253834,
        -0.0743292,
        0.0392106,
        0.0984897,
        -0.00732522,
        -0.194793,
        0.0068873,
        -0.168132,
        -0.0161062,
        -0.0680067,
        -0.005024,
        -0.195484,
        -0.128746,
        -0.0721082,
        0.0598002,
        -0.052814,
        0.0390595,
        0.0480233,
        -0.0090209,
        -0.00771495,
        0.0964781,
        0.0122777,
        -0.062298,
        -0.0193075,
        -0.149153,
        0.0329081,
        -0.0190028,
        -0.372542,
        -0.271681,
        -0.152397,
        -0.0566513,
        0.206842,
        -0.195914,
        0.0614712,
        -0.0420796,
        -0.168843,
        0.145874,
        0.0627348,
        -0.00555596,
        -0.144802,
        -0.0674788,
        -0.131703,
        0.0141121,
        -0.0126073,
        0.0396387,
        -0.0166111,
        -0.0438168,
        -0.0356658,
        0.0359526,
        0.103755,
        -0.0838744,
        -0.0161878,
        -0.132569,
        0.0134243,
        -0.0420992,
        -0.0264486,
        -0.395006,
        -0.152127,
        -0.183602,
        -0.0138151,
        -0.115848,
        0.235043,
        -0.216368,
        -0.174588,
        -0.0229673,
        -0.0294651,
        -0.0920763,
        0.0162894,
        -0.0215135,
        -0.0653315,
        0.00982959,
        -0.0267671,
        -0.026659,
        0.0148798,
        -0.036865,
        -0.0369101,
        -0.0204398,
        -0.0872173,
        0.0438383,
        0.152408,
        0.037291,
        -0.00239928,
        0.0364297,
        0.0929306,
        -0.169998,
        -0.361743,
        -0.0414756,
        -0.072946,
        0.111158,
        -0.0857322,
        -0.167588,
        -0.248733,
        -0.224271,
        0.0631721,
        -0.102103,
        -0.0279712,
        -0.0303015,
        -0.0580019,
        0.0514705,
        0.0940239,
        0.0877336,
        0.0562084,
        -0.0689108,
        -0.071286,
        -0.123384,
        0.0690021,
        -0.125446,
        -0.0589239,
        0.067866,
        0.0489153,
        0.231127,
        0.00584286,
        -0.071828,
        -0.0409619,
        0.0817893,
        -0.153149,
        0.1933,
        -0.0216579,
        -0.166287,
        -0.263928,
        -0.0356716,
        -0.127879,
        -0.0567231,
        0.228572,
        -0.0509927,
        0.109813,
        -0.0454152,
        -0.0426235,
        0.0147946,
        -0.0381405,
        0.0325133,
        -0.0926322,
        0.0599387,
        -0.0299003,
        -0.0440072,
        -0.198347,
        -0.0291417,
        0.216472,
        0.28727,
        0.218875,
