{
    "NInput": 784,
    "NHidden": 150,
    "NOutput": 10,
    "NHiddenLayers": 1,
    "Weights": [
        -0.00435315,
        -0.0387902,
        0.0244234,
        -0.0383751,
        0.00118744,
        0.0265843,
        0.00119945,
        -0.0187965,
        0.0165085,
        0.00716327,
        0.075833,
        0.0132673,
        0.0364969,
        0.0280377,
        -0.00461698,
        -0.0120236,
        -0.0245256,
        0.0466995,
        -0.0334016,
        -0.0953808,
        -0.0275803,
        -0.0186155,
        -0.0719287,
        0.00179771,
        -0.0319305,
        -0.000469932,
        -0.00659152,
        -0.0242508,
        -0.00263184,
        0.0306321,
        0.0134526,
        -0.0267427,
        0.0500491,
        0.0287298,
        -0.0140708,
        0.0201155,
        0.0414137,
        -0.000319727,
        -0.0124156,
        0.0419273,
        -0.0465107,
        -0.0106887,
        -0.0127689,
        0.0199775,
        0.0584085,
        0.00434331,
        -0.0130787,
        -0.010156,
        -0.0200511,
        -0.0560253,
        -0.0357892,
        0.0277017,
        0.0394285,
        -0.0473116,
        -0.0346832,
        0.0560204,
        0.00566563,
        -0.00577861,
        0.0506191,
        -0.0716587,
        0.0198047,
        -0.000586637,
        0.0172183,
        -0.046386,
        0.0343966,
        0.00808704,
        -0.0509301,
        0.00738525,
        0.0315981,
        0.0552793,
        -0.00254547,
        0.000753388,
        0.0414262,
        -0.0106719,
        0.0332564,
        0.0451429,
        0.0108709,
        0.00412496,
        0.00593973,
        0.042109,
        -0.00611791,
        0.0467745,
        0.0393378,
        0.0160816,
        0.00473301,
        0.00210611,
        0.0103951,
        -0.0661324,
        0.0348289,
        -0.0105415,
        0.0305439,
        0.0332124,
        -0.0556318,
        -0.0244169,
        0.0309733,
        -0.089336,
        0.0247148,
        -0.0693325,
        0.0699216,
        -0.00155226,
        0.0109671,
        0.00329911,
        0.0159182,
        0.110925,
        0.049693,
        0.0115141,
        -0.0178318,
        -0.00936691,
        0.015862,
        -0.00704845,
        -0.0356509,
        -0.0352977,
        -0.0251376,
        0.0327542,
        0.00630543,
        0.0469511,
        -0.0105893,
        -0.00210883,
        -0.0109986,
        -0.0187338,
        0.0746467,
        0.0485644,
        0.0423804,
        0.0535269,
        -0.0230219,
        0.0655205,
        0.035932,
        -0.0326519,
        0.0780826,
        -0.0325426,
        -0.00879265,
        -0.00281673,
        -0.0511154,
        0.00225963,
        0.0729467,
        0.0175776,
        -0.141098,
        -0.0530331,
        -0.0846998,
        -0.0379766,
        -0.00554079,
        -0.009496,
        0.0445306,
        0.0340936,
        0.0841289,
        0.00257866,
        -0.0278738,
        -0.0218088,
        -0.0196766,
        -0.0870214,
        0.0664638,
        0.0345157,
        0.0810628,
        0.0220959,
        0.0106594,
        0.0207703,
        -0.0367802,
        -0.122797,
        -0.13323,
        -0.0638584,
        -0.122024,
        0.0047063,
        0.0820207,
        0.087239,
        -0.0378362,
        -0.0924257,
        -0.0374612,
        -0.0151598,
        -0.0177046,
        -0.0296507,
        0.0738819,
        -0.0961229,
        0.00352352,
        -0.0154544,
        -0.0707438,
        0.0255022,
        -0.000604025,
        -0.0273257,
        0.0766055,
        0.103743,
        0.0533269,
        0.0840668,
        0.0150961,
        -0.078099,
        -0.0563611,
        -0.145792,
        0.00727631,
        -0.110215,
        0.118248,
        -0.0640876,
        0.00891633,
        -0.0469742,
        0.0100028,
        -0.0770202,
        0.0432953,
        0.00609348,
        -0.0269394,
        0.0285317,
        0.00451662,
        0.00738662,
        0.00577286,
        0.0220686,
        -0.0078544,
        -0.00314527,
        -0.0521841,
        -0.00671149,
        0.00613667,
        0.0243063,
        0.108812,
        0.00985267,
        0.0867869,
        -0.0264937,
        -0.00687023,
        -0.0377095,
        -0.0894398,
        -0.0236494,
        -0.0418857,
        0.0269522,
        0.019304,
        0.00641217,
        0.0256641,
        -0.0673626,
        0.00517654,
        0.0335198,
        -0.00496511,
        0.0185098,
        -0.0775107,
        -0.0310596,
        -0.0699276,
        -0.00514996,
        -0.0724872,
        -0.0924166,
        -0.0216957,
        -0.0397208,
        -0.0972095,
        -0.17284,
        -0.0757567,
        -0.031208,
        -0.016304,
        0.0549979,
        0.0328786,
        0.0151867,
        -0.0178551,
        -0.151435,
        -0.16346,
        -0.00638255,
        -0.00351836,
        -0.0859035,
        -0.0796168,
        -0.0417858,
        -0.0363232,
        -0.0644197,
        -0.00509659,
        -0.0204181,
        0.00298377,
        -0.0859748,
        0.0152053,
        -0.0243342,
        -0.0112923,
        0.0247452,
        -0.0695839,
        0.0144641,
        -0.101108,
        -0.10068,
        -0.0926766,
        -0.0638315,
        -0.0924138,
        0.0119714,
        0.0510632,
        -0.092004,
        -0.0151808,
        -0.121742,
        -0.164186,
        -0.0902564,
        -0.0224506,
        -0.043983,
        -0.00956887,
        0.0262226,
        -0.0846191,
        0.0147734,
        0.0281385,
        0.0850452,
        0.0113632,
        0.0867127,
        0.0159364,
        0.0145971,
        -0.0729206,
        -0.152783,
        0.00535353,
        -0.0850384,
        0.0213201,
        -0.0434455,
        -0.0504966,
        -0.104324,
        -0.049075,
        0.14783,
        -0.0147258,
        0.0268089,
        -0.0187217,
        -0.107426,
        -0.0640094,
        -0.132607,
        -0.0650271,
        -0.10039,
        -0.0196345,
        0.0155429,
        -0.000832085,
        -0.0231205,
        0.0425348,
        -0.0281191,
        0.0121597,
        -0.0928943,
        0.0560084,
        -0.0447099,
        -0.0868795,
        -0.0900815,
        -0.147563,
        -0.0681625,
        -0.0154042,
        -0.0633628,
        -0.181227,
        -0.0444908,
        -0.0146157,
        0.0886988,
        0.0912492,
        0.0208577,
        -0.0260587,
        -0.0188956,
        -0.0250239,
        -0.0424631,
        -0.0123796,
        -0.113929,
        -0.0581882,
        -0.00917419,
        -0.0536828,
        0.0337517,
        0.0535054,
        -0.0397526,
        -0.0150105,
        -0.093124,
        -0.0357838,
        -0.0346057,
        -0.0250363,
        -0.175792,
        -0.0293559,
        0.0709778,
        0.0396776,
        -0.0419461,
        -0.0228952,
        0.0844092,
        0.0272875,
        0.0242145,
        0.0257844,
        -0.0261682,
        -0.00207343,
        -0.0845868,
        -0.0526648,
        0.0379891,
        -0.0628354,
        -0.0592441,
        -0.0825162,
        0.0454883,
        0.0110165,
        0.00336251,
        -0.0615858,
        0.00124675,
        0.00125518,
        -0.00470183,
        0.00621558,
        -0.0468297,
        0.0648983,
        0.0455219,
        -0.0430765,
        0.0486999,
        -0.00826291,
        0.0159361,
        -0.00435243,
        0.0157149,
        0.016722,
        0.164323,
        -0.0209892,
        -0.0689246,
        -0.0548305,
        0.0582507,
        -0.00666262,
        -0.0272256,
        -0.0394165,
        -0.106279,
        0.00821204,
        0.0222533,
        0.032503,
        0.0522778,
        -0.0708063,
        0.011581,
        -0.0696075,
        -0.0242606,
        0.0690011,
        -0.0637175,
        -0.0159094,
        0.0658389,
        0.130018,
        0.141911,
        0.0978145,
        0.106609,
        0.0685537,
        0.170824,
        0.155934,
        0.170668,
        0.0394175,
        -0.0145944,
        0.00615437,
        0.033901,
        0.0399945,
        0.0142316,
        -0.0570916,
        -0.044653,
        0.0165497,
        -0.017403,
        0.0215798,
        -0.000770555,
        0.0238818,
        -0.0248113,
        0.00616508,
        0.0279741,
        0.0174319,
        -0.0433824,
        -0.0322963,
        0.00499764,
        0.0738093,
        0.148887,
        0.134122,
        0.11998,
        0.159693,
        0.1052,
        0.0777178,
        0.118451,
        0.054675,
        -0.0325251,
        0.0425962,
        0.00727182,
        0.0107913,
        -0.0888349,
        -0.0951133,
        0.0138167,
        -0.00992927,
        0.0217407,
        -0.00638266,
        0.0533658,
        -0.00518761,
        0.0089679,
        -0.0176658,
        0.0307497,
        0.0178677,
        0.00447574,
        -0.0860576,
        0.027545,
        0.0166156,
        0.00647698,
        0.0529441,
        0.183761,
        0.135359,
        0.128598,
        0.0870725,
        0.0184971,
        0.0177117,
        -0.0653078,
        0.0487817,
        0.0477717,
        -0.0654826,
        -0.0600225,
        -0.0625123,
        -0.0320266,
        0.0669271,
        0.0655243,
        -0.0176939,
        -0.0129035,
        -0.00951091,
        0.0579343,
        0.0353652,
        -0.0430601,
        -0.0255054,
        -0.0172084,
        -0.0482709,
        -0.0360012,
        0.00247952,
        -0.0619072,
        0.0616155,
        -0.00381643,
        0.163166,
        0.152449,
        0.0595846,
        0.000774181,
        0.051893,
        0.0297344,
        0.106155,
        0.122644,
        0.0357999,
        -0.0322447,
        -0.0127418,
        0.0201986,
        0.0504265,
        0.0312129,
        0.0763415,
        -0.0136478,
        -0.0881843,
        -0.0275286,
        0.0559029,
        -0.0851095,
        -0.0348199,
        -0.0178543,
        -0.172095,
        -0.197955,
        -0.10154,
        -0.00629694,
        -0.070523,
        0.0584035,
        0.090526,
        0.00527585,
        -0.0691952,
        -0.103565,
        -0.106199,
        -0.0357029,
        0.183078,
        0.101055,
        0.0316488,
        0.018892,
        0.0562749,
        0.0648514,
        0.0721132,
        0.0765629,
        0.0435502,
        -0.0257377,
        0.0432868,
        -0.080831,
        0.0390391,
        0.07036,
        -0.0441495,
        -0.0719529,
        -0.0732749,
        -0.0845799,
        -0.14948,
        -0.0261369,
        0.00473629,
        0.0290089,
        0.104105,
        -0.0487622,
        -0.0974975,
        -0.00915347,
        0.028886,
        -0.121175,
        0.104701,
        0.0413438,
        0.0526813,
        0.0181157,
        -0.0279829,
        0.021492,
        0.0658854,
        0.0714188,
        -0.0401423,
        -0.00954114,
        0.0272335,
        0.0416761,
        -0.0480979,
        0.0225751,
        0.0478873,
        -0.102765,
        -0.0983238,
        0.00278676,
        -0.128893,
        -0.0977866,
        -0.0337415,
        0.059024,
        0.0957233,
        -0.132516,
        -0.0212351,
        0.00777202,
        0.100534,
        0.0336769,
        0.115654,
        0.0864377,
        0.0559229,
        0.0389587,
        0.0380404,
        0.0597143,
        0.0628967,
        0.0436553,
        -0.0232282,
        0.00208428,
        -0.024791,
        0.0356458,
        0.0140458,
        0.0982818,
        0.0228378,
        -0.00817565,
        -0.0327464,
        -0.0779848,
        -0.158725,
        -0.139854,
        0.0195818,
        -0.0852319,
        -0.0645932,
        -0.029536,
        -0.0517521,
        -0.0159382,
        0.0202818,
        -0.0680525,
        0.0866728,
        0.000624888,
        0.122842,
        0.0318735,
        0.0425054,
        0.073853,
        0.0597062,
        0.0360957,
        0.0292119,
        -0.0244254,
        -0.00328377,
        -0.0124791,
        0.00429673,
        -0.0316338,
        0.0690409,
        0.0928091,
        0.0510824,
        -0.0882899,
        -0.0467433,
        -0.0982527,
        -0.106839,
        -0.0184175,
        -0.0731423,
        -0.116042,
        -0.014771,
        -0.0654855,
        0.0139285,
        0.032485,
        -0.018094,
        -0.0288732,
        0.0185097,
        -0.0199236,
        0.0575403,
        0.0585465,
        0.0773808,
        0.0281535,
        -0.0163035,
        0.0519415,
        0.036116,
        0.045326,
        -0.0318684,
        -0.0403112,
        -0.0478709,
        -0.0194403,
        0.0414144,
        0.0437506,
        -0.116807,
        -0.0788144,
        -0.017252,
        -0.0476521,
        -0.0604684,
        -0.0341194,
        -0.0181089,
        -0.0142333,
        -0.00501266,
        0.011015,
        -0.0546956,
        -0.038264,
        -0.0220472,
        0.0172189,
        0.0274963,
        -0.0117757,
        0.0210639,
        0.00988098,
        -0.0318013,
        0.00841446,
        -0.0303321,
        -1.19782e-05,
        -0.0134634,
        -0.0405547,
        -0.0358873,
        -0.0351392,
        -0.0482206,
        0.0620257,
        -0.0129755,
        0.139418,
        0.00539094,
        -0.0850242,
        -0.0123134,
        0.038713,
        0.0681619,
        -0.0406408,
        -0.0946386,
        0.0734419,
        0.0182458,
        -0.0583508,
        -0.0361671,
        0.0250498,
        0.0142099,
        -0.00348083,
        0.0132736,
        -0.000216016,
        0.0400391,
        0.00182812,
        0.00608104,
        0.00120817,
        0.0196606,
        0.0329748,
        -0.0772566,
        0.0581423,
        -0.0535656,
        -0.151072,
        -0.023768,
        0.0808302,
        -0.171092,
        -0.0485606,
        0.0919385,
        0.0156555,
        0.115396,
        -0.054764,
        -0.0850519,
        -0.0320917,
        -0.0968876,
        -0.0967929,
        -0.0102404,
        0.0536272,
        0.00191562,
        0.0111454,
        -0.0111807,
        0.0709165,
        0.0456111,
        0.000860942,
        0.0492484,
        -0.0188377,
        0.0756007,
        -0.0251134,
        -0.0234173,
        0.0502153,
        0.0491511,
        -0.0262318,
        -0.000825904,
        -0.0357434,
        0.0148541,
        -0.0485719,
        -0.077032,
        -0.0264374,
        -0.0983282,
        -0.0703664,
        -0.005774,
        -0.0610746,
        -0.0478701,
        0.0104014,
        -0.0129338,
        0.0549047,
        -0.00171406,
        -8.94762e-05,
        -0.0396335,
        0.0269201,
        -0.0304546,
        0.0155491,
        -0.0253934,
        0.00588418,
        0.0233563,
        -0.0298267,
        0.0190042,
        -0.0165156,
        -0.0254212,
        -0.0303431,
        0.0137147,
        0.0374304,
        0.0544436,
        -0.0104404,
        -0.0273138,
        -0.00803707,
        -0.0533047,
        -0.00758376,
        0.0155681,
        0.0640305,
        -0.0887182,
        -0.0159763,
        -0.0171452,
        0.0173341,
        0.0147273,
        0.0123239,
        0.00462406,
        -0.0475431,
        -0.0327783,
        0.0279011,
        0.122476,
        -0.0193826,
        -0.079077,
        -0.00671296,
        -0.0179883,
        -0.0317669,
        0.0424014,
        0.0118082,
        0.0139549,
        -0.0490542,
        -0.0168867,
        -0.0302633,
        -0.0126862,
        -0.00234294,
        -0.0270268,
        0.0167167,
        0.0645574,
        0.0223641,
        -0.0438883,
        -0.0053412,
        0.0696356,
        0.0584401,
        0.00298818,
        0.0630601,
        0.0899679,
        -0.0266423,
        -0.0313574,
        0.0457003,
        -0.0412508,
        -0.0111061,
        0.034329,
        -0.0171486,
        -0.0241947,
        -0.00321929,
        -0.0420482,
        0.015942,
        -0.0438311,
        0.0478669,
        0.00635504,
        -0.00341089,
        0.0615323,
        0.00978559,
        0.0616994,
        0.0470763,
        0.0275701,
        -0.0276004,
        -0.0540354,
        -0.00240936,
        0.0486776,
        -0.0231478,
        -0.0419542,
        -0.00187492,
        0.00301519,
        -0.0561643,
        0.0452644,
        -0.0417532,
        0.0432199,
        0.0130275,
        -0.0181319,
        -0.0101446,
        0.019928,
        0.0205445,
        0.00090525,
        -0.00195954,
        -0.0422867,
        -0.0434078,
        -0.0190793,
        -0.0217732,
        -0.0141664,
        -0.0204612,
        0.131125,
        0.0504398,
        0.102551,
        0.0325884,
        0.00251647,
        0.0331151,
        0.0595523,
        0.0893888,
        0.0157351,
        0.00731671,
        -0.0154551,
        0.00415523,
        -0.0208237,
        -0.0245445,
        -0.0196921,
        -0.0388827,
        0.0196443,
        0.00990148,
        0.0130349,
        0.0306451,
        -0.0164734,
        -0.0207111,
        -0.010495,
        -0.0421321,
        -0.00870465,
        0.0571958,
        0.0055803,
        -0.128182,
        -0.0747711,
        0.0596943,
        0.0297149,
        0.028585,
        0.0206593,
        0.036432,
        -0.0993054,
        -0.0443364,
        -0.0379127,
        0.0502545,
        0.149115,
        0.0120943,
        -0.0295393,
        0.0340008,
        -0.0149832,
        -0.00601934,
        0.0026089,
        -0.0409327,
        0.0844538,
        0.0523285,
        -0.0343777,
        -0.0457319,
        0.0885218,
        0.05642,
        0.0408217,
        0.0301133,
        -0.14014,
        0.00393246,
        0.137607,
        0.110215,
        0.0274419,
        0.0806242,
        0.147119,
        -0.0246781,
        -0.050871,
        0.0197774,
        0.0505099,
        0.166217,
        0.119324,
        0.0221569,
        -0.0688644,
        -0.01516,
        0.0257276,
        0.0593248,
        -0.00616884,
        -0.0201596,
        0.00508518,
        -0.0413473,
        -0.108162,
        0.0313727,
        -0.00195637,
        -0.0742278,
        -0.0761324,
        -0.0791594,
        -0.100657,
        -0.0681773,
        -0.0453518,
        -0.0193329,
        0.01367,
        -0.196312,
        -0.0477425,
        -0.130148,
        -0.0215934,
        -0.0202492,
        -0.0132636,
        0.0267686,
        -0.0363796,
        0.125974,
        -0.00555512,
        -0.0539568,
        -0.0319163,
        0.0320158,
        -0.0332067,
        -0.0254035,
        -0.142428,
        -0.0418803,
        -0.117674,
        -0.0337441,
        0.0978597,
        -0.0347202,
        0.00603433,
        -0.0904414,
        -0.0956948,
        -0.017952,
        0.0289881,
        -0.0242743,
        0.0671907,
        -0.0849931,
        -0.0316378,
        -0.00924248,
        -0.136161,
        -0.00682898,
        0.0093231,
        -0.0813409,
        0.0831663,
        -0.0936178,
        -0.0681119,
        -0.0901931,
        0.0724842,
        -0.0292561,
        0.00062717,
        0.0103236,
        -0.0472838,
        -0.0734976,
        -0.0811285,
        0.00624454,
        -0.147781,
        -0.0736375,
        -0.0510619,
        -0.119939,
        -0.0973543,
        0.026389,
        -0.151439,
        -0.0788579,
        0.080969,
        -0.0583065,
        0.0839017,
        -0.0258897,
        -0.127009,
        0.0740379,
        -0.0119944,
        0.0278129,
        0.103563,
        -0.0596769,
        -0.13434,
        -0.0213644,
        0.00601532,
        0.0229784,
        -0.145575,
        0.0294764,
        -0.0121135,
        0.0198787,
        -0.0819202,
        0.0885684,
        0.0486817,
        -0.00389272,
        -0.0170077,
        0.0489398,
        -0.172686,
        -0.128212,
        -0.0864791,
        -0.155924,
        -0.104119,
        -0.0811523,
        -0.00593711,
        -0.0165638,
        -0.098962,
        0.0195661,
        -0.0625982,
        -0.0218414,
        -0.195161,
        0.0271056,
        -0.00736186,
        -0.048223,
        -0.0273856,
        -0.0335509,
        -0.052255,
        0.0827647,
        0.0185038,
        0.0179331,
        -0.102488,
        0.152579,
        -0.0235495,
        -0.0313938,
        0.010925,
        0.0561993,
        0.0696995,
        -0.0343673,
        -0.11209,
        -0.105468,
        -0.105526,
        -0.137075,
        -0.230869,
        -0.188939,
        -0.0400805,
        -0.105512,
        0.0163401,
        -0.170911,
        -0.183269,
        -0.00340601,
        -0.0628475,
        0.00383886,
        -0.0269694,
        -0.00511219,
        -0.0174016,
        0.00266406,
        -0.0620778,
        0.0768161,
        0.0305221,
        -0.0249392,
        0.123307,
        0.102372,
        0.153759,
        0.189583,
        0.0982237,
        0.181903,
        -0.0224992,
        0.03302,
        -0.103702,
        -0.00322543,
        -0.0471892,
        -0.0534935,
        -0.0117767,
        -0.0340874,
        0.0249366,
        -0.00191276,
        -0.00932506,
        -0.0536051,
        -0.133375,
        -0.0775349,
        -0.0328945,
        -0.0619915,
        0.0123423,
        -0.00521496,
        -0.0920387,
        -0.0893742,
        0.0339666,
        -0.08211,
        0.120548,
        0.173533,
        0.097263,
        0.0537124,
        0.0196677,
        0.103066,
        0.105944,
        0.0456657,
        0.0377581,
        0.129034,
        0.0617475,
        0.0181739,
        0.108064,
        0.0971141,
        0.0578993,
        -0.0278542,
        -0.111804,
        0.00111369,
        -0.0737582,
        0.0443533,
        0.0127811,
        0.0284943,
        -0.0389454,
        -0.0287954,
        0.104215,
        0.102157,
        0.12279,
        0.0912773,
        0.0935996,
        -0.00345364,
        0.0687557,
        -0.0602794,
        -0.0254351,
        -0.0585639,
        0.136225,
        0.153426,
        0.0989989,
        0.160681,
        0.163896,
        -0.0226191,
        0.0843887,
        -0.0461327,
        0.208082,
        -0.0167284,
        0.263818,
        0.0261319,
        -0.153891,
        -0.105866,
        -0.0634061,
        -0.0051867,
        0.0129188,
        -0.0312202,
        0.108302,
        0.129682,
        -0.0110044,
        -0.0144152,
        0.0438507,
        0.0182938,
        -0.0198605,
        -0.126897,
        -0.076334,
        0.135196,
        0.184565,
        0.112171,
        0.139369,
        0.0487865,
        0.0481525,
        0.122148,
        0.11516,
        -0.067606,
        0.027904,
        0.125104,
        0.0809858,
        -0.0894279,
        0.072142,
        -0.0446368,
        -0.0456739,
        0.00934875,
        -0.0224558,
        0.0379581,
        0.0302172,
        0.0024326,
        0.0460471,
        -7.73505e-05,
        -0.105815,
        0.0726782,
        -0.153658,
        0.0395916,
        0.234348,
        0.0846122,
        0.249243,
        0.235196,
        0.0379502,
        0.181334,
        0.135669,
        0.127284,
        0.0989866,
        0.0260169,
        -0.0110023,
        0.0138143,
        -0.135146,
        -0.166803,
        0.014652,
        0.00350863,
        -0.00149909,
        -0.00639749,
        0.072324,
        -0.0134742,
        -0.0806569,
        0.00153659,
        -0.117439,
        0.0201512,
        -0.0634559,
        -0.120059,
        -0.119309,
        0.0930376,
        0.18187,
        0.254594,
        0.251033,
        0.216102,
        0.0819111,
        0.0705475,
        0.154426,
        0.175054,
        0.0336102,
        -0.0745546,
        -0.101711,
        0.168166,
        -0.0782587,
        -0.223353,
        0.0910231,
        -0.148096,
        -0.0288888,
        0.000461892,
        0.0261715,
        0.003867,
        -0.0409568,
        0.0265428,
        -0.0066285,
        0.228512,
        -0.0945676,
        -0.00283873,
        0.146719,
        0.139053,
        0.25431,
        0.0121251,
        0.174126,
        0.159012,
        0.121331,
        -0.00890958,
        0.206625,
        0.200229,
        -0.144512,
        -0.0522316,
        -0.301028,
        -0.0907418,
        -0.0649338,
        -0.0112836,
        -0.0162567,
        -0.10726,
        -0.0233142,
        0.0256299,
        -0.00104664,
        0.0263919,
        0.0245356,
        -0.0291535,
        -0.0334056,
        -0.0928977,
        0.0686936,
        0.100537,
        0.218442,
        0.160499,
        0.0723815,
        0.191205,
        0.189673,
        0.117965,
        0.289291,
        0.201844,
        0.101759,
        0.0971691,
        -0.0547538,
        -0.00717128,
        -0.183228,
        0.000150095,
        0.0397579,
        0.0459402,
        -0.0992465,
        -0.0498941,
        -0.0259178,
        -0.0361431,
        -0.0743074,
        0.0164869,
        -0.00281976,
        -0.0451883,
        -0.19406,
        0.00238499,
        0.0407755,
        0.0787789,
        0.240497,
        0.0888952,
        0.139129,
        0.145362,
        0.191176,
        0.219139,
        0.165372,
        0.0969779,
        0.0258112,
        -0.0135271,
        -0.047667,
        0.017734,
        -0.0638817,
        -0.197962,
        -0.00774682,
        0.095677,
        -0.0733562,
        -0.0310371,
        -0.0348533,
        -0.0502963,
        -0.0204374,
        -0.0462262,
        0.0637708,
        -0.0572602,
        -0.167436,
        -0.120593,
        0.131822,
        0.0953905,
        0.320213,
        0.330805,
        0.265927,
        0.075605,
        0.0440523,
        0.0654703,
        -0.0203079,
        0.127123,
        -0.0834424,
        0.0516681,
        -0.0213555,
        -0.099976,
        -0.0531299,
        -0.0293331,
        0.104701,
        0.121857,
        -0.0161177,
        -0.00245071,
        -0.011804,
        0.0218428,
        -0.0151643,
        -0.0806947,
        -0.0662747,
        -0.0340216,
        -0.0985734,
        -0.118948,
        -0.0682521,
        -0.046451,
        0.0293212,
        -0.00920619,
        0.0117345,
        -0.0912587,
        -0.236176,
        -0.115051,
        -0.124231,
        -0.113517,
        -0.143444,
        -0.0729432,
        -0.0218057,
        0.0723894,
        -0.0688929,
        -0.0229046,
        0.0172556,
        0.1082,
        0.0146241,
        -0.0136088,
        0.0117972,
        -0.0149208,
        -0.0515104,
        -0.0497767,
        0.0466646,
        -0.0450322,
        -0.117545,
        -0.0563984,
        0.0166952,
        -0.10196,
        -0.13217,
        -0.206309,
        -0.329113,
        -0.279801,
        -0.219227,
        -0.209452,
        -0.299813,
        -0.311628,
        -0.1775,
        -0.176377,
        -0.0617019,
        -0.0672999,
        -0.00721598,
        -0.072385,
        -0.103438,
        0.0441366,
        -0.0254714,
        -0.0173831,
        -0.0194847,
        0.0675953,
        0.009911,
        -0.0965033,
        -0.0438515,
        -0.0235571,
        -0.0914102,
        -0.182611,
        -0.157656,
        -0.158866,
        -0.175422,
        -0.131642,
        -0.219595,
        -0.162331,
        -0.0712409,
        -0.0654253,
        -0.125087,
        -0.142361,
        -0.118279,
        -0.108172,
        -0.0505411,
        -0.0197405,
        0.118901,
        0.0376789,
        0.0430198,
        -0.00915932,
        -0.0459102,
        0.0477221,
        -0.0621084,
        0.0202225,
        0.00197765,
        -0.0286159,
        -0.0195614,
        -0.176015,
        -0.0729252,
        -0.230674,
        -0.102073,
        -0.0529073,
        -0.0195596,
        -0.0496546,
        -0.216915,
        -0.127504,
        -0.182543,
        -0.118481,
        -0.061199,
        -0.0637094,
        -0.0471351,
        0.0512197,
        -0.0693728,
        0.0235464,
        0.00098132,
        0.0171375,
        0.0262132,
        0.00461268,
        -0.00157581,
        -0.0199849,
        -0.00243808,
        -0.0303806,
        -7.37255e-05,
        0.0225102,
        -0.0406684,
        -0.0226208,
        -0.119687,
        -0.0217271,
        -0.082572,
        -0.0430118,
        0.0838863,
        -0.140628,
        -0.0426079,
        -0.1975,
        -0.107868,
        -0.0821736,
        0.0240743,
        0.107586,
        -0.113635,
        -0.102366,
        0.0415002,
        0.0964911,
        -0.0311506,
        0.0627155,
        0.0486043,
        -0.0287891,
        -0.0378729,
        0.0142437,
        0.0152361,
        -0.034824,
        0.0613832,
        -0.0126925,
        -0.00840423,
        -0.112227,
        0.0261286,
        -0.0333809,
        -0.138966,
        -0.118031,
        -0.0319174,
        -0.0282781,
        -0.207284,
        -0.107359,
        -0.152727,
        0.0228842,
        0.00960358,
        -0.0570984,
        -0.119325,
        0.0358834,
        -0.0705812,
        -0.0963781,
        -0.040748,
        -0.0635833,
        -0.0443522,
        0.000632241,
        0.0573661,
        -0.0600075,
        0.0123053,
        -0.0146975,
        0.0139344,
        -0.0422722,
        0.0120225,
        0.0575553,
        0.114751,
        0.068325,
        -0.000611552,
        0.0795444,
        0.0272343,
        -0.0251947,
        -0.0129311,
        -0.0496454,
        -0.0698801,
        0.016657,
        -0.130329,
        0.0100208,
        0.139776,
        0.118984,
        -0.0596684,
        -0.0515529,
        -0.0157237,
        -0.0345225,
        -0.0502727,
        -0.0439095,
        -0.0544064,
        -0.0060361,
        0.0397178,
        -0.0272106,
        0.00861538,
        0.0556477,
        0.0150755,
        -0.0582845,
        0.0191563,
        -0.0459962,
        -0.0227061,
        0.00921586,
        0.00775507,
        0.0204664,
        -0.0233949,
        0.0250971,
        -0.0145012,
        -0.0118443,
        0.00120151,
        -0.0610391,
        -0.00253099,
        0.0405681,
        -0.0345715,
        0.0047328,
        0.0071937,
        -0.0101676,
        -0.0209684,
        0.00427984,
        0.0212673,
        0.0310372,
        -0.0821002,
        -0.194251,
        0.0239857,
        -0.0155961,
        0.0192899,
        -0.0274281,
        0.0174797,
        -0.0104978,
        -0.00960376,
        -0.0286564,
        0.0180654,
        0.0264156,
        0.0220558,
        0.00536352,
        -0.0192803,
        -0.0120606,
        -0.0618481,
        0.022459,
        -0.0083931,
        -0.0357158,
        -0.00789247,
        -0.0415103,
        -0.0293519,
        -0.0188359,
        -0.0336029,
        0.00210549,
        -0.0310229,
        0.019326,
        0.0264163,
        0.0292554,
        -0.0524644,
        -0.0467051,
        -0.0452442,
        -0.0186824,
        -0.0352172,
        -0.0286432,
        -0.0340182,
        -0.0106056,
        0.0149794,
        -0.00350909,
        0.0222178,
        -0.0265947,
        -0.070424,
        0.0355954,
        0.0318228,
        -0.0382422,
        0.0402386,
        0.0317866,
        -0.00500239,
        0.0116425,
        -0.0185337,
        -0.0212345,
        0.0189681,
        -0.0035366,
        0.0215491,
        -0.0113289,
        -0.0412178,
        0.0468073,
        -0.0441462,
        0.00655928,
        -0.0234677,
        0.041488,
        0.0130539,
        -0.0382389,
        -0.00912169,
        -0.00868928,
        -0.0187316,
        -0.0248344,
        -0.0727791,
        -0.0675638,
        0.0111696,
        -0.132745,
        -0.120456,
        -0.0788882,
        -0.139981,
        -0.0951621,
        -0.000405891,
        -0.0933739,
        -0.0600891,
        -0.0157675,
        -0.099936,
        0.0298546,
        -0.0172265,
        0.016007,
        -0.0217058,
        0.0216279,
        -0.00312314,
        -0.0616264,
        -0.000190147,
        0.00311821,
        0.0055244,
        0.0473113,
        -0.0154097,
        -0.0726117,
        -0.12011,
        -0.0819722,
        0.0482966,
        -0.0525441,
        -0.0689422,
        -0.0273559,
        0.0215646,
        -0.0402355,
        -0.0682969,
        -0.0573123,
        -0.143283,
        -0.131221,
        -0.047742,
        -0.00263238,
        -0.0330117,
        -0.0682975,
        -0.0228268,
        0.00809289,
        -0.0169107,
        -0.0497624,
        0.015631,
        -0.011448,
        -0.0186256,
        0.011768,
        0.0134836,
        -0.0444016,
        -0.10817,
        -0.0794023,
        -0.0981538,
        -0.116073,
        -0.183835,
        -0.0364113,
        -0.00621636,
        -0.0109381,
        -0.109268,
        -0.0486792,
        -0.00727939,
        -0.0743363,
        -0.00813902,
        -0.016851,
        -0.0222115,
        0.0166084,
        -0.0706025,
        0.0245833,
        0.000260326,
        -0.0327866,
        0.00738467,
        0.0344592,
        -0.0267004,
        0.023657,
        0.0522748,
        0.00273777,
        -4.15348e-05,
        -0.0378453,
        0.0186702,
        -0.0536598,
        0.070229,
        0.0632482,
        -0.0215458,
        0.0608299,
        -0.12583,
        0.0579754,
        0.0149829,
        -0.0269332,
        0.0197054,
        -0.00274576,
        0.0469053,
        -0.105531,
        -0.120836,
        -0.0959944,
        -0.0395975,
        -0.0816758,
        -0.0776424,
        -0.0513517,
        -0.0348311,
        -0.0183188,
        -0.0371292,
        0.0265705,
        0.0687522,
        -0.0553271,
        -0.072727,
        0.0743593,
        -0.0494117,
        -0.0635215,
        -0.0421786,
        -0.0671506,
        -0.0366885,
        0.0554455,
        0.0274394,
        0.103058,
        0.183373,
        0.00813397,
        0.00213849,
        -0.00887843,
        -0.126833,
        -0.0484481,
        -0.0273877,
        0.00106777,
        0.0365439,
        -0.0859065,
        -0.0547764,
        -0.0529387,
        -0.0336889,
        -0.01636,
        -0.0500008,
        -0.0845437,
        -0.0295523,
        -0.040918,
        -0.0428095,
        0.0384577,
        0.0347815,
        -0.0943991,
        -0.063268,
        -0.05034,
        -0.0416465,
        0.0418299,
        0.0528873,
        0.101318,
        -0.0886562,
        -0.157407,
        -0.0983893,
        -0.096042,
        -0.0989483,
        -0.0338013,
        -0.0060601,
        -0.0517314,
        -0.00750147,
        0.0661587,
        -0.0134435,
        -0.0469552,
        -0.063786,
        -0.00601622,
        0.0178375,
        0.0274318,
        0.0463958,
        0.022261,
        -0.104114,
        -0.0357127,
        -0.0472172,
        -0.0160984,
        -0.063344,
        -0.027266,
        -0.122408,
        -0.0251749,
        0.0917604,
        -0.0223986,
        0.0313913,
        -0.0137775,
        -0.00719936,
        -0.0829926,
        0.00936439,
        -0.0166389,
        0.0685549,
        -0.0625049,
        -0.0666698,
        0.00819675,
        -0.0988054,
        -0.0159243,
        -0.00932983,
        -0.0507493,
        0.0309702,
        -0.0153768,
        -0.00748548,
        0.0336022,
        -0.049839,
        0.00650334,
        0.0806128,
        -0.0170048,
        -0.0673643,
        -0.11534,
        0.0270646,
        -0.0107141,
        0.084967,
        0.0294382,
        0.0408072,
        -0.0446617,
        -0.0490223,
        -0.10678,
        -0.0252272,
        0.0447164,
        0.0972743,
        0.0548341,
        -0.0208945,
        0.0366893,
        -0.0641618,
        -0.0452866,
        -0.00798635,
        0.0112933,
        -0.0225617,
        0.0287821,
        -0.00312655,
        -0.0692923,
        0.0323447,
        0.0855329,
        -0.00585744,
        0.0467964,
        0.0441996,
        0.0118314,
        0.0182575,
        0.0929572,
        0.0698849,
        0.212587,
        0.0761104,
        0.0596463,
        -0.00776003,
        0.024587,
        0.0643691,
        0.0334208,
        0.0923894,
        0.0100735,
        0.122743,
        -0.00202984,
        0.0571035,
        0.0286296,
        -0.0195065,
        0.00737624,
        -0.0135776,
        -0.00772343,
        -0.0292028,
        0.0115083,
        -0.0358628,
        -0.0407661,
        0.0432606,
        0.00155472,
        -0.0570742,
        -0.0031937,
        0.0611374,
        0.0715498,
        0.122587,
        0.0791745,
        0.0396193,
        -0.057957,
        -0.0808107,
        -0.0484733,
        -0.00798293,
        0.0843077,
        0.016944,
        0.0917553,
        0.0847416,
        -0.0204832,
        -0.108379,
        -0.0331263,
        0.0254325,
        0.0301195,
        0.0229716,
        -0.031466,
        -0.0196814,
        0.0480419,
        -0.0455164,
        -0.0734054,
        -0.00716389,
        -0.0827092,
        0.0617484,
        -0.0240989,
        0.0221379,
        0.0293031,
        0.0520197,
        0.0189733,
        0.00190127,
        0.0137809,
        -0.079806,
        -0.0373008,
        -0.00119535,
        0.116084,
        0.0364522,
        0.00413643,
        0.0297241,
        -0.0829505,
        -0.0431082,
        0.0329901,
        0.045744,
        0.0100141,
        0.0529315,
        0.0485841,
        -0.00852687,
        -0.0228634,
        -0.00335118,
        -0.0362429,
        -0.0293604,
        -0.00529784,
        -0.0591732,
        0.0190498,
        0.0676468,
        -0.0565693,
        0.0742386,
        0.0105506,
        0.066661,
        0.026166,
        -0.159293,
        -0.127982,
        0.0465968,
        0.0040286,
        0.0079557,
        0.0489361,
        -0.00909046,
        -0.0167024,
        -0.0256609,
        0.0186245,
        0.0307773,
        -0.00753567,
        0.0312488,
        -0.0494371,
        -0.0295168,
        0.0375844,
        0.0257259,
        0.0438732,
        0.0100007,
        0.161955,
        0.0568391,
        -0.0144055,
        0.0313229,
        0.0760505,
        0.156732,
        0.157293,
        -0.00378757,
        -0.0392679,
        -0.165289,
        -0.0904657,
        0.00571417,
        0.132382,
        0.0256378,
        0.0701605,
        0.0436623,
        0.0334437,
        0.0656122,
        -0.0589044,
        -0.0931699,
        -0.0457486,
        -0.00648486,
        -0.118826,
        -0.0232378,
        0.00531452,
        0.00336553,
        0.0193336,
        0.0645456,
        0.0263216,
        -0.0213835,
        0.0551996,
        0.0920007,
        -0.0111817,
        0.127004,
        0.0819664,
        0.019867,
        0.111655,
        -0.118487,
        -0.0713391,
        0.099831,
        -0.0165697,
        -0.0488627,
        0.0208819,
        0.046455,
        0.0783393,
        0.0343872,
        -0.0598271,
        -0.0324456,
        -0.01596,
        0.0207525,
        -0.0186527,
        -0.0292644,
        -0.00113184,
        0.0435082,
        -0.000518941,
        -0.104779,
        0.0453419,
        0.0913323,
        -0.0259692,
        -0.0898432,
        0.061931,
        0.102326,
        0.12994,
        0.0224005,
        0.0425888,
        -0.00632831,
        0.0609437,
        -0.0607159,
        -0.0223976,
        -0.00525058,
        -0.05942,
        0.0329813,
        0.0643422,
        -0.0738896,
        -0.145371,
        -0.00712786,
        0.0424056,
        -0.00097053,
        0.0421139,
        -0.00667238,
        -0.0290329,
        0.0296602,
        0.0172524,
        -0.00100575,
        -0.00477806,
        -0.143225,
        -0.123935,
        -0.0753533,
        -0.101035,
        0.0599911,
        0.0446505,
        0.0361412,
        -0.0246667,
        -0.0356485,
        0.0317904,
        0.0185935,
        -0.0620857,
        -0.0285064,
        -0.0220899,
        0.0378739,
        0.010576,
        0.0164586,
        -0.0988546,
        0.0390075,
        -0.0344255,
        -0.0216153,
        0.00599384,
        0.00678952,
        -0.0216009,
        0.0536843,
        0.0707707,
        0.00697647,
        -0.0307906,
        -0.0223616,
        -0.110737,
        -0.167667,
        -0.00766996,
        -0.0740027,
        -0.0128525,
        0.0320039,
        -0.0119544,
        0.11105,
        -0.00873292,
        -0.0426126,
        -0.0627029,
        -0.0298242,
        0.0216621,
        0.085289,
        -0.0344511,
        -0.0542496,
        -0.0329257,
        0.0418445,
        0.0088409,
        0.0201724,
        0.0416131,
        0.0204016,
        -0.0344512,
        0.0241163,
        0.0376266,
        -0.0552016,
        -0.0674216,
        -0.0248539,
        -0.180213,
        -0.187657,
        0.00876813,
        0.0638326,
        0.0109053,
        -0.0128843,
        -0.0520967,
        -0.0318824,
        -0.056685,
        -0.10366,
        -0.104129,
        -0.0376758,
        0.0500106,
        0.00389767,
        -0.109644,
        0.0848658,
        -0.0766817,
        0.00207917,
        -0.0718974,
        -0.0361687,
        0.0642276,
        0.0435261,
        -0.0549735,
        -0.0271725,
        -0.0160651,
        -0.0163991,
        -0.129486,
        0.00230598,
        -0.0351604,
        -0.0666947,
        -0.00669302,
        0.0413079,
        -0.00796221,
        -0.113541,
        -0.0404167,
        -0.0118558,
        0.0667544,
        0.0239805,
        -0.0121317,
        -0.0688287,
        -0.0259781,
        -0.00804985,
        -0.120808,
        -0.0412061,
        -0.0129804,
        -0.0271705,
        -0.0221447,
        0.0383245,
        -0.00261594,
        0.0141353,
        -0.0208182,
        -0.10675,
        -0.0524891,
        -0.07657,
        0.00162082,
        0.0488233,
        -0.00178368,
        0.0260703,
        0.0137763,
        -0.0998292,
        -0.118101,
        -0.0906486,
        -0.0137126,
        -0.0336728,
        -0.0726797,
        0.0261292,
        -0.0585772,
        -0.121465,
        0.0611375,
        -0.0153129,
        -0.00496089,
        0.0100663,
        0.0496766,
        0.0300683,
        0.0258669,
        -0.00838456,
        0.0101307,
        0.0619488,
        0.0238026,
        -0.0887336,
        -0.00982192,
        -0.00331966,
        0.0181277,
        0.0365525,
        0.0755105,
        0.0100481,
        -0.0323861,
        0.0273994,
        -0.0933852,
        -0.099255,
        -0.0321742,
        -0.108829,
        -0.0654417,
        -0.0690748,
        0.0109424,
        -0.0634486,
        -0.00879739,
        0.049102,
        0.00406821,
        -0.0190334,
        0.00688344,
        -0.0487183,
        0.0389781,
        0.0542528,
        0.0737962,
        -0.0838367,
        -0.0587071,
        0.00322043,
        0.00651746,
        0.0709048,
        0.120834,
        0.0379707,
        0.0486294,
        0.0619661,
        -0.0125455,
        -0.0445562,
        -0.0621576,
        -0.0255379,
        -0.112863,
        -0.0625858,
        0.0113527,
        -0.0492245,
        -0.0385235,
        -0.0750998,
        -0.0138458,
        -0.0961291,
        -0.0657245,
        0.0389082,
        0.0388005,
        0.0104014,
        0.00819164,
        -0.012057,
        -0.0454393,
        -0.0467507,
        0.0103744,
        0.0274602,
        0.0998017,
        -0.0211119,
        0.0243743,
        0.0449617,
        0.0405073,
        0.038698,
        -0.0248353,
        0.0262143,
        0.0656752,
        0.141452,
        -0.0111611,
        -0.0511096,
        0.0283398,
        0.00605058,
        -0.0076849,
        -0.112667,
        -0.0370844,
        -0.0692669,
        -0.0648853,
        0.0441858,
        -0.0701505,
        -0.0255121,
        -0.0262763,
        0.00296129,
        0.0204972,
        -0.00213195,
        -0.0320222,
        0.0625603,
        0.0517884,
        -0.133129,
        -0.0141872,
        -0.0434778,
        -0.0809103,
        -0.0697355,
        -0.0182752,
        -0.0992832,
        -0.0250147,
        -0.139907,
        0.0322679,
        -0.0371399,
        -0.083988,
        -0.0817153,
        -0.116898,
        -0.0139738,
        0.0257982,
        0.00980256,
        -0.0665207,
        0.0035927,
        0.0224876,
        0.027777,
        0.106664,
        -0.0130799,
        -0.00112249,
        0.0132234,
        0.0465006,
        -0.00362697,
        -0.0480994,
        0.0182794,
        -0.057448,
        0.00747805,
        -0.0896171,
        -0.0647134,
        -0.0591562,
        -0.0680064,
        -0.0222024,
        -0.113283,
        -0.0310335,
        -0.0518242,
        -0.0995079,
        -0.0594479,
        -0.0408803,
        -0.0959877,
        -0.0843683,
        -0.078869,
        -0.0371981,
        -0.0066309,
        -0.00541636,
        -0.0462993,
        0.00461231,
        -0.00283644,
        -0.024507,
        -0.029998,
        -0.080652,
        -0.0100538,
        -0.000612346,
        -0.0194145,
        0.0634104,
        0.00709039,
        0.0157884,
        0.0517271,
        -0.0182351,
        0.0325808,
        -0.121422,
        -0.0735601,
        -0.0218382,
        0.00472763,
        0.0763007,
        -0.0280891,
        0.040581,
        0.00259856,
        -0.075367,
        -0.0449239,
        -0.0511042,
        0.0179888,
        -0.0290572,
        0.0225031,
        -0.0160809,
        0.715562,
        -0.0368628,
        0.0590145,
        -0.0255144,
        -0.0160694,
        0.0306107,
        0.0444755,
        -0.0441222,
        -0.0248596,
        -0.0923529,
        -0.0601035,
        0.00494256,
        -0.0525818,
        0.0420784,
        -0.0280913,
        0.00874552,
        0.0241511,
        -0.0194927,
        -0.0439058,
        -0.0260788,
        0.0132142,
        0.00938916,
        0.0666995,
        -0.000824666,
        0.02826,
        0.000587865,
        -0.00363683,
        0.0233154,
        0.00871414,
        0.0864447,
        0.0216089,
        -0.0211522,
        -0.0143898,
        0.0317254,
        -0.0520942,
        0.0400093,
        0.0391881,
        -0.0240383,
        0.000285184,
        0.0445783,
        0.06092,
        0.0338231,
        0.0632959,
        0.00065541,
        0.0316025,
        -0.0151398,
        0.0249872,
        -0.00512033,
        0.0164037,
        -0.0271513,
        0.00890909,
        -0.0122743,
        -0.0180322,
        0.0690726,
        -0.00931263,
        0.0355621,
        0.0347202,
        0.00034667,
        0.0180661,
        -0.0218569,
        0.0281227,
        0.0200369,
        -0.0725519,
        -0.00206821,
        -0.0222908,
        0.0154773,
        0.060425,
        0.0410496,
        0.0100016,
        -0.0121974,
        0.00779479,
        0.000619307,
        0.0700098,
        -0.0433264,
        0.0688952,
        0.00797989,
        0.0271687,
        0.0251486,
        -0.0375197,
        0.00368581,
        -0.0396815,
        0.0100825,
        0.038737,
        -0.00973583,
        -0.0656371,
        0.0142827,
        0.0300549,
        0.00284564,
        -0.00955805,
        -0.0294456,
        0.0141872,
        0.0336109,
        0.0367307,
        -0.027973,
        0.0972775,
        -0.0193598,
        -0.0922029,
        -0.013819,
        0.00922535,
        -0.0297381,
        0.0663024,
        0.000765081,
        -0.00304671,
        0.0826214,
        0.0452622,
        -0.00182289,
        0.0854929,
        0.0888855,
        0.00732592,
        -0.0103149,
        0.0146961,
        -0.0128258,
        0.002312,
        0.0514434,
        -0.0486689,
        -0.00354749,
        -0.0766086,
        -0.0882611,
        -0.00461504,
        -0.0203587,
        0.06995,
        -0.0501996,
        0.0448937,
        -0.00694463,
        -0.043318,
        -0.0361705,
        -0.0952487,
        0.0307373,
        0.000102774,
        -0.0311571,
        -0.0352632,
        0.0165357,
        0.111285,
        0.00681575,
        0.00299151,
        0.0668673,
        0.0148828,
        0.0117723,
        -0.040161,
        0.0284281,
        -0.0132565,
        0.0295541,
        -0.00653921,
        0.0223913,
        -0.00166931,
        0.0417974,
        -0.0373497,
        -0.0256303,
        -0.0604642,
        -0.0342095,
        -0.0937758,
        -0.0605707,
        -0.0865915,
        -0.0135833,
        -0.0706143,
        0.0321591,
        -0.00963727,
        0.0940563,
        0.055614,
        0.0131864,
        0.0683295,
        0.0922842,
        0.0937729,
        0.126909,
        0.0703402,
        0.0807507,
        0.043049,
        0.0312375,
        -0.0421914,
        -0.0460682,
        0.0308283,
        0.00130012,
        -0.0129169,
        -0.0620114,
        0.0160028,
        -0.00115522,
        -0.0367859,
        -0.0788832,
        -0.0604125,
        -0.0521594,
        -0.12932,
        0.0155015,
        -0.0254936,
        0.00320764,
        0.0101567,
        -0.00585207,
        -0.00311105,
        -0.0537181,
        0.00582185,
        0.0588242,
        -0.0350878,
        0.113189,
        0.0585264,
        0.107465,
        0.0223486,
        0.049894,
        0.0658605,
        0.042334,
        0.0254958,
        -0.049066,
        -0.0323243,
        0.0559099,
        -0.0403829,
        -0.0633692,
        0.0501525,
        0.0192073,
        -0.0251913,
        -0.0661631,
        -0.109077,
        0.0275497,
        0.0328501,
        0.0940102,
        0.0751278,
        -0.0117425,
        -0.042242,
        -0.048543,
        -0.0670981,
        -0.0276868,
        0.0504586,
        -0.0919159,
        -0.0539317,
        0.0121534,
        0.027152,
        0.066307,
        -0.0686348,
        -0.00680977,
        0.0273144,
        0.000657117,
        6.81462e-05,
        -0.0139787,
        -0.0451107,
        -0.0357568,
        -0.0012056,
        -0.00990963,
        -0.0910185,
        -0.0325228,
        -0.053053,
        -0.0632391,
        0.0323259,
        -0.0191232,
        -0.0408805,
        -0.154631,
        -0.00575173,
        -0.0552995,
        -0.0330026,
        -0.0431337,
        -0.0589762,
        -0.160635,
        -0.0233637,
        -0.0425617,
        0.0724308,
        0.026856,
        0.00389897,
        -0.0116863,
        -0.0515106,
        -0.0923778,
        -0.0560591,
        -0.0329532,
        -0.115311,
        -0.010563,
        0.0383323,
        0.0432424,
        0.0208306,
        -0.0660844,
        -0.050873,
        -0.0732808,
        -0.0315019,
        -0.036757,
        -0.0790039,
        -0.0806256,
        -0.0888228,
        -0.0194787,
        -0.174537,
        -0.184211,
        -0.128595,
        -0.0800301,
        -0.144509,
        0.0194859,
        0.0201785,
        0.0611601,
        0.00530344,
        0.061366,
        0.0143807,
        -0.0400794,
        -0.0791886,
        0.0349032,
        -0.064374,
        -0.0534479,
        0.000935995,
        0.0822873,
        -0.069695,
        0.0454156,
        0.00233355,
        0.0680994,
        -0.0570662,
        -0.0790555,
        -0.0734468,
        -0.0582116,
        -0.0458176,
        -0.124248,
        -0.0741229,
        -0.0380775,
        -0.102711,
        -0.181652,
        -0.0426968,
        0.0103196,
        0.0225721,
        -0.0573223,
        -0.0258919,
        0.0265815,
        -0.0591423,
        -0.0384869,
        -0.0590456,
        0.042388,
        0.0336704,
        0.0447213,
        -0.0622239,
        -0.0950226,
        -0.0181965,
        -0.0502888,
        -0.0337245,
        -0.0156859,
        -0.0117356,
        -0.0624498,
        -0.0172411,
        0.0829971,
        0.0378531,
        0.0263316,
        0.0383305,
        -0.103381,
        -0.0618206,
        -0.0768905,
        -0.035777,
        -0.0151745,
        0.0309177,
        -0.022129,
        -0.00557265,
        0.0397355,
        0.0193362,
        0.0182534,
        -0.0660492,
        0.0215225,
        -0.0510481,
        0.021987,
        -0.00567854,
        -0.0153302,
        -0.0252018,
        -0.0810589,
        -0.03094,
        -0.0297428,
        -0.0254956,
        0.0494963,
        0.00378322,
        0.0695562,
        0.0735136,
        -0.013715,
        -0.0598241,
        0.0454906,
        -0.0261608,
        -0.0193454,
        -0.0751413,
        -0.0369215,
        0.068473,
        -0.0348343,
        -0.0288985,
        -0.00958464,
        -0.0417674,
        -0.0396567,
        -0.0284365,
        -0.0659026,
        -0.0140382,
        -0.0430962,
        0.0432383,
        -0.121512,
        0.000192092,
        -0.0353602,
        0.0317165,
        0.0302315,
        0.0117597,
        -0.0136865,
        0.0280972,
        -0.0101687,
        -0.0477009,
        -0.038355,
        0.0844766,
        0.101696,
        -0.0124455,
        -0.0668615,
        0.0102379,
        -0.00511282,
        -0.0489918,
        -0.0132044,
        -0.0557777,
        0.000220839,
        0.00395975,
        -0.0135029,
        0.00448423,
        0.0710357,
        -0.00403477,
        0.0154685,
        0.0086213,
        0.000474032,
        -0.0459524,
        0.00707459,
        0.000341005,
        -0.0236509,
        0.0121544,
        0.115645,
        0.0554049,
        0.0827399,
        0.024936,
        -0.0605974,
        -0.00317596,
        0.0148619,
        -0.00145557,
        0.00440097,
        0.0287855,
        0.0213394,
        0.0539981,
        -0.0051005,
        -0.013407,
        -0.0517352,
        -0.0385486,
        0.00721627,
        0.0313588,
        -0.0323034,
        -0.0521455,
        0.079289,
        0.0512136,
        0.0585098,
        -0.0258836,
        0.0197044,
        0.103226,
        0.142617,
        0.0625394,
        0.0632892,
        -0.0260135,
        0.0738006,
        -0.0225002,
        -0.0759378,
        -0.0707305,
        -0.0430828,
        -0.0390098,
        -0.0646992,
        -0.0689647,
        0.0316551,
        0.107576,
        0.0290329,
        -0.0592183,
        -0.00890986,
        -0.0221608,
        0.0126076,
        -0.00658808,
        -0.0959784,
        0.0132264,
        -0.0486262,
        0.0037676,
        -0.0402687,
        -0.00220416,
        0.0295974,
        0.159383,
        0.131595,
        0.167629,
        0.0631765,
        0.0432594,
        0.0297029,
        -0.0354931,
        -0.0673288,
        0.0232302,
        -0.0530628,
        -0.0242114,
        -0.01972,
        -0.0249499,
        0.0639936,
        0.0296251,
        0.0108031,
        -0.0421619,
        -0.0750598,
        -0.0400208,
        0.0114753,
        0.0606087,
        -0.0317403,
        -0.0593377,
        0.059462,
        -0.149336,
        0.051994,
        0.0208164,
        -0.0261152,
        0.0364665,
        0.0857013,
        0.151618,
        0.0843651,
        0.137771,
        0.0834625,
        -0.0750048,
        -0.0187246,
        0.0306371,
        0.0780061,
        0.0459979,
        0.0371693,
        0.0188162,
        0.0551771,
        0.0966362,
        -0.0547542,
        0.0251407,
        -0.00480052,
        0.047979,
        -0.0413474,
        0.0282121,
        0.0243807,
        0.041475,
        -0.0487705,
        -0.0508401,
        -0.0549261,
        -0.0472936,
        -0.00300249,
        -0.0380436,
        0.0279552,
        0.0113528,
        -0.017388,
        0.00883278,
        0.034316,
        -0.0226096,
        0.123371,
        0.0517378,
        0.0797748,
        -0.0101,
        -0.0245094,
        0.0904813,
        0.0972023,
        -0.002724,
        0.00490869,
        0.0061107,
        0.000806339,
        0.0218136,
        0.0216473,
        -0.0321289,
        -0.0214341,
        -0.0340151,
        0.073552,
        -0.027904,
        -0.00235779,
        0.022964,
        0.0021283,
        0.0167259,
        -0.121795,
        -0.0435954,
        0.00770104,
        -0.00466832,
        0.0763628,
        0.0217188,
        -0.0276348,
        0.0134862,
        0.000176695,
        0.0571726,
        -0.0575145,
        0.0728071,
        -0.0220551,
        0.0566762,
        0.00796262,
        0.0331906,
        0.0485424,
        -0.0129491,
        0.0256305,
        -0.0465789,
        -0.00942923,
        -0.0715731,
        0.0191076,
        0.0597559,
        -0.0210107,
        -0.00842078,
        -0.0435631,
        0.0688631,
        -0.0258523,
        -0.0723302,
        -0.00620842,
        0.0218196,
        0.0629966,
        0.0194591,
        0.10568,
        0.027762,
        0.0553137,
        0.0313995,
        0.0654941,
        0.0627409,
        0.0454209,
        0.0451902,
        0.0390658,
        -0.0389199,
        -0.0306613,
        -0.0383284,
        0.00967832,
        -0.0187184,
        -0.00331483,
        -0.038148,
        0.0842781,
        -0.0108934,
        0.00743251,
        0.038763,
        0.0116683,
        -0.010966,
        0.0132885,
        0.0252302,
        0.073862,
        -0.0155074,
        -0.0623973,
        0.0133155,
        0.12059,
        -0.00443405,
        0.0478636,
        0.0291834,
        0.0415966,
        0.00114147,
        0.103221,
        -0.0296531,
        -0.0873549,
        -0.0436001,
        0.00180107,
        0.0296465,
        0.0474851,
        0.0525753,
        0.0704364,
        0.0071657,
        -0.0104947,
        0.00748414,
        -0.0574008,
        -0.0359691,
        0.0957096,
        0.0322797,
        -0.0563904,
        0.0197169,
        0.0298992,
        0.0634929,
        -0.00996395,
        0.0322329,
        0.121358,
        0.0150846,
        0.0586302,
        0.129083,
        -0.045364,
        0.00875791,
        0.0291692,
        -0.00369569,
        0.0113357,
        0.0141281,
        -0.0126651,
        -0.000171447,
        0.0589398,
        0.0313556,
        0.0482605,
        0.0330439,
        0.0228815,
        -0.113696,
        -0.0258821,
        0.0252993,
        -0.0490587,
        -0.0407713,
        0.0441289,
        -0.0205963,
        0.0281917,
        0.0683703,
        0.0548152,
        -0.00556245,
        0.00329332,
        0.0911266,
        0.0811104,
        -0.0298614,
        0.031,
        -0.0287642,
        -0.0381494,
        0.010508,
        0.0305249,
        0.0235267,
        0.0129614,
        0.0424478,
        -0.0547309,
        0.0144627,
        -0.139956,
        -0.101912,
        -0.0641266,
        -0.0577631,
        -0.114423,
        0.0206503,
        -0.0561316,
        -0.0102228,
        -0.029728,
        -0.062107,
        0.00114199,
        -0.0356572,
        -0.0193509,
        0.0575759,
        0.0221834,
        0.0120732,
        0.00302296,
        0.00903238,
        -0.000560382,
        0.0463429,
        -0.0261934,
        -0.0247857,
        -0.0179842,
        0.00258914,
        0.019138,
        0.0229548,
        -0.026978,
        0.0854328,
        -0.0607037,
        -0.0142177,
        -0.0752378,
        0.000928839,
        -0.081642,
        0.0141369,
        -0.0437126,
        -0.0776412,
        0.0287039,
        -0.0719093,
        0.0691356,
        -0.00489377,
        -0.0844371,
        -0.0195369,
        -0.0276454,
        -0.0315845,
        -0.0559735,
        -0.00877497,
        0.0623187,
        -0.0161383,
        0.0972193,
        -0.0177748,
        0.0485786,
        -0.0254823,
        -0.0248532,
        -0.0434243,
        -0.00025856,
        0.0409491,
        -0.0821559,
        0.0378644,
        0.0194015,
        -0.0203749,
        0.00339784,
        -0.104201,
        -0.0119421,
        -0.0116668,
        -0.132216,
        -0.198012,
        -0.0940982,
        -0.0407448,
        -0.0436281,
        -0.0857687,
        -0.0491964,
        -0.0204784,
        -0.0331797,
        6.62195e-05,
        -0.00125497,
        0.0161683,
        -0.0531983,
        0.0038125,
        0.0829357,
        0.0306497,
        -0.0075853,
        0.0226128,
        0.0277704,
        -0.0241872,
        -0.030684,
        -0.0153395,
        0.0192953,
        -0.0415672,
        0.0117323,
        -0.0333963,
        -0.00944618,
        0.0251233,
        -0.0679911,
        -0.0413288,
        0.0464008,
        -0.0508093,
        -0.013535,
        -0.00564829,
        -0.0520282,
        -0.00683824,
        -0.00762619,
        -0.00311701,
        -0.0282177,
        0.051977,
        -0.0196687,
        0.0136114,
        -0.00158122,
        0.0252709,
        0.0627298,
        0.0057276,
        0.0265913,
        -0.0546326,
        -0.00329215,
        -0.0213976,
        0.012298,
        0.0188236,
        0.0687083,
        0.0431144,
        0.0307717,
        0.0484258,
        0.0169905,
        -0.0321291,
        0.013271,
        0.0315575,
        -0.0126975,
        -0.0408179,
        -0.0411242,
        0.0637473,
        0.0357224,
        0.0109219,
        0.0255876,
        0.00261463,
        -0.0284801,
        -0.028422,
        0.00628051,
        -0.0360187,
        0.0100262,
        0.0115527,
        0.0681446,
        -0.0159825,
        -0.0411316,
        -0.0743761,
        -0.0604397,
        0.062844,
        0.00327289,
        -0.0054343,
        0.00347396,
        0.0341507,
        -0.0178687,
        -0.00842502,
        0.0414447,
        0.0879029,
        -0.00692142,
        -0.0673144,
        -0.0367748,
        -0.00673323,
        -0.0222066,
        -0.0129709,
        -0.0595541,
        0.0267119,
        -0.00392695,
        0.0198832,
        -0.0516945,
        0.0073515,
        -0.00859743,
        0.0214378,
        -0.00496009,
        -0.0331709,
        0.0531873,
        0.0184587,
        0.00476374,
        0.00693119,
        -0.117562,
        -0.0620506,
        -0.0921277,
        -0.0326741,
        -0.0299395,
        0.0258346,
        0.000623585,
        0.0426363,
        -0.0310575,
        0.0055822,
        -0.0172962,
        -0.081945,
        0.0179336,
        -0.0191031,
        0.0194115,
        -0.0410966,
        -0.0814606,
        -0.005261,
        -0.0494057,
        -0.00436795,
        0.0543701,
        0.0296529,
        0.0254931,
        0.0201981,
        -0.0260312,
        0.0130613,
        -0.0931685,
        -0.0138167,
        -0.0472417,
        -0.103053,
        -0.0524097,
        -0.123329,
        -0.00966031,
        -0.0803852,
        -0.13127,
        0.00695209,
        0.0925807,
        -0.0269856,
        -0.0765079,
        0.0307628,
        0.0975367,
        -0.0150366,
        0.00866493,
        0.0601125,
        -0.0246313,
        -0.0660533,
        0.0588491,
        -0.033697,
        0.0422415,
        -0.0576929,
        -0.0222428,
        0.016936,
        -0.0747369,
        0.0342065,
        0.0254639,
        -0.0868736,
        0.0176643,
        -0.0650267,
        -0.1799,
        -0.103777,
        -0.0749789,
        -0.0777006,
        0.0267265,
        0.0125236,
        -0.109979,
        -0.111265,
        -0.160226,
        -0.141253,
        -0.151389,
        -0.0263367,
        0.0929567,
        -0.0128823,
        0.142946,
        0.0992389,
        0.0689535,
        -0.0713053,
        -0.0112492,
        -0.103392,
        -0.0179244,
        0.0103326,
        -0.00562279,
        -0.0244584,
        0.0191805,
        0.0817506,
        -0.0194943,
        0.0489342,
        -0.0730723,
        -0.0331117,
        -0.085006,
        0.0257215,
        0.0594606,
        0.02457,
        -0.100605,
        -0.0251115,
        -0.161477,
        -0.213883,
        -0.216881,
        -0.22854,
        -0.140572,
        -0.112338,
        0.0290137,
        -0.0536025,
        -0.0177255,
        -0.0786296,
        0.0560312,
        0.0439097,
        -0.020318,
        0.0156727,
        0.000446166,
        0.00511078,
        0.100258,
        -0.0402703,
        -0.106732,
        -0.00647368,
        0.0914164,
        -0.0880911,
        -0.15062,
        -0.107695,
        -0.182604,
        -0.216816,
        -0.294246,
        -0.302399,
        -0.262919,
        -0.171247,
        0.00946383,
        -0.0698875,
        -0.00468587,
        0.0441027,
        -0.0180396,
        0.0760206,
        -0.0250953,
        0.0651031,
        0.0314244,
        0.0196593,
        0.0515223,
        0.00340035,
        0.0307637,
        -0.0646801,
        0.107544,
        0.0395177,
        0.0578792,
        -0.107574,
        -0.00469832,
        -0.0749067,
        -0.161024,
        -0.227588,
        -0.197479,
        -0.338657,
        -0.223989,
        -0.110811,
        0.173922,
        0.0207344,
        0.197203,
        0.0947311,
        0.0485551,
        0.0518511,
        0.120519,
        0.103003,
        -0.0325154,
        -0.0239223,
        -0.00127157,
        0.00718922,
        0.0236476,
        0.0583564,
        0.0579324,
        0.00387979,
        0.112397,
        -0.187942,
        -0.109382,
        -0.226312,
        -0.0614613,
        -0.0770518,
        -0.102106,
        -0.1947,
        -0.0810575,
        0.0109928,
        0.1518,
        0.125554,
        0.181889,
        -0.0286196,
        -0.0187529,
        0.0154745,
        0.0658209,
        0.0140946,
        0.102289,
        0.00986716,
        0.0599625,
        -0.0453443,
        -0.00788645,
        -0.0187429,
        -0.0228465,
        0.105792,
        0.00359909,
        -0.0140774,
        0.173665,
        0.0520506,
        0.0164807,
        -0.158062,
        -0.0987921,
        -0.0720312,
        -0.0362049,
        0.061058,
        0.0969339,
        0.207123,
        0.168954,
        0.151589,
        -0.0351411,
        -0.00698258,
        0.0519437,
        0.0487742,
        -0.0333512,
        0.0338771,
        -0.00667388,
        -0.060563,
        -0.0467886,
        -0.0121612,
        0.0379773,
        0.0492549,
        -0.0175389,
        0.0571669,
        -0.0200286,
        0.00808602,
        0.0410886,
        -0.084578,
        0.0597805,
        -0.00772359,
        0.00272672,
        0.0410227,
        0.12138,
        0.243877,
        0.215504,
        0.0692963,
        0.137934,
        -0.0916786,
        -0.0562924,
        -0.160737,
        -0.0118794,
        -0.0195341,
        -0.128844,
        -0.02789,
        -0.0205743,
        0.0864642,
        0.0934992,
        0.0315436,
        0.0100889,
        -0.0121609,
        0.0385416,
        0.0963081,
        0.0848972,
        0.000891885,
        0.0520601,
        0.0593376,
        0.0604247,
        0.171983,
        0.205505,
        0.135221,
        0.291837,
        0.0787972,
        -0.12129,
        -0.0577886,
        -0.202759,
        -0.055198,
        -0.0965377,
        0.0257497,
        0.0255531,
        -0.0119748,
        0.103048,
        0.0194056,
        0.14159,
        -0.116499,
        -0.0440896,
        -0.0723173,
        0.0401753,
        0.0203427,
        0.0587039,
        0.0239676,
        -0.0923632,
        -0.10733,
        0.122734,
        -0.023923,
        0.0219416,
        0.157578,
        0.00893499,
        0.160653,
        -0.0177342,
        -0.125777,
        -0.170194,
        -0.110743,
        0.00992835,
        -0.0844001,
        -0.119022,
        -0.0333419,
        0.0533683,
        -0.0514128,
        0.179622,
        0.268626,
        0.104599,
        0.107095,
        0.088854,
        0.0872404,
        -0.00713502,
        -0.0267474,
        -0.0129604,
        0.0205299,
        -0.0513202,
        -0.0111066,
        0.0835078,
        0.076111,
        0.02914,
        0.052809,
        -0.0647197,
        0.140782,
        0.101698,
        9.81088e-05,
        0.0232886,
        0.100256,
        0.0343718,
        0.00876794,
        0.000345671,
        -0.0750725,
        -0.00845524,
        0.0935106,
        0.0770111,
        0.0674804,
        0.169392,
        0.0310731,
        0.0688187,
        -0.0780046,
        -0.0232886,
        -0.0367436,
        -0.0154837,
        0.0497116,
        0.0088175,
        0.0290244,
        0.0939506,
        -0.0320554,
        0.0162026,
        -0.00679072,
        0.00305493,
        0.0600498,
        -0.0341534,
        0.127978,
        0.0531037,
        0.00729296,
        -0.0495554,
        0.130621,
        0.115288,
        0.0471101,
        0.159432,
        -0.0222487,
        0.0484597,
        0.0471704,
        0.160777,
        0.032766,
        0.0168389,
        -0.0563988,
        -0.0208632,
        -0.0266321,
        0.0381986,
        -0.00155841,
        0.142518,
        0.0694129,
        -0.0460664,
        0.0281923,
        0.00515559,
        0.0267176,
        -0.120264,
        0.141204,
        0.0107934,
        0.046351,
        0.0321529,
        -0.0634963,
        -0.00361244,
        -0.132023,
        0.0313112,
        -0.0032882,
        0.0627515,
        0.107175,
        0.0398123,
        0.051018,
        0.0923872,
        -0.0436824,
        0.0808939,
        0.0595695,
        0.0541824,
        -0.00460796,
        0.0022991,
        -0.0236614,
        0.038442,
        0.0187161,
        0.0233322,
        -0.0505962,
        0.0119324,
        0.158692,
        0.0922334,
        0.0237052,
        0.0613723,
        -0.0178834,
        0.139234,
        0.0117883,
        0.0212079,
        0.0497902,
        0.0275942,
        -0.0289933,
        0.0401673,
        -0.000262119,
        0.0267167,
        -0.112419,
        0.0104927,
        0.00200465,
        0.0279397,
        -0.0774962,
        -0.0862009,
        0.0329801,
        -0.00307833,
        0.00937794,
        -0.055177,
        -0.011099,
        -0.00770226,
        0.0228088,
        0.0309505,
        0.0461481,
        0.104239,
        0.0531974,
        0.00534912,
        -0.0318935,
        0.0198183,
        0.0148977,
        0.016387,
        0.142092,
        0.0417327,
        0.221245,
        0.0127682,
        -0.108231,
        0.0762648,
        0.0904422,
        0.0772563,
        -0.038262,
        0.0232091,
        0.0564997,
        -0.120089,
        0.0288643,
        0.0485134,
        0.105644,
        -0.023594,
        -0.0436748,
        0.0471875,
        -0.0720628,
        0.0680432,
        0.0207325,
        0.122847,
        0.0200887,
        0.110051,
        0.116121,
        0.153835,
        0.14713,
        0.0385488,
        0.0367394,
        0.117729,
        0.100937,
        0.134904,
        -0.0566415,
        -0.0340165,
        -0.0770991,
        0.0306429,
        -0.0658595,
        0.094882,
        -0.00722715,
        -0.0207966,
        -0.0214378,
        0.0326162,
        0.0772208,
        -0.00203057,
        0.0719651,
        0.0423435,
        -0.0206068,
        0.102205,
        -0.0448445,
        0.0579122,
        0.068018,
        0.285092,
        0.110382,
        0.0510554,
        0.142229,
        0.0844094,
        0.0171415,
        -0.00228227,
        -0.0329962,
        -0.0559549,
        -0.061806,
        -0.00979875,
        -0.143654,
        -0.0333613,
        -0.0265383,
        0.0986626,
        -0.0392921,
        -0.0726873,
        0.0239,
        -0.0209795,
        -0.023302,
        0.0649191,
        0.0072764,
        -0.105273,
        0.0947118,
        0.0570791,
        -0.105552,
        0.0906308,
        0.0177739,
        -0.0339494,
        -0.0272632,
        -0.0746629,
        0.0266461,
        0.0144774,
        -0.0247571,
        -0.080923,
        -0.0214317,
        -0.105754,
        -0.213747,
        -0.094349,
        -0.06032,
        -0.0547109,
        0.0927891,
        0.00323031,
        0.0289769,
        -0.016137,
        0.00913727,
        -0.0422819,
        -0.0421495,
        -0.0297841,
        -0.140445,
        0.0381297,
        -0.00996766,
        -0.105803,
        0.0159106,
        -0.00856386,
        0.00202503,
        -0.0437411,
        -0.163863,
        -0.134819,
        -0.000684905,
        0.00325374,
        -0.203245,
        -0.105151,
        -0.252807,
        -0.207177,
        -0.149218,
        -0.209955,
        -0.128142,
        0.00831924,
        0.0950167,
        0.0643394,
        0.00271703,
        -0.0626326,
        -0.0169101,
        -0.0687003,
        -0.00531349,
        -0.0982413,
        -0.0789088,
        -0.181057,
        -0.127028,
        -0.186986,
        -0.0794317,
        -0.182936,
        -0.146005,
        -0.103031,
        -0.102298,
        -0.0721282,
        -0.120323,
        -0.141574,
        -0.0909543,
        -0.110707,
        -0.0234783,
        -0.00143933,
        -0.188446,
        0.0272269,
        -0.15944,
        -0.0610924,
        -0.0546064,
        -0.0333163,
        -0.0152993,
        0.0317839,
        0.037184,
        0.0284772,
        0.00433651,
        -0.0421031,
        -0.0652798,
        -0.157154,
        -0.00907632,
        -0.0573881,
        -0.127662,
        0.0067931,
        0.00996299,
        -0.0393267,
        0.0109705,
        -0.0213154,
        -0.0704362,
        -0.064608,
        -0.110151,
        -0.139136,
        0.0235888,
        0.0360856,
        -0.0807471,
        0.0277111,
        -0.175594,
        -0.035457,
        -0.0510296,
        -0.0553626,
        -0.000153387,
        -0.022397,
        0.0156865,
        0.0461538,
        0.0052352,
        0.0271536,
        0.0813835,
        0.0152095,
        -0.0618159,
        -0.00220279,
        -0.0694491,
        0.0234559,
        -0.0717441,
        0.0472824,
        0.00470018,
        -0.0975746,
        0.0303639,
        0.0173456,
        0.0320241,
        0.0840076,
        -0.0746429,
        -0.0894529,
        0.0302317,
        0.0814239,
        -0.00936562,
        -0.000372633,
        -0.0374456,
        0.0264152,
        -0.0564138,
        -0.0215637,
        -0.0129914,
        -0.0463471,
        -0.0330811,
        0.0221395,
        0.101231,
        0.168552,
        -0.0395292,
        -0.0660254,
        -0.0317775,
        0.016828,
        -0.0793894,
        0.0995167,
        -0.0781102,
        -0.00681155,
        -0.0826928,
        -0.0378809,
        -0.0750401,
        -0.019797,
        0.0728739,
        -0.022275,
        -0.0118054,
        -0.00704632,
        0.0775204,
        0.0159231,
        0.0131955,
        -0.0157461,
        -0.010518,
        0.0582309,
        0.0408872,
        0.00162508,
        -0.0522749,
        0.00905986,
        0.0211193,
        0.0174543,
        0.035808,
        0.015589,
        -0.0435807,
        -0.0526029,
        -0.110338,
        -0.0796843,
        0.0503509,
        0.0175371,
        0.00980315,
        0.0730748,
        -0.0292684,
        -0.0848577,
        -0.0884612,
        0.026581,
        -0.047372,
        -0.0664583,
        0.0143828,
        -0.0587492,
        0.0102451,
        0.0409295,
        0.00970871,
        0.0693582,
        -0.0123985,
        -0.00907398,
        -0.0034233,
        -0.0533491,
        0.0276741,
        0.0656985,
        -0.0192096,
        -0.00187788,
        0.0463009,
        -0.0355724,
        -0.0147449,
        -0.032115,
        -0.0189741,
        -0.00747568,
        -0.0505867,
        0.0201441,
        -0.00755914,
        0.0506454,
        0.0322659,
        -0.0274243,
        0.0409948,
        0.0148797,
        0.00684854,
        -0.0150072,
        -0.0661174,
        0.0292368,
        -0.0198462,
        -0.0978851,
        0.0981759,
        -0.022059,
        -0.0401888,
        -0.00785143,
        0.0124276,
        -0.0473228,
        -0.01797,
        -0.022333,
        -0.0159591,
        -0.00971107,
        -0.0522983,
        -0.0383436,
        0.0319732,
        0.0580455,
        0.0624154,
        -0.00769885,
        0.0853414,
        0.0115902,
        -0.03122,
        0.0206492,
        -0.0323486,
        0.0388367,
        -0.020801,
        0.0362292,
        0.0179134,
        -0.0267644,
        -0.00952062,
        -0.01103,
        -0.0163003,
        -0.0182025,
        -0.0380893,
        0.006706,
        0.0189464,
        -0.0262705,
        -0.0375865,
        0.0413674,
        -0.0218228,
        0.0350954,
        0.0337812,
        -0.0291958,
        -0.0211776,
        0.0841061,
        -0.0174109,
        0.00308399,
        0.0194697,
        -0.0321859,
        0.0355467,
        0.0440824,
        0.0610947,
        -0.0139082,
        0.0695995,
        0.00773113,
        -0.0184552,
        0.0124145,
        0.0538574,
        -0.0824081,
        0.0247383,
        0.050016,
        -0.0191422,
        0.0088572,
        -0.0076512,
        0.0381426,
        -0.00859202,
        0.0153186,
        0.0802379,
        0.033114,
        -0.00180036,
        -0.0196564,
        0.106486,
        0.0318395,
        0.103877,
        0.0625322,
        0.0719702,
        0.0147406,
        0.0519095,
        0.0722197,
        0.0500496,
        0.0575508,
        -0.00378063,
        -0.0388109,
        0.0319313,
        -0.0243974,
        0.114837,
        0.0051038,
        0.00247034,
        -0.0482009,
        0.00405189,
        0.0431261,
        -0.042712,
        -0.0058268,
        -0.0312959,
        -0.0667056,
        -0.0361601,
        0.0299978,
        0.0837633,
        0.0586638,
        0.110621,
        0.139917,
        0.198114,
        0.14307,
        0.148962,
        -0.00224108,
        0.114515,
        0.159825,
        0.0850556,
        0.0852807,
        0.0691107,
        0.071258,
        0.0672956,
        0.0614845,
        0.0465665,
        0.0127506,
        0.0138347,
        0.0192373,
        -0.0287788,
        0.0102895,
        0.011631,
        -0.0236258,
        0.00965146,
        -0.089379,
        -0.000873222,
        -0.0205337,
        0.149446,
        0.00101548,
        0.0677511,
        0.0171498,
        0.0050738,
        0.129688,
        0.178997,
        0.130931,
        0.213507,
        0.000671119,
        0.155438,
        0.0364384,
        0.118478,
        0.00325945,
        0.0397961,
        0.0291462,
        0.0032498,
        0.053707,
        0.0369127,
        -0.0678696,
        0.0369177,
        -0.0382414,
        -0.0510279,
        -0.0032504,
        0.026905,
        -0.00052598,
        0.0160882,
        -0.0423587,
        -0.015752,
        0.0957307,
        -0.0135471,
        -0.0358163,
        0.077713,
        0.0400397,
        0.126646,
        0.104261,
        0.138834,
        0.00959557,
        0.0811311,
        0.0123734,
        0.102821,
        0.0512593,
        -0.0136473,
        0.0837458,
        -0.0219032,
        0.0433369,
        0.0155312,
        -0.0141708,
        -0.0143251,
        0.0341326,
        -0.0511864,
        -0.00616221,
        -0.00205411,
        -0.0114233,
        -0.0332285,
        -0.0312787,
        -0.145857,
        -0.080917,
        0.0166054,
        -0.113318,
        -0.108994,
        -0.111271,
        -0.03999,
        0.0218064,
        -0.064733,
        0.0301254,
        0.00531394,
        -0.030285,
        -0.00734298,
        0.0556113,
        0.0806993,
        0.0398584,
        0.0750189,
        0.0136842,
        0.0451932,
        -0.0574141,
        -0.0568871,
        -0.0116103,
        -0.0811319,
        -0.0256023,
        0.00461553,
        -0.154794,
        -0.0727565,
        -0.0141484,
        -0.0966932,
        -0.0327154,
        0.0269348,
        0.00747815,
        -0.206172,
        -0.14001,
        -0.000718379,
        -0.0673268,
        -0.0654666,
        0.161799,
        -0.0105994,
        -0.0540402,
        0.0638309,
        0.095479,
        0.062293,
        0.027924,
        -0.0140116,
        -0.0180777,
        0.052822,
        0.0248902,
        -0.0553176,
        0.00875586,
        -0.0601882,
        -0.049469,
        0.0385465,
        -0.00971157,
        0.0266667,
        -0.056947,
        0.0416435,
        -0.0958431,
        0.0259783,
        -0.0171012,
        -0.0828591,
        -0.0184939,
        -0.0172647,
        -0.0239938,
        -0.041292,
        -0.00252538,
        0.0196368,
        -0.0141128,
        0.0996967,
        0.111896,
        -0.0454285,
        0.0824647,
        -0.00898556,
        0.0116715,
        -0.0117136,
        0.0334928,
        0.0728304,
        -0.00768826,
        -0.0280008,
        0.0242885,
        -0.088813,
        -0.0940288,
        -0.0568273,
        -0.039098,
        0.00627761,
        -0.0381679,
        0.0661255,
        -0.0902588,
        -0.0513685,
        -0.0252038,
        -0.0734129,
        -0.155059,
        -0.14688,
        -0.0820133,
        0.00111551,
        -0.0280294,
        0.163557,
        -0.0984191,
        -0.0231367,
        0.148781,
        0.124234,
        0.0309197,
        -0.0648596,
        0.0301432,
        -0.0226512,
        0.0027349,
        -0.170645,
        0.129688,
        -0.0181456,
        0.00327025,
        0.0202652,
        0.0273714,
        0.151207,
        0.0163345,
        0.0828747,
        -0.0495399,
        -0.0708148,
        0.0766758,
        -0.0589939,
        -0.149434,
        -0.187711,
        -0.0835682,
        -0.0024142,
        0.0167488,
        0.00470325,
        0.0946994,
        0.190591,
        0.106664,
        -0.000265125,
        -0.0517146,
        -0.0470519,
        -0.000775143,
        -0.013481,
        -0.0529271,
        -0.0303335,
        -0.0238075,
        0.00678847,
        -0.0420531,
        0.0640102,
        -0.00694168,
        0.0423118,
        -0.0749969,
        0.0704473,
        -0.020359,
        0.101423,
        0.0935732,
        -0.0950618,
        -0.0584961,
        -0.153361,
        -0.19452,
        -0.0572687,
        -0.00239903,
        0.0515726,
        -0.0453155,
        0.0807939,
        0.121664,
        -0.0113935,
        0.00112395,
        -0.0682386,
        0.0408735,
        0.00462939,
        -0.0553952,
        0.00441647,
        0.00302579,
        -0.0668944,
        0.013314,
        0.0984054,
        0.0488139,
        0.112918,
        -0.0227603,
        0.156107,
        0.0546177,
        0.0966549,
        0.0505112,
        -0.0654046,
        -0.091275,
        -0.0508689,
        -0.119338,
        -0.0923734,
        0.020915,
        -0.0137365,
        0.0875366,
        0.102431,
        0.0760789,
        -0.0538865,
        0.0487227,
        -0.0648749,
        0.0381132,
        0.00198054,
        -0.0190477,
        0.073234,
        -0.0251547,
        -0.0773727,
        -0.041548,
        -0.0708658,
        -0.0612356,
        0.0274974,
        -0.0604494,
        0.00265038,
        0.0451739,
        -0.0662182,
        -0.000831439,
        0.00585822,
        -0.0284837,
        -0.240624,
        -0.158027,
        0.0658648,
        0.0154079,
        0.00569029,
        0.0439331,
        0.231506,
        0.00535888,
        0.0457102,
        0.0470929,
        0.00633908,
        -0.00130149,
        -0.0291618,
        -0.0958566,
        -0.0801285,
        -0.0903897,
        0.030897,
        0.0054516,
        -0.033829,
        0.00150284,
        0.0763882,
        0.0268427,
        0.0565348,
        -0.014921,
        -0.00903857,
        -0.105696,
        -0.0750761,
        -0.1291,
        -0.168596,
        -0.200953,
        -0.158606,
        -0.0498983,
        0.0803497,
        0.000197559,
        -0.0503467,
        0.0655059,
        -0.00459126,
        -0.0408142,
        0.0178565,
        -0.0306137,
        -0.00397456,
        0.0212909,
        -0.0369702,
        -0.0885111,
        -0.0622746,
        -0.0593945,
        0.0532174,
        -0.0299343,
        -0.0719724,
        -0.0545581,
        -0.0272219,
        -0.0164427,
        0.103048,
        0.054303,
        -0.188247,
        -0.223337,
        -0.0667857,
        -0.0752971,
        -0.105408,
        -0.0407605,
        -0.0524502,
        -0.0266844,
        -0.0617232,
        0.0151925,
        0.0938926,
        -0.0947291,
        0.0850631,
        -0.0615493,
        -0.0253178,
        0.0418955,
        -0.0391039,
        -0.021895,
        0.039236,
        0.0110064,
        -0.168718,
        -0.0794813,
        -0.0171403,
        0.0211319,
        0.0854136,
        0.137872,
        0.0547084,
        -0.14986,
        -0.247129,
        -0.134054,
        -0.0933763,
        -0.125245,
        -0.0766769,
        -0.187808,
        -0.114591,
        -0.0538995,
        -0.0771059,
        -0.010648,
        0.0151423,
        -0.0928124,
        -0.0045572,
        0.0311975,
        -0.0019007,
        -0.0206186,
        0.0177167,
        -0.0211866,
        0.0381958,
        0.029734,
        -0.0673978,
        0.0227391,
        0.0133253,
        0.0857064,
        0.033261,
        0.0958534,
        -0.0912616,
        -0.166425,
        -0.221191,
        -0.110746,
        -0.116658,
        -0.0574575,
        0.0639161,
        0.0730696,
        -0.0591283,
        -0.00685026,
        0.0987044,
        0.0580947,
        0.0387786,
        -0.0213253,
        0.0652978,
        -0.00694282,
        0.0366513,
        -0.0332787,
        -0.031186,
        -0.011644,
        0.0888629,
        0.0405268,
        -0.0408082,
        -0.0325682,
        0.00379416,
        0.0920652,
        0.0105235,
        0.0899159,
        -0.095855,
        -0.0979731,
        -0.17369,
        -0.0957057,
        -0.098404,
        0.0832993,
        -0.0555544,
        -0.00988337,
        -0.131682,
        -0.0662007,
        -0.03486,
        0.0205901,
        -0.0796665,
        -0.0261594,
        0.0328968,
        -0.0540747,
        0.032844,
        0.0240837,
        -0.0206122,
        -0.0445952,
        0.026144,
        0.309655,
        0.194221,
        0.125418,
        0.156677,
        0.12625,
        0.119954,
        0.106739,
        -0.0256851,
        0.0198907,
        0.0698605,
        0.0633931,
        0.0350062,
        0.0773795,
        0.0395615,
        -0.0491596,
        0.0544269,
        -0.0559863,
        0.11515,
        0.0533093,
        0.0186797,
        -0.0333402,
        0.0327998,
        -0.0422417,
        0.0120418,
        -0.0181565,
        -0.0820668,
        0.00140997,
        0.0398187,
        0.108453,
        0.200884,
        0.116513,
        0.207289,
        0.158004,
        0.176865,
        0.138083,
        0.0699274,
        0.124859,
        0.116377,
        0.0221098,
        0.0956818,
        0.0839579,
        -0.0327486,
        -0.0419529,
        -0.0356792,
        0.0284332,
        0.0593452,
        0.0153076,
        0.0238842,
        -0.0164512,
        -0.00344237,
        0.0576034,
        -0.00968013,
        -0.0610515,
        0.00316006,
        0.038773,
        0.00723269,
        0.169591,
        0.107074,
        0.158424,
        0.20111,
        -0.0132599,
        0.137443,
        0.0603951,
        0.135264,
        0.142018,
        0.112183,
        0.0654829,
        0.0472616,
        -0.00793551,
        -0.00666461,
        0.0444624,
        0.105295,
        -0.0471362,
        -0.0890863,
        -0.0579758,
        0.0708553,
        -0.0353477,
        -0.00810935,
        -0.0150936,
        -0.00294799,
        -0.0484178,
        -0.0364473,
        0.0998546,
        0.0921979,
        0.041665,
        0.0555034,
        0.00953857,
        0.140539,
        0.0557125,
        0.0353337,
        0.0750475,
        0.132842,
        0.0361533,
        0.127484,
        0.0559642,
        0.0195654,
        0.080588,
        -0.0113048,
        -0.102068,
        -0.0852805,
        -0.0712552,
        -0.07345,
        -0.0815828,
        0.0331344,
        -0.0297966,
        -0.00206627,
        0.0154212,
        0.00290374,
        0.00377945,
        -0.00949995,
        0.000959302,
        0.0736703,
        -0.0802092,
        -0.0844898,
        -0.0510561,
        0.14865,
        0.0398336,
        0.137029,
        0.101557,
        0.0177132,
        0.0912023,
        0.188465,
        0.0702536,
        0.0531761,
        -0.0106285,
        -0.013822,
        0.0389917,
        -0.0931065,
        -0.0151527,
        -0.00123151,
        -0.15202,
        -0.0339875,
        0.000515538,
        0.0241512,
        0.00958002,
        -0.0360575,
        0.0618611,
        -0.0170731,
        -0.0730538,
        -0.00233211,
        -0.0311403,
        -0.0672543,
        -0.0517295,
        0.0179133,
        0.0141637,
        0.0883501,
        0.234776,
        0.0532711,
        0.0821378,
        -0.016446,
        0.0855512,
        -0.0189366,
        -0.014592,
        0.0191211,
        -0.0509039,
        -0.0589051,
        -0.0261421,
        0.0412683,
        -0.0819464,
        -0.0305683,
        0.0311724,
        -0.0120983,
        0.00170069,
        0.000583945,
        -0.048054,
        -0.0535373,
        -0.0637382,
        -0.118179,
        -0.055773,
        -0.0652797,
        -0.13249,
        -0.0222385,
        0.00533682,
        0.0395898,
        0.11896,
        0.0198284,
        -0.058418,
        -0.0333185,
        -0.0929952,
        -0.0211999,
        -0.00727787,
        0.020671,
        -0.072136,
        0.0265407,
        0.0102113,
        0.0578476,
        -0.0304375,
        -0.00412691,
        0.00800381,
        -0.00556617,
        0.00166522,
        -0.000638001,
        -0.0259457,
        -0.0258149,
        0.00783196,
        -0.0975946,
        -0.0858538,
        0.000761453,
        0.0558902,
        0.067348,
        -0.0324353,
        -0.0143563,
        -0.0412349,
        0.00466948,
        -0.0609783,
        -0.049751,
        -0.0424214,
        -0.0434483,
        -0.0230618,
        -0.0229358,
        -0.0330868,
        -0.00298336,
        -0.0564026,
        -0.0116381,
        -0.0074508,
        0.023812,
        0.0278262,
        -0.0540766,
        -0.0703632,
        -0.024808,
        -0.00500803,
        -0.0820393,
        -0.012148,
        0.0128858,
        -0.00769457,
        -0.0446798,
        0.0103859,
        -0.0454747,
        -0.0286261,
        0.0234994,
        -0.0139644,
        0.0289804,
        0.0473442,
        -0.0631929,
        -0.0762087,
        -0.0532844,
        0.03199,
        -0.0215985,
        0.0535173,
        0.0364819,
        -0.0719715,
        0.0124174,
        0.0471016,
        -0.0400469,
        0.0249892,
        -0.0161906,
        -0.092783,
        0.00950858,
        -0.00767078,
        0.00229448,
        0.0372527,
        0.00531389,
        -0.00899108,
        0.0188732,
        0.0486911,
        -0.000647091,
        0.00301067,
        0.00227555,
        0.0378309,
        0.0494516,
        -0.0616059,
        0.0616734,
        -0.0613419,
        0.00168457,
        -0.0295406,
        -0.042624,
        0.00416811,
        0.00911474,
        -0.0215822,
        -0.0100459,
        -0.00020472,
        0.00155601,
        0.0198367,
        -0.0158251,
        -0.00291147,
        0.0349845,
        -0.0192724,
        -0.0253146,
        0.0144403,
        0.0352218,
        -0.0426491,
        -0.00596774,
        0.0192355,
        -0.0311908,
        -0.0404225,
        0.0270551,
        -0.0153555,
        -0.0362287,
        -0.0314551,
        0.0125351,
        0.0309517,
        -0.0609406,
        -0.0140662,
        0.0219435,
        -0.0565073,
        -0.0145551,
        -0.0185547,
        0.00463221,
        0.016776,
        -0.00445893,
        0.0249281,
        0.00650098,
        -0.00505263,
        0.0202656,
        0.00555814,
        -0.0797318,
        -0.0334143,
        0.011932,
        -0.000644698,
        -0.0256372,
        -0.0628389,
        0.0156005,
        -0.0700887,
        -0.0635906,
        -0.0432738,
        -0.0427971,
        -0.0332729,
        -0.078549,
        -0.0593666,
        -0.0515371,
        -0.0572473,
        -0.127121,
        -0.0997329,
        -0.0614797,
        -0.0945009,
        0.0221692,
        0.0116325,
        -0.0518546,
        0.00250586,
        -0.0520549,
        -0.0608866,
        0.0462868,
        -0.0290902,
        0.00119973,
        -0.0219435,
        -0.0249654,
        0.00477938,
        -0.0182692,
        -0.0571083,
        -0.0211496,
        -0.032094,
        -0.0235698,
        -0.029794,
        0.00908527,
        -0.0668326,
        -0.0149307,
        -0.0115476,
        -0.0694015,
        -0.0693479,
        -0.0221367,
        -0.155461,
        -0.0538107,
        -0.0646804,
        -0.0949626,
        -0.133449,
        0.0488607,
        0.00658746,
        -0.0562141,
        0.0369004,
        -0.0353121,
        -0.0545984,
        0.105466,
        0.0443522,
        0.0247854,
        0.0252063,
        -0.00377249,
        -0.0294445,
        -0.0375599,
        0.0145845,
        -0.0375905,
        0.000560932,
        0.00887645,
        -0.000870692,
        0.00557857,
        0.0263005,
        0.037662,
        -0.0413057,
        0.0862859,
        -0.0782199,
        -0.0837272,
        -0.152942,
        -0.0733891,
        -0.126972,
        -0.0392469,
        -0.0112581,
        0.00459261,
        0.027191,
        0.028085,
        -0.0863988,
        -0.0882137,
        0.0751126,
        -0.00883659,
        -0.0343259,
        0.000265606,
        -0.0291011,
        -0.0364678,
        -0.0488878,
        -0.0419405,
        -0.0231366,
        0.00161025,
        0.0253022,
        0.0597888,
        0.141824,
        0.0534364,
        -0.0409709,
        -0.0618514,
        -0.056666,
        0.015764,
        -0.0426478,
        -0.0312873,
        -0.0361869,
        -0.0703178,
        -0.103991,
        0.0313432,
        0.0111082,
        -0.0369122,
        0.0114294,
        -0.0325872,
        0.0436572,
        -0.0283868,
        -0.0340818,
        -0.0282233,
        -0.0666697,
        -0.163711,
        -0.180847,
        -0.0603728,
        -0.0764365,
        -0.0878235,
        -0.0128115,
        0.0332795,
        -0.0145073,
        0.0595694,
        0.105079,
        0.0748755,
        -0.140537,
        0.0447839,
        0.0316115,
        -0.0294944,
        -0.0613117,
        -0.0888406,
        -0.0335188,
        -0.033637,
        -0.0527548,
        -0.0260859,
        -0.00463596,
        -0.0232954,
        -0.0179452,
        -0.0100815,
        -0.0989551,
        -0.0779759,
        -0.113345,
        -0.143887,
        -0.108336,
        -0.114622,
        -0.0496413,
        -0.0842064,
        -0.0382595,
        0.0552271,
        0.112692,
        0.135433,
        -0.0487052,
        0.0164805,
        0.0135471,
        -0.0282031,
        -0.0955711,
        -0.060454,
        -0.0312884,
        -0.0676659,
        -0.0424107,
        -0.00624134,
        -0.00547347,
        -0.0408378,
        -0.00315042,
        -0.00400122,
        -0.0491264,
        -0.0591269,
        -0.125636,
        -0.0495214,
        -0.0946946,
        -0.0992052,
        -0.0413051,
        -0.0593253,
        -0.0212285,
        -0.0361183,
        -0.0764315,
        0.00310499,
        0.0155966,
        0.019257,
        0.0295046,
        0.0287819,
        -0.00442574,
        -0.116745,
        -0.0443942,
        -0.0152906,
        -0.070293,
        -0.0748433,
        -0.0331566,
        0.0225344,
        -0.00885539,
        -0.0334752,
        -0.0175811,
        -0.0254951,
        -0.0422897,
        0.0114607,
        -0.142274,
        -0.140988,
        -0.080827,
        -0.0347614,
        4.93461e-06,
        0.00862192,
        -0.0436066,
        0.0121807,
        0.0187541,
        -0.063434,
        0.0656713,
        -0.0173747,
        -0.083233,
        -0.00886994,
        -0.00631083,
        -0.0654758,
        -0.0250169,
        -0.0347315,
        -0.0519746,
        -0.0971551,
        -0.0436326,
        0.0227968,
        -0.0587362,
        0.050726,
        -0.00376073,
        -0.0162146,
        -0.0235398,
        0.0059808,
        -0.0322063,
        -0.126213,
        -0.0848518,
        0.0431348,
        -0.062884,
        0.0773212,
        0.0239255,
        0.00135094,
        0.0687655,
        0.172194,
        0.0526434,
        -0.0104715,
        -0.0133293,
        -0.127554,
        0.0736596,
        0.0205951,
        0.0369114,
        -0.0147267,
        0.0111123,
        -0.0777843,
        -0.0510113,
        -0.0114762,
        -0.0224428,
        0.0250406,
        0.0407304,
        -0.0605287,
        -0.0376096,
        -0.036053,
        -0.130499,
        -0.108345,
        -0.076267,
        0.0106011,
        -0.0289564,
        -0.0560517,
        0.0113125,
        -0.132005,
        0.0160782,
        0.189029,
        0.174795,
        -0.0600447,
        -0.0942217,
        -0.114184,
        0.0015706,
        0.0234041,
        0.00557882,
        0.0331818,
        -0.0269531,
        -0.0388902,
        -0.0762529,
        -0.0540474,
        0.0959575,
        0.0832078,
        -0.0130944,
        -0.0450466,
        -0.0443734,
        0.0271651,
        -0.0773998,
        0.00432323,
        -0.0141824,
        -0.0187544,
        0.0247263,
        0.0058917,
        -0.109503,
        0.0462732,
        0.125125,
        0.146727,
        0.0523385,
        -0.106746,
        -0.173955,
        -0.0464633,
        0.013514,
        0.0709638,
        0.0248571,
        -0.0601806,
        -0.0192308,
        -0.00907856,
        -0.0267056,
        0.0149464,
        0.0228508,
        0.0152617,
        0.0690657,
        -0.0160135,
        -0.0134742,
        0.00561092,
        -0.0262669,
        -0.0106702,
        -0.0444426,
        -0.0172814,
        -0.016835,
        -0.147417,
        -0.0571945,
        -0.0413602,
        0.0176771,
        0.0354152,
        0.0940698,
        -0.0580781,
        -0.0296089,
        -0.0422254,
        0.00613818,
        -0.0948259,
        0.0149811,
        -0.152395,
        -0.10137,
        -0.0137089,
        0.0167104,
        -0.0470103,
        -0.0271506,
        0.0632151,
        0.00348862,
        0.0108133,
        -0.0110926,
        -0.00423659,
        -0.0175315,
        -0.00620151,
        -0.0267669,
        0.00676802,
        0.0212522,
        -0.170363,
        -0.132725,
        -0.051726,
        0.0488127,
        0.0816338,
        0.00034443,
        -0.0391938,
        -0.0656627,
        -0.0426423,
        -0.02084,
        -0.0919702,
        -0.0309802,
        -0.108432,
        -0.0784254,
        -0.0545334,
        -0.0348498,
        -0.0166757,
        -0.0391811,
        -0.00482543,
        -0.0634356,
        -0.0218029,
        0.0347146,
        0.0594761,
